[[  9659.14747679]
 [ 40519.10224518]
 [-27285.68928937]
 [ 49066.4420063 ]
 [-25268.57961529]
 [-32905.87823064]
 [-36720.05057813]
 [-33909.14467098]
 [-32250.64550448]
 [ 70207.3678099 ]
 [-23222.65304217]
 [  -923.34921779]
 [  2166.00522352]
 [-27615.97209484]
 [  4480.20838597]
 [  2884.20222615]
 [ 56377.9311116 ]
 [  9164.30899358]
 [ 12814.40184527]
 [ 42775.75945651]
 [-16138.75179008]
 [ -9536.57281926]
 [  7661.324031  ]
 [-16619.74311194]
 [-37959.10053567]
 [  -397.29281168]
 [-30453.2838683 ]
 [ -7907.87208084]
 [-37556.86938683]
 [ 90181.75525884]
 [ 36490.90736859]
 [ 12668.563908  ]
 [ 22715.53266051]
 [ 35683.30827035]
 [ 18425.0227002 ]
 [-17417.52454947]
 [ -3174.48650142]
 [ 30296.82169288]
 [-16631.39334431]
 [-36103.65741407]
 [  7773.07753398]
 [-23369.55799649]
 [-35028.75932359]
 [ 32692.05805387]
 [-38292.39950206]
 [-38404.87197731]
 [ -5002.45219832]
 [ 46371.21970774]
 [-39414.27312606]
 [-36271.3530204 ]
 [-32012.59347461]
 [  8915.13342214]
 [  4108.40657304]
 [ 11964.14933992]
 [-17885.52645   ]
 [  2449.32755675]
 [ 25977.61652269]
 [ -1919.64880129]
 [-40291.83350467]
 [  2821.9583334 ]
 [ 66828.68354471]
 [ 13752.036573  ]
 [ 40896.1798194 ]]
