[[ 53312.45736779]
 [-19492.30571692]
 [ 12615.15463033]
 [-28584.34509131]
 [-15957.08305375]
 [-16578.12305852]
 [-31099.0023255 ]
 [ 70345.81359186]
 [-24479.16267603]
 [ -9805.12211868]
 [-10002.77410808]
 [-30011.06426685]
 [ 93635.71633443]
 [ 37053.93491481]
 [-10821.95408257]
 [-41636.20660964]
 [-33404.41970466]
 [-10090.28304804]
 [ 29818.4927237 ]
 [-22610.92103924]
 [-25579.68065962]
 [-48564.12177794]
 [ 15542.42965635]
 [ 61489.26713776]
 [ 11834.58307973]
 [-30560.99101628]
 [-37322.04203766]
 [-22968.20259489]
 [-44238.21607218]
 [-38385.11687301]
 [-11713.82813034]
 [  9426.86682388]
 [ -8359.95183649]
 [   665.84092387]
 [ 43815.16706249]
 [155985.30768168]
 [-37512.49989924]
 [-43446.8017236 ]
 [115614.81510499]
 [ 17277.0569501 ]
 [ 54403.34954065]
 [ 63297.38659943]
 [-33734.93271717]
 [-51990.74393477]
 [-47029.58222467]
 [ -5293.78440668]
 [-43946.46273571]
 [-32100.25409577]
 [ 88031.62341871]
 [-24145.85366637]
 [ 21640.48391171]
 [ -3077.00240354]
 [  1928.48996025]
 [ 28101.45770798]
 [-36434.20902226]
 [-11899.7292637 ]
 [ 15299.99615817]
 [-44034.40514758]
 [-45802.92852041]
 [-12104.9998489 ]
 [ 24092.57229942]
 [-48988.52631052]
 [ 23121.09177352]
 [ -5098.15811973]
 [ 66852.10590973]
 [  4389.94800386]
 [  4418.39821173]
 [  -718.7284878 ]
 [-24829.75540098]
 [ 89420.96937734]
 [ 24748.78120229]
 [-16299.42989341]
 [-47156.24610213]
 [-45655.29275512]
 [ 13385.29984365]
 [-51817.87200649]
 [ -6542.3725038 ]
 [ 38429.78089592]
 [ 24055.06575093]
 [ -7117.42961868]
 [-13308.92952691]
 [-51723.25613634]
 [-16985.09511452]
 [ 17211.40841894]
 [ 66747.84128338]
 [ 31066.0554746 ]
 [ 18242.4960397 ]
 [-40448.32048768]
 [-31534.30098535]
 [ 15632.80885328]
 [ 11314.36508931]
 [ -4659.06668458]
 [-28758.81219498]
 [ 31424.58414648]
 [ -2732.81871105]
 [-32879.99067911]
 [ 35240.53248543]
 [-16668.60337266]
 [ 30332.20522806]
 [-32519.88896783]
 [ 54861.09613514]]
