[[-37060.37208674]
 [-28887.38418135]
 [ 21095.30380968]
 [-42614.09488639]
 [-39991.54963829]
 [ -1673.9673823 ]
 [ 69503.52493547]
 [ -5789.45641887]
 [ 17789.44902974]
 [110525.52745011]
 [ 23440.91101063]
 [-42987.9264985 ]
 [ 47075.7791613 ]
 [ 12317.04938178]
 [-47243.51013976]
 [-48496.93307182]
 [ -8414.44997066]
 [ 33970.44556819]
 [ 71022.94877489]
 [-25212.21522465]
 [-14007.67837659]
 [-10702.30803136]
 [ -9547.11226633]
 [-42972.43273393]
 [-23135.75731559]
 [ -1901.11951433]
 [-37110.01819673]
 [-21985.72972296]
 [ 37811.12172617]
 [139894.69317121]
 [ 56675.98753309]
 [-33878.13806969]
 [-45048.59977602]
 [-43978.18727162]
 [-30624.73321775]
 [-36352.2649217 ]
 [-46375.12079062]
 [ 34560.24798928]
 [ 94029.89547   ]
 [ 16302.54613179]
 [ 24987.19798811]
 [-43374.4019342 ]
 [-24267.06378222]
 [-30039.4944268 ]
 [ 20480.88681061]
 [-25740.12912976]
 [ 15487.88712963]
 [-32261.38613216]
 [ 24683.97672443]
 [ 75060.80700028]
 [ 22723.15519023]
 [-17587.73373406]
 [-49310.96158827]
 [-47320.99474979]
 [ 37249.44038585]
 [  8796.94322701]
 [ -2601.83538   ]
 [-16990.66503765]
 [ 49812.68058346]]
