[[-10698.44479762]
 [-20216.6649482 ]
 [ 11195.29579646]
 [-14347.11773916]
 [  8468.32273186]
 [ -9936.77171994]
 [-15641.73885679]
 [ 41354.24713332]
 [   669.70456769]
 [-29774.82876679]
 [-18736.24032828]
 [ 28978.01322171]
 [ 28703.95241717]
 [ -2116.72661107]
 [ 18253.60408029]
 [ 36466.80783136]
 [-26850.81285292]
 [  -283.83328823]
 [  5537.3864962 ]
 [-18086.78498292]
 [-38926.08293184]
 [  5165.94715464]
 [-14927.15646478]
 [ 13735.8102701 ]
 [-33415.93394012]
 [ 38996.14768793]
 [ -3405.85535144]
 [  4450.66929944]
 [  4843.63051745]
 [-31449.88921277]
 [ -3256.02426828]
 [ 11093.08653546]
 [ -3387.16438282]
 [-40392.79205811]
 [  1694.83057085]
 [ 22243.15613605]
 [ 57647.65270221]
 [-16902.39580852]
 [-16031.21385579]
 [-35454.21480466]
 [  4615.5761205 ]
 [ 11789.12094111]
 [-37760.30657201]
 [ 34836.99880989]
 [-25004.24914321]
 [-39168.28941407]
 [ 73994.78120791]
 [-31212.10076617]
 [ 19688.30347737]
 [-37521.05246572]
 [ 62268.40956584]
 [ 14107.69327524]
 [  8035.89091082]
 [ 12078.68151338]
 [ -9947.03146496]
 [-32634.5351739 ]
 [ 30501.82321069]
 [ -3511.20111251]
 [ 23073.15729711]
 [ -4576.03258169]
 [ -8915.21481477]
 [ 40830.96086   ]]
