[[-19778.74688953]
 [-34271.71850319]
 [ -6205.45319997]
 [ 61752.22949504]
 [ 83282.66169598]
 [-33300.0023743 ]
 [-31813.58881792]
 [ 12679.44748774]
 [ 86231.42435719]
 [-20987.59885849]
 [-33244.17336637]
 [-16451.68491792]
 [ 12664.98216874]
 [-24551.5614091 ]
 [ -8296.8132427 ]
 [-31382.79704438]
 [-27541.17678836]
 [-34135.42836802]
 [  6287.16290954]
 [ -7637.93576616]
 [ -4291.90389256]
 [-30320.78989162]
 [-16855.34176547]
 [ 15492.33814829]
 [ -5377.41998487]
 [-33222.94847828]
 [ 57713.66417905]
 [ 12923.74731353]
 [ -5759.04784075]
 [ 14034.70385112]
 [-21259.0170377 ]
 [-32556.68679331]
 [-16347.31565199]
 [ 61330.58470629]
 [-32544.90904467]
 [-28745.09003338]
 [-11669.27798103]
 [ 17001.46906814]
 [ -2409.71018321]
 [ 12510.9015142 ]
 [-26496.47453282]
 [-22484.01607194]
 [-23450.07140117]
 [-13549.1712809 ]
 [-25279.81644537]
 [ 68983.6406014 ]
 [-18709.42237326]
 [ 32178.64369495]
 [ 58797.83295786]
 [  7355.93691922]
 [-11411.6812867 ]
 [-15793.58567397]
 [-29053.38946181]
 [-31621.96658007]
 [ 25615.06034871]
 [ 42525.8146979 ]
 [ 23698.08650894]
 [-31217.9605205 ]
 [-15720.9437691 ]
 [ 68598.74990736]
 [ 17475.68974268]
 [  9929.80876532]
 [-33023.10132331]
 [-13947.40470158]
 [ 73652.56250859]
 [ 35107.71704999]]
