[[ 10046.29462888]
 [  4293.77395798]
 [   616.14668943]
 [-27254.5434115 ]
 [  3095.80314612]
 [ 18544.00145152]
 [-29582.48393433]
 [-29091.86382475]
 [ 28353.19443665]
 [ 87279.75708791]
 [-19262.18281048]
 [-28218.63590815]
 [-13074.11386754]
 [-29764.81677766]
 [  5859.89037366]
 [-22936.39401278]
 [ 18719.75494713]
 [-22183.06696145]
 [ 84441.43725798]
 [ -5587.67278729]
 [-30390.44509639]
 [  3840.35131776]
 [-26945.69091906]
 [-19966.69402643]
 [ 34160.88694873]
 [-31995.81704486]
 [ 16055.32233895]
 [-32767.99604711]
 [ 10230.48301178]
 [ 73644.72676688]
 [ 49772.74974438]
 [ 66608.25924083]
 [-19590.85981996]
 [-25789.26093482]
 [ -2959.23126908]
 [ 27974.68554378]
 [  5428.25415671]
 [   570.30299367]
 [ 12213.79083563]
 [-29950.14498125]
 [ -6858.56897889]
 [ 10458.59820562]
 [ 20755.91513899]
 [  -889.12918875]
 [ 13740.1857507 ]
 [-21861.33526974]
 [-31313.17602211]
 [-20383.4429306 ]
 [ -3316.55015067]
 [-32452.79547286]
 [  3881.89101239]
 [ 76370.9196761 ]
 [-14570.37550863]
 [-19591.73723102]
 [ -7895.40774562]
 [-29286.91187975]
 [-19745.21569249]
 [ -9379.95937251]
 [-26434.26509434]
 [ -9359.46497765]
 [ 33306.0731255 ]
 [-20028.64116943]
 [ -3938.97239428]
 [  4354.41372863]
 [ 33423.78524136]]
