[[-3.73227946e+04]
 [-2.30335638e+03]
 [-3.19583036e+04]
 [-3.22413966e+04]
 [ 2.89158274e+04]
 [-2.76594393e+04]
 [-3.78233381e+04]
 [-2.10448705e+04]
 [-3.03504495e+04]
 [ 3.18459210e+03]
 [ 1.68184003e+04]
 [-6.29064165e+03]
 [ 2.14186433e+04]
 [ 8.84024097e+03]
 [-3.26562166e+04]
 [ 1.37972791e+04]
 [-1.16877631e+04]
 [-3.69354467e+04]
 [-9.29538863e+03]
 [-1.18155179e+04]
 [-2.30571521e+03]
 [ 8.26584515e+01]
 [ 1.73798218e+04]
 [-1.47201307e+04]
 [-3.70812347e+04]
 [ 3.72853450e+04]
 [-3.45439665e+04]
 [ 2.61055631e+04]
 [ 5.27165846e+04]
 [ 3.43122261e+04]
 [-1.26972837e+04]
 [-2.26475254e+04]
 [-3.67043188e+04]
 [ 2.64609291e+04]
 [-2.05626167e+04]
 [-3.44917837e+03]
 [ 6.05371512e+03]
 [-2.95356962e+03]
 [ 1.37601810e+04]
 [ 2.36991699e+04]
 [-7.37614615e+03]
 [-1.90207026e+04]
 [-4.62571555e+03]
 [-3.15560891e+04]
 [ 1.33122798e+04]
 [-3.35373542e+04]
 [ 7.62361047e+04]
 [ 1.04508867e+04]
 [ 3.24933047e+04]
 [ 2.97002838e+03]
 [ 2.74425251e+04]
 [-3.14086061e+04]
 [-3.40273700e+03]
 [-1.33102232e+04]
 [ 3.02395345e+04]
 [ 3.75841242e+04]
 [-6.11341801e+03]
 [-3.35984650e+04]
 [-1.66375057e+04]
 [-3.48047374e+04]
 [ 6.11362994e+04]
 [ 1.45746661e+04]
 [-9.75603431e+03]
 [ 3.17503890e+04]
 [ 5.50611021e+04]
 [-4.91783890e+03]
 [-8.01017381e+02]
 [-3.92619729e+04]
 [ 1.01280611e+03]
 [ 3.83314418e+04]
 [-2.53724812e+04]
 [-2.40097014e+04]
 [ 5.40592382e+03]
 [ 4.06826845e+04]
 [ 2.85510814e+04]
 [-6.44285731e+03]
 [ 1.28369421e+04]
 [ 8.87447406e+04]
 [ 6.57912732e+03]
 [-5.90110107e+03]
 [ 2.66590710e+04]
 [ 5.78748093e+03]
 [-3.78060797e+04]
 [-2.47313440e+04]
 [ 3.46110603e+04]
 [-2.20897373e+04]
 [ 5.53315371e+04]
 [-1.00378947e+04]
 [ 4.33465763e+03]
 [-2.37999153e+04]
 [-3.26315613e+04]
 [-3.89091789e+04]
 [ 4.03517081e+04]
 [ 3.31286420e+04]
 [-4.03928006e+03]
 [-2.84773972e+04]
 [ 5.89070950e+02]
 [ 9.87490096e+03]
 [ 8.95379634e+03]
 [ 6.57778350e+04]
 [ 4.24123715e+04]
 [ 1.74169655e+04]
 [ 3.88650652e+04]
 [-1.22336643e+04]
 [-2.42235342e+04]
 [-1.98591873e+04]
 [-3.51965960e+04]
 [ 9.61833613e+03]
 [-3.18861063e+04]
 [-3.61462035e+04]
 [ 6.76835658e+03]
 [ 1.93567263e+03]
 [-2.60050256e+04]
 [-7.19906240e+02]
 [-1.34154063e+04]
 [ 1.86499351e+04]
 [ 1.07698754e+04]
 [-3.37307512e+04]
 [ 1.88265703e+04]
 [ 2.26862815e+04]
 [-2.28118327e+04]
 [-2.89947682e+04]
 [-2.19586280e+04]
 [-3.03039389e+04]
 [ 6.55943219e+03]
 [-2.50101620e+04]
 [ 4.65099580e+04]
 [-4.99017802e+03]
 [ 5.17607678e+03]
 [ 3.15875740e+04]
 [ 8.28448279e+04]
 [-2.59872594e+04]
 [-1.53422775e+04]
 [ 1.31930758e+04]
 [-1.94827875e+04]
 [-3.30578191e+04]
 [-1.04229190e+03]
 [ 1.54808117e+04]
 [-1.43839307e+04]
 [-2.24815529e+04]
 [ 1.62236445e+04]
 [-3.50257298e+04]
 [-1.14346669e+04]
 [ 3.99304001e+04]]
