[[-28609.78456639]
 [-28311.68885509]
 [-20219.12590799]
 [ 27116.1135085 ]
 [ -3646.16543355]
 [-37694.9603844 ]
 [ 40960.44662838]
 [-20498.14428985]
 [-23928.14113128]
 [ 14123.31740487]
 [-29182.02330428]
 [-11832.36223966]
 [-24632.12683074]
 [ 21464.93230673]
 [ 55592.53323633]
 [  9498.64216478]
 [ 61321.19358027]
 [-36925.00492853]
 [  -119.56440489]
 [ 23682.83539648]
 [  2418.29763451]
 [ 54046.52980684]
 [ 23593.27900459]
 [ 38580.85872363]
 [ -2588.22508072]
 [  6781.63383531]
 [-19152.55517297]
 [  3113.18717047]
 [-35793.92341134]
 [ 10931.64875086]
 [-10208.94358864]
 [-38594.87730672]
 [ 35935.52227932]
 [ 19405.78121003]
 [-34197.27148987]
 [-23801.58014757]
 [ 21209.64694342]
 [ 37415.01820073]
 [ 32914.36985327]
 [-27865.85726563]
 [ 14730.83496171]
 [  8733.47379473]
 [-25313.62139736]
 [  3775.15143658]
 [-17857.08609426]
 [  8080.43451818]
 [-13498.43348822]
 [ 31714.96855839]
 [  2216.83645973]
 [-38801.35804369]
 [ 14604.75850786]
 [   753.80418567]
 [ 27708.77170566]
 [ -3228.33544152]
 [ 24853.7138279 ]
 [-35396.09702302]
 [ -1525.35122189]
 [  4820.35243797]
 [-35572.97854349]
 [ 10770.31028412]
 [ -2922.88799138]
 [100724.03754621]
 [ 15128.07610874]
 [  6219.83373026]
 [ 40400.53881378]
 [ -6865.74454272]
 [-15168.07300373]
 [-30948.30246853]
 [ 12007.62874765]
 [-22759.35699927]
 [ -9387.50536639]
 [  3963.22030339]
 [  1598.37593442]
 [ 14240.36873777]
 [ 17261.2898341 ]
 [ 15219.92573777]
 [-18696.86478585]
 [  2107.37386843]
 [-19361.20675559]
 [-14151.45630043]
 [-32409.0479733 ]
 [  2805.13405576]
 [  7331.22587775]
 [-39752.22050734]
 [  7587.33644075]
 [-20528.29035552]
 [ 10027.88771473]
 [-10227.84214007]
 [  3059.60711471]
 [ -7299.93541284]
 [ 46404.84391365]
 [-24599.61061303]
 [  9112.28071669]
 [-25769.37740403]
 [-39024.53750108]
 [-39200.33639976]
 [ 40131.66094255]]
