[[ 48699.16704537]
 [-37829.67060773]
 [ 14902.45249432]
 [-33070.56654817]
 [-35511.89455574]
 [-16957.11156121]
 [ 46889.4125755 ]
 [ 28315.87258604]
 [ 21831.5630534 ]
 [ 16431.8573583 ]
 [-21578.38031656]
 [ 18075.44696869]
 [  5198.60480178]
 [ 40382.54822134]
 [ -8768.03525904]
 [  8598.26049228]
 [-18249.25287004]
 [ 20052.64995581]
 [-14240.45680391]
 [ -3800.04061212]
 [  1980.80085741]
 [-18364.13196204]
 [-11262.54722105]
 [ 18093.89289763]
 [ 20400.90166315]
 [ -6051.36572981]
 [ 10771.24406143]
 [-12943.46316386]
 [-19582.19377344]
 [ 30654.28090467]
 [ 40106.10234829]
 [-21722.24427727]
 [ 14632.14827713]
 [-22074.8338407 ]
 [-13194.29677305]
 [-28872.99206681]
 [-38075.88781436]
 [ -1093.61695603]
 [-22347.75234868]
 [  9423.01903305]
 [ -9527.94072411]
 [ 19611.6489797 ]
 [-38486.36022995]
 [-24663.28182374]
 [ 28964.65510492]
 [ 82737.35174652]
 [-19625.01773202]
 [-23243.43105678]
 [-40064.61015372]
 [-20465.36348379]
 [ -7391.23834901]
 [  5586.06913408]
 [ 16233.23932895]
 [-37850.26890114]
 [  2502.7585865 ]
 [ 28938.22925409]
 [-32285.61381406]
 [-23167.19495086]
 [ -4645.35638438]
 [  8296.0022034 ]
 [ 58211.21496943]
 [ -9591.29095569]
 [  4949.06764681]
 [ -3613.20265925]
 [-14629.77461282]
 [-26734.9912825 ]
 [ 23738.21128201]
 [-20639.60415827]
 [ -8482.69547774]
 [ 48770.60578761]
 [  7025.49696416]
 [-38837.72220325]
 [  6924.26495058]
 [  7495.63767478]
 [ 62420.79816416]
 [ 15988.06267286]
 [ 35077.0396758 ]
 [-27116.06101259]
 [-16446.7225834 ]
 [-25812.10211128]
 [ 40145.37006865]]
