[[ 19316.77399884]
 [ 21747.34435209]
 [ 22577.42510679]
 [ -4510.14667811]
 [-33139.3187766 ]
 [-26595.77820943]
 [  6074.57794451]
 [-31578.41954126]
 [  6534.90966023]
 [  1792.72273438]
 [ 37662.66973415]
 [  6468.50733869]
 [ 13128.99931003]
 [ -2449.78043475]
 [  9447.09369927]
 [ -7901.25222736]
 [-22564.34140213]
 [ 13478.42151306]
 [-22262.26188652]
 [106230.47064148]
 [-36668.32118253]
 [ 13455.52140418]
 [  6910.47727657]
 [ 42308.91783147]
 [-34206.32595844]
 [-11931.62427571]
 [-35361.50639141]
 [ 18499.45466961]
 [-23683.62378032]
 [ 17342.90628439]
 [ 27468.87231489]
 [-12842.07855549]
 [-34958.20122522]
 [-32332.11877731]
 [-16126.1326859 ]
 [  9011.03416887]
 [-16903.5458304 ]
 [ -8785.83691567]
 [-26662.49707576]
 [ 29646.28220201]
 [-18968.25424529]
 [-22266.38601279]
 [-20989.96499968]
 [ 57080.47806874]
 [ -1145.07847326]
 [-17858.16036299]
 [ 38002.03972962]
 [-20520.06792213]
 [ 37156.25584529]
 [-29972.26419386]
 [-27688.72704065]
 [ -8227.59698168]
 [-27162.67048848]
 [ -4031.50867976]
 [-13286.84971519]
 [-11128.66212983]
 [-21264.12416634]
 [ 31850.68582663]
 [ -8521.97659915]
 [ -2924.16115288]
 [128021.39852132]
 [  7877.98993625]
 [  2782.16685654]
 [  5559.68517369]
 [ 13764.94203747]
 [ 37952.5644819 ]
 [ 25336.81537781]
 [-31480.61621001]
 [-31268.39975278]
 [ -2029.12700023]
 [ 24320.41980932]
 [ -7516.74440969]
 [-36241.61106597]
 [ 12453.05766436]
 [-13364.66007548]
 [ 41550.80689599]
 [  5953.61044426]
 [ 31193.61397091]
 [ 19163.2107662 ]
 [ -7097.2474075 ]
 [-34890.33324347]
 [-23933.02821286]
 [ -6073.39948996]
 [-31031.68935401]
 [ 20781.01763207]
 [-37809.4897071 ]
 [  6711.202966  ]
 [-10928.9329437 ]
 [-31731.17284434]
 [ 17172.07859945]
 [-10280.94011731]
 [-24860.75403468]
 [  1021.57246204]
 [-17923.2555941 ]
 [ 61071.97118607]
 [ 38353.32739274]]
