[[-2.73415506e+04]
 [-2.19363604e+04]
 [ 8.82055459e+03]
 [-3.71801671e+04]
 [ 2.52620242e+04]
 [ 1.90975653e+04]
 [ 6.36230387e+03]
 [-1.82359121e+04]
 [-2.77298707e+03]
 [ 6.37696810e+04]
 [ 9.90595732e+04]
 [ 3.90380821e+03]
 [-2.30722809e+04]
 [-8.76112743e+03]
 [ 5.90236527e+03]
 [-3.58724534e+04]
 [ 2.52516137e+04]
 [-3.44249250e+04]
 [-6.16423598e+03]
 [ 1.01404019e+03]
 [ 1.53154147e+04]
 [-1.24662286e+04]
 [ 2.94441697e+03]
 [-3.18926885e+04]
 [-1.09079744e+04]
 [-3.02638699e+04]
 [ 1.04449173e+05]
 [-4.96317694e+03]
 [ 1.39196279e+04]
 [-5.95127428e+03]
 [-2.03221223e+04]
 [-2.23779078e+04]
 [ 1.80936206e+04]
 [ 9.14135936e+04]
 [-2.97371091e+04]
 [-5.02861642e+03]
 [-3.51425960e+04]
 [ 2.98975537e+04]
 [ 1.36557450e+04]
 [ 2.98152904e+02]
 [ 8.38500618e+04]
 [-2.41474542e+03]
 [-3.95634525e+04]
 [ 5.96290384e+04]
 [ 5.39970961e+03]
 [-6.29615029e+03]
 [ 7.88336997e+04]
 [ 6.65127565e+02]
 [ 2.14880736e+03]
 [ 2.50063285e+04]
 [ 2.76314942e+04]
 [ 2.18524008e+04]
 [ 7.46958286e+04]
 [-2.86366429e+04]
 [-3.50887224e+04]
 [-2.45672695e+04]
 [-3.24756773e+04]
 [-3.72541272e+04]
 [-1.67077077e+04]
 [-5.63825065e+03]
 [ 5.73557034e+01]
 [-1.72261185e+04]
 [-3.30051909e+04]
 [ 2.73833837e+03]
 [-1.27745938e+04]
 [-2.60470683e+04]
 [-2.12748104e+04]
 [-3.00811983e+04]
 [-3.21624988e+04]
 [-2.82932539e+04]
 [ 4.85479634e+03]
 [-1.47570611e+04]
 [-3.18666466e+04]
 [-3.91665500e+04]
 [-3.31519174e+04]
 [ 3.71494218e+04]
 [ 7.32688331e+04]
 [ 3.82442859e+04]
 [-3.85997041e+04]
 [ 9.95261592e+03]
 [-3.69654986e+04]
 [-2.68507179e+04]
 [-2.71016015e+04]
 [ 5.25918262e+03]
 [ 1.58406152e+04]
 [ 2.66780807e+04]
 [-2.97862629e+04]
 [-2.39542921e+03]
 [ 2.76528091e+04]
 [-3.48752272e+04]
 [ 4.00288598e+04]]
