[[-10621.81699295]
 [-11601.90567403]
 [-14013.0247281 ]
 [ -4194.4787728 ]
 [ 51181.39162033]
 [ 29711.05334274]
 [ 57669.61866955]
 [ -2269.59137549]
 [-33146.40354613]
 [ 37279.30253488]
 [  6218.0806169 ]
 [-36252.61067509]
 [-34084.9360291 ]
 [ 10991.45406652]
 [  2931.19012023]
 [-33457.86564752]
 [ -1951.1142047 ]
 [ 16720.18486124]
 [-31632.91311477]
 [-13184.14613471]
 [ 31858.42105212]
 [-38865.00283033]
 [ -4500.30655614]
 [-28942.19882821]
 [-26902.86992018]
 [-22251.17726595]
 [-31452.08910339]
 [ 35620.97065043]
 [ 21171.44981503]
 [-28865.86787028]
 [ 35051.91988682]
 [-38196.92737255]
 [ 31325.11301985]
 [ 20742.60859917]
 [ 12107.05136061]
 [-24816.28297765]
 [  6420.31769057]
 [ 28379.28488361]
 [ 18638.29847555]
 [-28119.44486911]
 [-10818.94493733]
 [  3296.25194269]
 [  2297.93507117]
 [  3222.46029815]
 [-38578.34294411]
 [  8847.48743605]
 [-22464.88111681]
 [ 10500.97817542]
 [ 14566.46458715]
 [ 42253.61147397]
 [ -4321.4159105 ]
 [ 10821.39562872]
 [ 11691.26200202]
 [ 14486.5782265 ]
 [  -495.57671014]
 [ 40191.251681  ]]
