[[ 74352.2430724 ]
 [-18218.64180528]
 [-28059.59132573]
 [ 72464.55108806]
 [ 15715.07634698]
 [ 45475.52059721]
 [ 53589.58036773]
 [  1344.42717996]
 [-31063.05594249]
 [-31149.18673461]
 [ 11844.94139324]
 [-42833.8357702 ]
 [ 17953.17065976]
 [155173.11682281]
 [-17678.25508959]
 [-35791.2834036 ]
 [-42954.19461825]
 [-43777.98799247]
 [-11209.44449734]
 [-43066.28193409]
 [-28696.41160504]
 [-12709.38303086]
 [-27663.40337783]
 [ 12791.69631927]
 [  1926.94613188]
 [-25109.29744883]
 [-12836.16942214]
 [-38467.88086629]
 [ 82456.0094217 ]
 [ 34343.232061  ]
 [-42781.7395516 ]
 [  4729.04496093]
 [-30510.54747931]
 [-39058.06280441]
 [-42741.57279612]
 [ 41102.72407255]
 [ 48569.6973607 ]
 [ 77433.83097186]
 [-45649.13985075]
 [-44344.3281589 ]
 [-44443.4119247 ]
 [-12232.32773108]
 [ 12479.25821285]
 [-35252.52815848]
 [-22142.93108051]
 [ 26673.31897663]
 [-12379.12105645]
 [  3404.18577894]
 [-45182.68481419]
 [-45580.37055223]
 [-33093.28811763]
 [-37597.91581091]
 [ 83738.52468676]
 [-45473.46910382]
 [-20624.89929506]
 [-32362.4552279 ]
 [ 27522.95592364]
 [ 66473.11667511]
 [ 29874.17930142]
 [ 66132.51942218]
 [-28779.40429722]
 [-36018.57417495]
 [-15321.2165579 ]
 [ 22023.28479269]
 [-34858.24912189]
 [-31245.62357043]
 [ 14871.20815692]
 [140630.19674756]
 [ 29184.18584448]
 [ -5314.57724615]
 [ 46003.66477819]]
