[[-30232.92837447]
 [  7422.81006979]
 [-25352.18292361]
 [-24398.1029655 ]
 [ -1065.22459444]
 [-29660.72611695]
 [ -1138.0517083 ]
 [-15227.35304937]
 [ 18700.81221923]
 [-30038.2753324 ]
 [ 45861.15175109]
 [ 71186.13073245]
 [-32594.6977543 ]
 [ 22109.54692509]
 [-24324.59030236]
 [-25573.16495436]
 [ 32644.78862091]
 [-36937.32278018]
 [-34133.07630488]
 [-37466.8491161 ]
 [-25257.06662017]
 [-17091.39363126]
 [ -6444.96245386]
 [-35354.40030554]
 [-33774.4208365 ]
 [ 36001.6249015 ]
 [ 71823.86449187]
 [  -463.07694481]
 [-36279.06105481]
 [-11482.2920454 ]
 [ 21304.56929899]
 [ 48885.99776883]
 [-19354.90311391]
 [  -993.96961404]
 [-20343.58213871]
 [-28432.45287038]
 [-37811.42873135]
 [-14932.21332027]
 [-28607.69097543]
 [ 19209.07144012]
 [-17344.67164861]
 [108088.7796951 ]
 [-23943.66098316]
 [  -472.80073698]
 [-32674.24892241]
 [ 22673.33910157]
 [-31430.89027572]
 [ 32205.40710103]
 [-33927.81666955]
 [ 62117.03161464]
 [ 52466.26867683]
 [-24616.34924588]
 [  -457.13592467]
 [ 42749.13001294]
 [ -1140.14193108]
 [ 16424.94365505]
 [-27047.01087808]
 [  2247.96227589]
 [ 21349.90987401]
 [ 78231.03538079]
 [  4909.39145792]
 [-34594.08323965]
 [ 47375.16027306]
 [  2640.42791784]
 [ 12615.87765783]
 [-31935.17969228]
 [ -6358.2237909 ]
 [ 41479.23405089]
 [-12016.59209262]
 [ 38417.42003888]]
