[[-44435.9288406 ]
 [ -8308.25753475]
 [ 41652.46972975]
 [-16133.16331082]
 [ 68925.6746726 ]
 [ 52819.86202094]
 [ 12739.19729256]
 [ 23055.43838832]
 [-33148.15055464]
 [ 59308.35274061]
 [-19220.15816858]
 [ 28349.07995851]
 [-29274.28774227]
 [-40645.81459013]
 [-28880.65206053]
 [-10539.11479819]
 [ 25763.91469814]
 [-12791.08682753]
 [ 22180.18135896]
 [-33932.21450822]
 [-24454.66794317]
 [-39053.92015573]
 [ 36895.54402891]
 [ 37738.26417192]
 [-22200.12556591]
 [-29500.2147801 ]
 [-11984.07613396]
 [ -4392.57476381]
 [124418.64612954]
 [-20255.58024838]
 [-36513.45304782]
 [-10158.49168031]
 [-23369.64307714]
 [ 42200.09000434]
 [-41428.47133865]
 [ 18062.98824346]
 [-24576.93998775]
 [  4257.7666306 ]
 [  4685.75110862]
 [ 88404.42191377]
 [-46144.59306656]
 [ 63734.19449513]
 [ 71241.72975964]
 [ 48963.11241113]
 [   190.58723854]
 [ 46751.6848853 ]
 [-20857.9491315 ]
 [-34825.91745831]
 [ -5936.37816828]
 [-27100.3041702 ]
 [ 44608.32973747]
 [-32181.21582934]
 [  4706.17197094]
 [-33665.57345219]
 [ 23795.10897945]
 [ 13520.82554072]
 [   919.88813587]
 [-13151.49584629]
 [-27254.26498058]
 [-30943.1326228 ]
 [ -2161.33044354]
 [-45608.92209694]
 [-15010.43657678]
 [ 50194.86208224]
 [  6819.24495592]
 [-27867.70039535]
 [-18256.51648952]
 [-27284.76361648]
 [-36170.16146883]
 [ -5710.35871303]
 [-16116.31878834]
 [-37875.56182776]
 [-46603.38542886]
 [ 15211.87020479]
 [-24381.32152056]
 [ 12860.59893247]
 [ 27644.40227452]
 [-11983.70283023]
 [ 22733.90421596]
 [ -4726.05007894]
 [-36363.6470023 ]
 [ 28289.54751554]
 [ 80004.00630414]
 [-33447.20470445]
 [-21216.81855578]
 [-26429.21053674]
 [  2527.74592164]
 [-21286.46179515]
 [  5798.38226951]
 [ -3102.66381267]
 [-14441.30864962]
 [-31539.90185341]
 [ 71597.54200914]
 [ 82797.8525129 ]
 [ -8653.0166598 ]
 [-25661.47354251]
 [-32352.60974252]
 [ 22731.80607398]
 [ -6494.36081852]
 [-21098.02118483]
 [ 47909.31623175]]
