[[  1794.02409464]
 [162352.47461243]
 [  3865.4728828 ]
 [ 85950.73224227]
 [117341.1854472 ]
 [-31309.85083069]
 [ 29876.72926543]
 [-15169.18415828]
 [ 11800.94892128]
 [-44756.29895829]
 [-22640.60261811]
 [ -9270.23060394]
 [ 24256.679259  ]
 [ 60371.96645548]
 [-25802.76743887]
 [ 33642.63783304]
 [ -2730.02395955]
 [-43312.67926956]
 [-48876.17956857]
 [ 66691.23383447]
 [ 57616.15636783]
 [ 86973.39169664]
 [-25866.38674072]
 [-24669.55380046]
 [-56075.06287927]
 [-48609.24608985]
 [ 53502.08888735]
 [ -1859.38745995]
 [-45462.10296715]
 [-27042.87310782]
 [-48736.67991498]
 [ 37893.46548444]
 [-10798.29944221]
 [ 52231.34821902]
 [ 83369.69426631]
 [-10571.09157385]
 [-18211.5825967 ]
 [-34061.34030593]
 [-46080.24396828]
 [  -230.6734599 ]
 [-42644.58992656]
 [-49248.17166677]
 [-60781.18364292]
 [ 29619.16103542]
 [ 45736.60688932]
 [-23198.7535824 ]
 [-13587.02565873]
 [-15234.25284291]
 [-32317.53461018]
 [-21293.28393624]
 [-17965.05806256]
 [ 18090.8854022 ]
 [ -7729.24242592]
 [193949.68169701]
 [-43764.29555527]
 [-44647.28337286]
 [-29942.81280318]
 [ 27694.56745213]
 [-35845.84586569]
 [ 57730.91311107]
 [-38237.16084631]
 [ 67301.23920398]
 [  3180.5739059 ]
 [-44985.30207958]
 [  8684.44053971]
 [-55376.64203806]
 [-64365.66819559]
 [  2984.29620696]
 [ 30644.05390813]
 [-19246.99045729]
 [-21822.27134885]
 [ 11407.76929263]
 [  3549.8204546 ]
 [  1966.6728928 ]
 [ 18355.78671874]
 [-14169.85470028]
 [-13566.88930394]
 [-31673.15242926]
 [-14578.29334433]
 [-24708.74218468]
 [-31445.33147767]
 [   617.14881744]
 [-48791.52425535]
 [-11607.53052487]
 [ 45850.51069552]
 [-58326.11317785]
 [ -1267.2212024 ]
 [-65776.90196936]
 [  4908.03949088]
 [ 25487.4483672 ]
 [ -7997.64770525]
 [-16806.4924857 ]
 [ 43272.99541112]
 [-26135.08139477]
 [ 54517.92668037]
 [ 65508.55419749]
 [  -692.89675066]
 [-21352.11813933]
 [-31413.94998519]
 [ 14096.12952148]
 [ 69775.42559057]]
