[[-36309.67354739]
 [-15182.45645945]
 [ 48067.19001545]
 [-28610.09511266]
 [-44683.43094726]
 [-41481.00193004]
 [ -1089.64287465]
 [  3334.81920504]
 [ 11279.27190716]
 [-40526.78732921]
 [ 66833.43929765]
 [  -374.86590256]
 [ -5483.65601209]
 [-43973.88654953]
 [ 10148.54898648]
 [-14660.3601108 ]
 [ 44373.88110243]
 [  1795.21491936]
 [ 82418.78886099]
 [-21229.0517921 ]
 [-29192.11382405]
 [ 37718.02294865]
 [-15683.31664187]
 [  9683.63453865]
 [ 79427.29576163]
 [-28421.55550863]
 [ 34635.23147564]
 [ 74163.73957772]
 [ -9027.6625028 ]
 [-29674.045367  ]
 [106089.72018657]
 [-20261.51144449]
 [  5075.6906938 ]
 [ 12291.56160691]
 [  -245.60739572]
 [-38434.25132515]
 [-44975.66300652]
 [ 17819.77636376]
 [-14917.8403131 ]
 [-44796.47197342]
 [  3402.37653391]
 [ 19801.16265207]
 [ 45215.64297824]
 [ 38639.13840248]
 [-10415.33320443]
 [-38379.2279826 ]
 [  4019.91503249]
 [  1600.82278724]
 [ -7938.6906998 ]
 [ -1883.12785136]
 [ 41790.87213365]
 [ 17176.22619513]
 [-27269.09063261]
 [ 63062.50227079]
 [  2622.80825359]
 [ 18493.30652388]
 [  9380.23569161]
 [ 36883.03680215]
 [  6174.09266206]
 [-38501.94151803]
 [-37788.04758524]
 [-43198.50131978]
 [  9483.74648883]
 [ 44830.80338853]
 [-24449.69206278]
 [ 47308.82979148]
 [-32077.1143941 ]
 [ 42886.70811076]
 [  -707.81165021]
 [-30131.53057762]
 [-21139.19407248]
 [ 54286.39207951]
 [ -4867.85027109]
 [-13073.55356475]
 [-10510.53858865]
 [-47211.41820268]
 [-38682.4191691 ]
 [ 32699.13884493]
 [-33351.5645556 ]
 [-33534.76749721]
 [ 10518.45459732]
 [-11882.63236236]
 [ -1076.19873492]
 [-25322.14061346]
 [-12181.88436642]
 [-48544.72692011]
 [-24139.95610207]
 [ -3354.86850779]
 [-14590.44153309]
 [-25692.2714151 ]
 [ 31120.51915246]
 [-35068.91625895]
 [ 44906.65474033]
 [-27698.81736499]
 [  6579.34454033]
 [-26842.81506838]
 [ 20391.84011101]
 [  6148.40297388]
 [  9522.08242618]
 [  6641.14890546]
 [ 51406.49636307]]
