[[-36971.98438397]
 [ -9945.31428842]
 [ 13977.67614537]
 [  5531.49233223]
 [-13319.87615017]
 [-14271.78213703]
 [ -7934.88639268]
 [-34420.40463132]
 [ 18339.33456543]
 [-36340.68508012]
 [ 44348.11393205]
 [ -5020.995897  ]
 [-34040.6707674 ]
 [-28758.18510856]
 [ 25169.77065243]
 [ 19560.86463441]
 [-16094.18053079]
 [  -553.68358816]
 [ 24414.31236522]
 [-30236.64323772]
 [ -1186.3852516 ]
 [ 20300.9267553 ]
 [ -2327.48319951]
 [-27762.6290271 ]
 [ 11685.94478341]
 [ 24202.05234922]
 [-30360.89217031]
 [-28148.891178  ]
 [ 22285.19958602]
 [   833.76848586]
 [ 19448.45851944]
 [-32166.97905531]
 [ 13546.1029078 ]
 [-20460.52485781]
 [-31134.00498441]
 [  9144.98776261]
 [ 19230.92700778]
 [ 12881.52818828]
 [ 14640.5480368 ]
 [-25495.69823051]
 [ 98900.10218056]
 [ 12034.07046022]
 [-16270.07914025]
 [ -2772.32127748]
 [-32582.11786003]
 [-27981.13221043]
 [-14134.85918321]
 [ -2674.01097221]
 [-25322.03561381]
 [-27651.76517613]
 [ 82753.05084879]
 [ 40872.31055125]
 [ 15781.51344142]
 [-34388.30006151]
 [-17471.68179002]
 [-30429.02155886]
 [ 34239.02973677]
 [-12438.70153   ]
 [ 30961.17301458]
 [ -6812.1675873 ]
 [ 29317.89679564]
 [ 29359.55017485]
 [ 20813.89658539]
 [ 31314.44801675]
 [ -9856.73520596]
 [ -7423.42412336]
 [-33052.38832114]
 [ -1449.53275102]
 [ 22020.62943045]
 [-19621.81060686]
 [-34369.0591559 ]
 [  5444.16549623]
 [ 10792.39101483]
 [ 27471.47947897]
 [ 39813.47846825]
 [ 17721.54262825]
 [-26826.11361373]
 [-31552.00123547]
 [-29933.99781973]
 [ 15381.88817089]
 [-36493.86693519]
 [ -6001.20057943]
 [  6263.45779003]
 [ 63663.02116309]
 [ 37480.27386015]]
