[[ 6.98869282e+03]
 [-2.50661065e+04]
 [ 4.21962453e+04]
 [-3.26024694e+04]
 [ 3.98873954e+04]
 [ 3.62479245e+04]
 [-2.36400190e+04]
 [-1.15210716e+01]
 [-8.24855743e+03]
 [ 1.90791275e+04]
 [ 2.53647738e+04]
 [ 3.34023896e+04]
 [ 1.91984488e+04]
 [ 2.90738005e+04]
 [ 1.33678374e+04]
 [ 4.93696093e+04]
 [ 1.35895282e+04]
 [-3.37177153e+03]
 [ 2.36894358e+04]
 [-2.70450623e+04]
 [ 1.77272953e+02]
 [ 8.19469405e+03]
 [-3.56548491e+04]
 [-2.82362829e+04]
 [ 2.30192610e+04]
 [ 3.22277590e+04]
 [-1.81985972e+04]
 [ 1.64577659e+04]
 [-5.80963712e+03]
 [ 3.40407218e+04]
 [ 1.04229795e+04]
 [-1.57085727e+04]
 [-1.57541398e+04]
 [-3.73325287e+04]
 [-2.54428439e+04]
 [-3.49219301e+04]
 [-1.10680239e+04]
 [-1.51960619e+04]
 [-1.52338369e+04]
 [-2.86576202e+04]
 [ 3.92047909e+02]
 [-1.85161722e+04]
 [-2.09609857e+04]
 [-1.99389960e+04]
 [ 3.16639480e+03]
 [-2.64157519e+04]
 [-1.15262654e+03]
 [ 3.21884323e+04]
 [-2.44969370e+04]
 [-3.45947553e+04]
 [ 5.02127624e+04]
 [-3.33226027e+04]
 [-3.34148200e+04]
 [ 4.78145364e+04]
 [-1.80377058e+04]
 [ 3.34316124e+04]
 [-1.81318504e+04]
 [ 1.75230585e+04]
 [-1.72406003e+04]
 [-2.89589494e+04]
 [-2.97126048e+04]
 [ 4.11913072e+04]
 [ 2.63241539e+04]
 [ 5.92072147e+04]
 [-9.77354043e+02]
 [-2.55947761e+04]
 [-3.09648035e+04]
 [-1.31725965e+04]
 [ 3.86954064e+04]
 [ 1.67115720e+04]
 [-2.50937683e+04]
 [-1.49550741e+04]
 [ 3.77297210e+04]]
