[[  3349.23996751]
 [ 50670.29755611]
 [ -5941.21185647]
 [-32163.99079535]
 [ 76067.47869006]
 [ 31977.37732055]
 [-22198.11839402]
 [ 20820.75033018]
 [ 50194.53586175]
 [  3033.08208155]
 [ 58054.43570834]
 [-34658.17793844]
 [ 27196.56694312]
 [-33866.78796718]
 [-27257.89028465]
 [-12170.34128182]
 [ -9482.47495439]
 [   490.65991154]
 [ 36255.18334872]
 [ 42231.88171891]
 [-27151.24191354]
 [-19666.97234341]
 [-19037.68175504]
 [ -8380.70174598]
 [-29354.96407565]
 [-30560.66513337]
 [-41433.90483377]
 [-16268.90335097]
 [ 28373.46623929]
 [ 16778.10596496]
 [ 34041.8458242 ]
 [-26645.90692481]
 [-45025.65778566]
 [ 42920.73274434]
 [-32965.77310433]
 [-27739.93966973]
 [ 55435.1933064 ]
 [-27388.76839363]
 [  4357.24233479]
 [-23502.83416054]
 [ 19474.12942598]
 [-16693.41109508]
 [-13666.89674375]
 [ 36337.37234962]
 [  -745.68272223]
 [-15671.42688469]
 [-36808.94226027]
 [-14118.9269613 ]
 [ -7335.4524032 ]
 [ 10763.50660073]
 [-39204.52629538]
 [ 37411.50095834]
 [-36731.37359586]
 [ 14292.45038524]
 [ 27875.69624385]
 [  1064.80202485]
 [-27142.8684798 ]
 [-17534.72027265]
 [ -5045.91611646]
 [ 21374.93949666]
 [ 14136.51477274]
 [ -9549.947222  ]
 [-24325.65739584]
 [-19620.5775418 ]
 [-30599.27061763]
 [  7557.0441889 ]
 [-33787.81253103]
 [-31151.33784137]
 [-36908.60638473]
 [-36283.82708986]
 [-11783.06417819]
 [ 19165.04314019]
 [ 86122.86570623]
 [ 17264.50646295]
 [ 61268.24481649]
 [-35055.03000968]
 [ 76904.96936685]
 [ 50562.91672489]
 [-16761.87617424]
 [ 67070.7366788 ]
 [ -3700.03830201]
 [ 22070.75236874]
 [-10996.00938375]
 [ 61846.01393132]
 [ -1930.82672521]
 [  8863.09487031]
 [  5197.28484271]
 [-28654.74387321]
 [-22598.50714526]
 [ -9031.90086737]
 [-18169.99758363]
 [-28376.74067738]
 [-35225.10980551]
 [-22735.66433457]
 [-17697.6302683 ]
 [-15605.40310967]
 [ -7712.84010902]
 [ -5018.50413958]
 [ 87293.17205468]
 [-39321.65745913]
 [ 45694.35318654]]
