[[ 10018.50911129]
 [-26993.1545356 ]
 [ -8853.20271316]
 [  5778.50367282]
 [  2509.38957351]
 [  9821.97784674]
 [ 19284.89369694]
 [-15673.55524168]
 [-12603.01197974]
 [ 18411.06785488]
 [-30562.90628893]
 [  -627.05509569]
 [  3838.28682543]
 [ -1939.11790892]
 [ 32321.44467201]
 [  8306.27464544]
 [-19258.03667999]
 [ -6843.20300784]
 [ 42962.83561126]
 [ 24674.03439241]
 [ 46105.55757881]
 [ -2303.60350097]
 [-32150.74020355]
 [-28572.78349888]
 [ -9774.41593777]
 [ -5589.20949758]
 [-13211.55052206]
 [ 26979.3056774 ]
 [ 38329.30906458]
 [-17783.67909933]
 [-26404.76992317]
 [ 20267.12313512]
 [-32064.3450388 ]
 [-33694.58480724]
 [ -8680.49867972]
 [ 15341.63495627]
 [ 36675.77153906]
 [ 50891.20043261]
 [-35926.66455146]
 [-35693.21951681]
 [   572.7622852 ]
 [ -5261.77568114]
 [ 30716.37232112]
 [-29792.67165889]
 [ -7625.80519907]
 [-23436.19944764]
 [ 48844.24591688]
 [-19336.49723489]
 [ 11935.76174438]
 [  9662.40276435]
 [ -3286.07134611]
 [-37066.61993268]
 [-36163.89276391]
 [ 22453.88711238]
 [-27324.58602803]
 [ 13293.55886603]
 [-33518.47754487]
 [-11712.42316031]
 [ 10700.55993596]
 [ 43214.73524997]
 [ 18571.86839599]
 [ 15559.90625834]
 [-26351.85839606]
 [ 19663.38819625]
 [-19309.8376007 ]
 [  4534.18671754]
 [-10084.97558113]
 [ 33234.24375338]
 [ 39438.44081575]]
