[[-40691.51313452]
 [ 31102.97489169]
 [-41179.61750446]
 [ 16573.06850054]
 [-28792.46362934]
 [-12274.81575958]
 [-39287.90600499]
 [ 26889.40558454]
 [   895.94317735]
 [ 74744.44059462]
 [-14402.82414769]
 [ 16846.6351221 ]
 [ 30001.84975284]
 [ 32929.97011515]
 [ 41101.39372467]
 [-20715.48920836]
 [-34887.1477977 ]
 [ 67218.9069148 ]
 [  4408.17724378]
 [  -314.82277873]
 [ 13861.6639609 ]
 [-28991.56359597]
 [ 15843.90616361]
 [ -4782.99484058]
 [ 18055.90137189]
 [-33935.83905242]
 [  3538.6200735 ]
 [-12937.20293304]
 [-20120.5704352 ]
 [  -133.00955225]
 [ 16625.59585824]
 [  9302.87450548]
 [-20586.91178993]
 [-19894.88512584]
 [-24120.49847307]
 [ 31513.4037431 ]
 [-37767.94243611]
 [  7309.55906857]
 [ -3737.77526059]
 [ 72342.04860745]
 [-10566.25602396]
 [-26254.2990581 ]
 [  8662.24179022]
 [ -6503.81103339]
 [ -2146.31725336]
 [-37016.53668095]
 [-36165.2387854 ]
 [-16249.53493633]
 [ 53790.97584118]
 [-41188.43944187]
 [  6160.79556916]
 [ -3635.73212151]
 [ 43080.84514436]
 [-41996.30671839]
 [-28492.56326504]
 [ 16557.41870349]
 [-27887.59712171]
 [-38450.52014573]
 [-19934.3228945 ]
 [ 29541.28287103]
 [ 30913.24958492]
 [  6532.55328131]
 [   739.31153051]
 [-38010.80272214]
 [-29811.99130987]
 [ 60584.32811215]
 [ 48240.11469093]
 [ -5332.53119689]
 [ 13289.13807542]
 [ 42534.54909604]]
