[[ 30972.21468431]
 [ -6381.78737398]
 [-22876.0587082 ]
 [-36224.24934226]
 [ 18106.06665019]
 [-26079.37964408]
 [  1719.86030055]
 [ 41683.71960193]
 [ 46877.36540765]
 [-29588.90076404]
 [-24057.27570864]
 [  6974.91208201]
 [-23934.75834498]
 [ 34700.38081005]
 [  2148.76976746]
 [-34803.86593363]
 [ 81803.75309381]
 [ -6217.8635207 ]
 [-28914.39009389]
 [-17876.75415082]
 [ 13190.84912557]
 [ -2008.76141325]
 [ 69695.64770444]
 [-14097.63196138]
 [ 11005.19103589]
 [ 34882.14951254]
 [  4878.91965442]
 [-21023.13802046]
 [ 68746.72462318]
 [-40637.25479125]
 [  3109.53534571]
 [-16440.67070511]
 [ 72384.44194019]
 [ -9113.17010729]
 [ 20829.09579852]
 [-18535.79233492]
 [-32095.29448956]
 [ 12559.00144856]
 [-40893.62411792]
 [-36858.55228507]
 [-28213.45774964]
 [-33121.59787593]
 [-31136.44436614]
 [-26264.7770956 ]
 [-26536.38554244]
 [-22613.87767629]
 [ 45389.6388356 ]
 [ 21526.64348667]
 [ 20903.87468375]
 [-23231.16346133]
 [  3440.5831108 ]
 [ 32373.09083829]
 [ 67560.51609676]
 [-41654.18750338]
 [  5121.94015926]
 [ -1725.03689839]
 [-35759.021702  ]
 [ 11271.92889   ]
 [  5652.51085232]
 [-31519.00008559]
 [ 21353.46781306]
 [  6608.5519475 ]
 [-24245.26523329]
 [-10375.62006589]
 [ 22010.16614892]
 [-33788.90327145]
 [ 57574.506178  ]
 [-28128.74371213]
 [  2194.35291659]
 [-25032.95676464]
 [-16699.96180513]
 [-11542.54419716]
 [-14678.39490205]
 [ 14748.01984491]
 [ 49513.01209845]
 [ -8584.88876797]
 [ 42026.01053902]]
