[[ -1781.15668607]
 [-15031.95043166]
 [-31568.24744801]
 [-17595.35738391]
 [-18698.22648556]
 [ 33564.07997288]
 [-28845.25017722]
 [ -6748.48249066]
 [-18175.99179175]
 [  8971.13412041]
 [-21679.26874367]
 [ 27469.91739125]
 [-25987.65454706]
 [-12691.91015556]
 [-15476.08301475]
 [ 65845.98694834]
 [-35637.84320614]
 [-12807.07987542]
 [ 15571.11941812]
 [ 49107.90978581]
 [ -9889.6157188 ]
 [-19560.06550907]
 [ 36767.37214488]
 [ 54597.8340184 ]
 [ -1119.30951157]
 [ -8523.24869634]
 [ -6464.64487772]
 [ 16263.97938006]
 [  7346.44958876]
 [ 14365.70895968]
 [-16731.34318298]
 [-12677.3239517 ]
 [-12268.24206899]
 [-27643.21815933]
 [-37680.86517263]
 [-17715.24995913]
 [-35211.17179537]
 [-24997.73044842]
 [ 17207.98878882]
 [ 34684.89891851]
 [ 32273.9354702 ]
 [-30128.0268598 ]
 [-35321.93085978]
 [-34118.30057317]
 [ 11262.52647571]
 [-26964.69128224]
 [ 14556.37274478]
 [ -5122.52876124]
 [ 19672.97058518]
 [-36847.27208442]
 [ -4418.54990942]
 [ 22308.79870291]
 [-13552.43846104]
 [  1221.85185262]
 [ 27661.65290443]
 [-27964.87246939]
 [ 24854.45731226]
 [ -3600.89410882]
 [-26595.18130667]
 [ 32437.53246423]
 [ 12882.18594941]
 [ 14218.65429298]
 [ 30154.01118243]
 [-18077.49236732]
 [ -7635.82853816]
 [   752.92972208]
 [-27454.33831148]
 [-23000.57826043]
 [-30829.97463392]
 [ -4864.87316913]
 [ 39819.16372205]
 [ 62580.28828099]
 [ 74813.93459941]
 [ 14209.82655597]
 [ 85091.41986775]
 [ 24335.14759869]
 [ -3712.30678067]
 [ -6785.29500339]
 [-11071.11140155]
 [ -1045.47753419]
 [-36255.68211109]
 [-18297.86344317]
 [ 37824.03883193]]
