[[ -7865.57135376]
 [-41298.5522557 ]
 [ 71059.8842246 ]
 [  8490.12499329]
 [  6580.96229435]
 [-12398.32114092]
 [-30554.67607706]
 [ 60708.93449348]
 [-32943.44006576]
 [-35608.54366598]
 [ 48139.58210102]
 [-33507.81045835]
 [-31332.14210128]
 [  4392.4261922 ]
 [ -8376.77945648]
 [-22001.54793144]
 [-40204.28444984]
 [-43198.23350741]
 [ 39337.44809118]
 [ -8752.54255675]
 [ 22718.43318791]
 [ -4518.18849441]
 [-25490.56092022]
 [-21086.76510525]
 [ 14128.18273276]
 [ 29963.61283418]
 [ 64666.27246986]
 [  2626.05946324]
 [-22658.68876217]
 [-24472.97130885]
 [   977.98885196]
 [-41759.3883054 ]
 [ 13232.97346356]
 [  6981.31821689]
 [ 67120.6203819 ]
 [-30365.81745518]
 [-41999.42079735]
 [ 14026.67596295]
 [-27168.33325428]
 [-22151.85573349]
 [  8929.99169279]
 [ 13720.33125522]
 [121894.75509577]
 [  3685.06223254]
 [-30286.28831016]
 [ 33291.62266736]
 [-24090.73151731]
 [  1946.491325  ]
 [112624.25221129]
 [-42123.89620137]
 [ 19236.86742331]
 [-34059.53964803]
 [ 41140.43963111]
 [  5620.27866104]
 [-31987.1150223 ]
 [-28891.29904337]
 [-43450.49564142]
 [ 15031.88029202]
 [-31751.41855299]
 [ 12337.03852769]
 [-36504.73852057]
 [ 39119.35621848]
 [-43887.82190114]
 [  6794.09623242]
 [ -5194.89481355]
 [ 19703.60729153]
 [-44015.80626575]
 [ -5943.78091872]
 [-33298.37688895]
 [  2711.7972721 ]
 [ -8851.22185852]
 [ 44197.38187629]
 [-18277.70647419]
 [-13654.36501308]
 [ -9442.98814637]
 [  6445.6193111 ]
 [-37866.4293999 ]
 [ 43435.20876287]
 [-17211.30936885]
 [-37164.68225523]
 [  2253.13885919]
 [  1621.8354599 ]
 [-14425.97961922]
 [ 54415.35578647]
 [-16424.11086583]
 [ 16825.62044797]
 [ 71066.88557378]
 [-38491.48412518]
 [ 79747.29736371]
 [ 29906.63667802]
 [ 22716.74362455]
 [ -5585.0800031 ]
 [  9790.22581431]
 [ 16671.95067538]
 [-22254.46273514]
 [-34322.77694428]
 [ 12567.24953516]
 [-25427.28254186]
 [ 45394.05268803]]
