[[ 2.64332315e+03]
 [-1.58885304e+04]
 [-3.76711458e+04]
 [-3.71531094e+04]
 [ 4.28317918e+04]
 [ 2.46563721e+04]
 [-1.21880108e+04]
 [-7.75834373e+03]
 [ 2.88295801e+04]
 [ 8.17538710e+04]
 [ 8.17334969e+03]
 [ 3.66402812e+04]
 [ 1.70901507e+04]
 [ 2.22598894e+03]
 [ 2.37253186e+04]
 [ 5.66184316e+01]
 [-6.78171667e+03]
 [-1.85341367e+03]
 [ 4.75578400e+04]
 [-1.19058865e+04]
 [ 5.78540124e+03]
 [-3.56955635e+04]
 [ 3.82763818e+04]
 [-8.63415385e+03]
 [ 3.26564847e+04]
 [-7.94327131e+03]
 [-4.03409766e+04]
 [ 5.44791579e+04]
 [-1.93244261e+04]
 [-1.94979602e+04]
 [-1.15246949e+04]
 [ 6.54957928e+04]
 [ 3.29654107e+04]
 [ 1.64203341e+03]
 [-3.85504747e+04]
 [ 5.10148043e+04]
 [-3.62630097e+04]
 [-3.36394483e+04]
 [-2.76932707e+04]
 [-3.59858725e+04]
 [-1.92083234e+04]
 [ 6.23361913e+04]
 [-1.51343041e+04]
 [-3.68488362e+04]
 [-4.77094087e+03]
 [-4.10594501e+04]
 [-4.03603421e+04]
 [ 1.78077461e+04]
 [ 2.05578062e+04]
 [-2.60061180e+04]
 [ 2.45512659e+04]
 [-3.42616684e+04]
 [-3.47212044e+04]
 [-7.18457182e+03]
 [-1.93509065e+04]
 [-2.71731241e+04]
 [ 3.26649565e+04]
 [ 1.16917932e+04]
 [-3.37723588e+04]
 [ 1.80357164e+04]
 [ 4.29873150e+04]]
