[[-4820.15237418]
 [-4949.71042437]
 [-1304.1603936 ]
 [ 1264.42009099]
 [-1068.34450457]
 [13123.2659599 ]
 [  453.39566777]
 [ 6148.38698394]
 [-2580.13496217]
 [-7101.66002606]
 [   69.52845234]
 [ 6141.46476702]
 [ 9537.46055099]
 [ 7084.07094559]
 [-5286.03618115]
 [ 5999.8764774 ]
 [-3847.75288882]
 [-6276.63027796]
 [-1973.41297744]
 [ 6122.62949545]
 [ -751.8966066 ]
 [ 5995.96982109]
 [-4909.38990287]
 [-3470.75352264]
 [-2324.30506287]
 [-5415.05171243]
 [-3975.51229185]
 [-6576.07797322]
 [ 9122.57813348]
 [ 6197.58265529]
 [15803.36442744]
 [-2255.38596323]
 [-5499.19013643]
 [-4361.07697783]
 [13491.94043363]
 [-1314.29947534]
 [-6057.69066411]
 [-3914.52076308]
 [-5659.68935957]
 [ 2401.011302  ]
 [-4090.57215781]
 [   94.8872963 ]
 [-2418.76783714]
 [-4527.77925356]
 [  202.21487766]
 [11641.87576314]
 [ 6239.16165088]
 [-4069.31266652]
 [-6115.62128013]
 [ 1313.37997875]
 [ 2076.49968832]
 [ 5061.96056245]
 [-2729.39676957]
 [-2180.42942411]
 [-2127.21366141]
 [-4828.64068912]
 [-6356.4743745 ]
 [-5151.27357345]
 [ 7673.9426832 ]
 [ -961.88647584]
 [ -943.97299702]
 [-2600.34479853]
 [-1558.60928728]
 [-7010.87651711]
 [ -984.59047145]
 [ 9377.57022431]
 [-2139.57349989]
 [ -789.75313358]
 [ 6833.7852228 ]
 [ 5107.07729025]
 [-4140.67443973]
 [ 6636.74941202]
 [ 7704.3030923 ]
 [-3414.00189243]
 [-3066.9949125 ]
 [-1497.35292267]
 [-2174.99428897]
 [ 2810.60932145]
 [-7084.40940658]
 [ 9031.71059686]
 [ 6727.09081804]
 [-5966.24937669]
 [-3529.11623622]
 [ 4627.44145245]
 [-5181.09271817]
 [-7605.40761995]
 [13917.62454685]
 [ 2798.86043625]
 [ 8085.81057879]
 [ 3260.97449755]
 [-7008.01344763]
 [-5992.68722775]
 [-3497.33664205]
 [  800.42896397]
 [-3343.80022895]
 [-2430.72186011]
 [-3778.32366365]
 [-4576.15582797]
 [ 2923.89234707]
 [-2339.54046356]
 [ 7893.14765985]]
