[[ 18265.67316792]
 [-21093.2762918 ]
 [-26683.01134743]
 [ -5744.03052814]
 [-21327.83182052]
 [-21289.38278673]
 [  1543.23513726]
 [ 27807.58448226]
 [ -9284.71985803]
 [ 46638.33487001]
 [ 11310.29615098]
 [-32508.77121786]
 [-14824.56886893]
 [  2160.20869983]
 [-37052.45971875]
 [-31358.78758579]
 [-28957.25148225]
 [-29169.34711524]
 [-26403.94174755]
 [ -7355.97724781]
 [ 18593.29807939]
 [-37736.60843851]
 [ 40100.06752024]
 [ 11154.25470069]
 [-19051.25149933]
 [-14341.77296947]
 [-17881.58697791]
 [ 21555.7105752 ]
 [-35645.08267277]
 [  9693.63745246]
 [  5683.58168241]
 [-35857.75443765]
 [ 53336.20010904]
 [-22001.75927062]
 [-17742.53963497]
 [ 59760.6878498 ]
 [ -9616.07966887]
 [  8242.67040846]
 [ 23223.31541841]
 [ 44966.05946843]
 [-26094.69288106]
 [  -291.95870116]
 [  8631.74395979]
 [ 26599.33345187]
 [ 33436.89868918]
 [ 19398.70515651]
 [ 38243.77303445]
 [-15359.03277035]
 [ 40607.52735175]
 [-39514.72628425]
 [ -1468.65933588]
 [ -6318.38197614]
 [  6353.72399064]
 [ 13865.05331425]
 [ 17893.41749561]
 [ 22746.4757246 ]
 [ -2835.0528097 ]
 [-30333.13746603]
 [-14365.05262352]
 [  7032.6550868 ]
 [-37922.1381295 ]
 [-23047.90067908]
 [  8773.34191838]
 [   290.27150762]
 [ 72081.18157662]
 [-11351.14935728]
 [-18388.50483505]
 [  6062.72344575]
 [-28968.97616753]
 [-12260.30706659]
 [-29305.61214376]
 [ 13239.40953427]
 [ 34642.1181067 ]
 [ 33794.61468258]
 [-29294.66987512]
 [-27826.72980589]
 [-33054.70249768]
 [-18605.90128876]
 [   597.54826486]
 [ 12570.0164994 ]
 [-23928.01700385]
 [ 26155.17954855]
 [ -6857.04406509]
 [-14349.00730235]
 [-30443.21090154]
 [ 20766.86632447]
 [  6283.01464543]
 [-31947.80891937]
 [ 33599.36986842]
 [ 28568.25477801]
 [  4511.20830968]
 [ 36461.48638945]
 [-36593.969498  ]
 [ 70758.12234902]
 [  1576.85459176]
 [ 20710.44533705]
 [ -2551.93057916]
 [ 37110.02378572]
 [-31190.10634136]
 [ 39586.45696016]]
