[[  1713.32989647]
 [  -646.98802593]
 [ 53688.43863654]
 [-56243.15547904]
 [  -345.15962649]
 [-33414.01507727]
 [ 13339.33442393]
 [-19638.3890893 ]
 [  6868.86281046]
 [ -2358.11730999]
 [ -3296.66016491]
 [ -1806.60515215]
 [-23099.76123886]
 [ 62029.10004644]
 [ 26053.97890525]
 [-46771.38821644]
 [ -3708.62666806]
 [ 36529.48087059]
 [  5984.80065925]
 [ 60756.46374655]
 [-30356.24487232]
 [   730.93248525]
 [ -6978.88197298]
 [ 15133.12184384]
 [ 14646.09186952]
 [ 36054.33262728]
 [-42862.1584418 ]
 [121383.93948938]
 [-38176.89546166]
 [-20615.36533748]
 [ 19767.21080698]
 [ 20600.80699439]
 [-48822.48571578]
 [ 27278.63894071]
 [ 54031.75139418]
 [ 20734.99904877]
 [ 39053.08424995]
 [ -5836.38927658]
 [ 15783.43810295]
 [ 63490.59064486]
 [ -1460.07114991]
 [-26267.15490847]
 [-44363.63276576]
 [-12578.91174324]
 [134761.07870503]
 [ 55499.39903891]
 [-43013.31454692]
 [-63274.5435141 ]
 [ 15305.58840673]
 [-37450.59641625]
 [ 11262.13910546]
 [-56523.20300727]
 [ 11163.18934113]
 [ 10252.61838905]
 [-42380.79855028]
 [-34599.91759337]
 [-12593.20020416]
 [-52492.20350209]
 [  4737.76708499]
 [ 15184.00245467]
 [-29230.63860942]
 [-45134.26914491]
 [ 60753.66144832]
 [ 42135.32982031]
 [-42266.0422183 ]
 [ 19321.19780162]
 [  7968.00052072]
 [-57791.34740855]
 [-10050.27782078]
 [ 13131.61548732]
 [  8283.44669991]
 [ 43861.5745242 ]
 [-27876.18356685]
 [   705.37377202]
 [ 16544.29144343]
 [  5089.85439094]
 [  2471.88300877]
 [ 25312.48029907]
 [-21773.56499024]
 [  4308.46483843]
 [-27419.86126696]
 [-15071.40637885]
 [-38180.78402622]
 [-11383.66410422]
 [-15221.48947253]
 [ 77342.97551298]
 [ 18220.81204168]
 [-48573.04104029]
 [ -7307.38921032]
 [-32944.22913492]
 [-61876.1260653 ]
 [-25730.37532178]
 [-52352.59035838]
 [  2050.11041797]
 [ 22589.66619262]
 [ 97170.12496496]
 [-22714.76272233]
 [-37081.31424382]
 [-29824.3729872 ]
 [ 30699.19091626]
 [ 64343.43311757]]
