[[-2788.28027508]
 [ 2967.64384428]
 [  280.89434835]
 [-7154.84519719]
 [-3810.73445498]
 [ -969.86474185]
 [-1617.05041253]
 [-4086.8626673 ]
 [ 1980.89095918]
 [11129.15636967]
 [  -82.19826011]
 [-7503.67286664]
 [ 2827.66778789]
 [19168.86132271]
 [ 1290.32860821]
 [-7358.53731684]
 [ 7885.87794094]
 [14884.28515946]
 [21749.53102475]
 [-5053.48768796]
 [-3199.32151491]
 [13204.30016215]
 [ 8935.08483136]
 [-2618.01008503]
 [ 8986.30673443]
 [-5902.78675788]
 [-4066.37725934]
 [-2135.09817219]
 [ -467.38027321]
 [-3307.3016508 ]
 [-1721.23319069]
 [-7547.88851248]
 [-2843.58458558]
 [-2940.12090812]
 [-2262.03627451]
 [-4613.26968678]
 [ -424.34566453]
 [-6998.20835219]
 [-2799.02741088]
 [ -677.38379031]
 [-5814.34291527]
 [-2864.24244146]
 [-5508.82976587]
 [ 4722.11646205]
 [-5572.34670318]
 [ -231.86379101]
 [-7322.21993973]
 [ 1157.92290146]
 [-4954.858172  ]
 [ 2348.94883138]
 [-2420.66538772]
 [  599.95936046]
 [ 2357.80389017]
 [ 3335.0874699 ]
 [-7336.18969039]
 [ 1616.28593761]
 [ -138.1501777 ]
 [-1972.71956071]
 [ 7821.42270427]
 [-6384.6872132 ]
 [-6348.74791555]
 [ 6549.24571673]
 [ -197.79625244]
 [ 3508.46557924]
 [-6683.02584131]
 [-4172.08959253]
 [-7687.71114711]
 [15159.53795228]
 [  905.49422286]
 [  222.217782  ]
 [23436.89216892]
 [-7093.52244556]
 [-3553.11166389]
 [-3442.69705069]
 [14869.76505649]
 [ -430.05652787]
 [-7493.0391495 ]
 [-7557.63300613]
 [ 2102.29072045]
 [-6317.10652549]
 [ -382.80624516]
 [-2065.50677871]
 [ -932.69760756]
 [ 5488.82483119]
 [-6309.51998563]
 [-3769.50892784]
 [  357.62922992]
 [ 8418.06144091]
 [-3356.77643588]
 [ 7440.45240398]
 [ 4419.68244328]
 [ 2790.77834713]
 [-6324.43337507]
 [ 3218.05142823]
 [ 2182.6311524 ]
 [-5615.87681419]
 [-4679.01768472]
 [  728.23698716]
 [   46.89174158]
 [-1212.82115449]
 [ 8030.88223271]]
