[[-2.26967947e+03]
 [-4.37411022e+04]
 [-3.13820490e+04]
 [ 8.57011378e+03]
 [-1.41204505e+04]
 [ 3.34624133e+04]
 [-3.22451225e+04]
 [ 5.65430225e+02]
 [ 1.14358915e+02]
 [-1.29435113e+04]
 [-6.96091852e+01]
 [-2.26411136e+04]
 [ 3.49592960e+04]
 [-4.19155984e+04]
 [ 2.85542270e+04]
 [-1.33160619e+04]
 [ 1.49949083e+04]
 [ 3.65144338e+04]
 [ 3.07788340e+03]
 [-3.98221672e+04]
 [ 2.03629033e+04]
 [-2.63789663e+04]
 [-4.02980419e+04]
 [ 1.32283117e+04]
 [-3.28070670e+04]
 [ 4.23036830e+04]
 [-1.39551997e+04]
 [ 3.67287804e+04]
 [ 1.96289953e+04]
 [ 3.78680285e+03]
 [ 7.58599382e+04]
 [-1.90543055e+04]
 [-5.59797682e+03]
 [-1.53388675e+04]
 [ 1.33315178e+04]
 [ 3.24321076e+04]
 [ 6.12024736e+04]
 [-2.81290489e+04]
 [-6.31562382e+03]
 [ 2.14179233e+04]
 [ 3.07140345e+04]
 [ 3.66916302e+01]
 [ 5.19929048e+03]
 [ 1.39584171e+03]
 [-1.44078290e+03]
 [ 5.31618076e+04]
 [-3.77516474e+04]
 [-1.75789018e+04]
 [-2.91288486e+04]
 [-3.87673928e+04]
 [-3.59654518e+04]
 [ 1.19903306e+03]
 [ 6.66711830e+04]
 [-3.97613450e+04]
 [ 2.83272609e+03]
 [-4.28575832e+04]
 [ 6.33854392e+04]
 [-1.49112357e+04]
 [-1.28384783e+04]
 [ 3.16055540e+04]
 [-3.12324334e+04]
 [-2.05521355e+04]
 [ 1.96615049e+04]
 [-3.15337355e+04]
 [ 1.97019265e+04]
 [ 4.38748958e+04]]
