[[ 12279.01829583]
 [-35516.36411758]
 [ 64417.28840518]
 [-29961.45341422]
 [ -5176.37044632]
 [-30118.97624208]
 [-26412.21188089]
 [-11433.23027726]
 [-26893.73551691]
 [ 47749.0296499 ]
 [ 41926.24000273]
 [-12376.2035133 ]
 [ 13710.97629544]
 [  2323.11907222]
 [-24325.1640717 ]
 [-30237.90518699]
 [-15542.04328299]
 [ 32340.99727116]
 [ 40903.62911829]
 [ 18998.19398942]
 [ 13738.49751159]
 [-38714.11585501]
 [ -9723.04788154]
 [   575.34636386]
 [-25467.76368639]
 [ 33078.12897754]
 [-18779.24071587]
 [ 23646.04436837]
 [  6906.16078589]
 [-15152.67302   ]
 [  2190.37225415]
 [ 11857.32925797]
 [  5501.38673701]
 [ 78936.10565676]
 [  -956.23996265]
 [-38150.88967712]
 [-32330.24286086]
 [ 16597.76648253]
 [  -196.77774793]
 [ 41639.36180675]
 [  6383.01486629]
 [-16621.06188307]
 [ 13535.86655686]
 [ 41677.01080203]
 [-10135.66382442]
 [-13283.95882071]
 [-32677.20587857]
 [-24537.2191456 ]
 [-26411.5187573 ]
 [-24220.72622669]
 [ 26279.84183401]
 [ -3911.55397583]
 [-17927.16849197]
 [ 39685.19608217]]
