[[-39532.31903467]
 [ -9050.1901423 ]
 [ 18514.7384428 ]
 [ 78645.24932609]
 [ 21951.71841384]
 [ 24990.56554965]
 [ 71532.16558485]
 [103979.64204982]
 [ 18495.65625712]
 [-26332.60300385]
 [ -3364.44829671]
 [-36058.37216612]
 [ 18712.03293671]
 [-31181.04151254]
 [-27429.75453052]
 [-31333.75702073]
 [ -6519.34968849]
 [ 56627.65577607]
 [ 10669.07552616]
 [ 18451.43566813]
 [-26924.34754751]
 [ 12944.20628654]
 [ 12552.50454414]
 [-38006.12683181]
 [ 13960.42070948]
 [-14104.50759437]
 [ 14852.48325221]
 [ 18291.67200296]
 [-12767.89740574]
 [-34954.26711959]
 [ 18284.72507136]
 [-36515.28737904]
 [  1982.76508162]
 [-20131.04133269]
 [ 45415.28599647]
 [-25516.76155928]
 [  9444.18652787]
 [ -2083.20094555]
 [  4313.71023887]
 [ 40400.56875739]
 [-23026.97846169]
 [-18218.95309883]
 [ 12665.50638568]
 [-22316.51630374]
 [-36560.66095851]
 [-32797.87124267]
 [ 54746.93643535]
 [ 11117.1541789 ]
 [ -5653.7126322 ]
 [ -4349.73164004]
 [-19870.15472135]
 [-35706.94147985]
 [ 22424.22543757]
 [-18487.8247517 ]
 [-39152.54987142]
 [  2890.18048429]
 [ 19744.75770679]
 [-16585.17481435]
 [ 72586.64437449]
 [ -9397.61913152]
 [-37461.18834753]
 [-37978.96697242]
 [ 11567.2599886 ]
 [  4618.96966842]
 [-33867.36572372]
 [-34136.61539724]
 [ 39714.50053682]]
