[[ 4.13202572e+03]
 [ 1.73665247e+04]
 [ 4.26364651e+04]
 [-3.16236651e+04]
 [ 4.29518172e+04]
 [-3.66778762e+04]
 [ 2.17453868e+04]
 [ 2.99446786e+04]
 [-2.57410532e+04]
 [-2.16969158e+04]
 [ 1.30389005e+04]
 [ 4.27824404e+04]
 [-2.44729955e+04]
 [ 5.31351373e+03]
 [-2.19058012e+04]
 [-2.80327865e+04]
 [-1.95067016e+04]
 [-3.19070767e+04]
 [ 3.21731402e+04]
 [-6.68587761e+03]
 [-2.14282863e+04]
 [ 2.52447912e+04]
 [ 8.81250845e+04]
 [ 2.43850274e+04]
 [-7.98843411e+03]
 [ 2.26892543e+03]
 [ 2.81742737e+04]
 [ 8.57998016e+03]
 [ 2.33106846e+04]
 [ 4.16283725e+04]
 [-5.60190319e+03]
 [ 2.95065695e+04]
 [-3.95387826e+04]
 [-2.13794463e+04]
 [-2.84199839e+04]
 [ 3.16392572e+04]
 [-3.64420900e+04]
 [ 2.94836437e+04]
 [-2.45815232e+04]
 [-1.37948682e+03]
 [-3.98180913e+04]
 [-3.70594516e+04]
 [-1.94687737e+04]
 [-3.04578812e+04]
 [ 3.23509481e+04]
 [-3.16036828e+03]
 [-1.87131241e+04]
 [-1.11310256e+03]
 [-3.17145697e+04]
 [-1.04592375e+04]
 [ 2.43510428e+04]
 [-7.30970158e+01]
 [-1.75358995e+04]
 [-4.95667925e+03]
 [-1.68044501e+04]
 [-3.23614557e+03]
 [-1.60661687e+04]
 [ 4.32326059e+03]
 [-2.75353294e+04]
 [-6.70064185e+03]
 [ 4.66570510e+04]
 [-3.53461913e+04]
 [ 2.08069042e+04]
 [-5.97478099e+03]
 [ 7.17944043e+04]
 [-2.40773296e+04]
 [-2.04574765e+04]
 [-2.25454629e+04]
 [-3.82709364e+04]
 [ 1.00485156e+04]
 [ 1.98302977e+04]
 [-3.31728161e+03]
 [ 5.92052026e+04]
 [ 1.70183760e+04]
 [ 1.53313494e+04]
 [-3.62756985e+04]
 [ 4.07723679e+04]]
