[[ 1.79221806e+04]
 [ 2.02608845e+04]
 [-1.44202954e+03]
 [-3.48097830e+03]
 [-1.62341902e+04]
 [ 1.07012230e+04]
 [ 1.59184269e+04]
 [ 3.71425596e+04]
 [-3.01025115e+04]
 [-3.66628739e+04]
 [-3.87537082e+04]
 [ 6.78359027e+04]
 [-2.53999480e+04]
 [-9.01400391e+03]
 [-2.94691972e+04]
 [ 1.23683433e+04]
 [ 4.90649506e+04]
 [-3.86674073e+03]
 [-3.58517913e+04]
 [ 3.93974165e+04]
 [ 2.51920259e+04]
 [-1.22812826e+04]
 [-2.72526098e+04]
 [ 5.38969382e+04]
 [ 3.24083928e+04]
 [-1.44919313e+04]
 [ 4.01458458e+04]
 [-1.96371877e+02]
 [-2.05771835e+04]
 [-1.77700777e+04]
 [ 3.62779816e+04]
 [ 7.97014706e+03]
 [ 2.11584822e+04]
 [ 7.71219175e+03]
 [ 2.02480378e+03]
 [-1.60166541e+04]
 [ 1.85653094e+04]
 [ 1.22414271e+03]
 [-7.67519516e+03]
 [-3.10326718e+04]
 [ 1.59270456e+04]
 [ 2.72606540e+04]
 [-2.18413612e+04]
 [ 2.56758951e+04]
 [-3.42929883e+04]
 [-2.60798507e+04]
 [ 3.18799552e+04]
 [ 3.71312477e+04]
 [-8.89357228e+03]
 [-3.45549385e+04]
 [ 3.18809702e+04]
 [-3.57536080e+04]
 [-2.26405320e+04]
 [-1.77345894e+04]
 [ 1.08601050e+04]
 [-3.62885748e+04]
 [ 1.01166961e+04]
 [-4.94758592e+03]
 [ 2.97000911e+04]
 [-3.86474728e+04]
 [-1.72970310e+04]
 [ 9.99631808e+03]
 [ 2.16046435e+04]
 [ 1.99784357e+04]
 [ 1.42678313e+04]
 [-2.64214079e+04]
 [ 3.44171788e+04]
 [ 1.01488177e+04]
 [-3.82870263e+04]
 [-2.76134967e+04]
 [ 7.32846010e+03]
 [ 2.41658519e+04]
 [-2.70905254e+04]
 [-1.38933546e+03]
 [ 1.35311630e+04]
 [-2.40519229e+04]
 [-6.27955158e+03]
 [-2.21111354e+04]
 [ 2.72386468e+04]
 [-8.27065121e+03]
 [-5.31606787e+03]
 [-5.79211320e+03]
 [-1.44524497e+04]
 [-1.61141852e+04]
 [ 1.24179607e+04]
 [ 1.17136226e+04]
 [-3.30522305e+04]
 [ 5.74874776e+04]
 [ 3.27016800e+04]
 [ 2.80037579e+04]
 [-2.37956707e+04]
 [ 2.33918527e+03]
 [ 8.02484386e+03]
 [-2.15146858e+04]
 [ 2.23186467e+04]
 [ 1.96654045e+02]
 [ 5.80881616e+03]
 [-1.71557127e+04]
 [-3.56915790e+04]
 [ 4.06991235e+04]
 [-1.68018851e+04]
 [ 2.32574904e+04]
 [ 2.44930454e+04]
 [-3.84806993e+04]
 [-2.66586013e+01]
 [-8.26169069e+03]
 [-3.60910127e+04]
 [ 1.13588699e+04]
 [-2.19241737e+04]
 [-5.67410930e+03]
 [-2.24768933e+04]
 [-1.90026580e+04]
 [-9.36811893e+03]
 [-2.74889441e+04]
 [-3.56639891e+04]
 [-1.50828661e+02]
 [ 3.51737113e+04]
 [-2.53790898e+04]
 [-3.85124445e+04]
 [ 2.09168497e+04]
 [ 4.03703316e+04]
 [ 7.52527018e+03]
 [ 1.15921254e+04]
 [ 1.86586981e+04]
 [-3.72464820e+04]
 [ 2.85946010e+04]
 [ 2.08147137e+04]
 [-1.56280312e+04]
 [ 5.39018555e+03]
 [ 2.95825348e+04]
 [-3.41860886e+04]
 [ 1.90720616e+04]
 [-1.55028120e+04]
 [ 3.93332281e+04]]
