[[-10344.28292123]
 [ 44594.71747057]
 [ -3446.47641123]
 [ 18644.80405957]
 [ -4592.40224715]
 [-36695.92673558]
 [ 11475.66149806]
 [ 47566.12908604]
 [ 12139.54871732]
 [-30133.57042249]
 [ 13046.78205816]
 [-28093.37598679]
 [-15345.47446318]
 [ 69589.1739737 ]
 [  2765.56812911]
 [-51259.38754445]
 [ 66293.82448768]
 [ 32310.61819207]
 [-55241.40114056]
 [-51448.31989037]
 [-12861.95363902]
 [ 25259.41575458]
 [-38445.34409072]
 [ 77823.60855114]
 [-34744.73286968]
 [-26708.46444117]
 [-38370.21137672]
 [  6846.75070069]
 [-50124.7007948 ]
 [-33157.72299979]
 [-10141.70324657]
 [-25664.7574687 ]
 [-26871.23572402]
 [ 39608.91754097]
 [-27030.16715346]
 [ -4217.59661933]
 [ 10506.22452797]
 [ 10886.74916612]
 [-51395.26894045]
 [ -5098.650271  ]
 [ 16258.22154821]
 [ 17461.79086136]
 [ 24445.43003435]
 [ 50507.83092787]
 [ 49913.77365582]
 [105671.48519583]
 [-13350.89383763]
 [-10435.88876246]
 [-38804.48012581]
 [ 44292.62287434]
 [  2912.6965611 ]
 [ -8432.47137794]
 [-32375.92464519]
 [  4139.81193698]
 [ 67084.81251057]
 [-23125.44945948]
 [-26406.09725209]
 [ 58183.87832384]
 [ 40289.6517304 ]
 [  5908.0845388 ]
 [ 17969.99395239]
 [ 13479.28424927]
 [-49498.03115205]
 [-21423.33719456]
 [-15747.17620598]
 [ -3719.09240118]
 [ 46236.61455713]
 [-32721.51591639]
 [ -1531.08051243]
 [  2829.29136433]
 [  8275.29139964]
 [  1978.76434054]
 [ -6575.35257157]
 [-32530.23454622]
 [ 61974.88640891]
 [ 44718.24727239]
 [-30985.42678848]
 [ -1435.44935484]
 [ 20859.48621687]
 [ -1801.09677634]
 [-10933.53830311]
 [-22961.60149776]
 [ 20897.42867008]
 [ -6628.4499547 ]
 [ -4560.82945779]
 [ 34456.20104677]
 [ 27654.85818028]
 [-37784.71357266]
 [ 25268.51883381]
 [-20956.06474308]
 [-33950.12335927]
 [ 28677.37382671]
 [ 32007.976613  ]
 [-18995.12477192]
 [-48472.46299237]
 [ -5421.05721595]
 [-44869.27197303]
 [-42272.00115638]
 [-13608.38269914]
 [-29967.05356904]
 [ 59902.89712979]]
