[[  8306.58201951]
 [ 39209.77784577]
 [ 29383.56052968]
 [ -4703.00954183]
 [-33637.67052642]
 [-23881.47974517]
 [-36140.78135831]
 [ -5301.50409117]
 [ 10020.02559922]
 [-36160.59839328]
 [ -6253.03534652]
 [  -680.42585101]
 [  6053.79841904]
 [-32945.07585669]
 [-30521.22884725]
 [ 14913.70184169]
 [ 33340.44150138]
 [-33884.94621558]
 [ 21206.16079333]
 [-18693.11672602]
 [-36761.85451922]
 [ 74961.68932137]
 [ 12161.38714574]
 [-33037.87877218]
 [ 17761.54975962]
 [  5029.92600848]
 [ 49178.6664396 ]
 [-24381.44380358]
 [ -5031.15300467]
 [-32132.64876886]
 [ 42006.94556509]
 [ 37241.17146428]
 [ 17972.58595908]
 [-16766.4359021 ]
 [-28922.77919679]
 [ 16184.04775504]
 [  7495.25876016]
 [-22088.8562894 ]
 [-27322.37818289]
 [  5592.07114034]
 [-10750.16505042]
 [ 30595.04707189]
 [ 52905.23425002]
 [ -6965.44447209]
 [   534.57549676]
 [ -7651.46952083]
 [ 11216.67950899]
 [-26460.7107308 ]
 [ 60780.61206329]
 [-36482.51288791]
 [-23035.80039404]
 [-35868.08078217]
 [ -8514.51440388]
 [ -4341.39569366]
 [ 33560.44957594]
 [ 46323.82185387]
 [-34617.37281443]
 [ 37197.98979538]]
