[[-30824.69691107]
 [-37420.33771663]
 [ 53718.59178391]
 [ 48185.37672912]
 [-35347.63252996]
 [-18374.14823458]
 [ 74541.62190472]
 [-30691.13563304]
 [-14704.03354017]
 [  -161.27916652]
 [ 14097.06645281]
 [-34208.99806555]
 [-36013.23644396]
 [-39102.71252118]
 [-33189.69849415]
 [-33139.73969111]
 [-18839.89388097]
 [ 48982.82851765]
 [ 25257.85502393]
 [ 42069.22701392]
 [ 48003.19037367]
 [-34980.66520018]
 [ 33476.38707192]
 [  6729.81402377]
 [ 20336.45197279]
 [ 35284.13675721]
 [ 15088.35352455]
 [   184.95562102]
 [ 16719.66504818]
 [-30505.86275136]
 [-34924.83432132]
 [  2248.57735357]
 [-36989.02822621]
 [-38166.33014196]
 [ 61842.68474883]
 [-26664.35371184]
 [ 28428.21677296]
 [-16937.22865307]
 [ 79569.17223324]
 [  -849.40483789]
 [-29052.44936627]
 [-28317.63386304]
 [-25309.38530127]
 [-25462.84183235]
 [-37496.08059158]
 [ 48801.81015454]
 [-18761.58200339]
 [  6773.30158359]
 [  2201.93395239]
 [ 57003.68573097]
 [ 53697.21348226]
 [ 49242.87086724]
 [-27078.38816033]
 [-28220.77681489]
 [ 28466.4252398 ]
 [  8242.6741297 ]
 [ -3004.85827686]
 [-27800.59294081]
 [ 51446.74596103]
 [-31514.12686394]
 [ 66364.39714596]
 [-30145.31833453]
 [-15103.9166536 ]
 [  2222.25365858]
 [ 11034.36481758]
 [-18685.32328525]
 [-37931.47340097]
 [   973.93548011]
 [-16046.94075076]
 [-23117.38664742]
 [ -5153.2987243 ]
 [ 63067.5454083 ]
 [-21808.08949813]
 [ -6607.54545393]
 [-12878.15533614]
 [  5126.90177982]
 [   315.12833812]
 [-38135.48187716]
 [-36104.3401571 ]
 [ -2697.50822112]
 [ 18723.38437014]
 [ 40083.85882977]]
