[[ 5.07200330e+03]
 [-7.16916580e+03]
 [-3.10008117e+03]
 [-2.96397071e+03]
 [-6.33192575e+03]
 [-1.91682341e+03]
 [-9.61163314e+00]
 [-4.48789170e+03]
 [ 7.36055219e+03]
 [-3.44411137e+03]
 [ 2.03741977e+03]
 [ 1.03134426e+04]
 [ 9.96515816e+02]
 [-1.95430482e+03]
 [-1.24085455e+03]
 [-1.60847597e+03]
 [ 4.47206566e+03]
 [-1.11617919e+03]
 [-1.68938078e+03]
 [-5.40945109e+03]
 [ 1.07150921e+04]
 [ 9.99666804e+03]
 [-5.32697907e+03]
 [-6.98976911e+03]
 [-6.03232925e+03]
 [ 1.63894766e+04]
 [-6.51894322e+03]
 [-7.22365138e+03]
 [ 8.35624396e+03]
 [ 8.73560224e+02]
 [-5.53053602e+03]
 [-3.95429217e+03]
 [-2.15267582e+03]
 [ 2.35894513e+03]
 [-3.93660466e+03]
 [-1.28239185e+03]
 [-4.89766228e+03]
 [ 6.20862257e+03]
 [ 4.38950801e+03]
 [-4.94623209e+03]
 [ 2.72151137e+03]
 [ 6.75722960e+02]
 [ 3.05124904e+02]
 [ 1.17086653e+04]
 [ 1.83568228e+04]
 [ 6.23484011e+03]
 [ 5.14132023e+03]
 [-3.17561180e+03]
 [-7.34644372e+03]
 [-2.46823257e+03]
 [-6.71781122e+03]
 [ 5.22351640e+03]
 [-2.56064901e+03]
 [-5.07271423e+03]
 [ 4.46584432e+03]
 [-7.54315830e+03]
 [ 3.06780549e+03]
 [ 1.19798688e+03]
 [ 1.00924144e+04]
 [-2.38647085e+02]
 [-1.95102837e+03]
 [ 4.26664051e+01]
 [-3.70856544e+03]
 [-4.37386147e+03]
 [ 7.26343034e+03]
 [-3.83041757e+03]
 [-5.02822363e+03]
 [-2.39857997e+03]
 [ 1.18531822e+03]
 [-5.01946476e+02]
 [-5.22214088e+03]
 [-8.03968304e+02]
 [ 3.67230276e+03]
 [ 1.63892439e+03]
 [ 3.76626943e+02]
 [-8.03998224e+02]
 [-7.22007555e+03]
 [-2.07108680e+03]
 [ 1.26527407e+03]
 [-5.97363532e+03]
 [-1.14247723e+03]
 [-5.90762844e+03]
 [ 4.60217060e+03]
 [-3.64990284e+03]
 [-6.91037206e+03]
 [ 7.16899082e+03]
 [-8.45100291e+01]
 [-6.17143983e+03]
 [ 4.53480650e+03]
 [ 9.28043071e+03]
 [ 1.67361727e+03]
 [-1.92775416e+03]
 [-8.00843396e+02]
 [ 9.66415392e+02]
 [-1.85359473e+03]
 [ 1.85525312e+03]
 [ 2.33772149e+03]
 [ 5.17160242e+03]
 [-2.95609676e+03]
 [-1.17532201e+02]
 [ 8.19307432e+03]]
