[[ 60409.6507273 ]
 [  7061.96651967]
 [ 14667.62961355]
 [ 20873.33972282]
 [  4910.97141099]
 [ 14269.51237095]
 [  2364.60281103]
 [-24652.06773183]
 [ 26373.00234077]
 [-28053.69060868]
 [  4455.64620832]
 [ -3286.33872735]
 [  -403.35411463]
 [-20223.28774938]
 [ 12420.4432229 ]
 [-28115.91614193]
 [-23814.03241991]
 [-15165.75677261]
 [-40587.51922998]
 [-29257.7651852 ]
 [-21816.58241342]
 [ 13849.9482315 ]
 [ 71052.16880775]
 [-38777.47889467]
 [ 11621.23904293]
 [102070.04922811]
 [ 10002.52132295]
 [ -3012.31409386]
 [ 92195.95324816]
 [  3006.10146588]
 [ -4216.8373982 ]
 [-21259.29444707]
 [-20527.27685013]
 [-28722.28965459]
 [ 43135.0345426 ]
 [-41245.00138443]
 [-14417.73855675]
 [-20484.51373755]
 [ -4784.15480713]
 [-29960.71655468]
 [ -6870.77488047]
 [ 72604.73327306]
 [-40684.67494722]
 [ 12806.11309337]
 [  9696.30435959]
 [ 14907.55798514]
 [-39610.26987419]
 [-42427.36311661]
 [  4541.07592836]
 [ 42762.83657279]
 [ 19391.35437738]
 [-40668.32629189]
 [-11164.12615676]
 [-21316.06801793]
 [-33820.47216777]
 [ -5843.10734205]
 [-22374.07193102]
 [-39328.72366247]
 [ 16082.07460282]
 [-29273.43141161]
 [-39257.18782137]
 [-41042.9704267 ]
 [-35057.51869365]
 [  4430.27598955]
 [ -4558.28569547]
 [ 31781.11713349]
 [-14502.16320608]
 [ 67699.62042676]
 [-41217.9064665 ]
 [-39448.61993611]
 [-37743.32583707]
 [-14177.51732077]
 [ 44355.55140423]
 [-27602.87534872]
 [  5677.69779755]
 [-10775.03233994]
 [-30320.06016289]
 [-23900.10390464]
 [  6437.6612636 ]
 [-22014.91387809]
 [ 63252.58582978]
 [-40012.81453779]
 [ 31277.76914984]
 [ 60762.88780905]
 [-21544.60673509]
 [ 28525.97124411]
 [107096.88798507]
 [113806.57709504]
 [-18114.06243611]
 [  5660.97713713]
 [  6317.38315824]
 [-33037.37425218]
 [-15627.51358357]
 [ -6857.5010713 ]
 [-34029.69084845]
 [ 31194.82583394]
 [-14418.0532865 ]
 [ 63558.92133601]
 [-17943.10656109]
 [ 43113.95370129]]
