[[-19066.57809404]
 [ 91743.33573688]
 [-34669.50344625]
 [-25654.67331424]
 [-33063.4198928 ]
 [ 24012.7026198 ]
 [-31627.80685063]
 [ 24365.27491561]
 [-32641.20184761]
 [ 66545.40604669]
 [ 10808.4048379 ]
 [ 54580.30176615]
 [-17889.47699154]
 [-11256.62128892]
 [  3562.24319479]
 [-39277.03631985]
 [-33212.17791664]
 [-15693.2287219 ]
 [ 35512.34856447]
 [ 51839.45631451]
 [ 71411.70284737]
 [-38133.76236152]
 [  7632.31373164]
 [ 83626.06702895]
 [ 67417.58272778]
 [-26353.33505243]
 [-30917.66918428]
 [-16082.50738062]
 [-29046.8748464 ]
 [-27829.60612188]
 [ -2276.2971607 ]
 [-34530.14971561]
 [-20570.89611384]
 [  4663.20850254]
 [-35634.2685925 ]
 [-29217.61441178]
 [ 43354.9624272 ]
 [-15029.50063437]
 [ -2546.62572829]
 [-35659.05404543]
 [ 42791.45489045]
 [-28506.65791771]
 [-18356.39717322]
 [ 61702.19693792]
 [ 26156.57234014]
 [ -1053.70793037]
 [ 78581.15494313]
 [ 48834.33771891]
 [ -1840.43371804]
 [-39000.01339201]
 [ -8288.04019068]
 [ 11017.94361581]
 [ -8527.37581288]
 [-33092.48028478]
 [ 28452.44054309]
 [-26139.37947402]
 [-37976.23228566]
 [ 35809.29877569]
 [-34903.1001596 ]
 [-11205.5784738 ]
 [-36491.69554053]
 [-11957.18561723]
 [-40663.01182835]
 [ 45043.43585626]
 [-27161.02948732]
 [ 17837.78844716]
 [ -1197.71657215]
 [-17320.54526055]
 [ 40427.55581522]
 [ -6350.01014854]
 [ 15811.68946359]
 [  6718.91995748]
 [ 27354.11010866]
 [-41590.6340321 ]
 [  3323.64859585]
 [-43207.40141791]
 [-41356.93159871]
 [ 28615.41807328]
 [-42628.40502347]
 [-42134.11753134]
 [-11118.3782516 ]
 [  1550.12283344]
 [-34768.99443923]
 [ 24098.42062634]
 [  9408.97611947]
 [ 12955.01945635]
 [ -9415.8474627 ]
 [ 56491.55385319]
 [ 30073.81682487]
 [ 43384.9461851 ]]
