[[-5.00287304e+03]
 [-2.92489061e+04]
 [-2.59184506e+04]
 [-2.58751415e+04]
 [ 2.86439058e+04]
 [-2.61022239e+04]
 [-2.95181761e+04]
 [-8.62201757e+03]
 [-3.69267367e+04]
 [ 3.36128603e+04]
 [ 3.51860194e+04]
 [-1.14081275e+04]
 [-3.20585456e+04]
 [ 7.27159209e+00]
 [-3.83485429e+04]
 [-2.49685165e+03]
 [-3.57852251e+04]
 [ 7.03434395e+04]
 [ 3.86243660e+04]
 [-3.87135066e+03]
 [-3.16105540e+04]
 [-1.65023007e+04]
 [-3.50184384e+04]
 [-3.80213449e+04]
 [ 2.14940951e+04]
 [ 1.00876483e+05]
 [ 4.36674883e+04]
 [ 3.20095314e+04]
 [-1.75730626e+04]
 [-4.14057291e+03]
 [ 3.86051419e+03]
 [ 7.20496950e+03]
 [-1.73944372e+04]
 [ 3.58008960e+04]
 [-3.17992724e+04]
 [ 5.50700222e+03]
 [ 2.42624427e+04]
 [ 8.86602783e+03]
 [ 4.13214046e+04]
 [-2.27864321e+04]
 [ 1.60578773e+04]
 [-3.10804110e+04]
 [-2.97863475e+04]
 [-5.79860514e+03]
 [-3.81412223e+04]
 [-1.28408036e+04]
 [-3.46290480e+04]
 [ 1.55023056e+04]
 [-8.53570645e+03]
 [ 3.39096142e+04]
 [-3.46046073e+04]
 [ 2.59634080e+03]
 [ 1.64262268e+01]
 [ 1.78847322e+04]
 [ 5.28129927e+03]
 [-1.78821261e+04]
 [ 3.08949635e+04]
 [ 1.38678078e+04]
 [-6.27605864e+03]
 [-2.06877666e+04]
 [ 2.26674987e+04]
 [-3.41518533e+04]
 [ 7.15870842e+04]
 [-2.83057510e+04]
 [-6.02648930e+03]
 [-3.19479913e+04]
 [ 4.14063684e+04]
 [ 2.46181686e+04]
 [-3.76506811e+04]
 [ 5.91636228e+03]
 [-3.67035691e+04]
 [-3.58589749e+04]
 [ 3.62214097e+03]
 [ 3.48886955e+04]
 [-2.06814070e+04]
 [ 2.15764807e+04]
 [ 4.07174222e+02]
 [-3.48469270e+04]
 [-3.11099937e+04]
 [-4.07840361e+03]
 [ 2.20517409e+04]
 [-1.67634903e+04]
 [ 1.11742068e+05]
 [ 3.64572551e+04]
 [-1.21371214e+03]
 [ 2.13904085e+04]
 [ 4.06029807e+04]]
