[[  3205.2685678 ]
 [-26025.81249296]
 [-30929.88513071]
 [ 24366.50799081]
 [-45328.72227991]
 [-27117.81416792]
 [ -6862.62544665]
 [-34591.69057406]
 [ 10995.57472309]
 [ 86316.85020708]
 [  6680.65681997]
 [ 19198.02698025]
 [  7340.44159015]
 [-40056.84849116]
 [-31733.46675974]
 [-45392.34710332]
 [ 19786.6502087 ]
 [ -9153.26717692]
 [-30254.5195256 ]
 [-31214.32114825]
 [ 28541.09543735]
 [  3174.03187782]
 [-21110.58921264]
 [ 33807.29930329]
 [  4982.80604635]
 [-15744.41390074]
 [ 41579.52278504]
 [-12176.17489531]
 [-12163.2569238 ]
 [ -9506.20116362]
 [ 43131.35071342]
 [-26507.35766091]
 [-28013.39223178]
 [-37101.26892719]
 [ 53109.4315478 ]
 [ 53791.09553398]
 [ 20780.03665606]
 [ -6123.39930861]
 [-38647.37161183]
 [-32839.32175252]
 [-11411.21861675]
 [  1382.50651389]
 [ 55163.20664675]
 [ 84970.21749223]
 [ 14452.57845598]
 [ 67939.24035311]
 [-16808.75033351]
 [ 30818.52151932]
 [  8665.02362957]
 [-35089.7049951 ]
 [ -9707.50644945]
 [ -9363.3345145 ]
 [-13774.89772646]
 [ 58202.01076686]
 [  4401.87807384]
 [-30160.83661359]
 [ 15221.13089309]
 [-23968.59766352]
 [-23094.80940949]
 [ -1754.41973552]
 [ 20474.78102056]
 [-32695.13107246]
 [  -422.07503339]
 [  9313.88626078]
 [-17908.26089225]
 [ 22029.19527804]
 [-29067.21295084]
 [ 45839.80770617]]
