[[ 6546.24895552]
 [-2787.24182663]
 [-4334.48693051]
 [-4764.38148441]
 [-6729.85426353]
 [-4862.98438736]
 [ 4894.15446348]
 [11602.70457876]
 [-2977.93082628]
 [-3639.94608315]
 [ 7668.09820026]
 [ 2059.59108199]
 [-3195.7562048 ]
 [19525.5020325 ]
 [-5909.40784353]
 [ 2871.05853494]
 [-6390.17438621]
 [ 1086.80076783]
 [-4207.06989129]
 [-3507.6707285 ]
 [-4667.5814666 ]
 [-1491.16213202]
 [-1667.25477437]
 [11038.16526426]
 [ 8484.08230921]
 [-7059.91288796]
 [ 3349.5002558 ]
 [-6196.34355988]
 [  162.72132572]
 [-2798.54493681]
 [ -671.33321146]
 [ -985.36052137]
 [ 6246.00528718]
 [-1545.35956835]
 [ -629.5172729 ]
 [-3361.36221246]
 [15236.62902975]
 [ 2333.31096409]
 [-5640.09495087]
 [  884.51306321]
 [ 1005.22897401]
 [  287.10961295]
 [ 3876.83516501]
 [-3731.01742021]
 [-2654.36780692]
 [-3239.10337992]
 [ 1428.58746312]
 [-3703.88501182]
 [ 3758.58957672]
 [-4046.82751635]
 [-4296.2848083 ]
 [ 6957.2678376 ]
 [ 3299.17953967]
 [-2671.57425535]
 [-1375.42495732]
 [ -346.19635311]
 [  775.36838619]
 [-3803.31104619]
 [-7495.01902871]
 [ 1363.3313877 ]
 [-6161.90450519]
 [ 1291.85580691]
 [-4887.5259731 ]
 [-2451.17318491]
 [-5328.32650633]
 [ 6941.11424933]
 [ -682.68508894]
 [-1499.3982021 ]
 [-5941.85039237]
 [-6617.6278204 ]
 [-2302.18730613]
 [ 4090.74306233]
 [-1204.50524698]
 [-3969.05411161]
 [ 4779.39313168]
 [-1847.43276877]
 [-3006.96053859]
 [ -629.51520639]
 [ 6199.73672756]
 [ 4148.66123307]
 [ 4294.8199639 ]
 [ 7728.24958767]
 [-1050.1344169 ]
 [  -57.71496363]
 [  245.88316656]
 [-5973.82625323]
 [ 9970.90483938]
 [ 1030.43134852]
 [ 7696.89951756]
 [-1918.15804041]
 [ 5403.50967426]
 [-1505.44946778]
 [-3516.04447488]
 [ 7892.44030278]
 [-2747.63155975]
 [-5835.99284418]
 [-6226.75613179]
 [ 2107.34764521]
 [ 4417.79147958]
 [-2234.76685398]
 [ 7605.1090586 ]]
