[[ -1845.99333265]
 [  7104.19816187]
 [ 20030.66531252]
 [ 32103.58164194]
 [-45713.53595238]
 [ 11682.70372214]
 [  -432.58111197]
 [ 53454.34794689]
 [ 12844.75644609]
 [ 21897.19612888]
 [-50555.49771157]
 [107904.90720472]
 [-46582.59734677]
 [-36730.60730674]
 [-20938.6956172 ]
 [  4264.82258021]
 [  6743.15944602]
 [ 26393.43648365]
 [   509.09220765]
 [  4850.31212557]
 [-48268.76881302]
 [-38700.13523488]
 [ 87524.19280183]
 [  8040.32825881]
 [ -4156.64824645]
 [ 10740.30514655]
 [ 30453.39468791]
 [ 51868.35942738]
 [ -2926.69618943]
 [-13773.79021858]
 [-43703.62857394]
 [ 47735.20346502]
 [-21694.28735005]
 [  -510.96246147]
 [-21748.19588324]
 [ -5645.0182447 ]
 [ -8101.72977883]
 [-33352.21640134]
 [ 39323.0866257 ]
 [-42763.43460879]
 [ -5846.70154608]
 [ 38842.96496098]
 [-14321.10352917]
 [ -8655.06461644]
 [ 52340.00958815]
 [-36906.43189773]
 [-10661.98455179]
 [-49130.45538111]
 [-16552.32908386]
 [-30609.88940253]
 [-22159.08026763]
 [ 43209.137049  ]
 [-18449.84082009]
 [ 23443.50477179]
 [ 82723.31499457]
 [-47576.12344033]
 [ 73731.65486232]
 [ 38513.58379603]
 [-26655.00592535]
 [ -9638.18586566]
 [-36832.58022111]
 [ 58942.64698382]
 [-30819.29714156]
 [-14382.54217318]
 [ 15739.22622704]
 [-18961.46222778]
 [-34868.6208922 ]
 [ 17448.51107867]
 [ 17688.90086801]
 [-10150.05646981]
 [-46983.87088607]
 [-15045.22611903]
 [-28287.89192609]
 [-22047.47011902]
 [-32903.14300348]
 [-41860.32789567]
 [  4469.42147415]
 [ 34885.18235325]
 [ 26448.78574084]
 [-14740.11736377]
 [ 18509.02094039]
 [-23903.30011686]
 [ -1533.04702734]
 [-22276.11183294]
 [  8390.07592925]
 [ -6870.61214393]
 [ 13982.8383811 ]
 [  -504.14713643]
 [ 21244.05057239]
 [ 27637.5120569 ]
 [ 17413.84899758]
 [-16207.58240132]
 [ 18345.29154759]
 [ 20153.98484491]
 [-29659.54185924]
 [ 31276.19758952]
 [-18577.93767861]
 [-22896.23716677]
 [-21197.54691654]
 [  5968.17200088]
 [ 51620.47633471]]
