[[-13301.24704902]
 [ 24086.89323685]
 [-29988.79985629]
 [ 37814.38934495]
 [-33090.52725317]
 [-28712.36908563]
 [ 15244.53642528]
 [-28808.47454879]
 [-12086.21970711]
 [  5706.69299949]
 [-20174.61058767]
 [   804.7848252 ]
 [ -7414.89930236]
 [ -3142.22195977]
 [-31271.51314424]
 [ 18511.84630793]
 [ -5907.66826867]
 [-17427.30500788]
 [ 82457.65630524]
 [  1954.85639989]
 [  5386.37793998]
 [ -9770.30643339]
 [ 75545.54066356]
 [ -5662.34212477]
 [ -6797.1457371 ]
 [ -9536.3587898 ]
 [ 27100.99822032]
 [ 11646.26885283]
 [  2418.59473318]
 [-30395.01039626]
 [-15336.11238388]
 [-28935.19968244]
 [-24639.61545911]
 [  -522.02048344]
 [-32504.40342114]
 [ 61942.91781026]
 [ -3328.17267392]
 [ 21015.72972405]
 [-22392.43657625]
 [ 50317.44462434]
 [-32556.92449493]
 [-27780.72699314]
 [ -9057.04876907]
 [-12368.39382208]
 [-29139.92464699]
 [  8427.28833529]
 [-10444.02815418]
 [-31796.85784966]
 [ 33977.70693013]
 [  2745.88310116]
 [ 52593.2921473 ]
 [ 12250.39883068]
 [  1453.3254551 ]
 [-24203.87043859]
 [ 52466.4087754 ]
 [ 36331.76410432]
 [-17767.1307705 ]
 [  9004.03273529]
 [ 24575.76601166]
 [-20074.50732162]
 [-27083.52760303]
 [-20653.87727208]
 [ -8771.46097714]
 [-13306.81045495]
 [  9711.0691353 ]
 [ 18217.73991942]
 [ -4858.76856766]
 [-26363.02877439]
 [-27218.86942522]
 [-16484.48220453]
 [ 15586.03257978]
 [ -7944.30912375]
 [ -6339.57759976]
 [ 64883.44272823]
 [-19654.78952696]
 [ -6653.20244121]
 [  1440.58215765]
 [ 29490.24834941]
 [ 25029.34860224]
 [-19883.89750734]
 [ 35810.60599296]
 [ 22628.83366092]
 [ -6108.2309777 ]
 [  8706.42900349]
 [-28901.25527902]
 [-20722.08472308]
 [-10003.16131836]
 [ 33825.50410673]]
