[[-36425.4005506 ]
 [ 28360.34449105]
 [ 17764.93509463]
 [-15099.13835334]
 [  9314.3620608 ]
 [ 19601.8700741 ]
 [ -4344.57987696]
 [ 27323.33461516]
 [ -8854.55699539]
 [-39892.64819639]
 [ 12414.66735403]
 [-11755.54766919]
 [ 43206.46084136]
 [-11274.01192696]
 [  -116.86467845]
 [ -7363.45410055]
 [-39539.9602947 ]
 [ -7134.96900238]
 [ -9205.56066508]
 [-41426.24788226]
 [-28351.87230387]
 [-23562.44563042]
 [ 60792.92628459]
 [ 69602.03810371]
 [ 57283.74415595]
 [ -5644.15036619]
 [-12917.88063495]
 [-38988.82633828]
 [-30125.09677891]
 [-20574.43358933]
 [  9711.46464306]
 [-28849.04939865]
 [-21955.85174977]
 [-31619.85767511]
 [ 23736.55577082]
 [ 36034.61539055]
 [-38570.01719998]
 [ 15386.99201622]
 [ 24204.55482799]
 [ 28574.35263381]
 [-40176.83292341]
 [ 90060.69654976]
 [  -513.03194818]
 [ -4576.76530488]
 [-18197.29144781]
 [-41195.95378321]
 [ 28650.29258798]
 [ 17165.65646952]
 [-38577.18734912]
 [-40933.67205989]
 [ 27422.16004735]
 [-36621.89897892]
 [-11108.66140585]
 [102190.1015989 ]
 [-23110.70269062]
 [-37695.08778846]
 [-38360.50897821]
 [  3023.50414641]
 [ 78050.11943597]
 [ -4325.54659519]
 [  6668.58575083]
 [ 48376.64295956]
 [-38335.60816828]
 [ 75537.61801048]
 [ 62435.3613327 ]
 [ 31715.622174  ]
 [-35801.64435939]
 [  3621.76544588]
 [-37141.53173913]
 [107753.91405224]
 [ 14584.76166614]
 [-11344.24535942]
 [ 50831.44986337]
 [-22436.00432953]
 [ 31305.88817401]
 [ -1176.63740641]
 [-36061.13693185]
 [-32181.47497165]
 [-40598.46789376]
 [-19778.00460598]
 [-14046.37796863]
 [  3887.33211853]
 [-38473.54448188]
 [-30630.43881784]
 [ 11644.39961373]
 [  5416.07378395]
 [  3492.76197294]
 [-10940.46949254]
 [  4604.03242879]
 [-30981.42158125]
 [-11813.42510077]
 [  -756.19463714]
 [-30269.76758396]
 [ 41771.77340064]]
