[[-3.05084513e+04]
 [-2.54525490e+04]
 [-8.79739743e+03]
 [ 1.31426071e+04]
 [-3.68648697e+04]
 [ 7.57353090e+03]
 [-3.02933219e+04]
 [-1.04111027e+04]
 [-5.82599320e+03]
 [ 9.78578951e+03]
 [-3.55622891e+04]
 [ 9.30318079e+03]
 [-3.46888692e+04]
 [-9.36913778e+03]
 [ 2.81251014e+04]
 [-7.17683520e+03]
 [-9.86396456e+03]
 [-3.83496123e+04]
 [ 1.70821154e+03]
 [ 1.26015572e+04]
 [ 4.27645964e+04]
 [-2.47090384e+04]
 [ 2.21352741e+04]
 [ 4.01649630e+04]
 [ 3.63445203e+04]
 [-3.06025688e+04]
 [ 4.56742114e+03]
 [ 2.58278437e+04]
 [-9.79076758e+02]
 [-2.37275910e+04]
 [ 1.31359937e+03]
 [-5.38714718e+03]
 [ 2.76018828e+04]
 [ 3.95201266e+04]
 [-2.93906400e+04]
 [ 3.78455443e+00]
 [-9.32507401e+03]
 [ 3.35388684e+04]
 [ 7.87131644e+03]
 [ 6.40714474e+04]
 [-3.36914144e+04]
 [ 2.90414361e+04]
 [ 6.73759570e+04]
 [-3.68267351e+04]
 [-2.44340413e+04]
 [ 2.92114497e+04]
 [ 2.51708433e+04]
 [-3.74895896e+04]
 [ 2.37871203e+04]
 [-2.22175444e+04]
 [-1.61068762e+04]
 [-1.45374570e+04]
 [-3.81016131e+04]
 [ 2.84341177e+04]
 [ 2.81671285e+04]
 [-2.83063540e+04]
 [-1.50393854e+04]
 [ 9.05237388e+03]
 [-2.55130391e+04]
 [-2.85253144e+04]
 [ 4.67304039e+04]
 [-1.55163096e+04]
 [-2.13714867e+04]
 [ 4.53371154e+04]
 [ 4.68912142e+03]
 [ 4.01161649e+04]]
