[[ 14470.23286176]
 [-21770.07847607]
 [-22626.17531946]
 [-21785.89472276]
 [ 11493.60510063]
 [-29714.10607839]
 [-29618.45041822]
 [ -8553.02869249]
 [ 26253.47345305]
 [-15761.59497477]
 [118814.78795332]
 [-37762.69437512]
 [ -5967.99513687]
 [  2802.3613092 ]
 [ -4685.85177572]
 [-19555.93396828]
 [  2980.65075259]
 [ 32734.51791576]
 [ 44300.30330066]
 [-33210.85629828]
 [-14280.28231693]
 [-15973.83960138]
 [ 66883.76805081]
 [107669.08123245]
 [-12499.62589755]
 [-20615.70125419]
 [-23344.87702002]
 [-35798.86601132]
 [-21029.92684596]
 [ 46611.00722382]
 [  -174.58844836]
 [-10859.17622063]
 [-27465.6063335 ]
 [-39085.18492269]
 [ 20987.47385554]
 [-23246.94710953]
 [  7613.13973996]
 [ 52202.20862054]
 [-23993.07579378]
 [ 42731.89472869]
 [-39113.45740704]
 [-12362.73256967]
 [ 27795.77123484]
 [-32826.70805993]
 [-15450.66659287]
 [-28672.54866839]
 [ 10677.7886112 ]
 [ -3724.43444784]
 [ 15972.12501472]
 [ 56606.22274126]
 [ 13996.33036168]
 [ 24464.59730433]
 [ 18479.85516703]
 [ 11533.68618676]
 [ 21833.45108268]
 [-14482.16404105]
 [-12816.78327955]
 [  5871.3965717 ]
 [ -3989.37319519]
 [  7372.08837672]
 [ 29108.62514278]
 [-15139.30157304]
 [ 29446.67182987]
 [  3100.63874304]
 [ -1222.76715894]
 [-15885.19900219]
 [-21969.54007038]
 [-10997.86952785]
 [-27434.30372364]
 [-31351.45075055]
 [ 41208.61551577]
 [-24025.56512308]
 [-15833.32262384]
 [  2382.33045643]
 [ 23703.79654815]
 [-32989.77530157]
 [-14494.24507519]
 [-29703.3010569 ]
 [ 33212.88063003]
 [ -5210.30792225]
 [-14911.44157292]
 [ -8919.97005758]
 [-32513.37516787]
 [-34919.78234697]
 [-24949.19631309]
 [ 36671.27341745]
 [  7779.92933537]
 [ 45678.49846634]
 [-12874.80647836]
 [ -3125.30594422]
 [  8673.96604039]
 [-33635.40797818]
 [-11846.12008832]
 [ 48495.31643684]
 [ 21345.30546799]
 [ 14269.51281044]
 [-22453.12928378]
 [-29004.46917807]
 [ 40339.88393661]]
