[[ -4335.04012495]
 [ -2459.78559887]
 [  9951.47336855]
 [ 17417.40301279]
 [ 20940.20524042]
 [ 45990.63911536]
 [ -7924.61209623]
 [-24386.34024341]
 [ -7823.93870455]
 [ 19049.06843428]
 [-15204.40771291]
 [-31744.77808872]
 [ -3897.5397915 ]
 [  9915.50425107]
 [ 42413.47981859]
 [  5234.6743123 ]
 [  3881.61435243]
 [-31571.43277664]
 [-22740.29174768]
 [ 12669.80416831]
 [ -9969.00845016]
 [-37883.54412597]
 [ 21139.4209465 ]
 [ 19915.49585474]
 [ -1400.64788364]
 [ 35391.543177  ]
 [ 22067.22895328]
 [  2404.90838545]
 [ 33504.66369544]
 [-29716.63851846]
 [ 52204.39020915]
 [  5478.36058619]
 [ -6181.80167954]
 [-39109.68445124]
 [-25160.38379993]
 [ 30845.81205587]
 [ 20627.30593152]
 [  8411.13496056]
 [  8999.91446448]
 [-28994.64945953]
 [-36666.07154168]
 [-24967.51247427]
 [ 41937.83154408]
 [-24807.96320408]
 [ -8711.38599648]
 [ 21878.53531612]
 [ -6444.84392528]
 [ -7482.96845092]
 [-18779.12156426]
 [-30605.77424874]
 [-10173.91597366]
 [-13126.32952121]
 [ 39588.7696854 ]]
