[[   492.87970124]
 [ -3346.83025962]
 [ 53119.8029895 ]
 [  6642.24431797]
 [  4669.89688925]
 [-28641.29957061]
 [-14436.40758945]
 [ 87176.25459173]
 [ 39684.62650216]
 [ 23215.60366603]
 [-31504.3990924 ]
 [ 49567.94358199]
 [ 69883.04881345]
 [-29985.64637301]
 [ 41984.42863049]
 [-42553.63442399]
 [ 23576.01196102]
 [-31856.3051337 ]
 [-50671.0458007 ]
 [-29329.53926137]
 [ 94314.263102  ]
 [ 78688.17805614]
 [-31931.73908103]
 [ 17567.32041145]
 [ 26058.1986296 ]
 [-12131.41450033]
 [ 27990.32790735]
 [-43314.22459021]
 [-24820.91919892]
 [ -2684.0696255 ]
 [  7893.64927134]
 [-36408.36799249]
 [-16579.76140563]
 [ -8228.95185325]
 [ 97303.93615301]
 [ 31232.93227468]
 [-38010.25512751]
 [ -2743.72417261]
 [  2748.7685527 ]
 [ 18966.83246265]
 [-53982.38692132]
 [-46713.28954685]
 [-43108.8052839 ]
 [ 47200.9038958 ]
 [ 33734.1003838 ]
 [  1863.82526933]
 [-52720.43438716]
 [  9292.80665629]
 [ 18926.58683031]
 [ 36069.42767883]
 [-29559.07307334]
 [ -7449.44827207]
 [ 20013.42967023]
 [ 41650.80972472]
 [ -2697.40071442]
 [  8529.6024835 ]
 [-20725.58059078]
 [-51335.26489007]
 [-37881.21048153]
 [-55371.5676296 ]
 [  2852.69105226]
 [ -3911.06123459]
 [ -1989.0634313 ]
 [-16400.42527206]
 [  8989.59316261]
 [-32697.76164647]
 [-28116.17209717]
 [-19812.67750403]
 [ 32398.06274867]
 [-32330.03008095]
 [-34402.33806634]
 [-14125.14429764]
 [-28754.80116308]
 [ -5899.95591121]
 [-25255.79438742]
 [-38997.40708551]
 [ 20630.91082835]
 [-18175.47208851]
 [ -2016.09307846]
 [ 82177.96941135]
 [-51449.97068454]
 [  5728.09511371]
 [-50955.30465696]
 [-17712.30551981]
 [-33316.03658688]
 [ 32965.12000004]
 [  4649.03129007]
 [-21387.78887018]
 [  3784.8887437 ]
 [ 33623.46007824]
 [-41741.51198671]
 [ 34910.66848735]
 [ 99413.69882458]
 [ -2966.98171722]
 [-24162.69412771]
 [ 43825.17513365]
 [  8417.29347664]
 [ 35941.48432138]
 [  7948.71319336]
 [-51015.70858641]
 [ 56430.57508272]]
