[[ -1415.05625987]
 [-53859.64384683]
 [-64773.65518555]
 [ 13740.81725703]
 [-20327.10780171]
 [ -4476.15625278]
 [-48429.11888437]
 [ -9414.37042283]
 [ 36112.67208431]
 [ -2150.36697367]
 [-29666.11721943]
 [ 50693.08676599]
 [   991.23298449]
 [111527.53870517]
 [  4382.87433029]
 [-19787.37361827]
 [ 50742.5935962 ]
 [-24696.74768072]
 [ 19583.68483798]
 [-35694.59980208]
 [-51682.54652559]
 [-24400.1246313 ]
 [ 45260.85397637]
 [ 33295.50702431]
 [-29216.24658911]
 [ 47298.21004602]
 [ 23218.96515954]
 [ 31450.21572317]
 [ 15708.49798419]
 [-44921.99789154]
 [ 18105.43830918]
 [-56089.93159553]
 [-22729.75210262]
 [-24461.55584091]
 [  1806.08886223]
 [-32835.45482428]
 [-43677.92026509]
 [-14033.45876691]
 [-54749.24146993]
 [ 71342.39255439]
 [-52894.81964148]
 [ -4882.47584569]
 [ 73130.1990175 ]
 [ 58127.7751253 ]
 [ 49876.63100655]
 [ 18925.65398986]
 [-64891.85118865]
 [ 39834.31856755]
 [ 36022.14610776]
 [ -1617.70951444]
 [-32523.52634932]
 [ 17940.08717421]
 [ -1586.55747807]
 [-45704.72471025]
 [  3233.62925928]
 [ 20235.87680149]
 [-35951.66878516]
 [ 40160.25514608]
 [ 32522.37852471]
 [ 39320.99182322]
 [-51338.56770725]
 [-12528.74276061]
 [-23753.88952953]
 [-14299.46515482]
 [ 76118.08469168]
 [-51632.31662328]
 [-46155.49600914]
 [-22628.15333565]
 [131795.40599957]
 [-37151.53320773]
 [  6014.52615712]
 [-12524.75579654]
 [ 26673.39405365]
 [-34326.09003366]
 [-45531.7309715 ]
 [ 74671.23395303]
 [  5057.78627711]
 [-58665.88544834]
 [-48071.20072114]
 [-30145.01659775]
 [ 21586.50082886]
 [ 30696.11560724]
 [ 30956.46097007]
 [ -3645.03656334]
 [  9032.16798652]
 [ 78035.90518219]
 [-60029.50525249]
 [-64273.21848558]
 [ 63873.69031089]
 [-25294.68166394]
 [ -3778.16768157]
 [ -9421.42430639]
 [  4493.60102488]
 [ 32943.40495133]
 [  1838.23534944]
 [ 10355.50789067]
 [ 42247.38148083]
 [ -9996.57241604]
 [  2712.01856246]
 [-34958.70579163]
 [ 66734.56925371]]
