[[-36157.8314988 ]
 [ 12674.81163263]
 [ 13219.21094611]
 [ 46092.39138386]
 [ 27563.48743379]
 [-19407.8360939 ]
 [ 69404.98718311]
 [-18021.28251763]
 [-37712.8324769 ]
 [-10296.31210227]
 [-33803.37573154]
 [ 24068.3986491 ]
 [103933.00034664]
 [ 24380.71581849]
 [ 41214.53208448]
 [-33629.08649286]
 [-18105.60231592]
 [-18866.17181412]
 [ -1230.832348  ]
 [ 13535.77197189]
 [ 25524.80601293]
 [ 18924.3131919 ]
 [-35858.73857025]
 [ 59995.97519545]
 [ 27437.2487201 ]
 [-29120.35117575]
 [-39622.01570983]
 [-10242.65122946]
 [-11943.01625947]
 [ 22644.42750357]
 [-20879.32046006]
 [ 63517.42338535]
 [ 27768.13480431]
 [ 42950.70118714]
 [-10865.28470093]
 [-56135.11571643]
 [-30728.68412141]
 [ 10827.39234051]
 [-57868.53458974]
 [ 56633.09294515]
 [ 66108.99218003]
 [-46035.21687484]
 [-54448.76105211]
 [ 58420.22717855]
 [ 15032.54820551]
 [ 33697.11795317]
 [-40076.25996827]
 [ 65158.47200342]
 [ -7724.96614405]
 [-24226.77527525]
 [-21113.51069448]
 [-16953.83541884]
 [-30246.6853359 ]
 [-53179.25143927]
 [-31934.48437251]
 [-55131.22828213]
 [-58199.32327352]
 [-42403.97404569]
 [-12068.19205715]
 [-12539.31870404]
 [-20417.49268484]
 [-53673.69276341]
 [ 31006.50289955]
 [-47249.25185859]
 [  8140.75799203]
 [-37811.90114279]
 [111018.98242596]
 [-41767.72318708]
 [  8981.71673345]
 [ 19797.05736636]
 [-18000.35763951]
 [-10367.40560136]
 [-45185.48455653]
 [ 12027.59679275]
 [-28827.54962263]
 [ -6650.92891615]
 [ 38374.68009494]
 [-46519.77144514]
 [ 11160.3330799 ]
 [ 10475.68072688]
 [-13607.37644408]
 [-19563.36355476]
 [ 15083.50573585]
 [-19886.80998475]
 [  4239.08049717]
 [ 56860.32989435]
 [-52175.29222687]
 [-33440.33702498]
 [ -1347.46278173]
 [ -9583.51166497]
 [-26007.10724536]
 [ 10629.36118917]
 [ 12718.64973319]
 [ 10423.88067975]
 [-39159.3347551 ]
 [ 98481.51960448]
 [ 78429.86377233]
 [  7640.28688533]
 [ 30505.18437138]
 [ 61295.66323189]
 [ 65678.7650467 ]]
