[[-2.84148970e+04]
 [ 2.66078413e+04]
 [-6.92936461e+03]
 [ 4.06312163e+04]
 [-3.34951224e+04]
 [-4.25346782e+03]
 [-3.99120546e+04]
 [-2.56477456e+04]
 [ 3.46407554e+04]
 [-5.55096268e+04]
 [ 9.42958605e+03]
 [ 3.72386183e+04]
 [ 1.05649029e+05]
 [ 4.61762738e+04]
 [-3.90118767e+04]
 [ 6.24234825e+04]
 [-5.43708241e+04]
 [ 1.81786720e+04]
 [ 3.18152673e+04]
 [ 5.72048908e+04]
 [-7.77598554e+03]
 [ 3.28009030e+04]
 [-3.81258598e+04]
 [-1.26797193e+04]
 [-1.71513123e+03]
 [-5.92228343e+03]
 [-3.53060820e+04]
 [-1.84816642e+04]
 [-3.66585556e+04]
 [-2.27126436e+04]
 [ 2.83432359e+04]
 [-4.07746944e+04]
 [-5.64479377e+04]
 [-2.40409964e+03]
 [-4.70079456e+04]
 [ 5.32666312e+04]
 [ 6.28368607e+04]
 [-4.02470602e+03]
 [-2.98095294e+04]
 [-2.08952859e+04]
 [-3.49534077e+04]
 [-4.45702907e+04]
 [-1.36357078e+04]
 [-5.23081048e+03]
 [-5.43637614e+04]
 [ 1.91564591e+04]
 [-2.83814680e+04]
 [ 1.43683121e+04]
 [-3.18511469e+04]
 [ 3.80816276e+04]
 [ 1.63810855e+04]
 [-1.02428626e+04]
 [ 9.30563158e+03]
 [ 6.25584495e+04]
 [-2.19659776e+04]
 [ 3.57113427e+04]
 [-2.45815801e+04]
 [-3.70741504e+04]
 [-3.79579164e+04]
 [-3.80435363e+02]
 [-5.57421270e+04]
 [-7.87460129e+01]
 [ 3.86214223e+04]
 [ 3.53633650e+04]
 [ 4.25703573e+04]
 [-2.84848009e+04]
 [ 2.99267276e+04]
 [-2.67717030e+04]
 [ 1.91333267e+04]
 [ 3.63385799e+03]
 [ 2.37015950e+03]
 [ 5.89731297e+03]
 [-3.06913706e+04]
 [-5.70703591e+04]
 [-4.50269501e+04]
 [-3.74874332e+03]
 [ 2.87229924e+04]
 [-4.91742776e+03]
 [-1.75031368e+03]
 [ 5.69640298e+04]
 [-1.62782111e+02]
 [-2.78302386e+04]
 [ 1.61049938e+04]
 [-2.09739241e+04]
 [-2.33972390e+04]
 [-3.88296344e+04]
 [ 8.52916029e+04]
 [ 7.68246059e+02]
 [ 5.27993484e+04]
 [ 3.54493461e+04]
 [-3.97111893e+04]
 [-3.19039007e+04]
 [ 4.08929561e+04]
 [-4.14520128e+04]
 [-1.76441683e+04]
 [ 2.87036112e+03]
 [-1.89174329e+04]
 [ 6.57404817e+04]
 [ 2.85494136e+04]
 [ 9.41052090e+04]
 [ 6.06310189e+04]]
