[[ 4.29566686e+03]
 [ 9.54201262e+04]
 [-9.53546636e+03]
 [ 2.19143746e+04]
 [ 7.70793092e+04]
 [ 5.06071866e+04]
 [-3.20301426e+04]
 [-3.42570889e+04]
 [-6.47630302e+03]
 [ 2.14978332e+04]
 [ 4.67040061e+04]
 [ 1.84059796e+04]
 [ 2.80652302e+03]
 [ 1.89545880e+04]
 [-2.34743722e+04]
 [ 1.91516784e+04]
 [ 2.12783829e+04]
 [-2.81634062e+04]
 [ 4.34408194e+03]
 [ 2.48422976e+04]
 [ 3.62077424e+04]
 [ 7.37850725e+03]
 [-2.02602346e+04]
 [-1.98363363e+04]
 [ 2.87503682e+04]
 [-1.17576549e+04]
 [ 3.18762060e+04]
 [-2.84814484e+04]
 [-3.39590779e+04]
 [ 4.59185213e+04]
 [-8.29980099e+03]
 [-1.99127416e+04]
 [-3.60162024e+04]
 [-1.86336184e+04]
 [-3.57378158e+04]
 [-2.29448777e+04]
 [ 1.60087384e+04]
 [-3.63749095e+03]
 [-1.08908498e+04]
 [-2.10379188e+04]
 [-2.45125347e+04]
 [-1.20729781e+04]
 [ 4.19667822e+04]
 [-2.31987951e+04]
 [-6.89292155e+03]
 [ 4.70578061e+04]
 [-2.94041779e+04]
 [ 7.45737785e+03]
 [-3.37671718e+04]
 [-3.22967897e+03]
 [-4.77938597e+02]
 [-3.42911144e+04]
 [-5.71217209e+03]
 [-3.45101997e+04]
 [-2.76621696e+04]
 [-3.25598164e+04]
 [ 1.54688377e+03]
 [-4.09734279e+03]
 [ 4.31911483e+03]
 [-2.61681811e+03]
 [ 3.14933427e+04]
 [ 1.74410074e+04]
 [ 1.01532883e+04]
 [-3.78146628e+04]
 [-2.25484985e+04]
 [-2.45143929e+04]
 [-1.85383750e+04]
 [ 4.06027454e+04]
 [-1.11563282e+04]
 [ 7.90870668e+04]
 [-3.01010303e+03]
 [-1.35970514e+04]
 [-3.22168066e+04]
 [ 1.48836712e+04]
 [ 2.48493902e+04]
 [-3.49743280e+04]
 [ 3.31128028e+04]
 [ 5.15822564e+01]
 [-3.16604164e+04]
 [-4.83573019e+01]
 [ 4.88048065e+03]
 [-3.61306506e+04]
 [ 2.06294305e+04]
 [-3.23534203e+04]
 [-7.87718457e+03]
 [ 3.05788597e+04]
 [-3.34193918e+04]
 [-2.77775669e+04]
 [ 4.38698358e+04]
 [-4.27716253e+03]
 [ 2.48397880e+04]
 [ 3.82153652e+04]]
