[[ 19732.78824777]
 [ 72684.96968884]
 [-50647.32818536]
 [-54637.23461307]
 [ 13177.7737568 ]
 [ 30545.26819934]
 [-45471.43126336]
 [ 71403.57592993]
 [143089.79936946]
 [-14027.47893372]
 [ -2539.28614007]
 [  2783.60721192]
 [ 15673.672579  ]
 [-41273.81291614]
 [-11709.15751078]
 [-39578.39770042]
 [-34206.77339607]
 [-61760.0846895 ]
 [-45646.00692633]
 [ 11872.11264639]
 [ 45968.19879235]
 [  7854.99883526]
 [-34439.39575368]
 [-46888.60222489]
 [-58037.87064141]
 [-60635.5173552 ]
 [-11472.79116882]
 [-40325.64494739]
 [ -8006.0166243 ]
 [   584.39407747]
 [-35184.39006367]
 [ -3583.47996029]
 [ 34537.19852945]
 [ 33681.56646451]
 [ 32908.38208242]
 [ -5438.07820191]
 [-17345.70338905]
 [ 24353.41340721]
 [-34060.85534653]
 [  5709.74685525]
 [ 26827.4208156 ]
 [ -2807.88539169]
 [ 27907.78169039]
 [-38342.01301862]
 [-10762.50270211]
 [-43423.36980564]
 [-30455.39148428]
 [-26720.50591765]
 [-14279.63942895]
 [-48120.65984821]
 [ 23781.93339604]
 [ 29248.61687317]
 [-24591.48716098]
 [-18561.02976889]
 [-11413.74762832]
 [-39077.12209835]
 [-17630.2536957 ]
 [-62590.42105429]
 [-27378.51886618]
 [-45278.01128054]
 [-33300.64897537]
 [-52322.03141555]
 [-24193.76867344]
 [ 21597.46490085]
 [ 27005.36894853]
 [-43608.8717011 ]
 [ 17720.10942344]
 [-17933.64976944]
 [-39139.00838848]
 [ 10862.3108154 ]
 [-46666.70817271]
 [ 49760.98245213]
 [ 25993.16129386]
 [-38465.01389507]
 [ 15742.39074141]
 [ 80359.41325026]
 [-23663.09234086]
 [ 49829.43660535]
 [ 99531.81227673]
 [  1452.92450253]
 [ 11921.77940298]
 [-52347.97513842]
 [ 92042.43578043]
 [ 79208.13055541]
 [ 10941.76996331]
 [ 49686.59387224]
 [ 13509.92912466]
 [ 17830.78458958]
 [ 14201.26667206]
 [  7804.98614213]
 [-19179.83962683]
 [ -8643.75369977]
 [-30327.80179273]
 [ 15362.02468863]
 [115051.04578945]
 [ 34125.50831676]
 [ 14272.51630734]
 [ 31117.13877765]
 [110368.62848314]
 [-43487.0724327 ]
 [ 64336.36125278]]
