[[-27095.2145607 ]
 [ -2080.3894174 ]
 [ 22358.97267882]
 [-16448.37176967]
 [ 15437.30930906]
 [ 22408.77751538]
 [ 11162.23853517]
 [ 15140.64354646]
 [-39626.62571235]
 [ -6863.18733628]
 [ 33097.8814503 ]
 [-38541.87278817]
 [-19108.79353052]
 [ -5004.88743955]
 [-37313.76701643]
 [  1501.97005029]
 [ 38088.1436219 ]
 [  2359.67502889]
 [  7758.4819707 ]
 [ 19753.93774191]
 [-39087.39923352]
 [-26835.66424537]
 [ -9222.63002043]
 [-30199.37376889]
 [ -4531.10637818]
 [ -9667.69716384]
 [-31502.69473656]
 [  3416.04744415]
 [-26753.7953208 ]
 [ -9201.43429935]
 [-31900.4549984 ]
 [ -2249.51970311]
 [-23941.69271969]
 [ 30513.80665111]
 [-29494.13469198]
 [ -2567.92198012]
 [-27056.89719803]
 [ 54537.62840993]
 [ 24206.24978053]
 [  8643.12252796]
 [ -2528.17478773]
 [  1888.37218418]
 [ 42081.58527148]
 [-10480.42013426]
 [ 15440.10964452]
 [ 11120.05093275]
 [-15481.01945855]
 [  -713.56051581]
 [ 15387.65393854]
 [-14171.02030912]
 [-16995.02187939]
 [-28949.3392478 ]
 [ 42578.04343549]
 [ 34062.62027972]
 [ 28223.80189213]
 [ 27879.08694888]
 [-24863.43197319]
 [ 19563.82647946]
 [-24473.70441646]
 [ 65965.95577469]
 [ 20375.22570723]
 [ 40099.90750325]]
