[[-29632.97011849]
 [ 26147.37511439]
 [ 12940.87751747]
 [-23069.69273617]
 [-16609.7309858 ]
 [ 24996.70460202]
 [  2940.81558486]
 [-28840.39762948]
 [-30312.65449726]
 [  6610.0534741 ]
 [-15408.32341144]
 [-21684.19590107]
 [ 45106.74477353]
 [-16551.19691743]
 [122308.25003949]
 [ 23344.76496143]
 [ 34214.22083122]
 [  9608.08520933]
 [ -1457.46446251]
 [ -3061.58811051]
 [ -5808.243013  ]
 [-30051.25398249]
 [-37884.92089158]
 [-17015.76727069]
 [ 26618.11813181]
 [ -8761.10099218]
 [  -912.78245913]
 [-23105.31016551]
 [  6999.9286557 ]
 [-36204.29584141]
 [ 24053.85921223]
 [-11611.30412246]
 [-30968.67248092]
 [ 24990.49689186]
 [-27780.98932229]
 [ 10469.36735479]
 [ 36416.76480843]
 [ 43395.78270343]
 [ -8336.27921193]
 [-28898.07381267]
 [-26531.63925788]
 [-34433.0276753 ]
 [-27892.78502128]
 [ 28741.99037442]
 [ -3031.30438804]
 [  8566.87965713]
 [-33111.01366006]
 [-23055.65770387]
 [ 64191.59617858]
 [-31920.34176765]
 [ 55684.42624685]
 [ -9830.39514364]
 [ 19106.70661956]
 [ 65114.96311866]
 [-23495.88953154]
 [-33713.93481076]
 [ 44334.17616616]
 [ 14035.33225982]
 [ 31394.13770008]
 [-35975.91866321]
 [-13652.51124644]
 [   617.60772331]
 [ 24712.0689584 ]
 [-30247.9766882 ]
 [-35383.05585855]
 [-26466.72536559]
 [ -1465.72997861]
 [-35641.9059018 ]
 [-32270.68879367]
 [ 51736.52863351]
 [ 22689.08628994]
 [ 38540.83089723]]
