[[ 19687.29495239]
 [ 26907.56302343]
 [ 54569.98465955]
 [-29382.72110991]
 [-32973.73910735]
 [-20981.17459239]
 [ 60967.62409889]
 [ -4673.711851  ]
 [-35782.96573944]
 [-21181.83434013]
 [-31784.80970298]
 [  6122.28416888]
 [ 86629.68995462]
 [ -2328.64234186]
 [ 78461.26665243]
 [-16817.510632  ]
 [ 88166.69155256]
 [ -1721.45567471]
 [ 31111.36857777]
 [109813.30493297]
 [ 35044.39638043]
 [-29063.84706332]
 [-16761.99428476]
 [ 16727.66394438]
 [-22959.71701512]
 [-23881.91939903]
 [ 16270.39464409]
 [  8754.74899445]
 [-34319.44578425]
 [-22212.06550751]
 [-27159.60701488]
 [  8340.23201627]
 [-36383.86025752]
 [ 88320.06589416]
 [ 31118.90951165]
 [-39628.04137089]
 [  4442.68919846]
 [-36671.32603447]
 [ 15000.08235284]
 [  -805.98852901]
 [ -2423.37492224]
 [-36224.73010739]
 [-38769.99521268]
 [-32323.15043651]
 [-26433.28528354]
 [-22376.70639404]
 [ 50628.12514546]
 [-29214.34403439]
 [ 12111.51376579]
 [-30041.61936607]
 [-23446.9878217 ]
 [-19144.82771425]
 [ 50025.19095482]
 [ 30669.69988677]
 [-10627.13509232]
 [-32298.66848343]
 [-17447.09490048]
 [-39203.47480235]
 [ 28975.41613542]
 [ 49243.59884947]
 [-32743.7178952 ]
 [-40783.84698945]
 [-39785.3409304 ]
 [-36996.95517619]
 [  6708.50907841]
 [ 18017.13298361]
 [ 20272.75623712]
 [-36476.11509725]
 [ 22020.25749969]
 [ -4119.50017947]
 [ 67415.06498123]
 [ 73081.54178434]
 [-23999.69868127]
 [-19723.14920155]
 [-24925.24446773]
 [ 28870.84554273]
 [ 16692.74604747]
 [-31014.07199323]
 [-38346.46104701]
 [ -4153.13997206]
 [-18485.9666799 ]
 [ 38481.75596256]
 [-35213.52210611]
 [ 86372.81935991]
 [ -1943.88148383]
 [-31976.51605362]
 [-19007.5164835 ]
 [-30384.98187757]
 [ -1053.06679622]
 [ 50693.82180629]
 [-19558.72584865]
 [-24131.51056756]
 [ 24466.30195717]
 [-37373.11929539]
 [-26384.61979389]
 [-16143.1212182 ]
 [ 15221.19611612]
 [-34248.98784548]
 [ 41105.34386918]]
