[[ 35846.36393747]
 [-26450.45470036]
 [-14973.15866576]
 [   121.09034808]
 [-32537.54899385]
 [  1170.01535411]
 [  7027.6377729 ]
 [ 19200.92561296]
 [ 22423.174102  ]
 [-38197.62309924]
 [-15346.88373551]
 [ 28592.31227899]
 [-35408.12643832]
 [-22329.94288623]
 [ 21989.3088789 ]
 [ 48403.84029602]
 [-19511.03078397]
 [  -203.9575143 ]
 [  3293.82526956]
 [-26497.73706132]
 [  9425.7344616 ]
 [-13774.26730238]
 [ 31037.32804099]
 [  4517.47654592]
 [  1160.03432348]
 [-11553.0961718 ]
 [ -4002.5256197 ]
 [ 15243.16167946]
 [ -7388.61873916]
 [ 12865.96010295]
 [ 23497.56423734]
 [ 23216.13158192]
 [ 31626.15088857]
 [-36785.19972998]
 [ -2274.14634385]
 [ -6732.62935287]
 [-39478.757495  ]
 [  6987.44083322]
 [-30450.22710714]
 [  9813.42889317]
 [ -1186.21258768]
 [-37154.51190772]
 [ 49225.77263666]
 [-19922.32222059]
 [ 21946.33441708]
 [ -1545.30689549]
 [-13796.96454013]
 [   599.011446  ]
 [ 17462.21363149]
 [-24211.31959737]
 [ 12960.50535987]
 [-36843.35503764]
 [ 34511.75744936]
 [ 42350.05986523]
 [ 18835.44852796]
 [  6894.18055874]
 [-15735.1656956 ]
 [-38983.96094663]
 [-22214.98001737]
 [ 33245.84185494]
 [ 40175.15956997]]
