[[ 1.47536411e+04]
 [-5.00431594e+04]
 [-5.25019467e+04]
 [-1.81412454e+04]
 [ 7.49984232e+04]
 [-2.20943542e+04]
 [-3.72310662e+04]
 [ 1.17315158e+04]
 [-1.05158844e+04]
 [ 1.64593052e+04]
 [ 1.88451389e+04]
 [-1.00447108e+04]
 [ 4.24218677e+04]
 [-2.10445113e+04]
 [ 3.68118861e+04]
 [ 2.62321508e+03]
 [ 3.29841584e+04]
 [-1.92577057e+04]
 [ 4.16097031e+04]
 [ 4.73656640e+04]
 [ 1.92614947e+04]
 [ 4.91088401e+04]
 [ 6.21153272e+04]
 [ 7.28160471e+03]
 [-3.24694729e+04]
 [ 3.42226527e+04]
 [ 2.50697120e+04]
 [ 9.48411058e+03]
 [-5.19703305e+04]
 [-2.28339876e+04]
 [-1.91266606e+04]
 [ 2.00675757e+04]
 [-1.54590422e+04]
 [-4.78361721e+04]
 [-4.60694224e+04]
 [-5.34400610e+03]
 [ 4.49751869e+04]
 [-1.19246651e+03]
 [ 1.57972854e+04]
 [-9.95418079e+03]
 [ 6.96721187e+04]
 [ 1.51486106e+04]
 [ 3.36599738e+04]
 [ 3.98550656e+04]
 [ 4.79891290e+04]
 [-6.39298148e+03]
 [-1.37800278e+04]
 [-4.87696999e+04]
 [-1.32066743e+04]
 [-3.57915869e+04]
 [ 8.04647114e+04]
 [-2.66110048e+04]
 [-3.29225322e+04]
 [-4.53921837e+04]
 [-4.02048157e+04]
 [-2.37084782e+04]
 [-5.30964715e+04]
 [ 2.29146364e+04]
 [-1.58722904e+04]
 [ 1.19463232e+04]
 [-1.08407839e+04]
 [-2.87570277e+04]
 [ 5.92175953e+04]
 [-5.87425149e+01]
 [-2.81904880e+04]
 [-5.03323817e+04]
 [-5.18445171e+04]
 [-2.24733834e+03]
 [-2.05557769e+04]
 [-7.64548755e+03]
 [ 7.98655287e+03]
 [-3.36518337e+04]
 [-1.34384834e+04]
 [ 1.87571862e+04]
 [-4.29139658e+04]
 [-6.67822399e+03]
 [-4.06974357e+04]
 [ 2.28628150e+04]
 [-4.11058474e+04]
 [ 6.52077941e+04]
 [-1.48256663e+04]
 [ 3.67294079e+04]
 [-1.34337800e+03]
 [-3.09585821e+04]
 [ 3.18400487e+04]
 [ 2.93748602e+03]
 [-2.03301742e+04]
 [-2.56240821e+04]
 [ 6.20655065e+04]
 [-1.30321131e+04]
 [ 2.83001458e+04]
 [ 6.59074405e+04]
 [-4.32178914e+04]
 [-2.54407852e+04]
 [ 2.85355259e+03]
 [-1.12693007e+04]
 [ 7.92089679e+04]
 [-3.38822465e+04]
 [ 8.96600169e+03]
 [ 5.28224755e+03]
 [ 5.35674163e+04]]
