[[ 28712.44361408]
 [ 29706.35349658]
 [-23922.9525916 ]
 [ 25824.62634961]
 [ 47071.93687317]
 [  5954.1570748 ]
 [-23573.8345268 ]
 [-22877.82848113]
 [-21450.09012508]
 [ -9355.00963212]
 [ 10250.28795783]
 [ 32008.90675145]
 [ 75933.3677231 ]
 [ 17972.10294008]
 [-17452.58660276]
 [-10641.72722059]
 [-20759.40361756]
 [  1299.60216223]
 [ 27720.30267492]
 [-25643.76612918]
 [ 57022.1119855 ]
 [-39208.85626133]
 [ 11993.33244296]
 [ 22892.45763285]
 [-36589.92493814]
 [ 46554.34581646]
 [ 26497.2475424 ]
 [-21732.6832994 ]
 [ 32704.78443977]
 [-34208.44056654]
 [ 19045.42190775]
 [ -4126.65277323]
 [-26860.79544142]
 [-13083.44932483]
 [-37224.6946608 ]
 [-34850.7187035 ]
 [ 22519.77439707]
 [ 54360.24574058]
 [ 33207.14232518]
 [-24020.18600603]
 [-35210.39548182]
 [-31349.77248614]
 [-34426.54618958]
 [ 30931.59502101]
 [ 34107.2571937 ]
 [-30758.89717706]
 [-26471.11370224]
 [-33174.15644544]
 [   751.24331911]
 [ 24018.17508439]
 [ 31102.00895015]
 [ 58186.3179499 ]
 [-35428.28981746]
 [-22560.5960896 ]
 [ 12270.95179101]
 [ 46858.20079205]
 [ 25206.05299339]
 [-38833.63211276]
 [-32789.25415667]
 [ 34735.23637949]
 [  4633.37204553]
 [   753.30915131]
 [  8910.17116004]
 [ 27568.32226842]
 [-32364.77299952]
 [ -1098.64246568]
 [-33007.1347834 ]
 [ -2498.48298732]
 [-10703.00525719]
 [  -925.49547854]
 [ 14559.73360227]
 [ 42757.61852313]
 [ 11202.51127711]
 [ 11422.31080982]
 [-23328.16194058]
 [ 36821.89711673]
 [ 24089.33190903]
 [-35023.07669581]
 [  3837.23259721]
 [ -1024.68740134]
 [-25633.11560934]
 [-18577.03816301]
 [  9965.24846967]
 [ 14330.03843715]
 [-18350.81042174]
 [-11221.65506493]
 [ 34900.93493052]
 [ -1180.83295867]
 [ 26929.87585788]
 [ -3995.02515239]
 [ 25865.54805278]
 [-27832.90008858]
 [-31764.15829365]
 [-19731.71254598]
 [ -6194.51334256]
 [-37781.54859439]
 [ 15845.4589557 ]
 [ -7573.98083018]
 [-38729.70172097]
 [   259.62583405]
 [ -9168.59999438]
 [  5880.45173784]
 [-22128.6445432 ]
 [ 39941.69996098]
 [  6854.75566947]
 [-22747.58252359]
 [  6284.75442588]
 [  9387.95922296]
 [ -5498.34890955]
 [ 48711.46348855]
 [-38046.76839108]
 [ -3891.67955962]
 [ 12955.67713086]
 [-19035.103711  ]
 [-20775.04233182]
 [  8935.73014482]
 [ -5583.80635073]
 [-13860.36171786]
 [-22386.09430089]
 [-37192.13431783]
 [ 10718.64249316]
 [ 49534.08693757]
 [-14621.60276891]
 [  5413.69055827]
 [ -9913.40138262]
 [ -9725.61861675]
 [ 28071.72151317]
 [-20533.10837203]
 [-35869.46166606]
 [-31791.80282151]
 [ -3650.38476751]
 [  2903.54013168]
 [   644.95305487]
 [ 12598.26038595]
 [  7889.26501439]
 [  4568.73155609]
 [-37176.76250082]
 [-29036.28273449]
 [-19375.02668137]
 [ -1729.4877155 ]
 [-17641.62889717]
 [-22070.76076199]
 [ 54904.74441337]
 [  3113.6679091 ]
 [ 22295.71264455]
 [ 39550.7653648 ]
 [ 36594.9709211 ]
 [-14477.83809754]
 [ 33564.59363071]
 [ -1517.89515067]
 [ 22993.66901346]
 [ 29795.01190639]
 [-39345.33513006]
 [-30344.40446139]
 [  1703.17952827]
 [ 28032.21724178]
 [  9189.33812397]
 [ 55446.69785249]
 [-38974.02319688]
 [ -2776.83549235]
 [-36947.3623218 ]
 [  3845.72830869]
 [ 21506.35302515]
 [-22340.2660866 ]
 [-18984.06277215]
 [ 54440.24879329]
 [ 11220.77469915]
 [-12445.58838932]
 [-35851.95908846]
 [-35557.1641244 ]
 [-32315.97772111]
 [-14794.20357737]
 [-18722.71833245]
 [-20789.51704611]
 [ 31670.2988496 ]
 [-20030.19396893]
 [ 14458.07785807]
 [ 23866.66810304]
 [ -3240.89860528]
 [  7115.91331868]
 [ 18504.70210342]
 [  -600.78140821]
 [  3453.97930943]
 [ 39937.82280969]]
