[[ 2.25401602e+04]
 [ 1.26616707e+04]
 [-2.80015673e+03]
 [-1.16749928e+04]
 [ 6.54409960e+04]
 [ 3.74623029e+03]
 [-8.12004465e+03]
 [-2.61467226e+04]
 [-1.30477971e+04]
 [-1.91320962e+04]
 [ 3.36288796e+04]
 [ 2.95431807e+04]
 [ 5.98105912e+03]
 [ 7.68910436e+04]
 [-6.85932179e+03]
 [-3.19826012e+04]
 [ 2.01228287e+04]
 [-3.45401079e+04]
 [ 4.45296302e+03]
 [ 2.39980364e+04]
 [-3.03602859e+04]
 [-1.97470905e+04]
 [ 1.63298556e+04]
 [ 9.44336066e+03]
 [-1.68384845e+04]
 [-2.00843848e+04]
 [ 5.26313284e+04]
 [ 2.66269067e+04]
 [ 2.91588728e+04]
 [-3.98459882e+04]
 [-1.68747137e+04]
 [-5.89760225e+03]
 [-2.57163906e+04]
 [-2.91115630e+04]
 [-1.53935739e+04]
 [ 9.72133768e+03]
 [ 3.04051741e+04]
 [-1.43919413e+04]
 [-3.46966292e+04]
 [-2.08425318e+04]
 [ 1.08558096e+04]
 [-1.40806371e+04]
 [ 1.46076100e+03]
 [-9.12038844e+03]
 [-2.47433563e+04]
 [-1.66212289e+04]
 [ 5.27953797e+04]
 [ 1.17722375e+03]
 [-4.97644356e+03]
 [ 3.69244501e+04]
 [ 9.51534625e+03]
 [-5.28726937e+03]
 [-1.58287703e+04]
 [ 4.42147119e+01]
 [-2.87583423e+04]
 [ 2.62416026e+04]
 [-2.63448070e+04]
 [-3.91481593e+04]
 [ 4.51442953e+04]
 [ 1.54980870e+04]
 [-8.73361124e+03]
 [-2.66661150e+04]
 [ 1.93863707e+03]
 [-1.05055415e+04]
 [ 3.99666311e+04]]
