[[ 22277.71472279]
 [-17311.75509832]
 [-27951.41298755]
 [ -3073.15390893]
 [-22268.32331709]
 [-24307.45911785]
 [-24849.75343469]
 [ -5561.33782842]
 [-32274.61331112]
 [-25230.89926014]
 [-31349.16529903]
 [-31469.72833362]
 [ -1832.98637051]
 [ -8390.79819107]
 [-10796.37405165]
 [ 36640.90971311]
 [-32755.85064659]
 [ 61206.67559212]
 [-10780.1327501 ]
 [-15906.90380265]
 [ 31721.44634507]
 [ 46344.35389165]
 [ -8071.80147188]
 [ 19253.21985853]
 [ 41736.41144204]
 [ 25711.39961929]
 [-24028.1798486 ]
 [  4075.05542111]
 [-18937.78540468]
 [-29532.24549212]
 [-26338.39147739]
 [ 72629.15750041]
 [-12230.18003898]
 [-28481.3830049 ]
 [-37618.05379413]
 [-33898.49039982]
 [-35074.20195006]
 [-38300.15541968]
 [ -7821.88446318]
 [ -5954.2379988 ]
 [  2873.9265518 ]
 [ 12426.45901802]
 [-36273.26408509]
 [ 44541.80037075]
 [ -9764.36696627]
 [-39415.52890523]
 [-15288.94944988]
 [ 10388.94540125]
 [ 35199.44284648]
 [ 24455.23633022]
 [ -7642.95521075]
 [-21435.89971687]
 [ 23921.03996965]
 [-26193.09485112]
 [  6441.78469335]
 [ 69534.39922222]
 [  8150.95438016]
 [-40383.45795601]
 [ 58717.98315195]
 [ 37753.58688514]
 [-30266.67760705]
 [ 13086.24107942]
 [-10364.89118634]
 [-31051.98997109]
 [ 22997.83552871]
 [-37976.76036983]
 [  5564.01021394]
 [  -404.90771716]
 [ 74857.84721869]
 [-25034.67667941]
 [ 40003.79688133]
 [ 11028.07369478]
 [-37037.98794895]
 [-10766.7771178 ]
 [-16056.05782588]
 [ 11450.93129144]
 [-36678.68488571]
 [-25689.1725978 ]
 [-18263.95306379]
 [ 10778.55040994]
 [ 23048.69083874]
 [ 86517.7823332 ]
 [-17436.38314508]
 [ 16442.04409273]
 [  8109.07943203]
 [ 27159.91080779]
 [-14682.23150134]
 [ 27975.40348192]
 [ 23435.90301651]
 [-14528.83388739]
 [ 84841.21852168]
 [-14926.98187287]
 [-25049.11434228]
 [-26653.91600333]
 [ 38365.93156791]
 [ 41001.07979081]]
