[[-34862.86788228]
 [-15614.7478991 ]
 [-26156.94169887]
 [ 34899.74188241]
 [ 34037.1549231 ]
 [ 19612.4933206 ]
 [ 66148.37955385]
 [  1835.49032221]
 [ 24215.8134763 ]
 [-33371.0951243 ]
 [-36897.18534248]
 [  8624.57450989]
 [-33209.58138099]
 [ 26425.44892335]
 [  5279.3787854 ]
 [  6699.74777078]
 [-38042.32621123]
 [-28256.11305029]
 [ 22557.30983559]
 [ 22587.69766338]
 [-24644.51484902]
 [-39564.5451429 ]
 [ 43332.51970369]
 [-21064.79315601]
 [-34486.12636659]
 [-25704.01827851]
 [ -9660.91054165]
 [  4697.50299657]
 [-22840.89699042]
 [ 24387.75359263]
 [   686.9217199 ]
 [ 22413.20173439]
 [  6681.69067384]
 [ 41361.17437261]
 [ 20543.41615721]
 [ -5068.23655575]
 [-21362.78461055]
 [ 29489.29580765]
 [  3261.52600024]
 [ -9964.77558905]
 [ 32000.92327979]
 [-30380.51610318]
 [-28349.87337717]
 [-37892.56033205]
 [ 14052.91653031]
 [ -1405.5241769 ]
 [  5012.77106593]
 [-36882.99738825]
 [ 21527.27758686]
 [-20775.7778536 ]
 [ 34148.31922816]
 [ 23305.66560159]
 [-24714.54101199]
 [-10342.47666676]
 [ -7670.08708416]
 [-11477.60043074]
 [ -9406.43159377]
 [  2375.71637084]
 [  3191.23778286]
 [ 22000.80669994]
 [ 45683.27442118]
 [ 37180.51816893]
 [ -8688.90361992]
 [ -9433.80708962]
 [ 31210.54603774]
 [ 21672.42968783]
 [  1976.22430261]
 [ -4615.76667722]
 [-32769.72958615]
 [ 22816.18081228]
 [-27480.51374942]
 [-16973.58157939]
 [-29114.27023578]
 [  1902.11058872]
 [-13328.71316881]
 [ -4866.60374221]
 [ 22235.40548167]
 [ -6058.52219282]
 [-28702.2645708 ]
 [ 15391.55515017]
 [  9940.74344309]
 [ 24700.66693464]
 [ 39702.69240433]]
