[[ 11093.27359315]
 [ 28251.1275619 ]
 [ 16745.87958196]
 [-14906.58722737]
 [-18942.12771432]
 [ 38666.12180045]
 [ 18689.95082211]
 [  7233.35902083]
 [-12601.95602354]
 [-29582.57732885]
 [ -4502.98353352]
 [ 35616.45029477]
 [ -7501.5490665 ]
 [  -759.67820449]
 [-25681.84370399]
 [-27333.73284738]
 [ 68814.27903133]
 [-12787.80023917]
 [ 45993.59016353]
 [ -7598.39770262]
 [  6718.77477785]
 [ 36607.08222325]
 [ 38771.54292481]
 [ 38621.66063254]
 [-38907.17309239]
 [-40132.48269127]
 [-39046.07560523]
 [ -4806.35801557]
 [-40586.47868944]
 [-35957.80642448]
 [-38635.87289865]
 [-24426.15311475]
 [ 16407.81092362]
 [  8040.8758504 ]
 [-43683.83610944]
 [ 22115.84348127]
 [-43574.01964294]
 [ -8119.25120182]
 [ 72515.64746507]
 [ 24068.27666282]
 [ -8096.23280314]
 [ 70659.83416117]
 [ 19275.36502276]
 [-38243.16093212]
 [  5140.23441171]
 [-40685.6821192 ]
 [-38380.60744632]
 [-43812.03710756]
 [-24417.56517865]
 [ -1070.08110814]
 [-17772.14939409]
 [ 42665.30656544]
 [ -5820.09206506]
 [ 17964.96162446]
 [  7761.262664  ]
 [ 37980.31556207]
 [-40735.77873392]
 [-31260.77617958]
 [ 20313.69861335]
 [ -3210.13424457]
 [-12670.58115276]
 [-42440.90251988]
 [ -5048.10903407]
 [ 37379.07866817]
 [-31887.04134011]
 [-11147.35378225]
 [-12292.4926954 ]
 [ -1020.72574901]
 [111671.37829256]
 [-25692.91513011]
 [ 92254.42822136]
 [   953.2944019 ]
 [-10738.94502966]
 [ 28761.41222036]
 [ 42696.24710863]
 [ 20849.94680481]
 [-37048.55556462]
 [-36199.98974453]
 [-39890.24154243]
 [  -822.39488805]
 [-41111.15305611]
 [ -9689.56414644]
 [-16011.55348705]
 [ -9888.13985923]
 [ 14507.92884934]
 [-17283.58010184]
 [ 45087.88579728]
 [ -3924.57460479]
 [ 11006.2053095 ]
 [ -9507.52726846]
 [-20932.22380638]
 [103195.64368636]
 [-28111.60925988]
 [  2439.4655667 ]
 [-30596.22821046]
 [ 44303.95088095]]
