[[-29288.64019233]
 [-10845.74493978]
 [  4103.41217648]
 [ -5374.99986414]
 [ 48117.13193044]
 [ 17680.29669827]
 [ 37774.54140143]
 [  7053.57806165]
 [ 20474.34158093]
 [-36072.53944858]
 [-35614.038662  ]
 [-30500.48152871]
 [  3402.22219971]
 [-32251.39565286]
 [ -8432.48426246]
 [-30435.34544483]
 [  2146.96215363]
 [ 17586.07547207]
 [ 31501.62206378]
 [ 36518.51738691]
 [-31163.53418722]
 [-34176.11532148]
 [  7254.62438886]
 [-11478.60301689]
 [ 26790.666175  ]
 [  -228.9735265 ]
 [-23973.0820355 ]
 [ 36421.98582088]
 [ -6468.66356619]
 [-26780.30616833]
 [ 42873.1644538 ]
 [ 14876.18744247]
 [ 71678.2838014 ]
 [ -5922.51005022]
 [-34326.87303508]
 [ 48298.92162904]
 [  -370.71713132]
 [-10526.02615095]
 [-29346.89874855]
 [ -5059.0931154 ]
 [ -7966.04923172]
 [ 29155.62918966]
 [-29992.72986371]
 [ 57528.07523565]
 [ 45213.8520065 ]
 [ 19227.23153642]
 [ 51700.18579652]
 [ 20105.75555952]
 [-17004.65575092]
 [-24858.03833025]
 [-15749.87941754]
 [-30914.10224871]
 [ -7995.13404166]
 [-29672.99824676]
 [-20790.42969986]
 [ 73684.2320731 ]
 [-13236.38556182]
 [ 31744.39249851]
 [  2105.56519684]
 [ 11200.93656974]
 [  2641.24001258]
 [-30570.71237626]
 [ -4328.12366061]
 [-29810.89210606]
 [-19305.06911577]
 [  5731.8058337 ]
 [-28922.33846473]
 [ 10830.72323194]
 [ 15417.77265703]
 [-16980.3184009 ]
 [-27683.13847971]
 [  3729.80807418]
 [ 22126.07708401]
 [-24090.59862177]
 [ 20113.33388191]
 [-19965.30658108]
 [ -1509.61312549]
 [-26247.97260036]
 [-27378.8927872 ]
 [ -3198.70651232]
 [ 37083.8107662 ]]
