[[-21496.9014203 ]
 [ 26283.73402204]
 [-14878.96388133]
 [-28946.05733894]
 [  6196.4576021 ]
 [-18381.04761402]
 [-29490.85907655]
 [-31835.82284692]
 [-13609.70479368]
 [-18028.06359118]
 [-13040.96689938]
 [ 50780.61085085]
 [-15715.76702978]
 [-17954.95701842]
 [-33758.04527989]
 [-34799.71612656]
 [-20634.32418192]
 [ -4814.27309347]
 [ -2366.52800523]
 [-30792.8928728 ]
 [ 24037.56690633]
 [-30641.95423473]
 [ 22372.58845464]
 [ 19288.96724855]
 [ -5013.03781598]
 [-32276.85512971]
 [-19877.96487914]
 [-16364.11716856]
 [-17452.53319285]
 [-31127.95877007]
 [ 20975.89174974]
 [  9950.18379926]
 [-35044.19140031]
 [ 69115.98531602]
 [ -4193.17472877]
 [-23816.56633939]
 [ 77889.88384328]
 [ 24956.28830213]
 [ -5896.92268015]
 [ 25215.50760393]
 [-35637.98866005]
 [-33161.63449905]
 [-10565.44067502]
 [  2870.17701654]
 [-11608.59986024]
 [-18261.90943875]
 [ 41447.48681337]
 [ 74413.48079305]
 [ -1662.44399949]
 [-17749.54385765]
 [ 85083.66721367]
 [-28281.27038653]
 [ 47505.71595827]
 [ 26876.38804606]
 [-29948.91681892]
 [ 18700.74150954]
 [ 29286.51557803]
 [ 19277.49302393]
 [  7350.82807797]
 [ 96249.89679383]
 [ -5083.43653063]
 [-22242.19256506]
 [-31696.7771231 ]
 [-29656.09875995]
 [  3829.87051058]
 [ 40475.02365306]
 [-11675.35701568]
 [ 63687.97248914]
 [-34601.8650857 ]
 [-33213.12514648]
 [-35579.42782384]
 [-16827.01293997]
 [-34207.103211  ]
 [ 31970.4278578 ]
 [  3814.84131274]
 [-29622.06298278]
 [-23034.40668179]
 [-32314.82907195]
 [ -6618.88361809]
 [-12729.33263004]
 [ 47131.93202697]
 [-20327.89930417]
 [-28878.93531699]
 [ -5495.90048959]
 [-12130.36813049]
 [ -9792.9618734 ]
 [ 91900.53957745]
 [ 11185.3040778 ]
 [126982.29269469]
 [   568.819676  ]
 [ -7782.8917802 ]
 [ -6867.11674877]
 [-24061.67607315]
 [-32502.83662167]
 [ 10138.27275924]
 [ 10549.95443544]
 [-20188.98243414]
 [ 31030.93545056]
 [-13132.84748028]
 [ 36135.08785315]]
