[[-14365.95975364]
 [ -6720.1910609 ]
 [-28828.48853612]
 [  2149.31876682]
 [  -787.65075094]
 [-36719.89535469]
 [-10577.44391186]
 [  1053.03085568]
 [  2928.86972683]
 [-26742.18413709]
 [-10308.12175463]
 [-18899.64856226]
 [  7343.23422463]
 [  2268.92123736]
 [ 43965.15493247]
 [ -3364.59262001]
 [ 50348.01232482]
 [-14507.42460117]
 [ 78123.46763745]
 [ 39269.97921175]
 [ -6746.35963491]
 [ 17767.52749389]
 [ 14079.52496589]
 [-26577.00682609]
 [-37954.28042002]
 [-31278.30021986]
 [ 15967.83122112]
 [ 61786.69254534]
 [-38472.45872964]
 [ -3670.38574705]
 [-37724.3783012 ]
 [-20553.17848842]
 [-15573.78824342]
 [ 56786.36812055]
 [-28421.28234541]
 [ 47014.1901205 ]
 [ 12893.65778744]
 [-22923.57932324]
 [ 10148.78249491]
 [-24651.6342776 ]
 [ 39005.3651146 ]
 [-25237.61769674]
 [-35253.64758063]
 [ 21398.28806011]
 [-36195.95700507]
 [  5746.19799366]
 [-24533.2792329 ]
 [ 11483.95904496]
 [ 63251.69401464]
 [ -9163.39102806]
 [-35657.97459102]
 [ 12787.65155449]
 [ 17493.93212032]
 [ 10337.31230547]
 [-10937.43618298]
 [ 13817.49194617]
 [-23895.76324758]
 [ 17858.54984195]
 [-21080.31552006]
 [ 22494.61620962]
 [ 41589.3863346 ]
 [ -9086.07196972]
 [ 18225.89781119]
 [ 30592.64523172]
 [-24530.30946642]
 [ 77531.87539469]
 [-29636.17341714]
 [-37027.3394569 ]
 [ -6994.03618873]
 [-13787.24302611]
 [-23350.91099406]
 [-34773.72644139]
 [ 38959.3631202 ]]
