[[ 21397.96115996]
 [ 24753.05668767]
 [-36675.15695235]
 [-13158.65581939]
 [  2682.2480755 ]
 [ 45371.62545806]
 [-23359.03989179]
 [-19759.9909646 ]
 [-31290.01244616]
 [  5890.47882006]
 [-35202.08310516]
 [-16363.31641814]
 [ 10677.47896685]
 [-35680.69631548]
 [ 51005.75077688]
 [ 33298.36327288]
 [ -9503.73843185]
 [ 38334.95330813]
 [ 18350.76392086]
 [ 12458.03479327]
 [-10388.36822446]
 [-20913.90012743]
 [-17782.81523992]
 [ 13369.63890773]
 [-30582.08494979]
 [-13188.16622015]
 [ -2679.88987612]
 [ 23796.78318322]
 [ 44677.00480462]
 [-27956.79777845]
 [ 22587.3385809 ]
 [ 28973.10463715]
 [-24536.66315372]
 [ 12811.51428406]
 [-19297.50815919]
 [ 18645.6349163 ]
 [ 22924.8168162 ]
 [ 14598.9894636 ]
 [ 30361.95869615]
 [ 21507.60287191]
 [ 32147.65134093]
 [ -1202.54681054]
 [ 26597.32307367]
 [-23731.28242872]
 [ 22127.28602139]
 [-10411.14748428]
 [ 26104.40703147]
 [  7840.7534009 ]
 [  7919.43700507]
 [ 26782.24121897]
 [  7000.51489249]
 [-34706.13956982]
 [ 71612.78818773]
 [ 22945.2804368 ]
 [ 17558.65978851]
 [-12156.83512497]
 [  8555.22798607]
 [-26167.76054275]
 [-16667.08313374]
 [ 34374.9356883 ]
 [-32217.47251103]
 [ 17043.60569529]
 [ -1764.96905367]
 [-26752.71026556]
 [-37088.92064061]
 [-14537.29581605]
 [-35801.32090395]
 [-13732.67326878]
 [  3595.34759254]
 [-36389.75042967]
 [ 24357.0781821 ]
 [ 26359.96274451]
 [-32684.31732237]
 [  1777.26884236]
 [-39069.93104745]
 [ 10615.04150025]
 [ -5932.88904448]
 [-22209.73287381]
 [-18673.44153013]
 [ 12731.00205659]
 [-12486.57607523]
 [-22602.88681695]
 [ -9036.95117467]
 [-24107.24028805]
 [ 35080.8228741 ]
 [ 41340.72847034]
 [  -138.8310503 ]
 [ 11765.08896099]
 [-11024.35521997]
 [-39558.82270964]
 [-37181.58186346]
 [-28353.20631854]
 [ 40199.08880709]]
