[[-32418.76624791]
 [-13352.74444821]
 [-18733.29051521]
 [ 69984.2768303 ]
 [ 27913.66560459]
 [-36395.39469351]
 [ 30369.97013736]
 [ 49722.78990087]
 [ 17650.46379389]
 [ 20537.40559691]
 [ 13570.71945401]
 [ -5667.32180712]
 [ 28881.93724599]
 [ 78835.41525249]
 [-15880.84923543]
 [-28560.6456163 ]
 [ 24465.31518034]
 [-20114.43631492]
 [-34789.79388668]
 [-28542.0159641 ]
 [-33633.59891182]
 [  4567.49409634]
 [ -4629.3509169 ]
 [ 27519.32488691]
 [ -3927.06588544]
 [-21661.5042569 ]
 [  9679.47754321]
 [-22949.97974024]
 [ 22304.2399832 ]
 [-31319.4716564 ]
 [-28079.7924745 ]
 [  2005.00236161]
 [-19981.49837087]
 [  7251.3582471 ]
 [ 13085.13338443]
 [-36854.43668692]
 [ 14973.33346882]
 [-34588.61573945]
 [ 16324.25923032]
 [-16375.87251731]
 [ 88077.08684896]
 [-20498.75443113]
 [ 60562.09197235]
 [ 15592.2866122 ]
 [-26911.87694664]
 [-29175.07266766]
 [   746.20605283]
 [ 26282.74540425]
 [-33151.20564357]
 [ -6042.95435129]
 [-39297.62311252]
 [-27368.06605036]
 [ 39855.94104635]]
