[[-10836.62155574]
 [-10368.75946153]
 [-31419.22943558]
 [ 57612.84135469]
 [-28399.65480929]
 [  1792.89226238]
 [ -9861.80681991]
 [ -1183.17296825]
 [ -8299.16694941]
 [ 14891.18280199]
 [  6640.90557094]
 [ 15487.99960647]
 [  7241.06052916]
 [-32749.42919811]
 [-25766.12485862]
 [-23055.76033583]
 [-12215.84438825]
 [-30910.19765678]
 [ 30473.10011943]
 [-24750.48412741]
 [ -3586.79885555]
 [ 12909.9677774 ]
 [ 35881.67463643]
 [ -8523.83563912]
 [ -7753.7882609 ]
 [  7476.11541308]
 [-37007.24124609]
 [-32854.71006528]
 [  7905.42288942]
 [-35409.06879259]
 [-31185.34457008]
 [-38475.5315284 ]
 [  9831.75145407]
 [ -9321.86615162]
 [ 25649.84384501]
 [-10475.72290592]
 [ 41348.01085101]
 [-19758.75623161]
 [ 33976.47662769]
 [ 11654.18702899]
 [ -5304.80644047]
 [-38946.67445583]
 [-27404.79274545]
 [ 17593.37414495]
 [ 20302.70333868]
 [-25558.39238223]
 [  7401.8466321 ]
 [-32786.5730469 ]
 [-38401.94755379]
 [   395.58444245]
 [  -460.61717176]
 [ 30087.86331516]
 [ 47503.37128914]
 [-27063.54431678]
 [   985.05950335]
 [-10694.42366094]
 [ 27295.97347344]
 [ 51290.12718275]
 [ 28174.81873222]
 [-21470.68835403]
 [ -1462.33959764]
 [-18839.83578195]
 [ 56142.70415207]
 [ 22161.59799453]
 [-35164.24282833]
 [ 34715.05446391]
 [  7858.50842851]
 [-38534.36052021]
 [  6259.94483038]
 [ 26098.06759353]
 [ 15009.63316916]
 [  -314.97475883]
 [ 18155.90021906]
 [ -4446.01448637]
 [  9955.30628011]
 [ 42889.5025964 ]
 [ 79869.55768232]
 [  3238.98138426]
 [-17222.88596125]
 [-17386.29154384]
 [-33374.99862218]
 [ 32748.11670476]
 [  -237.38325945]
 [ 33259.54290657]
 [-26149.90424976]
 [ -2497.64173823]
 [ 28041.31767139]
 [-24909.816942  ]
 [-27282.22883818]
 [-30871.46633542]
 [-16008.98653918]
 [ 34092.81636789]
 [  1770.23340469]
 [ 43175.78906135]
 [ 49398.53439278]
 [-30102.55667046]
 [-14772.28438734]
 [ 24879.65224525]
 [  4404.6402453 ]
 [ -6985.21871464]
 [ 19297.68493767]
 [-18768.86822315]
 [   143.03086528]
 [-24209.99127564]
 [-35302.87312587]
 [ 27739.63574541]
 [ 18203.58104036]
 [ -7227.2899787 ]
 [ -2740.79185938]
 [-10144.56252579]
 [-23137.05459487]
 [ -3940.30488428]
 [ -7016.94402235]
 [ 39779.76050182]]
