[[ 59769.94540623]
 [ -2337.4583173 ]
 [ 38084.16022584]
 [ 12957.34168952]
 [-17189.40625929]
 [ 10705.59715511]
 [ 14393.14734077]
 [ 50456.87115915]
 [ 60672.85138602]
 [ 16124.82793363]
 [ 23642.6882299 ]
 [-37705.41702725]
 [ -6487.3725181 ]
 [ 10969.42531185]
 [-22469.82680055]
 [-21340.33642324]
 [   489.74433604]
 [-16657.68921715]
 [  -471.76843845]
 [-18852.51948015]
 [-24411.26290773]
 [ 26864.00644737]
 [-25771.89841796]
 [-37162.52424009]
 [ 14396.95512358]
 [  2657.05515841]
 [-23186.39715124]
 [ 53053.50589495]
 [ -5522.21746162]
 [-35978.83322639]
 [ 48217.55669394]
 [-32866.90457406]
 [-33098.02904766]
 [ -8136.68877592]
 [ 83987.47492174]
 [ 11325.90639564]
 [ -2357.66411661]
 [-34274.21852031]
 [ 22721.10304055]
 [-20894.64707598]
 [-31475.72946534]
 [-30988.99976998]
 [128166.79726198]
 [ 40427.78537324]
 [ -3618.86601492]
 [  1835.22810263]
 [-31711.41840782]
 [-11585.81866241]
 [ 25557.28747862]
 [-24713.07584719]
 [-25463.3144323 ]
 [ -2094.33963929]
 [-23713.08618995]
 [-25531.7603898 ]
 [ -1391.79609779]
 [ 29064.66188518]
 [ 78278.36150851]
 [ 19728.77690896]
 [ 21798.80955453]
 [ 29964.40475396]
 [-18762.87365078]
 [-36076.69200967]
 [ -1773.22841084]
 [-33437.4217142 ]
 [ 10681.11466474]
 [-28981.07448958]
 [-27055.57061845]
 [-37321.73609429]
 [ 21348.09814888]
 [ 42906.18588348]
 [-35216.10523719]
 [-37766.52045608]
 [-27230.76820041]
 [ 34086.75582571]
 [  7924.34881828]
 [-34509.97162059]
 [-13005.81836834]
 [-34725.90092239]
 [-31939.48473416]
 [ 31152.25164448]
 [-36891.20964584]
 [-26246.30979514]
 [ 22575.20438099]
 [-22069.11451976]
 [ 23780.28955886]
 [  4667.15444723]
 [-12962.59464895]
 [ 38299.82174444]]
