[[ 50856.21944816]
 [-36024.89548812]
 [ -6362.55036339]
 [-12008.19388948]
 [ 20906.77731459]
 [-19156.62465483]
 [-19717.22693552]
 [ 14918.41721567]
 [ 55552.35899854]
 [-32925.9625583 ]
 [-13387.12950813]
 [ 20426.70879821]
 [-13038.59444057]
 [-44671.31140712]
 [-44173.23023028]
 [-11207.92250957]
 [ 21771.13256363]
 [ 44830.09974962]
 [ 31537.1126346 ]
 [-44864.81632896]
 [-34908.61228835]
 [ 28148.28010178]
 [ 16295.38815082]
 [-48412.18963965]
 [ -3477.04172303]
 [-42637.77631252]
 [-45331.03585754]
 [-28307.00696611]
 [ 71171.53107851]
 [-14700.45380943]
 [ 29230.97683013]
 [ 52612.09767161]
 [-29162.71051426]
 [-33905.93401476]
 [  8924.46192273]
 [-48536.11884625]
 [ 39621.09214198]
 [ 68799.51971854]
 [-38339.4512337 ]
 [-39507.86883593]
 [ 11853.93333994]
 [-34334.3721308 ]
 [-33240.32843412]
 [-20876.71224646]
 [ 16085.0211846 ]
 [ 60873.9109911 ]
 [ 44184.78455035]
 [-36027.89025124]
 [ -7825.58690815]
 [ 17238.64996153]
 [-29585.86268912]
 [ 47304.71678158]
 [ 49701.70745752]
 [-41008.48108318]
 [-31401.90033913]
 [ 40506.26760278]
 [ 31613.9186122 ]
 [  -872.81666701]
 [ -5475.22366532]
 [ 50448.7479496 ]
 [ 49240.89131061]]
