[[-2.78814569e+04]
 [-3.53950627e+03]
 [ 3.94041076e+04]
 [ 5.74465488e+04]
 [ 3.66105618e+04]
 [ 7.65751857e+03]
 [-4.23590567e+04]
 [ 8.99463361e+03]
 [-4.57716634e+03]
 [ 1.44970267e+04]
 [ 1.49473949e+04]
 [-1.39691723e+04]
 [-2.04793425e+04]
 [-3.04187355e+04]
 [ 6.15265685e+04]
 [-3.35984070e+04]
 [ 2.64018914e+04]
 [-2.39447194e+04]
 [ 2.83259313e+04]
 [-1.30659809e+04]
 [ 7.36144905e+04]
 [ 9.67884230e+03]
 [-3.68922104e+04]
 [-1.64506667e+04]
 [ 4.95857073e+04]
 [ 2.06822584e+04]
 [-2.56036387e+04]
 [ 2.49208980e+01]
 [-1.37234412e+04]
 [ 3.60192678e+04]
 [-3.44210146e+04]
 [-9.05856280e+03]
 [-1.43964331e+04]
 [-2.19988634e+04]
 [ 5.39681336e+03]
 [ 6.30067946e+04]
 [-1.79622289e+04]
 [ 2.30325351e+03]
 [ 5.16979002e+04]
 [-2.80725789e+04]
 [-6.50705187e+03]
 [-1.78839944e+04]
 [ 2.28027316e+04]
 [ 5.31517999e+03]
 [-1.69996966e+04]
 [-4.83799039e+02]
 [-3.80050557e+04]
 [-3.13166625e+04]
 [ 5.65132329e+04]
 [ 7.25097466e+03]
 [ 4.33896555e+04]
 [ 1.09628992e+04]
 [ 2.63393719e+04]
 [ 4.97402015e+03]
 [ 6.01245975e+04]
 [-7.85448656e+03]
 [-1.34642659e+04]
 [-1.89471417e+04]
 [-3.35413852e+04]
 [ 7.36373172e+04]
 [-4.12043755e+04]
 [ 3.40719828e+04]
 [-3.33726496e+04]
 [ 3.98833494e+04]
 [-2.48878470e+04]
 [ 9.30492147e+03]
 [-5.46090763e+03]
 [ 2.22473035e+04]
 [ 1.31305215e+03]
 [ 6.87208501e+03]
 [-3.59948240e+04]
 [-3.93464897e+04]
 [ 4.22925600e+04]
 [-3.69460317e+04]
 [ 5.75851456e+03]
 [ 1.62079948e+04]
 [-3.48836900e+03]
 [ 4.82913898e+03]
 [ 4.52441196e+03]
 [-2.83366618e+04]
 [ 4.27820659e+03]
 [-3.66346294e+04]
 [ 1.06971948e+04]
 [-1.62471829e+04]
 [-4.00867335e+04]
 [-3.52860894e+04]
 [ 3.13920588e+04]
 [ 2.93569654e+04]
 [-3.67779683e+04]
 [ 1.84556035e+03]
 [-3.22242525e+04]
 [-3.41963873e+03]
 [-2.56574790e+04]
 [-3.36737959e+04]
 [-1.61465082e+04]
 [-7.31731553e+02]
 [-4.06668256e+04]
 [ 4.29833653e+04]]
