[[-1924.44051929]
 [ -293.25187312]
 [ 9484.26472771]
 [ -706.15978725]
 [ 6748.10997845]
 [-6450.93969392]
 [  690.01677886]
 [ 2422.43268064]
 [ 7685.26697073]
 [ 4353.39040616]
 [-2620.67941754]
 [ 6255.75199248]
 [-2123.45031956]
 [ 5070.5543322 ]
 [  266.32721556]
 [-3818.84842514]
 [-5077.13491669]
 [-1778.31473045]
 [ -626.32889665]
 [ 8341.49896165]
 [-1191.7149666 ]
 [-2750.30891092]
 [-5154.21112785]
 [ 1659.0594616 ]
 [-4541.22505723]
 [-2726.25280621]
 [-3040.25927495]
 [-5541.37355763]
 [-4481.83832189]
 [-6381.48583777]
 [  320.18100376]
 [-5818.27021991]
 [-3041.09717758]
 [-6038.29741794]
 [  -53.04384855]
 [ -738.31765997]
 [-2364.77275396]
 [-3124.11824665]
 [ 1909.79326056]
 [ 4388.19428232]
 [ 4169.89456277]
 [ 2541.30704737]
 [19289.45699766]
 [-3175.22945892]
 [ -669.77823952]
 [ -469.53689718]
 [ 2043.47581179]
 [-6408.69493283]
 [ 4511.12731709]
 [-2634.94097762]
 [  236.82885917]
 [ 1498.95550277]
 [-3454.78106126]
 [-3640.31925485]
 [-1887.43555029]
 [-6357.04958998]
 [ 8725.48929773]
 [   94.38126883]
 [-1829.23937549]
 [-3585.43365522]
 [ 4163.83770217]
 [ 3919.12739477]
 [  887.43968526]
 [-6023.09506321]
 [-4095.76458697]
 [-2779.21707613]
 [-6542.10130898]
 [ 2762.64837851]
 [ 5806.2192397 ]
 [ 3749.9270803 ]
 [-2322.33486915]
 [-3996.29541349]
 [ 3676.99029372]
 [-4974.68549608]
 [-1718.37210254]
 [-1349.56429209]
 [-4917.73929291]
 [-5178.09682755]
 [-4361.43598541]
 [ 7909.20851668]
 [ 5951.18767272]
 [ 1896.55141386]
 [   49.24777523]
 [-5146.6057458 ]
 [-2167.94989001]
 [  189.72266817]
 [ 3025.45166432]
 [ -881.79295249]
 [ -503.35903276]
 [14403.15400845]
 [-5717.78150401]
 [ 2862.19422722]
 [ 5683.44440794]
 [-6815.63213414]
 [-2341.30946405]
 [  551.56457037]
 [ 9424.23512269]
 [ 4311.51838089]
 [ 6201.08088037]
 [-1778.80200503]
 [ 6997.27248454]]
