[[ 34887.53778372]
 [ 14947.97529035]
 [ 43312.71228558]
 [  1731.58049213]
 [-20763.81809893]
 [-44966.89518576]
 [-50575.15172237]
 [  6625.14247113]
 [ 57120.11799713]
 [-23169.00805842]
 [-32154.42182294]
 [ -6671.31564717]
 [ 21993.03148889]
 [-31742.6900141 ]
 [ 55565.89743764]
 [ 13276.15428257]
 [ 44782.30429616]
 [-33526.75199973]
 [  6861.48767309]
 [ 71015.32485734]
 [-22201.02397938]
 [ 53124.72442684]
 [ 24417.69098668]
 [-30348.93892731]
 [-15717.36892925]
 [ 85753.48768365]
 [ -9202.81666432]
 [ 52013.22740531]
 [ -2997.90476705]
 [ 44496.09529102]
 [-45458.41985695]
 [ 20253.24803401]
 [ 39357.37278912]
 [  7363.92331062]
 [ -5114.64794561]
 [ 28837.68737188]
 [-47495.33275485]
 [ 50140.82417884]
 [ 46917.07169779]
 [-43575.20041362]
 [  6003.58958104]
 [ -5376.98486645]
 [ 82071.39100952]
 [  1944.20430024]
 [-20091.7442137 ]
 [ 44171.50121964]
 [  5947.39778163]
 [ 26340.36536808]
 [-41116.17153791]
 [-36710.96586726]
 [-50206.63549623]
 [ -7253.74686371]
 [-22081.12050367]
 [  4303.94260909]
 [ 12674.00545174]
 [ 69411.39488772]
 [-28200.52742631]
 [ 10210.27685473]
 [-35978.42250961]
 [ 36017.70121713]
 [ 26523.13400477]
 [  3672.06852736]
 [ -3714.71239752]
 [ -2886.85446601]
 [ 53428.58359477]
 [-44564.34752178]
 [ 41426.4380051 ]
 [-11837.12244606]
 [-43861.58953444]
 [ -5152.06539893]
 [ 58793.22133337]
 [ 22735.67869435]
 [-39878.13818291]
 [-47167.70635882]
 [-30934.78807514]
 [ 52345.86626559]
 [-28074.47298312]
 [-49932.83467524]
 [-29130.94982861]
 [ -7649.07428657]
 [  6859.31471944]
 [-30178.28587497]
 [-23145.83813155]
 [ -8420.29672451]
 [-45306.56267367]
 [ -5519.44591657]
 [-19145.90166715]
 [-41729.32516723]
 [ -6476.1063057 ]
 [-15462.80221011]
 [ 46426.1030412 ]
 [-45418.36694435]
 [-18186.14020947]
 [-35728.24871132]
 [ 50151.00766152]
 [-50146.3322161 ]
 [ 15426.81330794]
 [-30300.0726196 ]
 [-20243.35875121]
 [-48788.85261618]
 [ 52964.03331623]]
