[[-2.40727692e+04]
 [ 6.30578596e+03]
 [ 1.14399650e+03]
 [ 1.02204869e+04]
 [-2.00501413e+04]
 [-2.80613862e+04]
 [ 2.38317521e+04]
 [-3.96722962e+04]
 [ 5.54711855e+01]
 [-3.12355217e+04]
 [-2.17795477e+04]
 [ 3.17615525e+04]
 [-2.36151408e+04]
 [ 2.31696889e+04]
 [-1.28145803e+04]
 [-3.53778322e+04]
 [ 1.22340007e+04]
 [ 2.10292495e+04]
 [-1.45494431e+04]
 [-1.81718450e+04]
 [ 1.94302130e+04]
 [ 8.43559616e+03]
 [-1.76709780e+04]
 [ 1.38369529e+03]
 [ 1.32773648e+04]
 [ 1.95471901e+04]
 [ 1.13700953e+04]
 [ 6.02405160e+03]
 [-3.02758233e+04]
 [ 2.64332438e+04]
 [-7.03517859e+03]
 [-8.62514434e+03]
 [-2.36635843e+02]
 [-8.46728859e+02]
 [ 1.35697515e+04]
 [ 2.14483647e+04]
 [ 2.36948343e+03]
 [-2.37212659e+04]
 [-3.12420105e+04]
 [ 2.17084914e+04]
 [-3.81470273e+04]
 [ 2.33936357e+04]
 [-3.93239444e+04]
 [ 4.52833790e+04]
 [-7.13759050e+03]
 [ 9.82999716e+03]
 [ 3.06743770e+04]
 [ 3.03467362e+04]
 [-1.78966418e+04]
 [ 2.22743407e+04]
 [-2.48944508e+04]
 [-3.36990820e+04]
 [-1.82731118e+04]
 [ 9.42512069e+03]
 [ 3.31325625e+04]
 [ 6.17111576e+03]
 [ 2.03752589e+04]
 [-5.45429591e+03]
 [ 3.71647644e+04]
 [ 6.10414968e+04]
 [-3.35394398e+04]
 [ 3.05230302e+04]
 [ 3.41991369e+03]
 [-3.17277710e+03]
 [ 6.62379972e+03]
 [ 2.27389234e+04]
 [-2.26061224e+04]
 [ 1.21361341e+04]
 [-2.57190392e+04]
 [-1.96646237e+04]
 [ 2.76182521e+04]
 [-1.56047495e+04]
 [-1.42601279e+04]
 [-3.75097085e+04]
 [ 1.90346382e+04]
 [ 3.98731279e+04]]
