[[-38702.52862019]
 [-24181.2279534 ]
 [-34015.043257  ]
 [ 45250.83610561]
 [ 33015.36625151]
 [ 21488.02063275]
 [  6597.58239503]
 [  9676.98145754]
 [-32430.37792207]
 [ 79376.12458241]
 [-19780.34060045]
 [-25842.34154693]
 [ 31071.60947831]
 [ 80440.50022863]
 [ 45995.87510408]
 [ 64388.26906332]
 [-30892.58732177]
 [ 41640.19767877]
 [ 15994.95213887]
 [-25217.97454733]
 [-31905.35404928]
 [-36444.87067349]
 [-38283.62643603]
 [-39951.31358655]
 [ -8455.33370936]
 [-32814.06071193]
 [ 27300.6493017 ]
 [-25469.60149654]
 [  5296.93293377]
 [ -2590.59559496]
 [-20075.09477504]
 [ -8721.17298807]
 [-31992.70229526]
 [-12154.2071518 ]
 [-41577.46741484]
 [ 25315.18650005]
 [ -6169.87384426]
 [ 10275.73595441]
 [  3130.09186058]
 [ 42135.4930417 ]
 [-13757.52976281]
 [ 13431.60469739]
 [-21068.26515091]
 [-40869.77447485]
 [  1749.16733507]
 [-32064.3844533 ]
 [  2012.76698643]
 [ 28614.90041132]
 [ 24053.63230708]
 [120574.34039244]
 [-12982.95457065]
 [  5545.73367099]
 [  9826.68687643]
 [-11154.19011486]
 [-26165.59828323]
 [-21976.96129043]
 [-24853.99745785]
 [ 19325.61923756]
 [  5571.04054281]
 [ 13041.61454741]
 [  8232.2272231 ]
 [-25893.22900573]
 [-28048.81130003]
 [-13866.34657585]
 [ 42285.31316847]]
