[[-11332.38239584]
 [-36485.69530348]
 [ 18423.03641503]
 [ 20777.75544549]
 [-30408.08476739]
 [ -9252.54766054]
 [ 49919.25614142]
 [-54695.83934388]
 [ -5389.38758481]
 [ 43327.09522954]
 [ 21711.08685473]
 [ 36794.76608094]
 [-30867.49372212]
 [-44390.0215628 ]
 [ 21905.4375972 ]
 [-38688.67124694]
 [-18603.02268441]
 [   142.66496796]
 [-24805.88299117]
 [ 10600.47888489]
 [-11511.59463735]
 [-10386.63460948]
 [ 90083.81743832]
 [ 62652.87952501]
 [-11163.95384733]
 [-40172.15747864]
 [   137.4140089 ]
 [ 57969.01731899]
 [ -9912.57543099]
 [  9056.75664479]
 [-45668.35857022]
 [-45431.02246578]
 [-15626.62021756]
 [-28136.2756936 ]
 [-42484.72113926]
 [  4324.41875377]
 [ 25119.59303363]
 [ 10217.12499661]
 [ 21960.55266948]
 [ -4132.24594226]
 [-55171.14887239]
 [-10565.90464758]
 [-32738.04812013]
 [ 21013.48018395]
 [  6758.76620796]
 [-25050.45994706]
 [  2559.01392693]
 [  6371.71177475]
 [-12160.73970304]
 [-15042.45565482]
 [-13592.80236224]
 [  1510.94122286]
 [ -7555.15640678]
 [-38202.24960273]
 [  3182.98253858]
 [-27491.62121916]
 [-29127.99685498]
 [  9387.90657506]
 [-41171.4007236 ]
 [-27863.64994737]
 [  -226.38710799]
 [-43059.30643533]
 [-44471.85806278]
 [ 34004.94100429]
 [ 18277.02385895]
 [-46796.85405525]
 [ 77564.94476865]
 [ 35053.27824666]
 [ 62517.8711358 ]
 [ 28381.42769306]
 [ 37951.35485216]
 [-50561.11515694]
 [ -3232.91437054]
 [ 24717.61145266]
 [ 12852.83105176]
 [ 39636.47709651]
 [-34341.41472878]
 [  1216.23905952]
 [-13860.39246573]
 [-24377.51471952]
 [ 60801.68265244]
 [-49931.94647329]
 [ -2832.59526585]
 [ 23504.28830972]
 [ 32277.70654816]
 [-38153.58342314]
 [-14412.4536569 ]
 [ 83873.78237823]
 [ -4460.85923398]
 [-13737.41809067]
 [-15712.63323351]
 [ -4078.78293339]
 [  1078.38330841]
 [ 65755.13394333]
 [ 21548.16911277]
 [-40656.91461799]
 [ 39145.94009441]
 [ 17654.64420559]
 [ 46004.66869535]
 [ 30457.41348411]
 [ 56156.83439257]]
