[[ 4.36285687e+04]
 [ 6.15142246e+04]
 [-5.02217792e+04]
 [-3.92204639e+04]
 [-4.84891831e+04]
 [-2.15048849e+04]
 [-9.16349419e+03]
 [ 1.01667434e+02]
 [ 6.90055198e+04]
 [ 1.70428268e+04]
 [ 4.88536038e+04]
 [-9.71818672e+03]
 [-2.16139990e+03]
 [-2.44425705e+04]
 [ 7.72359029e+04]
 [-3.16651098e+04]
 [ 2.60736647e+04]
 [ 9.52046331e+03]
 [-3.22975863e+04]
 [ 2.73314976e+04]
 [ 1.32213865e+03]
 [ 4.08788174e+04]
 [-1.22469395e+04]
 [ 2.66903989e+04]
 [-6.52543024e+04]
 [-5.08489857e+04]
 [-4.10204732e+04]
 [ 5.94470737e+04]
 [-2.88958833e+04]
 [-1.50796376e+04]
 [ 1.11899475e+04]
 [-2.04215213e+04]
 [-2.37933585e+04]
 [-6.44334878e+04]
 [ 5.76457010e+04]
 [ 8.24362764e+04]
 [ 2.56593683e+04]
 [-2.82844152e+04]
 [-4.70050141e+03]
 [-4.35021573e+03]
 [ 6.03004265e+04]
 [ 1.99903499e+04]
 [-2.88017453e+04]
 [-6.90213693e+03]
 [-3.01042707e+04]
 [-1.32503976e+04]
 [-3.85452493e+04]
 [ 1.80108509e+04]
 [ 2.52648919e+03]
 [-1.76431572e+04]
 [ 2.80127282e+04]
 [-1.10816709e+04]
 [-1.29576598e+04]
 [-6.15479359e+04]
 [-2.89851805e+02]
 [-1.33405627e+04]
 [-1.68622492e+04]
 [ 1.11266367e+05]
 [-4.49309911e+03]
 [ 1.41052153e+03]
 [-1.48737591e+04]
 [-9.61048989e+02]
 [-2.02018106e+04]
 [ 1.48786361e+04]
 [-2.80409724e+04]
 [-3.01153743e+04]
 [ 2.28974039e+04]
 [-5.84845050e+04]
 [ 6.88689852e+04]
 [ 1.01385751e+04]
 [-2.12406776e+04]
 [ 5.63635684e+03]
 [-3.79261319e+04]
 [-9.62491034e+03]
 [-4.35282908e+04]
 [ 2.33598161e+04]
 [-5.02311304e+04]
 [-1.90974504e+04]
 [-4.70859135e+04]
 [ 3.57855070e+04]
 [ 1.24320595e+04]
 [-3.48543205e+04]
 [-6.72622022e+04]
 [-1.12416489e+04]
 [ 3.77016665e+04]
 [-1.22390248e+04]
 [ 9.19236391e+04]
 [-2.58704263e+04]
 [-1.63816356e+04]
 [-1.95939121e+03]
 [-3.75919739e+04]
 [ 3.36832467e+04]
 [ 6.29245770e+04]
 [ 4.51228379e+04]
 [ 1.00742668e+05]
 [ 2.65887172e+04]
 [ 3.85468198e+04]
 [-1.84762734e+04]
 [-1.26837484e+04]
 [-5.43199192e+04]
 [ 6.89090380e+04]]
