[[ 84685.60738178]
 [ 38325.28559696]
 [-31908.26393998]
 [ 16341.68207626]
 [-48423.75024382]
 [ 33979.22156764]
 [-45102.69183843]
 [-27314.02778683]
 [-20075.45532062]
 [ 43449.0831732 ]
 [ 28000.00941208]
 [ 74894.05417934]
 [ 18972.46086856]
 [ 40933.77570208]
 [ -5299.52428421]
 [-37380.23090627]
 [-17996.93996308]
 [ 92920.40250758]
 [ -4281.23579156]
 [-17961.90868514]
 [-45973.49689654]
 [-40202.98717801]
 [ 11280.16697504]
 [ 38382.32260281]
 [ 48474.49948904]
 [-21098.6750438 ]
 [ 63294.01102049]
 [ 34065.52783612]
 [  3112.25635669]
 [-14845.73221182]
 [-20781.11896752]
 [ 31081.66724047]
 [ 25580.73990246]
 [-53605.41937426]
 [ -6219.95397482]
 [ 75642.86052654]
 [ 51387.65334637]
 [-55203.37709477]
 [ 64518.17482632]
 [-22812.83980362]
 [  5696.17173795]
 [-47397.03471364]
 [-11515.67004156]
 [-62794.24115052]
 [-23273.81885817]
 [  5488.81714288]
 [-20308.82816095]
 [-49140.78035643]
 [  7738.55000941]
 [ 24863.60083681]
 [  4929.68504951]
 [ 11224.49974474]
 [-15631.18132201]
 [ 24219.38056732]
 [ 40629.99578489]
 [  5218.76787827]
 [ 50048.35438442]
 [ 49897.88467592]
 [-19564.74520063]
 [-16932.40094795]
 [-14683.78792975]
 [-22404.51264108]
 [-20411.81770656]
 [-22343.28837621]
 [-62892.63346484]
 [ 36800.83531754]
 [-24373.27520484]
 [ 26718.26983852]
 [  6356.11908388]
 [-33478.35319742]
 [ -8214.82670928]
 [-42845.63363878]
 [ -8437.60461404]
 [-41635.23856129]
 [-39040.08457066]
 [ 16615.04739051]
 [ 49730.30658346]
 [-60353.54315789]
 [ 30606.42451045]
 [ -6672.54971735]
 [-19383.93290159]
 [-34696.23266659]
 [ -5761.36427427]
 [  1249.5189481 ]
 [-31379.19513025]
 [ -8349.12996757]
 [ -5588.39912284]
 [-33372.3517049 ]
 [-22101.06012778]
 [ 19491.62426218]
 [  9762.57670326]
 [-38334.60047846]
 [-23753.31424798]
 [ 68141.12380173]
 [-24180.98683702]
 [ 64799.16240023]
 [-27782.29655028]
 [  3301.24039125]
 [ 31564.35476067]
 [-28897.43083527]
 [ 63738.2877805 ]]
