[[-35069.54058016]
 [ -1401.07175736]
 [-27611.2920111 ]
 [ 51310.93389747]
 [ 24915.8306575 ]
 [  9432.76664608]
 [-30995.28636932]
 [-33526.00048211]
 [-19700.34970119]
 [ 52107.65872035]
 [ 34056.62129474]
 [-29807.49926343]
 [160115.1208832 ]
 [ 65911.04353673]
 [-19812.96980934]
 [-31147.25150435]
 [-27365.16529589]
 [-12398.71927641]
 [ 16404.69174364]
 [-20717.59708772]
 [-21650.45524673]
 [  2675.51554635]
 [  4865.20986003]
 [-19892.32019121]
 [-15068.76702668]
 [ 48183.46935478]
 [-17921.52217357]
 [ -1946.32385871]
 [ 11635.75728554]
 [ 17946.42999288]
 [ 29503.85226534]
 [-29247.54538803]
 [-22160.6744033 ]
 [-11279.26880165]
 [ -9827.3775346 ]
 [-20475.35617152]
 [  9015.82000422]
 [ 31232.13375344]
 [-32592.22787382]
 [  -311.25067977]
 [ 21286.59004536]
 [-12363.19184223]
 [ 24688.40187557]
 [  5094.23751785]
 [-31766.59927892]
 [ -3707.57235466]
 [ 33852.11817208]
 [-26351.7088278 ]
 [-11660.64500782]
 [-25567.38293579]
 [ -7703.79598548]
 [  3737.30953697]
 [-35406.02335797]
 [-20474.97558588]
 [   937.7057733 ]
 [-19502.00322523]
 [ 22948.28679096]
 [-25899.09927492]
 [ -9419.78508684]
 [ 39891.11009711]
 [ 36725.05315726]]
