[[-15914.54073196]
 [  -519.41187649]
 [-33250.58594185]
 [-31420.67165931]
 [ 11274.71438388]
 [ 23391.65266568]
 [-12182.8356408 ]
 [ -1224.8760386 ]
 [ -3501.07917024]
 [-15633.13566975]
 [  8728.24559865]
 [ 27261.80662011]
 [ 29048.52224376]
 [-22165.41966586]
 [-11092.23724839]
 [ 43536.2954844 ]
 [ -3392.56301418]
 [ -4457.65384923]
 [-23741.15707612]
 [-37617.1713643 ]
 [-30401.29741909]
 [  -274.4628361 ]
 [ 26923.65104335]
 [  6507.51306406]
 [ 10045.84816572]
 [ 10892.39300557]
 [-37922.61575801]
 [ 71717.71073827]
 [-35399.25000031]
 [ 57308.54397627]
 [ 35189.55235313]
 [  3295.43763137]
 [-27880.98166926]
 [-37387.57479861]
 [-14268.76524933]
 [ 22644.52041307]
 [-34536.47508116]
 [-14768.62681604]
 [ 28769.637861  ]
 [-19631.28271964]
 [ 16013.90739097]
 [  4889.05438449]
 [ 14544.83413326]
 [-15445.86247038]
 [-10061.31402933]
 [  5197.63985094]
 [  5116.07390233]
 [-34260.01291358]
 [ -1111.34248722]
 [ -8368.50181843]
 [ 14407.79567966]
 [-20237.31669597]
 [ 45586.31599801]
 [  -790.72272776]
 [ 33078.4105473 ]
 [ 26933.26964312]
 [-30275.52513291]
 [ 35898.10974825]
 [-29066.18695644]
 [ 40411.21928857]]
