[[ 16476.67535925]
 [ 26572.7770083 ]
 [ -2414.11474803]
 [ 25781.15457197]
 [  7918.46789655]
 [-16149.96730176]
 [ -1994.43473173]
 [-32158.88463252]
 [  7326.9878249 ]
 [-12099.3184751 ]
 [  1322.77122252]
 [ 40255.93476375]
 [-18014.1935921 ]
 [  2920.08206379]
 [-33840.74324893]
 [-16406.83577472]
 [-20679.5707348 ]
 [ -3278.87249038]
 [ -1299.0247272 ]
 [-17242.53389183]
 [ -2998.21454473]
 [-38112.58184218]
 [-19314.37427226]
 [-29031.51949963]
 [-14053.60373552]
 [ 29091.98368196]
 [ 25045.4083637 ]
 [ 40877.79982467]
 [ 16606.23783652]
 [ -2425.28249665]
 [ 26897.64138396]
 [ -5392.99711133]
 [ 34940.97690793]
 [-22488.97142326]
 [-10104.53039012]
 [ 42165.72347071]
 [-26241.835901  ]
 [  9745.80517421]
 [ 10535.04530189]
 [ 36106.06154375]
 [-32827.17599489]
 [-29205.17240934]
 [-38923.20721245]
 [ 19215.30412604]
 [ 24674.99710719]
 [  7165.66570103]
 [ 10691.9540786 ]
 [ 20657.58607872]
 [  4298.99968952]
 [ 11252.997331  ]
 [-37298.09085888]
 [  5274.92922607]
 [ 17348.89716207]
 [  7033.84949478]
 [-39631.11905972]
 [ 35098.9863434 ]
 [-35964.40485226]
 [ 15388.40608747]
 [-34375.85255157]
 [ 18629.64803967]
 [-25968.47943198]
 [ 22616.15327098]
 [ 40123.44952781]]
