[[-14432.00762295]
 [ 21228.83679472]
 [-12865.6745744 ]
 [  8454.71678766]
 [ 36496.45085965]
 [142459.08464759]
 [-13763.85066227]
 [-24757.31035743]
 [ 26888.22467816]
 [-39739.80284199]
 [ 40329.2580844 ]
 [-49322.86393501]
 [ 84369.87879875]
 [-31584.71600187]
 [-31277.42620256]
 [  2212.31786861]
 [ 48216.3135373 ]
 [  4607.40339799]
 [-36800.5956957 ]
 [-42728.99115453]
 [-45870.49044965]
 [ 46551.49309023]
 [ -1220.35657535]
 [-49769.35471578]
 [ -5194.49197762]
 [-46285.30505601]
 [-53159.86380125]
 [ 10375.11077972]
 [ 29449.22395798]
 [ 61003.30739158]
 [ 34655.93669222]
 [-39860.38137868]
 [-31334.2502436 ]
 [ 48651.0270827 ]
 [ 38249.25828386]
 [-38079.08045989]
 [  4182.22025081]
 [  1913.26660564]
 [ 23681.84308434]
 [-47249.21050603]
 [-38907.26462535]
 [ 56977.59261439]
 [-35932.26884112]
 [-28858.56911385]
 [  2235.34164278]
 [-24976.46100317]
 [-10042.20483839]
 [-13122.74629179]
 [ 14155.94515584]
 [-56906.39584622]
 [ 50802.81424206]
 [-35023.63444169]
 [ 11370.22632449]
 [ 13558.75589331]
 [  5600.33413833]
 [-29501.4088983 ]
 [ 46239.31530734]
 [-32020.9314754 ]
 [-52847.24304461]
 [ 17421.85206145]
 [ 12353.32122102]
 [-19152.55849047]
 [-16507.37821786]
 [-38806.52211843]
 [110858.01702615]
 [ 22890.79521306]
 [-13039.48675717]
 [ 19931.11370248]
 [-46791.49563183]
 [-48653.91454334]
 [101453.61581421]
 [ 44847.63842269]
 [ 15543.70616754]
 [  1082.33866907]
 [   865.83519062]
 [ 23097.77351254]
 [151662.59619   ]
 [ 47739.29276779]
 [-41125.60858615]
 [-33381.77582897]
 [ 13463.38178467]
 [  9973.95215405]
 [-49171.13295605]
 [ -5181.72517237]
 [ 29842.95295247]
 [ 42270.98709295]
 [-50021.61082677]
 [ 81069.90216562]
 [-57458.51909335]
 [-25949.57086229]
 [-42882.37163353]
 [ -9557.40102154]
 [-12480.07423497]
 [-21156.15627457]
 [-39582.60937505]
 [-25721.22698454]
 [-47548.13847399]
 [-27776.22330146]
 [ 34043.12025799]
 [ -9947.03734168]
 [ 65161.72438178]]
