[[ 18255.47438521]
 [ -8439.32447074]
 [  4466.79180394]
 [-13247.4785343 ]
 [ 19200.20840844]
 [ 12730.20551387]
 [ -6023.21254897]
 [ 38277.19269194]
 [-23833.20717968]
 [ -2208.52383686]
 [ 63154.9424566 ]
 [ 45699.50619027]
 [-22544.37503022]
 [-23336.9032079 ]
 [-32629.2400573 ]
 [-22220.6364597 ]
 [-11282.39394822]
 [-35338.44133736]
 [ -8513.21053602]
 [  3660.89338283]
 [ 31240.51678818]
 [  6312.74358295]
 [-35568.68161187]
 [ -2778.83071897]
 [-17239.63186288]
 [-28002.59329983]
 [-34798.96849906]
 [  3254.47362901]
 [-24651.42655153]
 [-10330.40751536]
 [ 49135.11540017]
 [ -4916.41540325]
 [-16493.25975422]
 [ 47538.17030451]
 [-24323.44733704]
 [-33462.01659307]
 [  4715.54380578]
 [ 21276.74308654]
 [ 21760.01674339]
 [-35989.50071743]
 [ 10937.91074857]
 [-23164.00175336]
 [  1627.46956984]
 [  6502.92752318]
 [ 33176.85478301]
 [ 17660.06317877]
 [-21322.7195282 ]
 [ 10475.5015692 ]
 [ 29239.94163393]
 [-39431.33313031]
 [ 21834.71535936]
 [  -898.51143662]
 [-19385.11257678]
 [ -9071.32605168]
 [-33255.89642476]
 [-15260.00906504]
 [-27358.42228837]
 [ 37614.20568358]
 [ 67118.99099399]
 [ 27558.50198776]
 [ -1187.27486782]
 [ 12339.6558209 ]
 [-32671.39959387]
 [-35227.18445029]
 [  1338.23805162]
 [ 23765.15403341]
 [ 17751.68813237]
 [ -6348.83917864]
 [ 27052.85952788]
 [ -8044.62224996]
 [ -8617.58080378]
 [ 31987.52635988]
 [ 16267.21277131]
 [-10862.08487856]
 [-16472.41852471]
 [  7588.86200955]
 [-35682.37043739]
 [ 16713.36688766]
 [ 16011.71207813]
 [ 15517.01384945]
 [-37565.93039223]
 [-34968.76658376]
 [ 40586.67222033]
 [ 13622.34828058]
 [ 39626.67176949]]
