[[  2930.59404512]
 [ 27727.49123686]
 [-16372.70188264]
 [-22569.95536828]
 [-17353.67734932]
 [ 29591.54174539]
 [ 21806.23188287]
 [-33579.61439685]
 [ -7836.19678551]
 [ 38924.41053841]
 [ 52289.7282076 ]
 [-11144.28542571]
 [ 64356.66190611]
 [-30065.49662737]
 [-24546.04469984]
 [-10752.58166897]
 [-22532.40608282]
 [ 18704.93644385]
 [ -9877.34527997]
 [-36653.08926714]
 [-32954.36092362]
 [ -7588.56619181]
 [ 17164.42445471]
 [-25367.36298673]
 [-39821.97652049]
 [ 33755.70075982]
 [ 47557.35070003]
 [ 30421.89831694]
 [-43504.29001848]
 [-29496.39571026]
 [ 54616.80495597]
 [ 10670.69322511]
 [ 10437.41959734]
 [-33243.13171091]
 [ 91208.30452405]
 [-23226.38000721]
 [  2992.07834727]
 [-28835.62682393]
 [ 24091.81222641]
 [ 26557.03567725]
 [-23810.61713969]
 [-21326.86376807]
 [-40486.98288901]
 [-26291.18934605]
 [ 11046.37514538]
 [ 12494.80808318]
 [-39093.75375965]
 [ 60672.68448099]
 [  3334.04325197]
 [ 31205.04290683]
 [ 17427.30682241]
 [-10809.32025545]
 [  3677.36650397]
 [-13454.18891365]
 [ -6462.84788713]
 [ 13018.09546516]
 [-10525.44463202]
 [ 28333.36307446]
 [ -4932.62404338]
 [-20905.33790607]
 [  2532.38817192]
 [-32465.07094805]
 [ 46262.24431786]
 [ 16479.83768051]
 [ 26479.40247445]
 [-35406.93470631]
 [ 19262.67313713]
 [-16737.58899675]
 [-11090.00719477]
 [-13745.98575398]
 [  2902.26373198]
 [-24602.73567893]
 [  2275.98305351]
 [-20025.14968292]
 [ -6138.89215664]
 [ 25217.2081275 ]
 [-38828.20256426]
 [ -7046.94015111]
 [-19502.49074114]
 [ 24202.55896278]
 [-14899.66674729]
 [ -9985.41156575]
 [-23730.04665537]
 [-30328.2626929 ]
 [  8099.20328102]
 [-13600.82246377]
 [ 11510.7179847 ]
 [-34054.05756952]
 [ 64301.58731171]
 [ 63111.49452295]
 [ -6618.52627383]
 [ -7140.62934888]
 [-16816.36802044]
 [-11765.3887227 ]
 [-16155.14877495]
 [ -7661.43185019]
 [ 48681.88818084]
 [-41886.44955847]
 [ 26586.5932834 ]
 [ 10732.61633922]
 [ 45125.30193486]]
