[[-6488.70861878]
 [-1604.73354636]
 [-5154.54042906]
 [ 2751.5403554 ]
 [-3735.90120294]
 [ 5413.08930772]
 [ 3976.61162781]
 [-6145.72479851]
 [-5380.96075832]
 [-3270.46890243]
 [12074.80040138]
 [ 9574.2917286 ]
 [ 7260.34682362]
 [ 3147.87085893]
 [ 1936.3774632 ]
 [-3649.12835101]
 [ 1272.73878465]
 [ 3413.25853664]
 [ -103.52259745]
 [-2451.58986903]
 [ 5244.74614788]
 [-1842.0822004 ]
 [-6325.5994163 ]
 [ 2359.10821881]
 [-3771.66408912]
 [-6485.94996046]
 [-4495.37864472]
 [-2775.64294206]
 [ 6006.92771996]
 [-5431.38630932]
 [-3586.24860215]
 [-3992.88510234]
 [ 6901.60773427]
 [-1952.48954636]
 [ 4099.66721788]
 [  394.6245626 ]
 [ 6691.97386249]
 [-7497.66109653]
 [ 1401.87158467]
 [-7609.72084982]
 [-5409.36849728]
 [10902.90564121]
 [13723.67322456]
 [ 8704.09932227]
 [-1213.89292925]
 [-5265.41645369]
 [-4792.77392022]
 [-1201.48123617]
 [-3055.32750343]
 [ 2346.58226308]
 [-7068.47429221]
 [ -204.77398967]
 [-2545.48774483]
 [ 6148.29572361]
 [-3565.9086463 ]
 [ 7305.91990889]
 [-3682.1348997 ]
 [ 2250.5243269 ]
 [ 3910.17808966]
 [-4088.20261962]
 [11384.8887403 ]
 [ 6983.59435184]
 [ 2209.41292799]
 [-1148.66056785]
 [ 6464.38623988]
 [-5156.95095901]
 [ 5816.08721665]
 [-7737.74652051]
 [ -146.40378003]
 [ 6101.69119182]
 [  241.30626817]
 [13667.78064536]
 [-7170.85265731]
 [-4479.51007992]
 [  965.79268907]
 [ -254.51751069]
 [  310.01459282]
 [-3637.57019579]
 [-1851.09034695]
 [-6335.83327405]
 [-7298.84632229]
 [ 4007.50634588]
 [ 1452.80156484]
 [-6320.57151462]
 [ 5138.32855855]
 [-5624.75424539]
 [-2254.03366049]
 [-1385.97028389]
 [-2048.73369224]
 [-3552.88588031]
 [11034.44708586]
 [ -948.93764769]
 [ 1420.95120025]
 [ 1613.12464864]
 [  913.38371239]
 [-5105.71882457]
 [-4678.39284693]
 [ 2155.79668107]
 [-2556.55898311]
 [-5555.1557386 ]
 [ 7944.31375426]]
