[[-4.08323243e+03]
 [-7.24365850e+02]
 [ 5.39055164e+03]
 [-7.24451053e+03]
 [-4.38048477e+03]
 [-5.99111514e+02]
 [ 3.91594080e+02]
 [ 1.61972160e+03]
 [ 4.37769484e+03]
 [ 1.29213614e+04]
 [-6.18686473e+03]
 [-4.53975231e+03]
 [-5.16023341e+03]
 [-3.93037800e+03]
 [ 7.28429383e+03]
 [ 3.93306911e+03]
 [-3.69422413e+03]
 [ 4.47337404e+03]
 [-6.51107786e+03]
 [-3.56871842e+03]
 [ 2.68964180e+03]
 [-4.16231231e+03]
 [-1.12159576e+03]
 [ 1.60603309e+03]
 [ 6.21748363e+03]
 [ 4.38404014e+03]
 [ 4.71379088e+02]
 [ 4.07819702e+03]
 [ 5.76760420e+02]
 [-6.72604418e+03]
 [-1.61129643e+02]
 [ 6.28900466e+03]
 [-6.30863623e+02]
 [ 1.17373051e+03]
 [-2.33792096e+03]
 [-2.32035540e+03]
 [-3.26737401e+03]
 [-2.09343445e+03]
 [-2.18993375e+03]
 [-1.26186442e+02]
 [-2.19548709e+03]
 [ 1.54242655e+02]
 [ 1.54090057e+04]
 [ 2.61386558e+03]
 [-6.01820373e+03]
 [ 2.13171469e+02]
 [-6.80152214e+03]
 [-3.81310618e+03]
 [ 1.35717719e+02]
 [ 3.74145638e+02]
 [ 9.76293059e+03]
 [-2.72100491e+03]
 [-5.87999691e+03]
 [-5.41770284e+03]
 [-2.69247126e+03]
 [ 5.93397037e+03]
 [ 3.04718672e+03]
 [-3.85828891e+03]
 [-2.01179061e+02]
 [ 3.91837006e+03]
 [-4.57903267e+03]
 [-4.82161954e+03]
 [ 1.32000108e+04]
 [ 2.82799293e+03]
 [ 7.22414588e+03]
 [ 1.78213842e+03]
 [-1.97988646e+03]
 [ 3.18738991e+03]
 [-1.85087801e+03]
 [ 3.15368256e+03]
 [-8.83728783e+02]
 [-6.80472861e+03]
 [-4.69331929e+03]
 [ 3.38184898e+03]
 [ 8.91163929e+03]
 [-5.95470431e+03]
 [-3.76098590e+03]
 [ 2.16119887e+03]
 [ 4.66320472e+03]
 [-3.99619874e+03]
 [-6.52934889e+03]
 [-1.86070308e+03]
 [ 1.49628589e+01]
 [-5.45616251e+02]
 [ 1.03671780e+03]
 [ 2.27122051e+03]
 [ 6.57317746e+03]
 [ 6.07191323e+03]
 [ 8.63996145e+02]
 [-4.96678886e+03]
 [-3.88078982e+03]
 [ 1.16617860e+03]
 [ 1.57996977e+03]
 [-2.29826333e+03]
 [-3.05682983e+03]
 [-1.90875959e+03]
 [-6.63864379e+03]
 [-2.47567674e+03]
 [ 6.29942640e+02]
 [ 8.70370120e+03]
 [ 7.48119389e+03]]
