[[ 8.27791777e+03]
 [-3.42973632e+04]
 [ 4.58449164e+04]
 [ 3.29243473e+04]
 [ 6.02435503e+04]
 [ 1.21731600e+05]
 [-3.52155373e+02]
 [-5.87248435e+04]
 [-4.63592716e+04]
 [-4.93867585e+04]
 [-5.99331596e+03]
 [ 1.00310417e+05]
 [-1.51236966e+04]
 [ 3.10852863e+03]
 [ 7.85646524e+04]
 [ 4.28377367e+04]
 [-5.54764015e+04]
 [-7.29923037e+03]
 [-1.40915474e+04]
 [ 5.34516397e+04]
 [-4.26024212e+04]
 [ 8.00915313e+04]
 [-9.76251259e+03]
 [ 5.44540780e+03]
 [ 7.20918985e+04]
 [ 4.17301185e+04]
 [ 3.21853008e+04]
 [-2.77694225e+04]
 [-6.02950140e+04]
 [-3.42277516e+04]
 [-3.93622151e+04]
 [-4.61870669e+04]
 [-1.01640343e+04]
 [ 5.22698623e+04]
 [-1.00116989e+04]
 [-5.17373738e+04]
 [-4.78816132e+04]
 [-1.52957688e+04]
 [-2.14925659e+04]
 [-1.52724937e+04]
 [ 3.79608639e+04]
 [ 8.09928053e+04]
 [-2.14951604e+04]
 [ 4.37412942e+04]
 [-4.00935032e+04]
 [-4.18954988e+04]
 [-5.10319366e+04]
 [ 5.80527549e+03]
 [ 5.00286411e+04]
 [ 7.05262617e+02]
 [ 9.33355094e+04]
 [ 1.08442880e+05]
 [ 2.89333717e+04]
 [-5.22737610e+04]
 [ 2.41526449e+03]
 [ 1.40240920e+04]
 [-2.11697310e+04]
 [ 1.15357680e+04]
 [ 3.25908910e+03]
 [-3.17032749e+04]
 [-2.23147813e+04]
 [-9.52460693e+03]
 [ 2.04643186e+04]
 [ 4.48359714e+02]
 [ 9.76968864e+03]
 [ 1.80161762e+01]
 [ 1.16474783e+05]
 [-3.11960737e+03]
 [-1.25091201e+03]
 [-1.56383159e+04]
 [-5.01340934e+04]
 [-5.90425834e+04]
 [-4.55879611e+04]
 [ 1.14745515e+03]
 [ 5.78067393e+04]
 [ 1.44638468e+04]
 [ 1.26293071e+04]
 [-1.87571749e+04]
 [-1.15626039e+04]
 [ 4.10089875e+03]
 [ 7.17222454e+03]
 [-4.84906681e+04]
 [ 2.96508323e+04]
 [-4.78562814e+04]
 [-5.16970430e+04]
 [-1.58308399e+04]
 [-5.32934621e+04]
 [ 7.74554671e+03]
 [-5.66519389e+04]
 [-1.46278323e+04]
 [-2.03975920e+04]
 [ 3.12381076e+04]
 [-7.73747379e+03]
 [-3.72347067e+04]
 [-3.34540321e+04]
 [-5.71758089e+04]
 [ 8.09524360e+03]
 [-1.04371768e+04]
 [ 4.17496047e+04]
 [-4.61761648e+03]
 [ 6.29661063e+04]]
