[[ 40710.63530499]
 [ 39374.32477048]
 [-37669.24102901]
 [ 18835.93478226]
 [  -120.36900303]
 [-15516.58084449]
 [-14016.46743456]
 [ 12864.64441693]
 [-25301.74727617]
 [-24719.47463   ]
 [-11146.79171956]
 [ 36693.89408197]
 [ 43151.95603519]
 [  8586.21185432]
 [ -4520.00152017]
 [-14084.17621247]
 [ 41170.63278476]
 [  5099.89100409]
 [ 60441.27001009]
 [ 37313.05529143]
 [ -2001.59729437]
 [  1392.1579614 ]
 [-11021.01320867]
 [-39061.33159882]
 [ -9866.91499137]
 [ -1728.8838929 ]
 [ 16631.09541651]
 [-28682.11501948]
 [-22184.4155383 ]
 [  4213.30651878]
 [ 41315.08519894]
 [-19267.17126417]
 [-36338.89081077]
 [ 24061.40950597]
 [-34625.15167401]
 [  8856.58844058]
 [-31365.99674714]
 [ 36459.27010325]
 [ 26135.32877465]
 [ 19843.9591703 ]
 [-38247.03482109]
 [ 52376.1270675 ]
 [-21434.59010643]
 [-37936.92821729]
 [-22477.87647814]
 [-26328.17143621]
 [ -4635.77258986]
 [-31351.14060306]
 [-37101.54033087]
 [-32551.32328966]
 [ 21515.30598762]
 [ 15845.54734101]
 [ -5858.55144515]
 [ 86001.67285397]
 [-38153.69237062]
 [ 37341.17337384]
 [  6254.19924323]
 [  8376.31441674]
 [  8902.43052237]
 [-17736.96270782]
 [-29135.80454726]
 [  3180.85956995]
 [-18600.33353747]
 [ 44870.0416497 ]
 [-13571.96830208]
 [-37184.72395188]
 [-32210.65478308]
 [-20361.34807793]
 [  2674.86477411]
 [-35476.61580024]
 [  9562.83546238]
 [-22815.94924596]
 [ 20703.24274338]
 [ 26476.58602644]
 [ -9722.35469397]
 [  5311.83572971]
 [-35315.42188613]
 [-18544.32467103]
 [ -6237.76063904]
 [ 29697.98127402]
 [ -7784.73138786]
 [ 18480.90203846]
 [ 32456.3420856 ]
 [-14758.90331601]
 [-17634.10967674]
 [-12623.79434807]
 [-23125.07101116]
 [ 29374.57379282]
 [ 34962.20609697]
 [ 13440.8205866 ]
 [-18549.22982007]
 [-26721.2444597 ]
 [ 27847.00474603]
 [ 62920.19714542]
 [ 18427.41841198]
 [-22663.06066894]
 [-32454.35610307]
 [ 58362.41584253]
 [-28092.46995111]
 [-19494.23485023]
 [ 35899.69467295]
 [-19323.31488359]
 [-33283.47172557]
 [ 21068.54936125]
 [-24579.39460176]
 [  4295.76696597]
 [  2452.46401738]
 [  6189.74583145]
 [-16895.59977359]
 [-26564.75235694]
 [ 56991.35469381]
 [-20606.11014674]
 [-30055.06253717]
 [ 21671.07904443]
 [  8151.69017046]
 [  3340.93126482]
 [-26325.81716964]
 [-18145.18463711]
 [-26061.15626844]
 [-11865.47991327]
 [ 61971.93239341]
 [-39180.34699511]
 [-13862.81390282]
 [-12839.03265732]
 [ 16062.67617407]
 [-21467.91270734]
 [-20726.59190976]
 [ 31962.09550892]
 [ 51896.32909249]
 [-11132.17157764]
 [-14733.71935511]
 [-16629.16565026]
 [ 33074.02417725]
 [  6737.41476731]
 [ 88921.27429441]
 [ 11764.71405936]
 [ 12326.35810582]
 [  3877.56154326]
 [ -3898.77164041]
 [-19324.9283471 ]
 [  9296.32059218]
 [ 24655.76298314]
 [ -3930.06939362]
 [ 21124.47843619]
 [  -944.17252035]
 [-37108.73339911]
 [  3861.76380726]
 [ 86477.18001157]
 [-14489.05818303]
 [-38185.21824221]
 [ -4121.60230289]
 [-10470.82959857]
 [-18101.37253989]
 [-13623.21698704]
 [  9134.01008618]
 [ 20749.41964568]
 [-10163.85317296]
 [ -5509.03285978]
 [-19038.04691882]
 [ 19389.08119332]
 [-38299.39930144]
 [-36512.99237594]
 [ 39026.68663618]
 [ 20172.14209066]
 [-36744.8972499 ]
 [  8077.46005661]
 [ -7122.20913982]
 [-15129.47194887]
 [-36743.77498174]
 [ -7912.98078338]
 [  1814.75039938]
 [-33515.30094996]
 [ 74349.15115428]
 [ 40179.92048187]]
