[[ -4719.39758112]
 [-23918.83508856]
 [ 65793.59527978]
 [ 98215.76973414]
 [-25131.08568607]
 [ 16926.51323052]
 [ 75338.22121305]
 [-17768.18984331]
 [  3635.09216695]
 [-34186.89250081]
 [-37989.14220957]
 [ 25355.8694647 ]
 [-34753.59626115]
 [ -5422.10881498]
 [ 34047.64363854]
 [-15889.07874364]
 [ 24225.81252884]
 [ -6476.15549076]
 [ 47191.24117695]
 [-27477.6074446 ]
 [ 49472.06788977]
 [  7923.38410122]
 [ 20010.52216609]
 [-25315.62386882]
 [-34752.39302014]
 [ -7389.52765455]
 [-17389.62488805]
 [ 37073.59208269]
 [ 43450.08374426]
 [-25499.00122208]
 [-29302.19512805]
 [-33907.39585602]
 [ 28213.17661612]
 [ -4114.92646582]
 [ 13888.76432592]
 [ 19687.0954844 ]
 [ 27988.69772826]
 [-31171.26216846]
 [  1348.12897695]
 [-17482.13693392]
 [  5700.85655908]
 [ 17248.26630668]
 [-31328.43461814]
 [-11045.15498819]
 [-13771.5685998 ]
 [ 11006.13822248]
 [  5534.01475857]
 [-11264.04766634]
 [ -2288.69680802]
 [  -536.00373476]
 [-12251.73077832]
 [-37801.01218225]
 [ 69429.94706543]
 [-26176.35727346]
 [ -8360.83691289]
 [ 35187.50152681]
 [ 23285.20120849]
 [  4317.52654229]
 [-19545.9384978 ]
 [  1281.76247251]
 [ 16282.76141748]
 [ 29357.91322756]
 [ -3838.98437645]
 [-22104.23836332]
 [ 11821.55024469]
 [  6357.00056761]
 [ -5938.42039323]
 [-16206.00011876]
 [ 24622.83242145]
 [  3315.21178461]
 [ 12849.8660465 ]
 [  3420.93373807]
 [-13566.90382451]
 [ 14953.77886923]
 [ 29608.40736278]
 [-31454.17831935]
 [-37494.32839389]
 [-28766.20546837]
 [-22627.65856158]
 [-20001.63284113]
 [ 24645.63696306]
 [ 18031.14690704]
 [-25190.36605666]
 [-32664.67651181]
 [-38492.89417425]
 [-32368.41605626]
 [-16317.04535643]
 [-16940.87003901]
 [-36661.73730725]
 [-34671.37268182]
 [-28896.93967555]
 [ 19139.01151701]
 [-15993.97375478]
 [ 23494.83409673]
 [-16534.23930138]
 [ 29104.02635025]
 [ 27185.72667199]
 [-17726.71839186]
 [ 41916.63450055]
 [ 38719.7919201 ]]
