[[ 6.72771303e+03]
 [ 4.25954759e+04]
 [-2.53014122e+04]
 [-3.11964611e+04]
 [ 1.24930634e+03]
 [-2.05870208e+04]
 [-1.80028020e+04]
 [-1.47137601e+04]
 [-2.22664273e+04]
 [-1.55638634e+04]
 [ 4.86812252e+04]
 [-1.79285593e+04]
 [-2.99342754e+04]
 [-8.61357340e+03]
 [-1.83847753e+04]
 [-2.41077172e+04]
 [-3.03410088e+04]
 [-1.26836854e+04]
 [ 2.67340025e+04]
 [-1.59111761e+04]
 [-3.30289964e+04]
 [ 3.61798705e+03]
 [-3.20274611e+04]
 [-2.91887678e+04]
 [ 1.27434151e+04]
 [ 4.93071814e+03]
 [-2.63337784e+04]
 [-3.03179762e+04]
 [ 2.81535321e+04]
 [-1.28522166e+04]
 [ 8.89667181e+04]
 [ 5.65227830e+03]
 [ 1.36132517e+04]
 [ 9.34143658e+03]
 [-1.92382658e+03]
 [ 8.59358680e+03]
 [-3.50541360e+04]
 [-3.03212924e+04]
 [-2.18082366e+04]
 [ 2.12306201e+03]
 [ 6.12423768e+04]
 [-3.47418590e+04]
 [-2.71693760e+04]
 [ 1.75038931e+04]
 [-2.22270497e+04]
 [-3.09102378e+04]
 [-2.60349214e+04]
 [-1.83093905e+04]
 [ 3.50381039e+04]
 [ 1.35697566e+04]
 [ 1.73667509e+04]
 [ 4.35781349e+03]
 [ 3.36504108e+04]
 [ 2.30800528e+04]
 [ 4.08907125e+04]
 [ 6.29864749e+04]
 [ 3.17395746e+04]
 [ 8.73462391e+01]
 [-1.70288582e+04]
 [ 1.23938462e+04]
 [ 3.75306236e+04]
 [ 1.42817975e+04]
 [-2.68777582e+04]
 [ 1.78407881e+03]
 [-3.41419727e+04]
 [ 3.98492117e+04]
 [ 5.08683041e+04]
 [-1.03503705e+04]
 [-1.14828325e+04]
 [-1.82695339e+04]
 [ 2.62364035e+04]
 [ 1.00288107e+04]
 [-2.73394890e+04]
 [ 3.03477268e+03]
 [-2.29484221e+04]
 [ 3.50028707e+04]
 [ 3.22021882e+04]
 [-3.49321111e+04]
 [-1.72599742e+04]
 [ 1.38438831e+04]
 [-2.49617623e+04]
 [ 2.46103947e+03]
 [ 3.50792416e+04]
 [-1.07671584e+04]
 [ 2.13914375e+04]
 [-2.69855307e+04]
 [ 4.95505552e+04]
 [-1.67612874e+04]
 [-2.94474384e+03]
 [ 1.91998915e+04]
 [-2.91380861e+04]
 [ 3.58304504e+04]]
