[[  309.1067309 ]
 [-3217.63518715]
 [-1039.20338402]
 [-2937.73401555]
 [-6327.75854092]
 [-6450.4344725 ]
 [ 6848.82779595]
 [ -657.49897948]
 [-6656.90591848]
 [-2103.2315598 ]
 [ 2920.97929487]
 [ -815.68259817]
 [ 4804.04985189]
 [-4473.27630463]
 [  287.98333757]
 [-2323.6325425 ]
 [13755.33564117]
 [-2765.86546475]
 [ 6086.45314424]
 [ -829.72620373]
 [-4474.38940485]
 [ -245.42099411]
 [ 3960.67279129]
 [ 7487.93395037]
 [ 1635.6690682 ]
 [ 7471.58835899]
 [ 1383.78771911]
 [  288.8946932 ]
 [10539.50883284]
 [ 3395.12598829]
 [ 8559.77513412]
 [ 1105.77371195]
 [  -99.11753988]
 [ -877.57334067]
 [-5125.50164374]
 [-4414.23049942]
 [-5306.62771878]
 [ 2421.88265021]
 [12356.66211798]
 [-5456.06883678]
 [ 2641.32422085]
 [-6410.33346598]
 [-6766.34651896]
 [ 9354.14393854]
 [-7374.57926696]
 [ 1807.13250238]
 [  489.00287249]
 [-1053.25738177]
 [-7125.357968  ]
 [-3761.03769792]
 [ 6132.23924489]
 [-4735.62490847]
 [-2469.72472291]
 [-7494.27352753]
 [-6216.58097367]
 [  199.77035971]
 [ 5823.98793767]
 [-7389.54881401]
 [ 2888.34017062]
 [ 7348.67388471]
 [-3653.35144319]
 [-4197.75276711]
 [ 5423.60606773]
 [ 6731.4143433 ]
 [-6697.86177582]
 [-7252.22735551]
 [-3974.75236533]
 [-5757.67818719]
 [-4704.87568129]
 [ 3372.43770718]
 [-5505.46529411]
 [11953.78819802]
 [-2228.35394617]
 [ 3863.02541523]
 [-3294.66764259]
 [-7375.20563147]
 [-2595.48788271]
 [ 9899.87651569]
 [-2453.88774856]
 [ 4472.1615375 ]
 [ 6929.56078615]
 [ 6026.95125548]
 [-2629.72311633]
 [  566.220873  ]
 [-3068.81544865]
 [ -530.10164653]
 [ 1285.92557843]
 [ 5518.27063802]
 [-3778.03851015]
 [ 3263.52595151]
 [ 1968.01705151]
 [  761.1849083 ]
 [-6281.40446767]
 [-2306.59204463]
 [ 2975.26768244]
 [ 9806.48020332]
 [-1198.24386729]
 [  991.45663519]
 [-6396.19580537]
 [-4838.93426925]
 [ 7853.27529478]]
