[[-6127.38199681]
 [-5337.59111667]
 [ 5819.55256986]
 [ 2614.24630017]
 [  886.71895821]
 [ 4528.58749655]
 [-5768.9291315 ]
 [-5139.91534605]
 [ -784.73724505]
 [11524.78974773]
 [  858.51856627]
 [-3112.7516525 ]
 [  629.46715876]
 [-2797.62723811]
 [-4673.10958638]
 [ 1918.77506333]
 [  989.34745368]
 [ 4098.62962366]
 [ 9118.15361862]
 [   96.3240446 ]
 [ 7702.93329737]
 [-3298.63081773]
 [ 7520.73517315]
 [-2156.41680594]
 [-3464.43422675]
 [ 9186.86176618]
 [ 2561.73908329]
 [ -665.83725764]
 [ 2796.55735029]
 [ -216.44782111]
 [-5767.29466578]
 [ 5800.81914094]
 [ 8211.30090012]
 [ -129.11790674]
 [-1279.17246383]
 [11990.02369637]
 [-6617.87410796]
 [-4675.92001688]
 [ 8022.2033475 ]
 [ -741.246607  ]
 [15041.77689052]
 [-6009.31995851]
 [-3969.39883218]
 [-3125.29495934]
 [ 1300.99177663]
 [ 3616.30166614]
 [ 1172.54197243]
 [-1105.84090759]
 [ 7707.97665015]
 [ -481.00265046]
 [ 8218.08387208]
 [-6267.76190031]
 [-1899.93084733]
 [-3883.75090522]
 [-4881.02064007]
 [-6687.052153  ]
 [-3044.1375743 ]
 [ 5425.30217305]
 [-6126.10500699]
 [-2466.56012238]
 [-7512.49548852]
 [ 2436.73565855]
 [-4392.99974874]
 [  814.96846452]
 [ -119.83683383]
 [ 5043.13653333]
 [-4541.26772582]
 [ 2674.45553319]
 [-7016.91887166]
 [ 2146.86335087]
 [-3555.46914938]
 [-3388.67020121]
 [ 8203.7613728 ]
 [-2272.24718238]
 [-5936.55330129]
 [-3380.86189349]
 [-3608.32283347]
 [ 4408.50479154]
 [-2055.7928847 ]
 [-5588.6294816 ]
 [-2403.55097905]
 [ -975.92562895]
 [ -397.51904059]
 [ 6769.37359505]
 [ 5509.90734018]
 [-2135.25755739]
 [-1318.64231883]
 [ 2044.00161345]
 [ 1376.63854466]
 [-1027.12630256]
 [ 1882.38382757]
 [-2258.64079589]
 [-2471.24048508]
 [-3015.55381477]
 [ 2567.90284275]
 [-7165.32738837]
 [-3131.78369257]
 [ 2152.75689724]
 [ -246.34806337]
 [-4772.05559178]
 [ 8207.12068668]]
