[[-14985.52041499]
 [  8633.96411494]
 [ 20713.18013322]
 [ -9366.84766258]
 [ -9272.38778785]
 [ 11796.23100417]
 [-13657.46904083]
 [ 10862.61991133]
 [  5899.85150206]
 [-36017.08708554]
 [-18613.41877056]
 [-13389.79905814]
 [-35559.53405171]
 [  9852.07998749]
 [ 25217.36583502]
 [ 20449.18245216]
 [-12623.33432379]
 [  7800.75300815]
 [ 51751.10566722]
 [ -5284.39907158]
 [ 15462.56247698]
 [-23495.00414456]
 [-35912.46193752]
 [  8355.64903174]
 [ 41212.01603933]
 [-20833.04870287]
 [-34061.38407777]
 [-14807.60493307]
 [ 27419.9747045 ]
 [-33327.56443628]
 [-39309.94473223]
 [  5785.23759888]
 [  8350.50964364]
 [  7017.10045494]
 [ 37007.1374295 ]
 [ 41720.39799435]
 [   167.19824039]
 [ 22501.1932077 ]
 [-11854.25662504]
 [-12700.71325118]
 [ 15215.10599311]
 [ 22918.94835391]
 [ -1260.02895166]
 [   522.67354153]
 [ -3399.17404169]
 [ 57708.79139041]
 [ 22803.82006768]
 [-15720.88793913]
 [ 24082.89543367]
 [ -7605.28895063]
 [  3667.10215752]
 [ -9700.10966134]
 [-32734.08411326]
 [ -5526.09202223]
 [-21505.97320239]
 [-27852.36387226]
 [-14518.86451284]
 [ 40147.62911826]]
