[[ -2079.20494544]
 [ 20377.2457949 ]
 [-11540.71999322]
 [  3728.12210278]
 [  7637.08044089]
 [-37844.92861597]
 [-17200.19070624]
 [-18634.41161268]
 [-32672.79300255]
 [  8901.16246715]
 [-38233.59360317]
 [-27221.87376323]
 [-32660.83801861]
 [ 65776.45076432]
 [-16647.44120611]
 [ 12838.27971366]
 [  8899.9302634 ]
 [ 20099.23503203]
 [-36329.93841085]
 [-21558.02954214]
 [-30942.15285061]
 [ 11780.86741132]
 [ -2003.53225272]
 [-33081.41610486]
 [-31487.91864958]
 [ 35171.49117766]
 [ 25692.13465531]
 [ 65512.4845659 ]
 [-22054.49069803]
 [-27578.54605619]
 [ 88044.72960625]
 [ 16088.26549464]
 [  7835.62820654]
 [ 20329.71149775]
 [-35372.4472996 ]
 [-28813.54906652]
 [-37428.36803969]
 [-28165.06706846]
 [-31142.15379639]
 [-13711.48073569]
 [ 70864.29313577]
 [ 70699.93075469]
 [-19362.89388849]
 [ 65474.27982383]
 [-31844.62843986]
 [ -5398.27088564]
 [-15187.80518436]
 [-19453.71200588]
 [  -104.00844564]
 [-35062.45608882]
 [ -9864.93293769]
 [ 10164.99718574]
 [-20231.73161233]
 [-29800.1199132 ]
 [ 53743.52287074]
 [ 36351.54994212]
 [  1290.78921373]
 [   733.02315545]
 [  3418.34637788]
 [ -6312.30141486]
 [ 26888.6738063 ]
 [-36592.88300109]
 [ 32168.59486118]
 [-14752.440855  ]
 [-37503.74218963]
 [-36079.15746975]
 [  8423.87106157]
 [-33122.86449305]
 [-37029.88596626]
 [  7701.98469396]
 [ 68255.0869123 ]
 [  5643.91306871]
 [ 42147.3757717 ]
 [-35153.70593526]
 [ 26322.47614279]
 [ 37495.71098176]
 [ 25915.01080829]
 [   648.20187951]
 [ 19213.95801717]
 [  4984.2171056 ]
 [ 39065.74389911]]
