[[ 15528.42268079]
 [ 47088.35109818]
 [-33562.53053263]
 [-27720.6659424 ]
 [ -8646.16419164]
 [-15201.15316187]
 [ 63442.64645054]
 [ 98422.96175606]
 [  2610.24537506]
 [-52695.56426061]
 [ 20437.83808033]
 [-41159.4432103 ]
 [ 33333.27548802]
 [ 42476.39089761]
 [-35312.36486233]
 [ 25283.31787526]
 [ -6247.50980375]
 [ 43466.9919185 ]
 [ 36604.18090889]
 [-44916.59022966]
 [-42277.76370597]
 [-35616.03306042]
 [-22193.15135596]
 [ 19156.25849901]
 [ 14550.24496976]
 [ 64295.86033264]
 [-13622.81638943]
 [-19611.09127203]
 [-11233.22853243]
 [  7426.91913212]
 [ 38299.19421679]
 [-50819.59112433]
 [ 41918.7306599 ]
 [ 61235.05645295]
 [ 11133.94205414]
 [-36439.44040964]
 [-20871.75394626]
 [108769.3152759 ]
 [-48026.25731182]
 [-51112.0420266 ]
 [ -7872.52929873]
 [-42442.61476421]
 [ 62693.21674133]
 [-39440.5572213 ]
 [ -3518.01603212]
 [-37132.60437137]
 [-44335.29974408]
 [ 14224.62804349]
 [  5114.73760241]
 [-47556.75846205]
 [-26806.26916558]
 [-21823.22320941]
 [-22304.5040223 ]
 [  1489.48988549]
 [-32194.65847255]
 [  4460.45633112]
 [  -526.18617862]
 [ 38584.05479361]
 [ 16170.76175367]
 [-48504.65260046]
 [ 43632.29273722]
 [  4981.02809898]
 [-34716.32981841]
 [-35666.31038753]
 [ 23488.39553255]
 [-11722.71675681]
 [ -3608.18621767]
 [-20705.19577811]
 [-29764.1754193 ]
 [-31527.42490357]
 [-16365.64002479]
 [-49335.77725637]
 [ 28404.1227492 ]
 [ -7788.98487799]
 [-10791.41307978]
 [ 66157.2222201 ]
 [-47259.77914804]
 [  1716.83729113]
 [  2299.57558957]
 [-19600.80758313]
 [ 58729.52077176]
 [-47613.8204122 ]
 [ 34421.82863139]
 [  5940.93507631]
 [  6957.83597338]
 [ 31878.50720623]
 [-41331.29878406]
 [ 47268.84854375]
 [ 41583.12722212]
 [ -4534.84769133]
 [ 37850.91365125]
 [ 84098.05785482]
 [-19712.24919046]
 [ 29682.80403784]
 [-23632.42292776]
 [ -8689.03030899]
 [ 15489.46914655]
 [-46545.52332473]
 [ 25882.92892127]
 [-26026.77776505]
 [ 55681.49799982]]
