[[-2.24103891e+04]
 [-7.98538343e+03]
 [-1.90869305e+04]
 [ 1.41987634e+04]
 [-1.86559597e+04]
 [-3.88845024e+04]
 [-1.44783919e+04]
 [ 3.09561649e+04]
 [ 3.22241803e+04]
 [ 5.32609321e+04]
 [ 4.04143532e+04]
 [-1.25332538e+04]
 [-1.39634113e+04]
 [ 1.05092619e+03]
 [-9.32452895e+01]
 [ 2.45085585e+04]
 [-3.59186608e+04]
 [ 1.38405965e+04]
 [ 1.72878909e+04]
 [ 1.96330750e+04]
 [-2.45739792e+03]
 [ 6.58343124e+03]
 [-2.75562685e+04]
 [ 1.12472098e+04]
 [ 2.06377413e+04]
 [-2.63132490e+04]
 [-3.68529060e+04]
 [ 2.27043192e+04]
 [ 9.38585524e+04]
 [ 2.99222992e+04]
 [-1.36733257e+04]
 [ 1.41113532e+04]
 [-3.51098540e+04]
 [ 2.87060825e+04]
 [ 4.83991520e+03]
 [-2.55661630e+04]
 [ 2.59360655e+04]
 [ 2.32235690e+04]
 [ 2.66906675e+04]
 [-2.35448603e+04]
 [-1.35968413e+04]
 [-2.04683719e+04]
 [ 2.07542442e+04]
 [ 2.75544488e+04]
 [ 2.57937206e+04]
 [-3.36497824e+04]
 [-3.63868000e+03]
 [ 1.27522819e+03]
 [-3.70077534e+04]
 [ 2.28810558e+03]
 [-1.60550138e+04]
 [ 1.71796544e+04]
 [ 2.19604564e+03]
 [-1.99032103e+04]
 [ 2.25881568e+04]
 [-1.67870900e+04]
 [-3.59131230e+04]
 [-3.49058982e+04]
 [ 2.54823507e+04]
 [-1.80200734e+04]
 [ 1.91363216e+04]
 [ 1.98362529e+04]
 [-2.42187038e+04]
 [-2.09559180e+04]
 [-8.30774919e+03]
 [-1.37716800e+04]
 [ 3.18337330e+04]
 [-5.96037232e+03]
 [-3.46214540e+04]
 [ 1.27405873e+04]
 [-1.77797625e+03]
 [-2.05564602e+04]
 [ 2.34365083e+04]
 [ 9.30693844e+03]
 [ 2.52914443e+04]
 [ 3.88497442e+04]
 [-3.97301478e+03]
 [-3.63915736e+04]
 [-3.27761238e+04]
 [ 5.19326399e+04]
 [-2.07466319e+04]
 [ 1.08101092e+04]
 [ 2.19177951e+04]
 [-1.18988694e+04]
 [-1.53432919e+04]
 [ 6.42215820e+03]
 [-5.64951018e+03]
 [-2.90726367e+04]
 [ 1.87255259e+04]
 [ 1.35721096e+04]
 [ 4.26822592e+03]
 [ 3.78235476e+04]
 [-3.10539223e+04]
 [ 5.30585553e+03]
 [ 8.13857579e+03]
 [ 3.63869481e+04]
 [-1.39444863e+04]
 [ 7.22641770e+03]
 [-2.70065537e+04]
 [-1.43057211e+04]
 [-2.55236260e+04]
 [ 2.66921951e+04]
 [-1.97283518e+04]
 [ 4.40624560e+04]
 [ 1.99635368e+04]
 [-2.05948769e+04]
 [ 7.33003872e+03]
 [ 1.45712799e+04]
 [-3.44051656e+04]
 [ 1.75526114e+03]
 [ 6.62452422e+03]
 [ 3.69990232e+03]
 [-3.88873117e+04]
 [ 2.26677794e+04]
 [ 2.44267808e+04]
 [-3.67358310e+04]
 [-2.92205217e+04]
 [-8.90628009e+03]
 [-1.66466228e+04]
 [ 1.44655443e+03]
 [-2.76107163e+04]
 [-2.75990446e+04]
 [ 6.07063843e+03]
 [ 3.96083240e+04]]
