[[-1495.75556555]
 [  809.15185138]
 [-1453.25620271]
 [-1913.1872837 ]
 [-1139.98065785]
 [ 6871.83759956]
 [ 1382.27082358]
 [ 1220.37331915]
 [-6438.38177791]
 [  189.19151427]
 [-6510.72699381]
 [-4788.46402074]
 [  301.91558224]
 [ 8300.0370512 ]
 [-5681.50062004]
 [-7740.06383051]
 [-1725.66663091]
 [-3520.90131026]
 [ 3738.24691833]
 [ 1462.56149945]
 [-5039.58089882]
 [-2078.55743452]
 [-4548.95611087]
 [-2686.4228825 ]
 [-6842.05670104]
 [ 2592.98406305]
 [ 3066.30950809]
 [-2888.56927136]
 [ 9114.73518973]
 [-2501.50722723]
 [ 3089.71843259]
 [ 8994.4112409 ]
 [-6917.26175431]
 [ 2521.77215693]
 [-1135.5118803 ]
 [ 2776.2457899 ]
 [ 2096.76340864]
 [-1562.39150909]
 [ 1657.91271776]
 [-5989.75313218]
 [ 5710.99025757]
 [ 5310.83565608]
 [ 2846.31510125]
 [-5290.62081034]
 [12608.19182789]
 [-1566.77894601]
 [ 2805.72126638]
 [-2268.28734463]
 [ -758.13806754]
 [ 4343.65389029]
 [ 4306.52641845]
 [ 1423.83072656]
 [-5084.49959131]
 [-1309.58742783]
 [ 5292.46401357]
 [-3166.26658567]
 [ -447.31921886]
 [ -133.29456538]
 [ 1690.64941734]
 [-4539.34190588]
 [ 2804.7821521 ]
 [-1254.03694272]
 [ 1119.46262827]
 [-6737.25799613]
 [ 1241.90374737]
 [ 2193.69744646]
 [ 3708.01437475]
 [-5456.13901525]
 [ 2821.84671456]
 [-2284.42820012]
 [ -210.92544611]
 [ 3270.89574032]
 [-1356.8530353 ]
 [13863.89077477]
 [-7336.47864489]
 [-4125.29733819]
 [ 7871.81393296]
 [-2927.78612533]
 [ -505.30852805]
 [ 5012.84048707]
 [ 2088.83199391]
 [ -266.40925272]
 [-2142.91690692]
 [ 9887.7597497 ]
 [-5393.16042987]
 [ -389.21567531]
 [-2961.99603386]
 [-6299.04447979]
 [ 7224.99252451]
 [13925.64807752]
 [-3936.15248847]
 [-2134.80352469]
 [ -731.89092355]
 [-3110.78427273]
 [-4282.55275626]
 [-1142.852784  ]
 [ 1241.09194701]
 [  994.50715522]
 [-4446.69723318]
 [-7202.02049549]
 [ 7800.4375992 ]]
