[[ 33052.08531577]
 [ 31647.70068223]
 [-18939.76037196]
 [  2086.21226209]
 [ -2551.53238433]
 [-38002.28684117]
 [-30773.07083382]
 [ 27591.7119723 ]
 [-16565.17902552]
 [-32282.6386501 ]
 [-35963.3625359 ]
 [ 11348.07665581]
 [-37807.41986739]
 [-16049.57877723]
 [  5897.87415542]
 [ 25070.17362707]
 [101942.45577937]
 [-29938.29546162]
 [-12352.54093886]
 [-34838.4929424 ]
 [-39300.39006979]
 [ 25406.04222938]
 [-36286.53739795]
 [-10307.2111664 ]
 [ 12361.73573565]
 [-16551.57424905]
 [ 18618.53128363]
 [-36684.03262885]
 [ -2149.53423597]
 [ -3535.65224075]
 [ -8537.59669653]
 [ 25430.16720309]
 [ 12331.01354078]
 [-38433.93982568]
 [-32609.1485335 ]
 [ 48592.75220299]
 [-34846.29586866]
 [ 16317.74354112]
 [-31960.94433427]
 [  5843.93938255]
 [ 13833.67945735]
 [ -7950.12569079]
 [ 18533.22116497]
 [ 32867.73226043]
 [-34684.9943639 ]
 [ 18587.13960942]
 [  5798.52067559]
 [ 41115.88424384]
 [ 76638.95411223]
 [ 32536.51829929]
 [-37819.54424542]
 [ -4299.17786558]
 [-24942.05722649]
 [ 58838.00031896]
 [-16708.67074169]
 [-40513.23959188]
 [  8385.43057654]
 [  6493.49754398]
 [-18617.92134568]
 [-28667.84999805]
 [ 18139.82063707]
 [ 35036.83395786]
 [-27997.83551507]
 [-17990.65398597]
 [ -5532.73691716]
 [-12476.41553688]
 [  2530.07248962]
 [-11964.88615683]
 [ 95241.35502749]
 [ 88397.92200695]
 [-17000.10292304]
 [ -4958.87624879]
 [ -2554.41469531]
 [  7737.38192158]
 [-40297.4047012 ]
 [ -7748.79615694]
 [ 28535.01872831]
 [ 12058.65857911]
 [-36855.09099992]
 [-39948.30497043]
 [-31561.42867881]
 [-41206.97601535]
 [ 18109.704398  ]
 [ 14409.79601101]
 [ 14355.99769152]
 [ 21689.80141154]
 [ 17696.07863848]
 [ 18459.2851185 ]
 [ 42791.38322409]]
