[[ -1990.0469565 ]
 [ 11516.61303337]
 [ 20724.25986432]
 [ 42592.67187337]
 [-31072.25891396]
 [  4943.85734378]
 [ 23859.53836998]
 [  5704.09219723]
 [  4095.08108006]
 [-15891.2123204 ]
 [ -2312.62343005]
 [-14703.44758694]
 [-53510.2866573 ]
 [-32561.6418697 ]
 [ 78703.33581264]
 [-12403.44070968]
 [  6180.85985243]
 [ 17500.60558676]
 [-17591.87277475]
 [  -683.69353515]
 [-54430.34252221]
 [ -2501.8039375 ]
 [ 84049.59218539]
 [   846.92517178]
 [ 52875.84267601]
 [-20345.24696122]
 [-18803.58540085]
 [-48415.04933835]
 [ 20870.97483977]
 [-36285.05064209]
 [ 13574.62728236]
 [  7141.63147285]
 [ 39808.53124687]
 [-13694.41127933]
 [-32442.70855234]
 [-36114.47319533]
 [ 15276.63111205]
 [ 85899.41823411]
 [ 38522.269197  ]
 [-47842.18060232]
 [ 12927.680055  ]
 [ 11008.8048827 ]
 [-19622.69750851]
 [ 36844.34464256]
 [ 17155.45097025]
 [ 45929.19982432]
 [ 76885.33952863]
 [  3375.93344506]
 [ 32984.64068935]
 [ 19034.19732441]
 [-34046.50221411]
 [-16630.46394061]
 [ 27942.77215977]
 [-43836.92359201]
 [-22969.30357281]
 [-43225.26626511]
 [-27181.71590547]
 [ -3917.95221742]
 [ 10161.86207221]
 [122417.5817805 ]
 [ 51496.10454662]
 [-42974.17569861]
 [-16763.89041625]
 [-17873.16900453]
 [ 77263.47906786]
 [-16600.11903469]
 [-25780.16233298]
 [-13807.23458618]
 [ -5440.41306385]
 [-43586.89143382]
 [ 26292.37121725]
 [ 16843.41035761]
 [-42665.30868569]
 [ 14966.56373227]
 [ 45095.488471  ]
 [  4842.19705192]
 [-16618.85490349]
 [  8076.06878628]
 [-19462.6677396 ]
 [-24039.58390803]
 [-54272.5557389 ]
 [-29196.7271586 ]
 [-47728.38546373]
 [-12841.77874515]
 [-51785.73546917]
 [-18994.69996855]
 [  9805.69215434]
 [ 20034.59452863]
 [-17529.45667763]
 [ 15237.47859181]
 [ 13641.04494839]
 [ 40958.94379776]
 [-50755.27393234]
 [-46083.63760978]
 [-45891.58154083]
 [ 46634.66084146]
 [ 23772.71999935]
 [ -2086.93725161]
 [-40376.92213077]
 [  1866.38099737]
 [ 55737.22456632]]
