[[ 4.86871685e+03]
 [-2.28382403e+04]
 [ 1.91017140e+04]
 [-1.58061345e+04]
 [-2.18153335e+04]
 [ 2.70160944e+04]
 [-2.50189067e+04]
 [ 2.68871181e+04]
 [ 4.37037659e+04]
 [-1.22273227e+03]
 [ 3.06146317e+04]
 [-3.19427510e+04]
 [ 2.84188568e+04]
 [-3.78071799e+04]
 [-1.81132676e+04]
 [-1.35203253e+04]
 [-3.04944462e+04]
 [-2.21294070e+04]
 [ 1.10410276e+04]
 [-2.45550407e+03]
 [ 2.85966099e+04]
 [-3.91589915e+03]
 [ 1.60790535e+04]
 [-1.83713315e+04]
 [ 3.49395280e+04]
 [-2.40801254e+04]
 [-1.04375291e+04]
 [ 1.77925799e+04]
 [-4.08653608e+04]
 [ 3.61489509e+04]
 [-3.56726024e+04]
 [ 3.00879046e+04]
 [ 3.25452625e+04]
 [ 3.75292469e+03]
 [-3.69169974e+04]
 [-1.63134041e+02]
 [-1.46458366e+04]
 [ 7.67831880e+04]
 [ 1.38177654e+04]
 [ 7.37642810e+04]
 [-3.23122345e+04]
 [-4.06858303e+04]
 [-1.70724706e+04]
 [-3.48796248e+04]
 [ 8.97178524e+04]
 [ 7.45817904e+04]
 [-1.67289794e+04]
 [-4.39230346e+04]
 [-1.89124340e+04]
 [-1.61630175e+04]
 [ 1.14830336e+04]
 [ 6.19193759e+04]
 [-2.09904648e+04]
 [-3.60075045e+04]
 [-1.45126384e+04]
 [ 5.69607987e+04]
 [-3.48267942e+04]
 [-8.19430855e+03]
 [ 4.61884213e+04]
 [-3.98827317e+04]
 [-1.60130992e+03]
 [ 7.72771916e+04]
 [ 2.41177823e+04]
 [ 5.62710238e+04]
 [ 3.63087488e+04]
 [-4.18760581e+04]
 [-3.08646457e+04]
 [-1.85702581e+04]
 [-3.72740067e+04]
 [ 6.42703647e+03]
 [-4.33607759e+04]
 [-3.54314660e+04]
 [-4.14137871e+04]
 [-3.68842971e+04]
 [ 8.42277071e+02]
 [-2.34026007e+01]
 [-1.32530251e+04]
 [-3.45781022e+04]
 [ 5.15700218e+04]
 [-1.49653335e+04]
 [-4.50947584e+04]
 [-3.55406051e+04]
 [ 8.77476641e+04]
 [ 1.92504910e+04]
 [-2.50237797e+04]
 [ 5.65799215e+03]
 [-1.12228267e+03]
 [-3.98858922e+04]
 [ 8.04865154e+03]
 [-2.92677180e+04]
 [ 6.06282753e+04]
 [-1.23473203e+04]
 [ 8.40235867e+03]
 [-3.76360338e+04]
 [ 1.00092111e+04]
 [-4.30679587e+03]
 [-2.11279350e+04]
 [ 2.06637902e+04]
 [ 1.52932802e+04]
 [ 1.94476594e+04]
 [ 4.62815314e+04]]
