[[-9.78728337e+03]
 [ 1.39834409e+04]
 [ 1.78331565e+04]
 [ 6.94911693e+03]
 [-2.41415680e+04]
 [-2.18679179e+04]
 [-1.55849263e+04]
 [-2.96390122e+04]
 [ 3.09520697e+04]
 [-3.70176852e+04]
 [-1.37712567e+04]
 [-2.14340466e+04]
 [-1.47841506e+04]
 [ 8.17658626e+03]
 [ 1.40276531e+04]
 [-2.56836509e+04]
 [-2.59264723e+04]
 [-7.69054444e+03]
 [-2.92458536e+04]
 [ 7.01876134e+03]
 [ 6.69861181e+03]
 [ 2.01502292e+03]
 [ 1.47245864e+03]
 [ 2.60342301e+04]
 [ 1.21498646e+02]
 [-1.56682501e+04]
 [-3.26146760e+04]
 [-3.20315227e+04]
 [-6.75676769e+03]
 [-1.64673282e+03]
 [ 6.04421243e+04]
 [-1.77749503e+04]
 [ 3.64263058e+04]
 [-2.80456811e+04]
 [ 7.76681537e+04]
 [ 9.89801632e+03]
 [-9.59657793e+03]
 [ 2.05819778e+03]
 [-3.00229939e+04]
 [-3.83557196e+04]
 [ 4.53072631e+04]
 [-1.87709075e+04]
 [-1.34630677e+04]
 [-8.93035369e+03]
 [ 4.63655037e+04]
 [-4.95400704e+03]
 [-1.13183631e+04]
 [ 4.72796593e+04]
 [ 2.93050415e+04]
 [ 4.75764772e+04]
 [ 2.87104491e+03]
 [-1.51725259e+04]
 [-3.43914164e+04]
 [-3.76532366e+04]
 [-3.61426812e+04]
 [-2.67305628e+00]
 [ 7.95018203e+04]
 [-2.65002549e+04]
 [ 4.72857065e+03]
 [ 1.37040234e+04]
 [-1.97710257e+04]
 [-3.46344990e+04]
 [ 1.13700584e+04]
 [-2.90087261e+04]
 [-3.31965119e+04]
 [-2.35452202e+03]
 [ 4.66887795e+04]
 [-3.57176997e+04]
 [-3.81205096e+04]
 [ 3.68602374e+04]
 [ 6.41216138e+04]
 [-2.23355533e+04]
 [-1.82089715e+01]
 [ 1.13852784e+05]
 [ 1.21185312e+04]
 [ 6.48555160e+03]
 [-1.83673808e+04]
 [ 3.88574305e+04]]
