[[ 7.88220149e+02]
 [-2.21357903e+04]
 [-3.00346110e+02]
 [ 6.88101461e+03]
 [ 1.12533599e+04]
 [-2.75496496e+04]
 [ 2.35386180e+03]
 [ 1.58933890e+04]
 [ 1.67611719e+04]
 [ 3.50815326e+04]
 [ 5.47584793e+04]
 [ 4.34492673e+03]
 [ 1.83066087e+04]
 [-2.06947816e+04]
 [ 6.69012135e+04]
 [-1.58962186e+04]
 [-3.74318373e+04]
 [ 3.65640961e+04]
 [-1.38012987e+04]
 [-1.89844070e+04]
 [ 5.81091804e+04]
 [ 6.75762665e+04]
 [-3.65614818e+02]
 [-2.38755267e+04]
 [-1.61684894e+04]
 [ 8.71456495e+02]
 [-3.39739953e+04]
 [-7.48676620e+03]
 [-6.99908201e+02]
 [ 1.20108954e+04]
 [ 2.25797303e+04]
 [-2.28378539e+04]
 [ 3.00888182e+04]
 [-3.08544059e+04]
 [-2.22478225e+04]
 [ 1.65498847e+03]
 [-3.52087637e+04]
 [ 3.49564777e+04]
 [-9.54740127e+03]
 [ 4.40028534e+04]
 [ 5.98796127e+03]
 [ 2.17952133e+04]
 [-3.53320136e+04]
 [-1.75492119e+03]
 [-1.88411145e+04]
 [ 1.30253450e+04]
 [ 3.03929963e+04]
 [-7.56141581e+03]
 [-9.89237485e+03]
 [ 2.02129473e+04]
 [ 3.26794684e+04]
 [-2.82537303e+04]
 [ 3.01765048e+04]
 [-2.34906712e+04]
 [-3.72581649e+04]
 [ 5.27334251e+03]
 [ 2.43745321e+04]
 [ 1.57657880e+04]
 [-1.49933248e+04]
 [-1.58329377e+04]
 [-3.87740357e+04]
 [ 1.85547303e+04]
 [ 1.83617202e+04]
 [ 3.73076998e+04]
 [ 3.32624170e+04]
 [ 3.29325096e+04]
 [ 4.71350324e+04]
 [-3.52590043e+04]
 [ 2.00320597e+04]
 [ 2.22568729e+04]
 [-2.23856852e+04]
 [-2.48086256e+04]
 [ 6.46141926e+03]
 [-3.46558415e+04]
 [-3.29199832e+04]
 [ 5.40380279e+01]
 [-7.79602500e+03]
 [-3.32939708e+04]
 [-1.59098883e+04]
 [-2.73983791e+04]
 [-3.93888150e+04]
 [-3.61757244e+04]
 [-1.52531435e+03]
 [-3.66292766e+04]
 [-2.36756289e+04]
 [-3.71886099e+04]
 [ 5.74456808e+04]
 [-1.38544649e+04]
 [ 1.22571695e+04]
 [-3.25731707e+04]
 [ 3.96799820e+04]]
