[[ 3186.62195173]
 [-6184.21478574]
 [ -567.21787608]
 [ 5751.65062383]
 [-2537.58516992]
 [  650.79091682]
 [-5638.25193332]
 [ 1191.29804155]
 [ 9572.83705777]
 [-2621.48692426]
 [-2008.59700567]
 [ 2286.82306797]
 [ 6258.22515997]
 [ 4610.35950188]
 [   16.38037059]
 [-5907.5158923 ]
 [ -277.51633576]
 [ -503.69374314]
 [ -327.6068488 ]
 [ 1098.85882909]
 [   40.82804271]
 [-1130.84272512]
 [-6354.63472508]
 [ -966.17625896]
 [ 2490.43840907]
 [ 5946.96992353]
 [ 7653.81277063]
 [-4724.60807202]
 [-4429.0754784 ]
 [ 4995.10013931]
 [ 9275.57395293]
 [ -911.52534154]
 [-3725.7408467 ]
 [-2081.56925537]
 [ 6416.12987093]
 [-4174.41317956]
 [-6294.2699491 ]
 [ 1483.72109073]
 [-2684.82629336]
 [-3939.84074486]
 [-1295.77425555]
 [-3247.31179604]
 [ 2659.42141496]
 [-5170.56238487]
 [  652.98496438]
 [-2074.44918475]
 [ -672.17260891]
 [ 3648.50034145]
 [-5366.09012998]
 [ -211.5520943 ]
 [13287.881137  ]
 [-5366.78616876]
 [ 3176.86722457]
 [-3184.13391271]
 [-1011.20192419]
 [-1218.49279031]
 [-1311.31540445]
 [  521.18602648]
 [ 3486.50133101]
 [ 5253.27792022]
 [ 5197.08236836]
 [-5693.45120476]
 [ 5003.33159067]
 [ 3184.17997031]
 [ 2385.2526112 ]
 [ 1577.11805719]
 [-5200.21521266]
 [-3192.97293495]
 [-4700.98574824]
 [ 8260.44432524]
 [ 9254.96336439]
 [ 6647.66383239]
 [-2578.88509766]
 [-6237.52663256]
 [ 1594.50345822]
 [  709.67445374]
 [ -358.85739372]
 [ 1414.52715612]
 [-3923.83225681]
 [-3215.88583892]
 [-1252.67166864]
 [-5855.13089571]
 [ -276.05998879]
 [ 1661.01197207]
 [-4440.45875399]
 [-5523.01807821]
 [12754.1245322 ]
 [-3196.24584395]
 [-1978.41360574]
 [-5557.53535273]
 [ -681.75450983]
 [ 3269.43380608]
 [ 3870.4773108 ]
 [-3979.44505751]
 [ 1707.89370238]
 [ 6202.22500729]
 [-4959.11694465]
 [  955.34154171]
 [-5475.63194242]
 [-4863.14213911]
 [ 6438.84765465]]
