[[   635.19507656]
 [-23408.69264604]
 [-13196.61938555]
 [-35367.9516054 ]
 [  7556.85098831]
 [ 12440.05309486]
 [-28351.07701071]
 [ -4893.93004479]
 [ -5856.45013506]
 [-10786.51923853]
 [-37198.27569214]
 [ 36056.47400771]
 [ -9116.37174843]
 [ -4911.8782201 ]
 [ -1648.2643427 ]
 [ -4555.73673661]
 [ 39006.78049609]
 [ 17988.10350679]
 [ 75282.66750327]
 [  4460.21370663]
 [-32856.35508086]
 [ -7743.41086128]
 [ 37453.32760371]
 [ 18409.47919887]
 [ 43394.76131863]
 [-17300.37198681]
 [  5653.83744167]
 [-28801.20559782]
 [ 13730.45833194]
 [ 23669.62246032]
 [  -657.27587388]
 [ -3383.83808182]
 [-14373.53103221]
 [ -3657.97501541]
 [-21564.26906901]
 [ 41979.09940671]
 [-36134.06860304]
 [ 25573.17864601]
 [ 46582.03051114]
 [ 40537.68470353]
 [-37353.86987988]
 [-36808.6671837 ]
 [ 29404.53929044]
 [  8366.66091245]
 [ 18475.25429175]
 [  9902.36982455]
 [-35114.96236341]
 [-26542.60854342]
 [  4574.75151966]
 [-31655.60393606]
 [-14381.29783462]
 [-38063.72698188]
 [  1475.54905851]
 [ 22460.7006009 ]
 [ 22112.65844737]
 [ 17453.78148165]
 [ -7582.83159511]
 [-34711.1681733 ]
 [ -3221.0505496 ]
 [ 44142.7259793 ]
 [-38142.78125604]
 [ 33725.84561846]
 [-31069.65691497]
 [-22865.73372423]
 [   773.37191662]
 [ 39927.87166957]]
