[[-27047.95798411]
 [ -4424.41075351]
 [ 83238.26398464]
 [ 21861.87100093]
 [-36779.85099701]
 [ 34163.54164084]
 [  5288.64773678]
 [-19576.81306951]
 [-36724.9719431 ]
 [ 88928.96821333]
 [-19999.30411292]
 [ -9274.52179139]
 [ -4992.75144478]
 [ 30380.50021405]
 [-26718.80761125]
 [-23949.92433208]
 [ 16584.645146  ]
 [-34298.96466731]
 [  2011.27527586]
 [  7358.03326532]
 [ 39758.49739936]
 [ -8113.91741153]
 [ 28952.59699008]
 [-20622.22132436]
 [-24244.52591864]
 [-20133.47999005]
 [ 10301.71376241]
 [ 78748.61585714]
 [-35836.58966813]
 [ -4992.85669182]
 [-40604.06998787]
 [  6367.64294615]
 [ 45821.12956508]
 [ 58691.31207225]
 [-23412.04219638]
 [-25847.78270905]
 [ 17398.17411018]
 [-40776.66933172]
 [-26207.09856892]
 [ 39424.62594626]
 [-15028.33844228]
 [ 44341.43910612]
 [ 30624.03779536]
 [ -7299.64792324]
 [-12429.09076429]
 [-40150.2960114 ]
 [ 58718.88108908]
 [ 31309.40586359]
 [-34881.18373696]
 [-10690.21806162]
 [ -8054.21166768]
 [ 15201.56196206]
 [  7533.26575626]
 [  4437.74064324]
 [  9853.28473095]
 [ -6729.7180838 ]
 [-26711.26045571]
 [ 31592.37275314]
 [ -4176.38665818]
 [  8313.73635748]
 [-39122.088255  ]
 [ -1630.74761655]
 [-20634.57131935]
 [ 28135.14159057]
 [-34065.51394758]
 [-38809.66408803]
 [-21648.14300588]
 [ 10144.24701944]
 [-30616.23645122]
 [ -7919.65889343]
 [-19697.1897726 ]
 [ -4636.03883457]
 [-24714.7075055 ]
 [ -5258.59052772]
 [ 20036.19547357]
 [ 13961.66926051]
 [ 42283.37125919]]
