[[  5257.09851411]
 [-15963.57035506]
 [ 30920.71679856]
 [-35739.79995436]
 [ 23870.14711876]
 [-33777.2240025 ]
 [-23098.61393891]
 [-35345.17032546]
 [  5837.78555775]
 [ -1959.24912773]
 [-29034.95724102]
 [ 58527.30891202]
 [  7896.62385532]
 [  9619.60045913]
 [-17428.883775  ]
 [-25130.5986211 ]
 [  5434.79246271]
 [ 25626.00036076]
 [-32022.13804167]
 [-17332.51140275]
 [  4942.53452491]
 [-15933.04216122]
 [ 14825.07742608]
 [-37335.55100007]
 [-18780.26399449]
 [-41858.9748627 ]
 [-20495.81177202]
 [  5280.53592898]
 [   288.29020722]
 [-39273.90532867]
 [-29989.88883007]
 [-41595.03246969]
 [-41186.55410897]
 [-26479.63857572]
 [ 17180.96780021]
 [ 26459.80593362]
 [ 29763.98118797]
 [-13627.71331883]
 [ 17205.87119806]
 [  6037.33860097]
 [ 92995.66738875]
 [ 34503.02473433]
 [ 25070.24976254]
 [  7587.46034787]
 [ 61695.03749929]
 [ 15977.64987269]
 [-16873.12810582]
 [ 73900.63796869]
 [-14572.55641541]
 [-15065.19992825]
 [-20336.35379228]
 [ -7673.07192039]
 [ 13358.45538272]
 [ 23770.41921891]
 [-44648.60764796]
 [-37682.09971132]
 [  6901.60267945]
 [  8449.29672045]
 [-13201.93705015]
 [-15817.68251912]
 [129863.04016617]
 [ 66268.65177494]
 [-21772.75826843]
 [-44671.48808973]
 [-36076.94713327]
 [ 11114.03745672]
 [-44187.49485674]
 [-22203.24284642]
 [ 32449.89679697]
 [ -4927.00160647]
 [-25748.94436557]
 [ 25077.19222256]
 [ 11117.58218165]
 [  1100.92170155]
 [ 38748.84946357]
 [-41047.79457225]
 [ -7570.78975666]
 [-33781.53184663]
 [-27253.6573314 ]
 [-27653.10456176]
 [ -3527.06797127]
 [ 25157.73013025]
 [ 19077.69508395]
 [ 64239.05379842]
 [ 41024.03049909]
 [ -4741.10619334]
 [ 44835.53565923]]
