[[-13768.36990399]
 [  6866.11787889]
 [-20896.12561545]
 [-29457.46323675]
 [ 10006.91588094]
 [ 11113.43068024]
 [-24359.55346742]
 [ 11563.71076522]
 [ 26978.15413865]
 [-41540.3378373 ]
 [ 49125.1036142 ]
 [ 27916.11063739]
 [ -4609.09917132]
 [-20439.60228326]
 [ 61518.93766658]
 [ 55938.78124704]
 [ -5726.2284875 ]
 [ -4914.98720966]
 [ 36803.16349367]
 [-30144.38151036]
 [ 25532.18653135]
 [ 14279.57074168]
 [  5185.30200771]
 [ 20259.59918919]
 [-17694.83855769]
 [ 36155.98060154]
 [ 15822.41727056]
 [-29405.39992761]
 [-21390.74904671]
 [-38793.98118841]
 [   935.63685513]
 [-16126.92214111]
 [  -282.41086086]
 [-42409.57520801]
 [-12094.82188293]
 [-37285.44393991]
 [ 32107.45838866]
 [ 11708.88034952]
 [ 80347.4004564 ]
 [   170.27276074]
 [-37427.97583382]
 [-20649.94613925]
 [-23226.23521899]
 [-36939.72411889]
 [  8173.78793552]
 [ 25016.64006234]
 [-24374.89863664]
 [ 66404.63982599]
 [ -7042.68027696]
 [ -2734.95904522]
 [  9039.16203868]
 [-37969.85929112]
 [-15681.50914498]
 [-42863.37578035]
 [-24129.72431065]
 [ 19926.17659699]
 [ -2022.10499599]
 [ 23209.73606771]
 [-38891.27745104]
 [-35760.42613754]
 [ 34641.62511126]
 [-35282.08677478]
 [-14181.31583833]
 [-42458.31308405]
 [-34226.61204438]
 [ 34340.64691776]
 [-26017.67479156]
 [ 14347.52636391]
 [-41997.41887789]
 [  7648.27402817]
 [ 31413.45534098]
 [ 30529.59254   ]
 [ -4600.06079259]
 [ 44070.95989986]
 [-16586.68249708]
 [ 52665.01507941]
 [ -9189.06039356]
 [ 20166.50546836]
 [  -965.43764564]
 [ 48215.36923575]
 [-23584.59307045]
 [ 44022.75967242]]
