[[ 11739.72533248]
 [ 42186.48226541]
 [  7049.28080281]
 [ -6307.84063157]
 [ 42282.26353897]
 [-13271.66335174]
 [-33989.53723178]
 [-19923.86071768]
 [-36849.23689626]
 [ 13963.66665829]
 [ 44439.44944871]
 [-26172.85676287]
 [  6604.98454847]
 [ 10448.51878705]
 [-26151.95777828]
 [ 14463.43942225]
 [  5250.26818756]
 [-28321.67338114]
 [ 35504.26609517]
 [-15968.48776816]
 [  9731.68050172]
 [  7628.09686291]
 [ -6449.25368868]
 [  4076.44983929]
 [-27114.85259048]
 [-25131.80605436]
 [ 34118.22756609]
 [-37349.76892435]
 [ 24728.15832336]
 [ 22924.59263217]
 [  2261.18875976]
 [ 33999.76530996]
 [ 57053.96359575]
 [  8722.37641307]
 [ 14056.71992736]
 [-39212.75431021]
 [ 15679.95927066]
 [ -7706.07644251]
 [ 26444.84126558]
 [-38415.88305851]
 [-18936.22000127]
 [ -3177.46690999]
 [-31043.38298691]
 [ 20072.86276656]
 [ 53563.75033034]
 [ 36392.83670564]
 [-30589.30622874]
 [ 22635.82415887]
 [-19937.60198296]
 [ 31627.39068263]
 [-23391.85848467]
 [ 35217.11852085]
 [ -7844.96886326]
 [  9454.86608195]
 [-28690.18264601]
 [ -3849.8373191 ]
 [ 11175.22665769]
 [-12102.779127  ]
 [ 28672.56712541]
 [  1403.20226876]
 [-35630.79109752]
 [ -5171.30675227]
 [  9475.6487605 ]
 [  2940.41619608]
 [ 37700.74661865]
 [-11110.19203743]
 [ 14303.32331153]
 [ 18894.69566843]
 [ -6193.14432541]
 [ 36321.13187889]
 [ 21158.828755  ]
 [ 23388.0654736 ]
 [  4069.7299141 ]
 [  6746.72573043]
 [-29796.84262729]
 [  7091.58666332]
 [-11483.79844556]
 [-21224.74998011]
 [-11652.73624076]
 [ 10946.23312453]
 [-26633.07908228]
 [-29244.15965649]
 [ 22954.60783054]
 [-27562.36537313]
 [-33895.26342382]
 [  6000.20779495]
 [  6786.16372244]
 [-18518.45436992]
 [-35340.74963596]
 [-31187.69176884]
 [ -8469.58492554]
 [-30933.22598832]
 [  4634.46001545]
 [-17068.75596635]
 [ -2442.55177258]
 [-28729.65988525]
 [  4986.74970792]
 [  1960.1987684 ]
 [ 33392.9379759 ]
 [-22412.12323595]
 [ -4664.4139445 ]
 [-37397.11207791]
 [ 35337.39818737]
 [ 40036.94216412]]
