[[-2.65704109e+04]
 [ 4.71632153e+03]
 [-2.56548759e+04]
 [-3.93800202e+04]
 [-1.44027089e+04]
 [ 6.48275167e+04]
 [-4.34462079e+04]
 [-3.22876426e+04]
 [ 5.07288071e+03]
 [ 4.42929771e+04]
 [-3.01453942e+04]
 [-4.28232332e+04]
 [-8.24565704e+03]
 [ 5.62916446e+04]
 [-2.65279781e+04]
 [-4.32287171e+04]
 [ 1.39689933e+04]
 [-2.95043767e+04]
 [-1.59131202e+03]
 [ 3.92091786e+04]
 [-1.51233147e+04]
 [-1.56468826e+04]
 [-3.48300278e+04]
 [ 2.04760525e+04]
 [-4.12000534e+04]
 [ 3.76321256e+03]
 [ 2.15198935e+04]
 [ 4.99429596e+04]
 [-3.22286823e+04]
 [ 1.70781594e+04]
 [ 8.30952306e+03]
 [-1.14125237e+04]
 [-2.69374888e+04]
 [-3.65787050e+04]
 [ 2.58984292e+04]
 [-4.21158784e+04]
 [-1.30266947e+04]
 [ 2.09448655e+04]
 [-9.72572058e+03]
 [-1.05649593e+04]
 [-3.24913862e+04]
 [ 1.93525556e+03]
 [ 7.35536187e+04]
 [-9.76824683e+03]
 [-1.19259799e+04]
 [-1.67386773e+04]
 [-6.66896934e+03]
 [ 5.29083381e+04]
 [ 1.24494961e+04]
 [-3.92940331e+04]
 [ 2.56939173e+04]
 [ 3.83509888e+04]
 [ 1.72412082e+04]
 [ 7.33126608e+03]
 [-3.31347908e+02]
 [-8.71544968e+03]
 [-2.58228768e+04]
 [-2.05641245e+03]
 [ 2.15514020e+02]
 [ 2.23526045e+04]
 [ 2.00245792e+04]
 [ 1.55180349e+04]
 [ 7.25959235e+04]
 [-4.70937421e+03]
 [-2.43302602e+04]
 [ 2.96934860e+04]
 [-4.53718207e+04]
 [ 3.44813057e+04]
 [-1.63109501e+04]
 [ 2.12300370e+04]
 [ 5.87905695e+03]
 [-3.47437303e+04]
 [-3.37209792e+03]
 [-2.45864123e+04]
 [ 3.81525564e+04]
 [ 1.18724470e+04]
 [ 3.05072403e+04]
 [-3.98043108e+04]
 [-1.25683604e+03]
 [-1.95456524e+03]
 [ 4.72529504e+03]
 [-3.52520171e+04]
 [ 5.28329433e+03]
 [-4.21908720e+04]
 [ 6.59069663e+04]
 [ 9.23927266e+04]
 [ 4.37789299e+04]
 [-3.89771704e+04]
 [ 5.67763486e+01]
 [-8.65653074e+03]
 [-4.71332940e+04]
 [-3.55039248e+04]
 [-3.47129041e+04]
 [ 7.93381512e+04]
 [ 1.86044745e+04]
 [-3.82539508e+04]
 [ 9.66588505e+04]
 [-2.45912988e+04]
 [ 1.40520147e+04]
 [-4.03717954e+04]
 [ 4.85540827e+04]]
