[[ 17472.56462552]
 [ 18051.67597108]
 [ -2662.59309773]
 [ 21620.44883034]
 [-35931.80160319]
 [ 20566.87533208]
 [ 16411.7907112 ]
 [ 18789.19237154]
 [   985.50295271]
 [-18323.26727511]
 [  5784.60983569]
 [ -4863.96919789]
 [-31591.80376122]
 [-35419.08309306]
 [ 15169.28145988]
 [ 18755.24368052]
 [-39690.92754809]
 [-33730.64427851]
 [ -7745.79656323]
 [  1599.29611264]
 [  6014.83866202]
 [ -5423.12927157]
 [ -7858.98508483]
 [-33010.12862259]
 [-22006.8418417 ]
 [ 10431.1472748 ]
 [  6730.49536256]
 [  1399.35846653]
 [ 29526.97423036]
 [-11454.70681498]
 [ 18153.37450136]
 [-34797.8143721 ]
 [ 45945.76541683]
 [-26883.51313447]
 [ 48227.87358149]
 [-18446.10352695]
 [ 40190.65611152]
 [ 22591.036528  ]
 [-33803.33332503]
 [-20500.91151291]
 [ 18118.93819661]
 [ -4065.23788913]
 [ -8761.86013195]
 [  1990.93360433]
 [ 11161.80462286]
 [ 21401.45011538]
 [ -9079.1026199 ]
 [ -6119.01958778]
 [-14905.19134488]
 [ 34407.51813145]
 [ 61632.88398981]
 [-39904.17004992]
 [-21702.56823103]
 [ -4449.02689937]
 [ 40009.32832567]]
