[[-30788.67177855]
 [-46524.22753016]
 [108302.17813242]
 [ 18789.55651412]
 [-48748.49104946]
 [ 80129.36858088]
 [-11259.03807386]
 [ 18121.1397653 ]
 [-32895.00275341]
 [ 10212.42377484]
 [  8134.73136521]
 [  4899.0299027 ]
 [-28120.02970366]
 [-54569.88860282]
 [-12163.92997257]
 [-31280.95050905]
 [ 34975.18771568]
 [ -2121.16481275]
 [-29912.1602377 ]
 [-40620.99572438]
 [-22067.98369342]
 [ -4884.10033091]
 [-28724.78116095]
 [-47355.9396707 ]
 [-44386.49957822]
 [ 42635.81765263]
 [ 62994.26266324]
 [-18618.82044619]
 [ 31972.20938292]
 [ 32847.07711921]
 [-51564.71337178]
 [-27887.90947007]
 [ -2358.48635961]
 [ 27930.42019097]
 [ 19645.59163373]
 [-41789.71861328]
 [-53970.01018322]
 [-35575.1423525 ]
 [ -3002.62618994]
 [ 78039.8281403 ]
 [ -9388.90827113]
 [  2953.31876553]
 [-55782.53963801]
 [-11633.6157359 ]
 [ 19681.24021068]
 [  -515.86687778]
 [-32646.50346373]
 [ -3030.02416614]
 [-23912.18373307]
 [-21277.59214948]
 [-47814.77691483]
 [ 78444.38336342]
 [ 27613.30228062]
 [ -2573.89424142]
 [ -1776.55191378]
 [ 12309.29266331]
 [  -676.18500677]
 [-43512.2285221 ]
 [ 23910.93988621]
 [-32391.79375509]
 [  9179.19313702]
 [-22389.68922827]
 [ 39590.95880157]
 [-10991.47091959]
 [ 95689.25313111]
 [-20871.00524405]
 [ 65949.40812723]
 [-13163.70215448]
 [-44049.31074181]
 [ 13443.88651272]
 [-21605.2931948 ]
 [-17877.03650714]
 [ -1507.3858561 ]
 [ 92079.59596489]
 [-23651.13586911]
 [ 24794.07660055]
 [ 28931.0309515 ]
 [ 56850.1121953 ]
 [-10539.78831951]
 [ 97944.83087694]
 [ 38088.46481229]
 [ 36174.39635228]
 [ 54727.00716448]
 [  4718.00215793]
 [-45064.57412864]
 [  6529.81076264]
 [-44600.32076337]
 [-45975.74068677]
 [-19853.91299061]
 [ -1201.89631185]
 [ 33162.52345189]
 [ 13074.12024569]
 [-42950.34053156]
 [ 37029.83366337]
 [ 21284.67801562]
 [-22145.35853769]
 [-42694.88186409]
 [ 29194.63696511]
 [ -5829.92681777]
 [-47890.40236841]
 [ 56270.9649716 ]]
