[[ 45317.38584806]
 [ 35709.80801767]
 [-28629.56933548]
 [-22985.44483367]
 [ 37744.20453591]
 [ 33179.59055036]
 [ 35491.77927503]
 [-12068.28280152]
 [-11368.28751913]
 [-14647.96979876]
 [ 24220.84803874]
 [ 15718.24346826]
 [ 34314.25968594]
 [-30102.85980222]
 [ 12871.75632992]
 [ 31116.26279546]
 [ 32240.13844225]
 [  5155.22675711]
 [  9230.40312709]
 [ 23071.13399968]
 [  2217.13161993]
 [-29453.98139404]
 [-23583.0990904 ]
 [-27414.97869472]
 [-31923.08356067]
 [  8620.96174077]
 [-25006.83444795]
 [ 22008.93157287]
 [ -3378.63709722]
 [-27781.88201892]
 [-31358.2486522 ]
 [-28460.56141519]
 [-19610.21395234]
 [-15490.70727922]
 [ 16024.3660601 ]
 [ 24920.40914078]
 [ 69414.59367687]
 [-25637.42407398]
 [-25520.85528804]
 [ 40012.10194899]
 [-22763.02463275]
 [ -3198.62356303]
 [  6375.90333552]
 [ -9685.56239248]
 [-32158.44184048]
 [-19247.38824279]
 [-24600.92540164]
 [-24289.46140093]
 [-30487.6350659 ]
 [ 41915.54353775]
 [-17329.28930466]
 [ 21730.71095419]
 [-32018.46099212]
 [-25217.07440523]
 [ -1829.23382786]
 [  3255.16360322]
 [ 76327.6481797 ]
 [-16129.98142305]
 [ 15613.98166889]
 [ -4410.61880516]
 [ 13012.36650256]
 [ 18820.82238081]
 [-29139.01089   ]
 [ 34766.85481057]
 [ 31159.69377869]
 [ 20364.00948615]
 [-23816.36653234]
 [-25598.26315483]
 [-14867.37505334]
 [ -2878.39188746]
 [-26305.86547745]
 [-14731.33693421]
 [ 14072.56991532]
 [-24619.93761652]
 [  5168.90295701]
 [-17553.828294  ]
 [-24926.85432524]
 [ 24266.80225047]
 [ 16775.3625265 ]
 [ 34519.22409199]]
