[[ 15516.35188465]
 [ 31850.89026393]
 [  -936.74765015]
 [  8072.79150229]
 [ -7808.25816319]
 [ 54687.37528674]
 [ 40110.31195672]
 [  7545.34958954]
 [  5918.58152097]
 [ 70069.62664286]
 [-15950.38233447]
 [-22392.47340853]
 [ 12747.26557808]
 [-18868.89305839]
 [ 12329.17567596]
 [-19861.6174835 ]
 [ 20351.85230137]
 [ 21940.39485995]
 [-37155.86469532]
 [ 51746.28444332]
 [-34084.28090942]
 [  8654.71191771]
 [ -5906.74027932]
 [-35829.42049537]
 [ 30375.53485797]
 [ 21190.70500228]
 [-30972.84667337]
 [-36049.08042206]
 [-39371.98615674]
 [ 42880.1929154 ]
 [ -6368.58556118]
 [-16875.7364585 ]
 [-12347.41128372]
 [-34812.11411852]
 [  2532.08224289]
 [-15650.35872753]
 [-29564.51510838]
 [-37577.93324144]
 [  6449.68849686]
 [-32500.28663124]
 [ -8056.55047361]
 [   172.96615429]
 [  7243.98228533]
 [-23350.82118771]
 [-12807.29276841]
 [ 43398.78710253]
 [ 11194.83665207]
 [-33341.83881541]
 [ 18392.3077226 ]
 [-25416.94798193]
 [ -1035.08062958]
 [ -2535.04037795]
 [ 60920.1855681 ]
 [ 16968.12667556]
 [ -3140.48766718]
 [  9730.56676991]
 [ 12216.34791707]
 [ 34102.0307358 ]
 [  7035.88211791]
 [-14473.28349649]
 [-12104.57290223]
 [-12553.94260262]
 [ 28587.35459312]
 [ -3698.57193018]
 [-35377.45900611]
 [-20160.3793793 ]
 [-13948.68397845]
 [ 26370.8176364 ]
 [-32204.39635615]
 [  1607.98225748]
 [ -7138.90231577]
 [-26977.09490055]
 [ -4374.17588934]
 [  5378.0507679 ]
 [-32471.6184612 ]
 [-14853.10143802]
 [-34185.61013534]
 [-38215.5535384 ]
 [ -6815.04303241]
 [ -6050.78024667]
 [  -382.51139383]
 [  6969.32504916]
 [ 21638.49514909]
 [-24541.13491404]
 [ 57136.36650683]
 [ 40581.56866081]
 [-16892.08541934]
 [ 24620.1678981 ]
 [ 28356.63007979]
 [ 14077.91139558]
 [  3020.43138211]
 [   941.25877513]
 [ 44778.18192084]
 [-32421.23461446]
 [ 39579.74915253]]
