[[-6092.43135614]
 [ 5402.74472534]
 [-6245.8412507 ]
 [-1842.93870732]
 [-7238.98947699]
 [ -497.01167206]
 [-4710.80857412]
 [-1680.56464547]
 [-2317.67700327]
 [-5246.04354116]
 [ 3324.93880169]
 [  391.77505462]
 [ 7026.4736132 ]
 [ 3044.40631217]
 [ 2986.44487642]
 [-3578.5878291 ]
 [ 4159.7924801 ]
 [-1921.96320565]
 [-2104.51539362]
 [-1559.05315422]
 [ 5587.619865  ]
 [ 6354.14738544]
 [-5264.7555177 ]
 [-4258.51190104]
 [ 5883.59222004]
 [ 9737.327501  ]
 [-4734.57140433]
 [ 7639.51132091]
 [  693.51047281]
 [-4265.05714776]
 [ 4057.26160357]
 [-3841.59438972]
 [ 1706.64557384]
 [ 3852.78801404]
 [ 4231.26622447]
 [-1562.70965081]
 [-6592.51682479]
 [ 6396.89925012]
 [-7005.47984639]
 [ 6106.02542922]
 [ 6320.91353943]
 [-7082.1755631 ]
 [-1035.94498689]
 [12009.76208653]
 [-3682.30834338]
 [ 2548.83774987]
 [ -222.42529969]
 [ 8981.10948698]
 [-1119.29590639]
 [  241.54723757]
 [ 6159.79632364]
 [-2573.6288491 ]
 [-7160.06126345]
 [-3223.10738335]
 [-1177.78724862]
 [-3993.25138638]
 [-6925.3148951 ]
 [-6385.31437043]
 [ 2480.66285749]
 [ 4239.45529281]
 [ 4461.06365957]
 [-5638.30440739]
 [ 5603.9990746 ]
 [-6185.569786  ]
 [ 4366.78874755]
 [-5247.8864144 ]
 [-2410.48388454]
 [-4947.85612845]
 [-7065.51611021]
 [ -988.22144605]
 [ 3455.8453821 ]
 [16617.16954126]
 [-1023.08596945]
 [-1496.54145191]
 [-3206.59561506]
 [  268.05959694]
 [ 6148.98107218]
 [-6038.06182897]
 [-7447.51000012]
 [ 2459.21393619]
 [-6776.09258468]
 [-4729.56571365]
 [-1359.3199572 ]
 [-2162.70961074]
 [-4519.2172791 ]
 [10795.88642444]
 [ 2585.989994  ]
 [ 3670.59183479]
 [-1306.07116045]
 [ -642.52855829]
 [ 4819.45454742]
 [-1530.43189924]
 [ 6471.57964964]
 [ 1032.24598802]
 [ 4770.02581276]
 [ 1579.57296687]
 [ -952.70545983]
 [ 2189.80391648]
 [-5184.72843388]
 [-4860.28575525]
 [ 7572.53016181]]
