[[ 3.31128626e+03]
 [-3.04351312e+04]
 [-3.35128142e+03]
 [ 7.72754705e+03]
 [-2.54201568e+04]
 [ 6.27026168e+03]
 [ 3.83053874e+04]
 [ 1.50580027e+03]
 [-5.30560360e+03]
 [-1.23824400e+04]
 [-2.72512434e+04]
 [ 7.45457307e+04]
 [-1.97077248e+04]
 [-2.69003988e+04]
 [ 2.59177163e+04]
 [-2.40953012e+04]
 [ 1.18149646e+04]
 [-6.43463601e+03]
 [ 3.15999692e+04]
 [-2.02337806e+04]
 [-2.52674143e+04]
 [ 9.65786540e+03]
 [-6.99783346e+01]
 [-2.87827455e+04]
 [ 4.51937615e+04]
 [-2.89489220e+04]
 [-1.97210170e+04]
 [-2.50955482e+04]
 [-4.00587372e+04]
 [ 4.13050180e+02]
 [-2.23853290e+04]
 [-2.22504366e+04]
 [ 2.03394304e+04]
 [ 4.10218377e+04]
 [ 8.91282471e+04]
 [-3.07878635e+04]
 [ 4.15306192e+04]
 [-3.58943817e+04]
 [-1.25518460e+03]
 [ 2.24329057e+04]
 [-2.19933203e+04]
 [-3.03823995e+04]
 [-5.93667098e+03]
 [-1.96805451e+04]
 [-3.63770730e+03]
 [-3.03783890e+04]
 [-3.54651670e+04]
 [-3.06343308e+04]
 [-1.72462914e+04]
 [-2.36142348e+04]
 [ 1.92080317e+04]
 [ 3.71301558e+04]
 [-1.97943155e+04]
 [ 3.69054966e+04]
 [ 2.84027269e+04]
 [-1.77523753e+04]
 [-9.31202527e+03]
 [ 7.60295944e+03]
 [ 3.42586666e+03]
 [-2.96291615e+04]
 [-2.79243148e+04]
 [-3.40771111e+04]
 [-2.62722425e+04]
 [ 2.85024330e+04]
 [ 8.27597824e+03]
 [-6.85711758e+03]
 [ 2.93323419e+04]
 [ 1.23901974e+04]
 [ 5.93851128e+04]
 [-2.66815263e+04]
 [ 4.88619789e+03]
 [-2.19570926e+04]
 [ 3.84217883e+03]
 [ 1.74362508e+04]
 [ 3.50839434e+02]
 [-2.48809076e+04]
 [ 7.93844493e+04]
 [ 5.00794937e+03]
 [ 1.21886878e+04]
 [-1.52828082e+04]
 [ 2.50711384e+04]
 [ 7.48047761e+03]
 [-9.24093959e+03]
 [-5.40886471e+03]
 [-2.96541925e+04]
 [-2.87594259e+03]
 [-2.61537168e+04]
 [-1.91351567e+04]
 [-9.76991159e+03]
 [ 3.93971344e+04]
 [-3.09826680e+04]
 [ 1.27155124e+04]
 [ 1.45247410e+05]
 [-1.41394122e+04]
 [ 1.09259604e+04]
 [-8.37215889e+03]
 [-6.69116841e+03]
 [ 2.23283622e+04]
 [ 2.63194911e+04]
 [-3.00102785e+04]
 [ 4.19176259e+04]]
