[[-27334.88230214]
 [-27695.3026755 ]
 [ -2001.72055303]
 [-29779.19694065]
 [ -8165.97502105]
 [-20897.92338799]
 [ 25649.02325478]
 [ -1697.0241068 ]
 [ 29126.5228326 ]
 [ -1309.48450724]
 [ -7139.20271934]
 [-31149.2573372 ]
 [-35204.9407341 ]
 [ 18292.08022224]
 [-10647.62651901]
 [ 10971.95812845]
 [ 57219.41432066]
 [ 81217.26558202]
 [-17779.80070822]
 [ 30073.26919764]
 [ -5842.05531178]
 [-19867.23143366]
 [ 54821.54471834]
 [ -9577.70623712]
 [-23937.76436943]
 [-36760.28474168]
 [ -4350.80401503]
 [ 15822.60990038]
 [-31856.40480863]
 [ 12338.55267197]
 [ 74239.08515827]
 [-35385.12302938]
 [ -4127.35928945]
 [ 42587.06770124]
 [ 13731.30999301]
 [ 46811.04547213]
 [  6126.84028657]
 [-22410.55688735]
 [-23511.93056077]
 [ 15927.14349001]
 [-29465.02296309]
 [-12738.40485703]
 [ 26596.88798429]
 [-29911.45796146]
 [ 17017.2543226 ]
 [-12122.80194622]
 [-12728.82008697]
 [-29529.01550363]
 [ 34158.67548201]
 [-21849.55461996]
 [-23239.24444897]
 [-17306.32461101]
 [ 26027.49045019]
 [-34751.71562801]
 [ 37058.97405469]
 [  7238.1866152 ]
 [ 15096.57723783]
 [  -566.05923259]
 [ -2546.40403848]
 [-33396.02007207]
 [-19669.93232314]
 [ 18299.69150271]
 [-17957.01222816]
 [ 13241.45084714]
 [-17126.0252722 ]
 [ 38693.9891444 ]
 [-15050.53658182]
 [ 37281.1214125 ]]
