[[ 44324.69916095]
 [ -3535.94181632]
 [-31646.7757505 ]
 [ 75934.34157662]
 [-22191.83238536]
 [ 20087.94203626]
 [-36374.60559821]
 [-37050.38448265]
 [-36305.2103826 ]
 [-12206.06297547]
 [ 18876.58164453]
 [-18209.92067559]
 [  8551.29994213]
 [ 42234.61248704]
 [ -6659.54749824]
 [-10691.80986691]
 [-13151.27346149]
 [  9993.11074019]
 [-11416.86953902]
 [ -5135.87602539]
 [ 23979.51253823]
 [-35801.57017185]
 [  4798.38731298]
 [-12694.49670287]
 [ 16705.0941212 ]
 [-19584.54440945]
 [-37609.13923125]
 [-15087.11890307]
 [-16074.26755403]
 [-20250.66709844]
 [ 23310.77946055]
 [-22057.58649616]
 [ 22730.79379738]
 [-15993.20485128]
 [ 27928.14150076]
 [-11054.83810448]
 [ 32330.19534736]
 [ 14657.05597373]
 [-27269.94785847]
 [-16328.48405004]
 [ 10825.64628183]
 [ -7658.398023  ]
 [ 28562.7126618 ]
 [ 20205.81770041]
 [ 23364.73350987]
 [ 11284.04301384]
 [  6635.48866716]
 [  -425.81654946]
 [ 32959.49488872]
 [-34718.38033701]
 [-24240.52811045]
 [-13793.31515401]
 [-31097.1651479 ]
 [-38293.81488165]
 [ 13706.57534379]
 [ 38657.65113691]
 [ -1888.72407564]
 [ -2700.99312171]
 [ 56408.92982677]
 [ 42580.74592207]
 [-24550.87352155]
 [ -7591.16417438]
 [-26142.55404064]
 [-24082.84136038]
 [ 19269.85742205]
 [ 11709.7057678 ]
 [   469.49907921]
 [ -8091.85980763]
 [ 25931.16033011]
 [-33332.02048958]
 [-12920.55988351]
 [ 49327.56794835]
 [  7568.80742703]
 [ 38838.56872368]]
