[[-20811.05715971]
 [ -1637.348903  ]
 [ 36469.21422584]
 [ 92736.75954168]
 [-49426.18440058]
 [  7751.94164081]
 [ 49293.29443329]
 [ 49167.68387193]
 [-37838.67466011]
 [-24894.2519754 ]
 [ 27908.33231439]
 [-22746.35940454]
 [  5174.8106066 ]
 [ 28598.09635202]
 [-31237.42369003]
 [112324.27147388]
 [-28840.25530936]
 [-13522.84813185]
 [   516.66874754]
 [-44273.68710753]
 [ 23386.72904346]
 [-19133.44064164]
 [ -1011.37061873]
 [-37714.46498797]
 [-42537.72514219]
 [-41896.56494256]
 [ 17124.35756269]
 [-33991.13516482]
 [-34105.57722228]
 [-20592.51904988]
 [146619.88408138]
 [-24680.55475142]
 [-31369.5799668 ]
 [ -3141.52507242]
 [ 34063.07180476]
 [-41497.17665795]
 [ 90026.75334524]
 [-28510.07414093]
 [  5085.47606432]
 [-17661.84983471]
 [ 74051.8821008 ]
 [-53242.48349074]
 [-21423.16849688]
 [ -9865.49616662]
 [ 45511.10424969]
 [-46811.07143678]
 [ -6575.36119268]
 [-26552.41550658]
 [-37843.31423186]
 [ 37414.66713777]
 [ 88686.4018885 ]
 [-39487.36546785]
 [-32755.1342154 ]
 [ 21862.87614833]
 [-25702.37061282]
 [  9081.06164986]
 [ 27496.32860055]
 [-28877.86233847]
 [-31469.3976532 ]
 [ -7183.38397121]
 [  5950.68782848]
 [ 23521.70775349]
 [-14308.62649067]
 [ 27060.72242517]
 [-11097.43822406]
 [ 28525.27074856]
 [-16724.87452039]
 [  9001.01875897]
 [-16815.49111698]
 [ -9198.18846264]
 [-18014.81854928]
 [-21729.81019182]
 [-39475.21613412]
 [ 54740.21453209]
 [-42365.88652305]
 [ -7854.89150988]
 [-48072.30183924]
 [-20738.8250126 ]
 [-10284.11183284]
 [-38855.52095328]
 [  7663.65372081]
 [-12198.5374807 ]
 [-52660.6405233 ]
 [ 34282.65641012]
 [-22092.48627743]
 [-50643.99997742]
 [116878.37262002]
 [-30668.51983681]
 [ -7635.46597744]
 [ 25904.00712293]
 [ 31386.36949355]
 [-38544.34720817]
 [ 76309.81969504]
 [ 81157.63715638]
 [ -5447.56290526]
 [  7700.44812529]
 [ -5283.82283449]
 [  5324.87953184]
 [-17709.81710411]
 [ 13522.54239539]
 [ 54789.89171472]]
