[[ 12030.89038245]
 [-21214.44620528]
 [ 25089.43485678]
 [-42832.28311847]
 [-39872.52257492]
 [-13528.82783143]
 [ 38442.63765711]
 [-41840.92128821]
 [ 31121.48444098]
 [-32773.61522952]
 [-34632.77846926]
 [-30908.15588907]
 [-42726.25333291]
 [ 11823.92117154]
 [  6160.23510088]
 [-12171.97527348]
 [-39181.24560613]
 [ 25260.72784473]
 [-18796.64679514]
 [ 10751.03247463]
 [-20721.3423507 ]
 [  3909.38571484]
 [ -1178.4804666 ]
 [ -6249.0272523 ]
 [  2174.62219621]
 [ 12407.86017591]
 [ -1429.50030537]
 [-10162.35086072]
 [ 34364.26976864]
 [-25861.07917067]
 [ 70841.78344989]
 [-27193.58567264]
 [-24056.02741419]
 [-28628.30050982]
 [ 37617.49877143]
 [ -2456.63141745]
 [-15791.28704025]
 [ 38154.89783959]
 [ 42929.29910449]
 [ 19931.05977194]
 [ 60923.0575998 ]
 [ -3012.48694691]
 [-11035.05567203]
 [ -5187.36177616]
 [-36598.59459493]
 [  2394.41119232]
 [ 39311.01577556]
 [ 40191.10625815]
 [-39422.6024938 ]
 [ 26633.89902292]
 [-28419.32403189]
 [-34040.33413601]
 [ 14531.77173104]
 [ 38731.85311131]
 [ 28399.73845064]
 [  9156.71608015]
 [-41899.14257816]
 [-25389.20429187]
 [-29725.66949732]
 [ 13398.51720937]
 [  8009.3559985 ]
 [ 72713.1320459 ]
 [-27806.39243344]
 [-16793.98120171]
 [-34181.26436731]
 [ 34520.36462081]
 [-35864.97794164]
 [ -8564.63667231]
 [ -2032.88009633]
 [-12776.79735592]
 [  1318.05517474]
 [-10629.10350682]
 [ 34897.16108235]
 [ 18395.81844695]
 [-15508.45453904]
 [ 62660.34777862]
 [-35925.60573972]
 [-12563.65734348]
 [ 55094.08652614]
 [-10078.96914733]
 [-28359.85636846]
 [-30238.00379738]
 [   112.54374674]
 [ 56789.7510158 ]
 [-24316.05657823]
 [-20860.31380869]
 [ 15283.19770348]
 [ 33255.11930551]
 [ 29061.70518642]
 [ 13611.4278467 ]
 [  2625.05944736]
 [-19592.24208791]
 [ 43401.21464303]]
