[[ -9184.60637232]
 [-21722.36131429]
 [  4527.24926293]
 [-58701.50181825]
 [-12586.26896317]
 [ 68716.7023699 ]
 [ 20452.61542603]
 [-14847.15423875]
 [ 42157.82701943]
 [-45111.1971469 ]
 [-43799.17483882]
 [ 98652.70910305]
 [ 25116.45678293]
 [-26395.62364058]
 [  8913.26844642]
 [ 19637.35407119]
 [-63078.0348912 ]
 [-43273.69275924]
 [-33301.61119595]
 [-20803.45020921]
 [ 85086.41229292]
 [ 10084.32912201]
 [ 65610.99900873]
 [ 10540.8536122 ]
 [-13080.63909311]
 [-45979.5971596 ]
 [ -4631.42004427]
 [-16038.59926302]
 [ -8512.30553204]
 [-14828.82113377]
 [ 15909.19083182]
 [ 18059.9882062 ]
 [ 80084.97388765]
 [-20185.59539205]
 [ 53488.397126  ]
 [  6315.67276946]
 [ 35095.25782025]
 [-20726.68996253]
 [ 38583.28692796]
 [  6141.30480833]
 [ 29978.38890725]
 [-38732.57742309]
 [ 74605.44429597]
 [ 67882.6721794 ]
 [-22566.49998588]
 [ 21882.06078103]
 [-33968.31758711]
 [-67764.41264196]
 [ 48861.42949486]
 [-31821.10532146]
 [ -4552.07169377]
 [ 44771.99792816]
 [115552.37518031]
 [ 28353.24122724]
 [-10402.66871115]
 [  8336.91809179]
 [-25105.2694907 ]
 [-18965.40084493]
 [-47018.43583165]
 [-62686.55534107]
 [-12911.64391502]
 [-28350.75142999]
 [  4156.43493509]
 [-21995.87610675]
 [   892.84134064]
 [-21265.23242879]
 [-51560.88023602]
 [ -2902.36497064]
 [ 96681.13634865]
 [ 38018.10626922]
 [  2249.32751187]
 [-27179.29438815]
 [-48018.34375422]
 [ 33977.23322081]
 [ 10426.49132965]
 [ 23352.43927362]
 [-15771.77627009]
 [-52829.30830747]
 [-61717.9184356 ]
 [-47101.62334355]
 [ -3476.49176986]
 [  6250.84145556]
 [-24769.27941053]
 [-63623.07375847]
 [-34391.25075584]
 [  1518.78909766]
 [-55148.24384941]
 [-27640.99772476]
 [-17372.85681457]
 [ 10309.82657064]
 [-41485.08357445]
 [-37992.03918764]
 [ 39516.54669406]
 [ 45079.66247938]
 [-39501.17927717]
 [ 34038.43299699]
 [ -7087.69882059]
 [ 58195.31928187]
 [ 35134.33110835]
 [ 51267.73147594]
 [ 69461.10609529]]
