[[-20554.65399862]
 [-40130.1783743 ]
 [ -7997.801835  ]
 [-27853.56287375]
 [ 19065.68140347]
 [ 24596.71870442]
 [-13694.13662493]
 [ 27705.34114395]
 [ 19922.13920997]
 [-35651.98682781]
 [ -7201.8726206 ]
 [ 52732.17153085]
 [ 24530.31173178]
 [ 47353.06545748]
 [-38893.44037947]
 [-25369.45535271]
 [ 24120.07325275]
 [-42236.84000994]
 [-14489.4547126 ]
 [ 18085.13291868]
 [-18140.39612634]
 [-16644.01504376]
 [  5890.65564298]
 [ 69674.92430937]
 [ -4774.05736976]
 [ -9686.99039594]
 [ 28223.33538513]
 [ 20372.41266385]
 [-41701.57770109]
 [ -2767.0342364 ]
 [ 67969.76231215]
 [ 13164.43616901]
 [-23728.39372049]
 [  1058.90575577]
 [ 28389.21419076]
 [ 40329.40290267]
 [ 11394.3182567 ]
 [-34456.01627673]
 [ 19769.79843336]
 [ 43680.01178495]
 [ -4430.87936297]
 [-11818.27398338]
 [  2531.58906091]
 [-12484.40090649]
 [-39081.33518179]
 [-20842.67543344]
 [ 70167.70543449]
 [  -642.72893299]
 [ 18331.19377973]
 [ -9830.96582094]
 [  1941.73776042]
 [-42406.77682608]
 [-31293.14795384]
 [-25656.9534333 ]
 [-38569.31551305]
 [-37086.02516027]
 [ -7053.23386746]
 [-12969.09257243]
 [-22319.58927724]
 [ 66159.30203266]
 [  7144.66181947]
 [-12782.34939056]
 [-42983.87524329]
 [-16223.47723124]
 [ 15591.37734636]
 [-15091.55150055]
 [ 23883.00349686]
 [  1726.98042575]
 [-38677.7235872 ]
 [ 13545.99243345]
 [ 70624.43511911]
 [  1354.79370885]
 [-12952.4743172 ]
 [  -526.42084518]
 [-24894.57792537]
 [   361.87405795]
 [  5197.24911047]
 [ 43198.44797373]]
