[[-3.43382099e+04]
 [ 5.07768235e+03]
 [ 4.31367532e+03]
 [-7.23423373e+02]
 [-3.01718878e+04]
 [ 2.11656478e+03]
 [-3.76337429e+04]
 [ 3.85062371e+04]
 [ 5.57286068e+03]
 [-3.25049999e+04]
 [ 4.06427121e+04]
 [-2.52113059e+04]
 [ 8.17183325e+03]
 [-3.20090005e+04]
 [-1.04711520e+04]
 [ 2.97514026e+04]
 [-1.80241974e+04]
 [ 1.15536115e+04]
 [ 3.60902005e+04]
 [ 5.30018415e+04]
 [-1.63796013e+04]
 [-3.68648996e+04]
 [-2.61695321e+04]
 [ 4.07343385e+04]
 [ 6.52304174e+04]
 [ 2.20222709e+04]
 [-2.57094843e+04]
 [ 3.44088143e+03]
 [-6.54674340e+03]
 [-3.96363858e+03]
 [ 8.13596383e+02]
 [ 3.90641703e+04]
 [ 3.19966045e+04]
 [-3.82748419e+04]
 [ 2.74129935e+04]
 [-4.23364521e+03]
 [ 1.55983849e+04]
 [-1.24553171e+04]
 [ 1.44816684e+04]
 [-1.47799224e+04]
 [ 2.02704813e+04]
 [-1.90564343e+04]
 [-1.81352102e+04]
 [-2.20535160e+04]
 [-4.69431248e+03]
 [-2.16100898e+04]
 [-2.61229471e+04]
 [-1.86435396e+04]
 [ 4.71702301e+01]
 [ 1.97372232e+04]
 [-2.74872403e+04]
 [-2.81991078e+04]
 [ 5.20145346e+03]
 [ 3.17427056e+03]
 [ 8.11604449e+03]
 [-9.39423118e+03]
 [ 2.91263573e+04]
 [ 1.85775650e+04]
 [-4.56739966e+03]
 [-3.12561826e+04]
 [ 3.92298022e+04]
 [-1.18075301e+04]
 [-3.66718334e+04]
 [ 1.68291917e+04]
 [ 1.03342346e+04]
 [ 3.68013157e+04]
 [ 1.81873653e+04]
 [-5.24157191e+03]
 [-2.42083049e+04]
 [-1.80694133e+04]
 [-2.96416747e+04]
 [ 2.09899238e+04]
 [-1.19404731e+04]
 [-1.57852935e+04]
 [-1.17517301e+04]
 [ 3.44850973e+04]
 [-2.99360862e+04]
 [ 2.98340288e+04]
 [ 2.94447615e+04]
 [ 1.76798226e+04]
 [-1.68815662e+04]
 [ 1.98583335e+04]
 [-2.11932904e+04]
 [ 2.24678533e+04]
 [ 2.65993510e+04]
 [ 6.08821331e+03]
 [-7.43468545e+03]
 [ 1.63523967e+04]
 [-3.65389183e+04]
 [-3.01507775e+03]
 [-3.86414808e+04]
 [ 2.08593426e+03]
 [ 9.33254767e+03]
 [ 4.02423285e+04]]
