[[  9885.46490064]
 [-44631.26479343]
 [-35772.29321674]
 [ -8948.91867591]
 [ -4382.71277368]
 [-38667.11493141]
 [-15238.12752951]
 [-19977.8405329 ]
 [ 10877.12071385]
 [  1862.35746893]
 [ 25422.3232932 ]
 [ -8705.54088475]
 [ -4755.57520841]
 [-47053.75773551]
 [-45407.50612117]
 [ 25010.92450893]
 [  6179.53865363]
 [ 15688.89915662]
 [ 20006.41408491]
 [-13510.19166751]
 [  1354.73612053]
 [ -6155.46812812]
 [ 22475.37939676]
 [-46351.88092725]
 [ -3635.32146105]
 [-34449.93060075]
 [  4688.79272774]
 [  1749.39404838]
 [ 55352.13148694]
 [ 74970.41485187]
 [-33137.59469409]
 [117352.55947524]
 [-14793.85607856]
 [ 18811.23468552]
 [  3233.60314395]
 [-62950.20277006]
 [-31360.66060508]
 [ 41123.20597851]
 [-20387.12052102]
 [-41567.12305469]
 [ 96348.43237493]
 [ 35282.01194625]
 [ 52017.80821276]
 [ 26015.39570102]
 [ -7180.93266739]
 [ 12709.02922327]
 [-58526.02609404]
 [ 21590.35059159]
 [ 51442.56345382]
 [-50402.38130861]
 [ 18690.28711967]
 [-34482.0155154 ]
 [ 30344.67865366]
 [-38673.72081724]
 [ -8162.93964897]
 [  8803.92460397]
 [-21378.01734652]
 [  4697.31930203]
 [ 18942.0699259 ]
 [-37119.52194928]
 [  9683.92041328]
 [-48249.08733392]
 [-55826.19371343]
 [-54684.39393092]
 [-17596.57093991]
 [  6060.67073364]
 [-19682.52438846]
 [ 14197.39938073]
 [ 98285.20751352]
 [ 76571.61414755]
 [-58750.40469812]
 [ 21863.68608832]
 [ 33362.19933332]
 [ 55434.11722465]
 [-19036.38218322]
 [ 40348.33425786]
 [ 68829.5088412 ]
 [-28229.32535013]
 [ 37260.04675086]
 [  8369.41367222]
 [ -9847.38379545]
 [-41874.90903927]
 [-32902.19835062]
 [-24281.15439289]
 [-41026.88431852]
 [ -4920.95167079]
 [-31921.9391877 ]
 [-18463.74204261]
 [  1029.16482955]
 [ 48839.7796591 ]
 [ 68098.04060036]
 [ 16020.64954397]
 [ 65325.0545993 ]
 [-34228.29703703]
 [ -6178.32596128]
 [ -4254.86404586]
 [  8103.54111201]
 [-61190.50648647]
 [-37659.19260673]
 [-22039.92477413]
 [ 66237.31559661]]
