[[ 57727.91390583]
 [-21094.60663948]
 [-20458.16892412]
 [-40792.08173932]
 [-10722.49929409]
 [-34589.36615199]
 [-20264.37980492]
 [  2957.76991188]
 [  7856.63025187]
 [ -3130.69214412]
 [ 73694.39599892]
 [-40832.39261719]
 [-33358.73676146]
 [ 25399.00277129]
 [-31513.65614546]
 [-35186.17593396]
 [-19785.453794  ]
 [ 25097.49309833]
 [-39142.59851405]
 [-18328.06739224]
 [ 14046.48784306]
 [-29283.66541986]
 [-28151.72730433]
 [-39098.83064412]
 [ 13769.8456026 ]
 [-33429.03433424]
 [ -7594.46436615]
 [ 15946.29400729]
 [-34137.45205929]
 [ 12130.67707198]
 [ 66601.02901672]
 [  3096.44038176]
 [ 12370.70918512]
 [ 45202.86608144]
 [ 21254.66007841]
 [ 16185.78939217]
 [ 30907.09030353]
 [ -3420.83319202]
 [-15831.77133596]
 [ 14086.39920621]
 [-34135.73364194]
 [ -8683.54538587]
 [-15041.59772698]
 [ 56777.07549901]
 [ 34734.39865823]
 [-30263.40458689]
 [-15228.90813631]
 [-38271.8613064 ]
 [ 54325.1619947 ]
 [-32429.70485065]
 [-26359.55457049]
 [-17281.76866319]
 [-16475.20921568]
 [-33691.36894539]
 [ 37113.86181906]
 [   427.63076057]
 [ 11542.41421883]
 [ 50941.92740004]
 [-38460.30287475]
 [ -5657.05907612]
 [  3321.75091057]
 [ 23613.02632726]
 [127618.24345962]
 [ 49733.10936036]
 [-37563.34614467]
 [-10147.46069094]
 [ 17524.30695112]
 [-17111.37808827]
 [  6169.54996505]
 [ 12243.56714178]
 [-38379.85133471]
 [ 36679.86737126]
 [-13354.45924743]
 [  7585.78305319]
 [ 41428.21061763]]
