[[ 32095.73726679]
 [ 55185.36403132]
 [-39731.13852874]
 [  7218.19904614]
 [  -857.72818559]
 [-34892.02653747]
 [ 17639.51823292]
 [  4089.15079812]
 [ 26420.58598944]
 [-19306.62976956]
 [ 24116.8321016 ]
 [-10994.79798527]
 [-18908.88005223]
 [-33192.59447572]
 [-27127.14094231]
 [  2543.1378899 ]
 [ 37130.45386816]
 [ 21087.35986964]
 [  5614.56844757]
 [  4817.73788643]
 [ -4066.95278372]
 [ 21852.37194873]
 [ 15873.14484677]
 [ -9214.24396803]
 [ 96804.85104836]
 [-17995.74608767]
 [ 12188.20108721]
 [ 29823.3740638 ]
 [  3018.72822304]
 [ 63737.21368028]
 [-36525.80085425]
 [-16397.01526468]
 [ -5865.05610951]
 [ -6453.19590869]
 [ -5417.49892768]
 [-33238.89851176]
 [-16897.89870558]
 [-23558.11048427]
 [ 67101.41383135]
 [ 10134.31994531]
 [-10339.37373698]
 [ 15942.87136482]
 [-19812.26585923]
 [ 16916.04782767]
 [-23006.98152092]
 [   782.73486073]
 [-29902.45357672]
 [-17313.79029543]
 [ -2844.61686101]
 [  2242.39722242]
 [-21398.39338709]
 [ 28197.64999446]
 [-31638.08515214]
 [-19998.22400903]
 [-39465.62304666]
 [-27864.99392328]
 [ -7757.00878456]
 [ 45029.30587388]
 [ 11817.25216166]
 [-37239.73697738]
 [-16832.23160859]
 [-23395.43504487]
 [-27856.35250273]
 [-30373.89419054]
 [ 84002.61437229]
 [-25387.31752276]
 [ 31198.70332785]
 [  6233.51920717]
 [ 28426.97676084]
 [ -7102.97670465]
 [-37829.84828621]
 [-11608.65118207]
 [-25853.76509955]
 [-15304.82998055]
 [-38677.27148999]
 [ 23349.13189454]
 [-29926.53627949]
 [-38357.73433847]
 [-37492.28566816]
 [  8591.91062818]
 [ 20435.84256631]
 [ -8654.90704684]
 [  2056.85188306]
 [-21790.42340679]
 [ 56314.78481177]
 [-12453.48202471]
 [ 71089.2528043 ]
 [-26287.86502056]
 [  3643.49119313]
 [ 53035.32277667]
 [-21698.15123357]
 [ 38307.93420961]
 [ 40777.73703117]]
