[[-33127.40182424]
 [-39759.30058794]
 [-33563.62703759]
 [ 23275.33098157]
 [ -9389.70177539]
 [-38751.25803851]
 [ -4495.0184385 ]
 [ 41285.60170516]
 [-34580.52634625]
 [ 45703.94057035]
 [109828.22118324]
 [ 76141.19709182]
 [-17096.41140946]
 [-30635.71331971]
 [ -6271.41591112]
 [-18987.10749287]
 [-19509.73782819]
 [-34964.62748183]
 [ -1411.55298818]
 [ 14485.91454225]
 [-25214.93632744]
 [  8610.53686819]
 [ 42043.02928453]
 [-29424.66838611]
 [ -5070.35164811]
 [-34029.30893951]
 [ -6989.37180801]
 [ 27773.82890875]
 [  2406.49097866]
 [ 28856.36119004]
 [-23836.51839145]
 [ -3926.04974171]
 [ -7344.39063481]
 [ 89476.98331407]
 [ 37465.46210998]
 [-26590.29632596]
 [ -3932.8422672 ]
 [ -7519.22358402]
 [-27408.57810827]
 [ 40723.18842906]
 [  6414.58008129]
 [ 29460.9329006 ]
 [-22689.37855113]
 [ -7367.50157047]
 [-26967.02043845]
 [ 18621.3417195 ]
 [-35118.52026903]
 [  7605.56481437]
 [ 40913.57656338]
 [ 12208.31518635]
 [-30213.44377002]
 [-30198.7045199 ]
 [ 27277.27615439]
 [ 26716.19999576]
 [  7544.60372751]
 [ 36558.47329552]
 [ -1555.86954502]
 [ 22482.78308211]
 [-38266.47644254]
 [-38826.77632607]
 [-35586.17809915]
 [  2640.88886278]
 [-30334.06566638]
 [ -5566.75170068]
 [ 40576.89731496]]
