[[-3.77117008e+04]
 [-2.74482072e+03]
 [ 4.30384966e+04]
 [ 5.01522191e+04]
 [ 2.21254747e+03]
 [-8.15621858e+03]
 [-2.76573555e+04]
 [ 5.21759121e+04]
 [-2.29188333e+04]
 [-2.22690659e+04]
 [ 4.33443464e+03]
 [ 1.73038921e+04]
 [-2.52721496e+04]
 [-3.43352157e+04]
 [-6.19756113e+03]
 [-3.67697627e+04]
 [ 1.14471725e+04]
 [-2.97214851e+04]
 [ 1.28541058e+04]
 [ 2.14457253e+04]
 [-1.51168471e+04]
 [ 2.12190935e+03]
 [-2.58799336e+03]
 [ 2.53207528e+04]
 [-1.76090742e+04]
 [ 1.52293690e+04]
 [ 5.88494082e+03]
 [-2.40841863e+04]
 [-2.59469335e+04]
 [ 1.21221649e+04]
 [-2.68527627e+04]
 [-2.55223007e+04]
 [-9.08644944e+03]
 [ 7.12346228e+03]
 [-1.39736528e+04]
 [ 3.21220178e+03]
 [ 2.50277682e+04]
 [ 5.69335724e+03]
 [-3.20678275e+04]
 [ 3.01260817e+04]
 [ 2.84946844e+03]
 [ 5.71722852e+03]
 [-1.36543081e+04]
 [ 4.31584579e+04]
 [ 4.20489059e+04]
 [ 8.11352930e+04]
 [-1.12791932e+04]
 [-4.01813610e+04]
 [ 7.73658003e+02]
 [-1.79064881e+04]
 [ 2.19346969e+04]
 [-2.94436573e+04]
 [ 2.63491453e+04]
 [-1.88037901e+04]
 [ 5.86940911e+04]
 [ 3.52001230e+01]
 [-3.81276833e+04]
 [ 2.41764767e+03]
 [-1.59416286e+04]
 [ 4.04416168e+04]]
