[[ 24953.03117264]
 [ -6267.53685543]
 [ 29116.37313354]
 [-41966.65810027]
 [ -2495.47869258]
 [-44797.66445981]
 [ 12976.45765552]
 [ 29615.58817879]
 [ 36068.16604179]
 [ 32723.2624206 ]
 [ -7119.98142178]
 [-35589.15100217]
 [-37826.38546172]
 [-22670.66762171]
 [-11657.56804573]
 [-40322.92481047]
 [-50544.12280565]
 [-25280.72175116]
 [-26047.88757488]
 [-36780.13167614]
 [ 31380.59651753]
 [-38520.76394234]
 [ -4068.45818027]
 [ 18837.51324132]
 [  -458.30138223]
 [-32661.22391594]
 [-34841.05887759]
 [ 68781.96151413]
 [-14173.17602802]
 [-41941.3409082 ]
 [ 50675.50908992]
 [-29388.04770908]
 [-23584.07493159]
 [-42279.25174343]
 [ 53268.8203407 ]
 [ 43567.6522344 ]
 [ 29614.85139366]
 [ 57070.97661999]
 [-25139.87257737]
 [-34690.70883122]
 [ 15498.93855624]
 [ 84621.49739398]
 [  5637.40778588]
 [-13367.1064766 ]
 [ 17314.92447303]
 [ -4554.50499124]
 [-14337.82664388]
 [  6456.85698088]
 [  5016.66260283]
 [ -7828.54322333]
 [-34321.566456  ]
 [ 22497.93870914]
 [ 87351.21517123]
 [-30471.42162272]
 [ 11486.74498414]
 [ 41461.18250869]
 [ 52573.64971699]]
