[[ -164.31459537]
 [ 2190.84142618]
 [-5422.73239164]
 [ 3140.37226281]
 [ 1719.90997241]
 [10156.53396062]
 [ 3434.08299854]
 [ 3406.12527573]
 [ 5952.50490202]
 [ 2937.87051619]
 [-6444.29513626]
 [  702.52313884]
 [ -153.70577028]
 [-3972.27328582]
 [ 5806.98862908]
 [  985.17575508]
 [   59.4842807 ]
 [ 5870.26511962]
 [-3149.54229368]
 [  389.5984539 ]
 [-6657.68099496]
 [-5467.6069789 ]
 [-6906.43973585]
 [-1955.89648298]
 [ 3450.07334419]
 [-5843.39590102]
 [ 3149.0247451 ]
 [ 1859.70697372]
 [ 2267.0927345 ]
 [-2101.3831385 ]
 [ 6968.31139088]
 [ 5641.28930549]
 [-3374.8218466 ]
 [  675.84742871]
 [ 1599.42212517]
 [ 1246.79281324]
 [-5493.77836202]
 [-6385.20548708]
 [-1719.0370219 ]
 [ 3243.64082534]
 [-5160.66131088]
 [  555.18142034]
 [-1536.6602898 ]
 [-4741.40902614]
 [ 5045.94276321]
 [-1568.25200752]
 [ 4371.71329787]
 [   83.84344996]
 [ 3707.7787249 ]
 [-3402.31168259]
 [-1590.93261175]
 [ 5413.34703678]
 [-1926.39312994]
 [-2255.09999236]
 [  224.47393314]
 [-1594.32313032]
 [ 3862.26063755]
 [-6794.7144708 ]
 [-2413.04538238]
 [  971.36475891]
 [ 7121.1389807 ]
 [-5545.90737428]
 [  273.98542148]
 [-1239.41187183]
 [-3089.06147658]
 [-4366.31478011]
 [-2434.71132168]
 [-5223.3150085 ]
 [-4654.34455774]
 [  924.95821503]
 [  727.05845197]
 [-5351.16681438]
 [ -438.60399414]
 [ 7995.44542276]
 [-7079.59579741]
 [-5587.75395652]
 [ 1389.77085155]
 [-4481.61212231]
 [-1875.50445986]
 [ 5119.43482834]
 [ -573.93485771]
 [  436.21849603]
 [ -428.26784328]
 [ 1196.13735245]
 [ 6655.60458908]
 [ 5374.91960787]
 [ 1893.71518488]
 [  455.26279877]
 [-3976.397186  ]
 [  667.14483185]
 [ -826.7954102 ]
 [ 5570.74867353]
 [-1280.04318618]
 [ 5355.96698164]
 [ -951.98107535]
 [ 4503.81935587]
 [ 6793.4684161 ]
 [-5041.1268786 ]
 [-5218.30260858]
 [ 4315.88217791]
 [ 7488.91835927]]
