[[-26206.54495068]
 [ 26680.20148683]
 [-11857.07762542]
 [-21441.08995539]
 [ 71409.49648381]
 [-11653.01962902]
 [ -4542.81184301]
 [  4220.94216215]
 [  1994.04808066]
 [ 13509.86325794]
 [ 46356.04928036]
 [  9616.4207948 ]
 [-40048.74875095]
 [-13258.07829369]
 [ 46094.50744334]
 [ -8318.02042125]
 [-34722.18403404]
 [-27645.26758799]
 [-19113.83340447]
 [ 32564.59066651]
 [  3811.36603385]
 [-25724.46430089]
 [-18803.00584946]
 [-10365.45412612]
 [   148.20808201]
 [ 43687.88110961]
 [-30109.28324639]
 [ -5961.19367858]
 [-27098.49134681]
 [  9867.1163479 ]
 [ -8917.68111766]
 [  6186.9809358 ]
 [ 34678.48768597]
 [-26261.79898318]
 [ 17398.26309241]
 [  -395.90193425]
 [-24235.8242863 ]
 [-36950.08409173]
 [-10430.87543704]
 [ 32224.29746613]
 [  6626.83925248]
 [ -6052.02137655]
 [-39370.29983965]
 [-21757.03634612]
 [  5904.16860264]
 [ -7342.54109186]
 [ 28577.58253547]
 [ 28463.88131916]
 [-28919.09418786]
 [  4339.97154458]
 [ 19685.48303197]
 [ 41024.67371742]
 [-34102.47630779]
 [  7850.94835766]
 [-22336.59386695]
 [ 31106.94621296]
 [ 13443.17862555]
 [-25326.65945736]
 [ 26917.22764   ]
 [ 31101.21634643]
 [-26991.29257125]
 [-30416.31326862]
 [ 41184.22561191]
 [ 40156.63587846]]
