[[ 39639.81677981]
 [  9477.85311117]
 [-20338.38310558]
 [  7917.45896644]
 [ 22055.5711603 ]
 [-18295.06034599]
 [ 25469.87722208]
 [ -4042.59720866]
 [  -795.38811223]
 [-33630.88866789]
 [-35385.57574722]
 [-13246.04630298]
 [-21198.31910777]
 [-12871.86860029]
 [-27809.16123175]
 [ 34809.46647811]
 [ -2064.79257647]
 [-29872.41114489]
 [-14000.72159354]
 [  9223.17944099]
 [-19802.44653932]
 [ 23471.39926931]
 [  3047.2770922 ]
 [ 13103.11056196]
 [ 28061.73942783]
 [-34627.03446341]
 [ 58585.03074969]
 [ -3975.30473343]
 [ 18430.28799562]
 [-31897.85339515]
 [-17851.48158317]
 [ 63651.54248395]
 [-14116.98264625]
 [ -5609.0806418 ]
 [  5122.42680917]
 [-33122.49719763]
 [ 51221.06641863]
 [ 10489.35003086]
 [-24975.71694848]
 [-17597.15430416]
 [ -4088.13049966]
 [ 28100.34031217]
 [ 12267.00117729]
 [-23534.45576703]
 [ 16988.48387256]
 [ 12029.37762098]
 [-23922.43047806]
 [ 31224.68331564]
 [ 46901.86876529]
 [-25113.66062642]
 [-32553.71775313]
 [ 27329.71330281]
 [ 25708.99879301]
 [ 30233.13667252]
 [ -5266.54325526]
 [-34922.43903908]
 [ 14432.03943503]
 [ 10290.57851143]
 [-19282.01980228]
 [-25628.87349626]
 [ 14095.7530813 ]
 [-37135.03203964]
 [-10983.98062125]
 [-13583.47896769]
 [-28988.31366936]
 [ 28751.41335504]
 [ 39826.16089834]]
