[[-8.40788666e+03]
 [ 2.54512995e+03]
 [ 4.99426328e+04]
 [ 6.54867614e+04]
 [-3.43380984e+04]
 [-4.32302729e+04]
 [ 1.11014795e+02]
 [-5.95587596e+04]
 [ 1.65491479e+04]
 [-4.80318558e+04]
 [-1.54819171e+04]
 [-5.72360407e+04]
 [-5.79863800e+04]
 [ 4.91098430e+04]
 [-5.80733129e+03]
 [ 1.38089255e+04]
 [ 1.74997012e+04]
 [-2.27176718e+04]
 [-3.76169485e+04]
 [ 2.06127688e+04]
 [ 1.35051344e+05]
 [ 7.34946530e+04]
 [ 2.70026620e+04]
 [ 2.35885136e+02]
 [-4.70605368e+04]
 [ 1.02064844e+05]
 [ 1.27164726e+04]
 [-1.51785608e+04]
 [-4.19345261e+04]
 [ 1.69515509e+04]
 [ 2.16470473e+04]
 [-2.74634096e+04]
 [-1.11534662e+03]
 [-4.77705699e+04]
 [-1.44104752e+03]
 [ 6.59400466e+04]
 [ 1.56108227e+04]
 [-2.29658017e+04]
 [-3.67683871e+04]
 [ 2.64780140e+04]
 [-3.84923193e+04]
 [ 2.03271898e+04]
 [ 4.26407203e+04]
 [-2.84852538e+04]
 [-5.94408030e+04]
 [ 1.75612071e+04]
 [ 1.46586789e+04]
 [ 2.28431491e+03]
 [-3.72016632e+04]
 [ 1.22658112e+05]
 [-5.36300795e+04]
 [ 6.02503998e+04]
 [-4.42016435e+04]
 [ 4.15439609e+04]
 [-1.48722643e+04]
 [-4.55273416e+04]
 [-1.43635381e+04]
 [-1.75944435e+04]
 [ 7.71355413e+03]
 [ 2.57467292e+03]
 [-5.91939250e+04]
 [-1.36103945e+04]
 [-4.50217782e+03]
 [-1.82275092e+04]
 [-1.44714262e+04]
 [ 1.36499933e+04]
 [ 3.04833147e+04]
 [-5.58237139e+04]
 [-2.73059293e+04]
 [-1.50008666e+04]
 [-4.92571233e+04]
 [ 2.01403922e+04]
 [ 1.72076459e+04]
 [-4.53077581e+04]
 [-1.46081340e+04]
 [-2.46687180e+04]
 [-4.65045625e+04]
 [-1.02835498e+04]
 [-1.29594085e+04]
 [-1.23029010e+04]
 [-6.65551802e+04]
 [-5.27115828e+04]
 [ 6.02453063e+04]
 [-4.33148985e+03]
 [-6.11570273e+04]
 [ 1.73541292e+05]
 [ 4.18859363e+04]
 [-2.77039447e+04]
 [ 2.21678864e+04]
 [-6.09042911e+04]
 [ 2.32491931e+03]
 [-5.50404852e+04]
 [-3.65051839e+04]
 [ 8.01245636e+04]
 [ 1.38499525e+05]
 [-8.96062531e+03]
 [-1.30889279e+04]
 [-3.39106338e+04]
 [ 8.34262383e+04]
 [ 8.20490777e+04]
 [ 7.01828906e+04]]
