[[-2.43400837e+04]
 [-1.86025647e+04]
 [-3.67399515e+04]
 [-2.81960033e+04]
 [-3.83270592e+04]
 [ 1.18107224e+04]
 [ 5.94628417e+04]
 [ 3.30263353e+03]
 [-2.56341267e+04]
 [-1.84937099e+03]
 [-2.47572370e+04]
 [ 1.58757733e+04]
 [-3.68922605e+04]
 [-1.42596675e+04]
 [ 8.14171568e+04]
 [-3.33899272e+04]
 [-1.33604295e+04]
 [-2.57378242e+04]
 [ 7.68189143e+04]
 [-1.46057908e+04]
 [-1.61483212e+02]
 [-1.23948226e+04]
 [ 2.96586985e+04]
 [ 1.94194168e+04]
 [-1.91730719e+04]
 [ 8.32490480e+01]
 [ 1.02467962e+04]
 [ 8.32687244e+04]
 [-3.58376067e+04]
 [-3.77003237e+04]
 [ 4.58584010e+03]
 [-3.65212632e+04]
 [-1.50516830e+04]
 [ 6.48079366e+04]
 [-2.56820418e+04]
 [ 2.32882162e+04]
 [-1.28636398e+04]
 [-2.03225588e+04]
 [ 1.44229150e+04]
 [ 1.16490655e+04]
 [ 1.15379325e+04]
 [-2.65279609e+04]
 [ 4.80635574e+04]
 [-1.43605147e+04]
 [-2.92589394e+04]
 [-6.12765425e+03]
 [-2.15596118e+04]
 [ 2.54561250e+03]
 [-7.16391242e+03]
 [ 5.67054525e+04]
 [ 2.02970218e+04]
 [ 4.79013796e+04]
 [-3.31122544e+04]
 [ 4.41792555e+04]
 [-2.71416415e+04]
 [-2.68790672e+04]
 [-2.56806358e+04]
 [-3.04294110e+04]
 [ 3.26914172e+04]
 [ 1.57519454e+04]
 [ 1.53798924e+04]
 [-2.10253954e+02]
 [-2.71076107e+04]
 [ 2.89306424e+04]
 [-3.01637749e+04]
 [-2.07803201e+04]
 [ 4.48013451e+04]
 [ 3.89644602e+04]]
