[[-3.74667668e+04]
 [-1.18736784e+04]
 [-3.27771901e+04]
 [-3.48864590e+04]
 [ 6.39837464e+02]
 [ 2.70934248e+04]
 [-3.84208238e+04]
 [ 9.06099638e+03]
 [-2.88240007e+04]
 [ 1.14200541e+05]
 [ 1.47330935e+04]
 [ 1.51376681e+02]
 [ 1.75521897e+04]
 [-3.70448954e+04]
 [-5.03244719e+04]
 [ 1.15816117e+04]
 [-1.79850642e+04]
 [-5.15053517e+04]
 [-5.22990586e+04]
 [-1.50883427e+04]
 [-3.51287686e+04]
 [-4.38610471e+04]
 [ 3.65685898e+04]
 [ 6.26014241e+04]
 [-3.31534766e+04]
 [ 2.18408210e+04]
 [-5.37117976e+04]
 [ 2.26003397e+04]
 [ 2.13082790e+04]
 [ 2.85111622e+04]
 [-1.52417416e+04]
 [ 1.15026829e+05]
 [-7.88682488e+03]
 [ 8.67007100e+03]
 [ 1.16527589e+05]
 [-4.18508978e+01]
 [-3.86401124e+04]
 [ 1.35278460e+05]
 [ 1.88831845e+04]
 [ 1.47430993e+04]
 [ 1.43506281e+04]
 [-4.41813427e+04]
 [-7.71255405e+03]
 [-2.09985595e+04]
 [-2.09294703e+04]
 [-1.70007074e+04]
 [-4.64141352e+03]
 [-4.49467973e+04]
 [-4.77926512e+04]
 [-1.58036687e+04]
 [ 5.58343159e+04]
 [ 3.61299301e+04]
 [-4.63431034e+04]
 [ 1.31061491e+05]
 [ 2.88880252e+04]
 [-3.60139656e+03]
 [-3.88261165e+04]
 [ 1.64316876e+03]
 [-4.69001962e+04]
 [-1.16671166e+04]
 [-1.70637042e+04]
 [-1.20204828e+04]
 [ 4.67037034e+04]
 [-2.35150989e+04]
 [-3.46322744e+03]
 [-4.51868626e+04]
 [-2.44668968e+04]
 [-3.71470912e+04]
 [-7.46892091e+03]
 [ 2.26894694e+04]
 [-4.84802993e+04]
 [-4.76609830e+04]
 [ 1.12998957e+04]
 [-4.65864834e+04]
 [-2.35892311e+04]
 [ 4.65071363e+04]
 [ 1.12314656e+05]
 [ 3.52469468e+04]
 [ 1.22814265e+04]
 [-2.43677543e+04]
 [-1.26320937e+04]
 [-3.32445208e+04]
 [-9.54629280e+03]
 [-3.62870184e+04]
 [-3.66289592e+03]
 [-2.16191991e+03]
 [ 4.97441673e+04]
 [-3.58390795e+04]
 [-2.99653052e+03]
 [-2.47955945e+04]
 [ 2.67555690e+04]
 [ 9.19634959e+04]
 [ 1.65151612e+04]
 [ 1.37541286e+04]
 [ 6.48066519e+03]
 [ 2.47099594e+03]
 [-5.21981564e+04]
 [-2.69748423e+04]
 [ 8.26116186e+03]
 [ 4.03937400e+04]
 [ 5.53126249e+04]]
