[[ 29810.33662684]
 [ -6906.68473499]
 [ 66004.59991736]
 [-26130.63263269]
 [ 11722.20235707]
 [ 30432.42692707]
 [ 93012.38377108]
 [ 22016.97405722]
 [-34831.8890489 ]
 [-29745.32339417]
 [-50187.6004868 ]
 [-44037.66164282]
 [ 13152.80632626]
 [-11409.04177045]
 [ -5438.8139213 ]
 [ 50311.22388709]
 [  -928.85886178]
 [ 78678.43023819]
 [ 43870.66169658]
 [-39034.89904123]
 [-10026.01419772]
 [-23527.4955163 ]
 [-46149.44333097]
 [-17518.33232874]
 [ -4700.31455282]
 [ -2231.58975327]
 [-12465.58001559]
 [-36148.02477188]
 [-17750.92484975]
 [  9790.02948865]
 [ -6402.28116033]
 [ 32116.93452847]
 [ 26672.97924999]
 [-34474.85154308]
 [ -7902.20765878]
 [ 37896.77704136]
 [ 47835.33160987]
 [ 14554.58464669]
 [ 33332.72201546]
 [-25224.34995213]
 [-14506.13175455]
 [-22925.70602345]
 [-41925.71509221]
 [ 14069.06850113]
 [-25520.62472271]
 [ -9149.23260809]
 [ 42265.66936278]
 [ 37648.10987345]
 [-42067.43832656]
 [-38976.55133652]
 [ 14785.65098235]
 [  8930.31884152]
 [131595.61430473]
 [-18181.53250592]
 [ 55132.50162689]
 [ 10488.10278573]
 [-45062.60219813]
 [-49005.16811867]
 [ 15188.81853069]
 [ 13361.70790839]
 [ 16051.58368093]
 [-47448.30699535]
 [ 11121.51181854]
 [-37177.38947527]
 [-22037.16292757]
 [   606.65317093]
 [-31223.6036347 ]
 [-15667.39000064]
 [ 39654.93900386]
 [-39510.87149873]
 [ -4064.02436869]
 [-45040.49647364]
 [ -1461.0759219 ]
 [ 22093.45748561]
 [-18323.6933239 ]
 [  5076.18730562]
 [-37270.07934712]
 [-49679.54313396]
 [  1543.50372447]
 [-24831.63965892]
 [-30328.49313207]
 [ 16412.68569048]
 [-25139.63560319]
 [-13734.91848312]
 [ 32625.45063695]
 [ 27905.03762401]
 [ 93145.71956867]
 [-42848.40526871]
 [-26255.9240718 ]
 [  9469.13471943]
 [ 54595.99391318]
 [ 21752.31852008]
 [  3271.84580919]
 [ 16621.90287384]
 [-21271.13122137]
 [-28065.53027882]
 [-16948.94690474]
 [  4967.82777813]
 [-23448.05918573]
 [ 40677.11833637]
 [ 51662.67000985]]
