[[-17227.37159015]
 [ 20937.22424751]
 [ 76928.87215479]
 [ 22154.09358737]
 [-32140.06590977]
 [ 17014.32698524]
 [  5778.66075284]
 [ 15005.76830779]
 [-36392.45099416]
 [ 21011.0496671 ]
 [ 31176.14041167]
 [  7528.88883705]
 [-39184.2985858 ]
 [-28555.60221725]
 [-40250.2244054 ]
 [-38659.97146606]
 [-31702.12374733]
 [-18386.45894615]
 [  5580.11495887]
 [-11964.86360186]
 [ -2423.17017361]
 [-33318.3943639 ]
 [-31329.16741365]
 [ 34048.10780472]
 [  5282.23327842]
 [  6279.50934259]
 [ -5933.65842784]
 [-26713.29688381]
 [ 44032.34636946]
 [-10357.74652666]
 [-28781.70445182]
 [-35984.42147684]
 [ -8568.93027589]
 [ -5754.25145487]
 [ 27543.25782897]
 [ 52386.61710303]
 [-39435.61544493]
 [-10164.7692225 ]
 [-36056.87975263]
 [-32555.58593642]
 [ 43769.7403893 ]
 [-26376.89437421]
 [  9099.13175827]
 [ -8274.00649091]
 [ 12659.57037477]
 [ 39873.5757627 ]
 [-39446.83667443]
 [ 10587.25466453]
 [ 32062.57650678]
 [ 42318.60472332]
 [ 84541.01844431]
 [  1982.4525805 ]
 [-24036.14645383]
 [-22942.69479613]
 [-41280.87373326]
 [  4986.19476172]
 [-33442.93024766]
 [ -1803.02296303]
 [  7342.76831348]
 [ 41398.15412243]
 [  1773.54767452]
 [ 41895.91681266]
 [ 62167.12958467]
 [ -4726.99413951]
 [ 44531.60454851]
 [-30520.47928163]
 [-29477.93080074]
 [ 36378.01726647]
 [ 92523.13108119]
 [ -7738.15834721]
 [-22795.12990991]
 [-33087.47833971]
 [ 34907.84700553]
 [-26690.53521935]
 [-41206.69423742]
 [-10595.97834251]
 [-31201.64039232]
 [ 42524.59852695]]
