[[ 54454.20759173]
 [-15097.0115086 ]
 [ -9193.86476617]
 [ 30939.39297797]
 [-38147.05758412]
 [ 23189.93317688]
 [-22130.57549251]
 [-13731.46403393]
 [-38371.96765075]
 [-22524.02868673]
 [  6564.94946476]
 [  1684.28696549]
 [  5606.50737334]
 [  2224.83974475]
 [ 11045.72136112]
 [ -6912.40402169]
 [-21284.38350426]
 [-25961.77598351]
 [ 63108.77404733]
 [ 24357.90038607]
 [-27225.04999927]
 [-37789.48294894]
 [  -499.86265345]
 [-43512.03022965]
 [ 45115.49105824]
 [-40561.6294933 ]
 [-40237.17178447]
 [-17240.27455266]
 [ -4828.11334371]
 [107185.4961606 ]
 [-41179.19614631]
 [-10925.26445163]
 [ 17186.91343383]
 [-10263.70517486]
 [ 39791.76535909]
 [-31940.60579609]
 [ -7890.31349578]
 [-38102.88367535]
 [ 53701.65409285]
 [-20987.92681225]
 [ 19599.81049756]
 [ 32641.96984795]
 [-37396.00812615]
 [-29618.9846432 ]
 [-38653.79006921]
 [ 12951.49839226]
 [ 31921.49848759]
 [-16385.99118449]
 [  4017.37812402]
 [-22884.7252253 ]
 [ 24955.0469549 ]
 [102716.53082079]
 [-12555.01156828]
 [-10479.47477143]
 [ 51608.25578848]
 [-12057.79272956]
 [ 43917.23770952]]
