[[ 31752.86226559]
 [ 19393.9362961 ]
 [-25716.54575699]
 [-32393.90124383]
 [  2358.04689135]
 [ 14723.28679739]
 [-35045.68996392]
 [-18387.69590749]
 [-15755.82923017]
 [  3306.15962535]
 [-20095.07300715]
 [ 66043.786385  ]
 [ 26808.82030441]
 [ 66304.59874038]
 [-14749.45476028]
 [-33633.10714767]
 [-16429.62986074]
 [-37438.07420509]
 [-20347.67465946]
 [-36462.46260398]
 [-36391.87639484]
 [-17712.03756477]
 [  5678.87109454]
 [-13754.05477887]
 [-27651.73761113]
 [-17284.70832249]
 [ -8824.96205067]
 [ -7097.20400998]
 [-13915.32566324]
 [ -3503.05152649]
 [  8367.27380133]
 [ 35207.11938863]
 [ 13090.05890579]
 [-33984.95012482]
 [ 25211.10800055]
 [ 12539.42396921]
 [-14107.77472074]
 [  8625.25989817]
 [-32685.03429842]
 [  6727.68061162]
 [-25143.27806024]
 [-34980.35922971]
 [-19125.11411232]
 [   250.4335448 ]
 [ 16935.60368496]
 [-12171.91852654]
 [ 42972.93400846]
 [ 72954.07779993]
 [-20531.42126341]
 [-31503.61769202]
 [-24899.84472218]
 [  5809.22446696]
 [-28208.0424976 ]
 [ 24633.87481607]
 [-17619.35915731]
 [110637.56117497]
 [  7054.17205902]
 [ 50422.05893461]
 [-13775.39029193]
 [ -2726.54597078]
 [ 11902.71645233]
 [ 13654.45402517]
 [-37890.3194405 ]
 [-33858.69953285]
 [ -2006.96571114]
 [ 14136.42198597]
 [  5886.49427465]
 [ 14637.02757689]
 [-12924.06393058]
 [-25302.70238371]
 [-15395.61599399]
 [-16219.46919454]
 [ 66665.53650548]
 [-25338.18202632]
 [-27440.99992268]
 [-17090.61263744]
 [  6210.33274081]
 [ -4173.48560797]
 [-31029.11708675]
 [ 22042.55385352]
 [ -1360.05571204]
 [-17260.97948738]
 [ 24711.90355349]
 [ 26384.60937189]
 [ 18347.12927657]
 [ 14062.06009998]
 [ 48801.82030346]
 [ 80624.21338505]
 [-26203.17522979]
 [  6794.74360815]
 [ -5276.72468131]
 [ -3716.74860663]
 [-15325.77766727]
 [ 26994.48376413]
 [-13838.02909246]
 [-17939.83797175]
 [ -2443.99613558]
 [ 28236.59041517]
 [-13401.06490522]
 [ 21588.04523726]
 [ 40869.6806166 ]]
