[[ 22338.53076548]
 [ 31224.31964176]
 [ -9432.16857848]
 [  3473.73015242]
 [-16426.942656  ]
 [-16613.98212168]
 [-21775.18034323]
 [-19764.58917527]
 [-10571.223256  ]
 [ 15216.83576308]
 [ 53297.8238426 ]
 [-34204.93692666]
 [-26197.96091919]
 [-24774.77796423]
 [-37019.00392364]
 [-30309.80833852]
 [-24566.29289109]
 [-12254.0114623 ]
 [-10739.63689533]
 [ 17762.34826632]
 [ 26993.98723929]
 [-34639.45293887]
 [ 87558.1577083 ]
 [ 14300.69281666]
 [ 22915.08644576]
 [-19655.51966637]
 [ 17250.83527099]
 [ -9984.67093099]
 [ -3343.3221428 ]
 [-22341.29937177]
 [  8600.56472356]
 [  4086.24881935]
 [ 92036.3386821 ]
 [-39754.76049691]
 [ 12152.91983659]
 [  6058.41344296]
 [ -4701.70717602]
 [-18403.14396286]
 [ 44857.89080001]
 [-11925.58064483]
 [-30714.56747897]
 [-21852.36091702]
 [ 17611.23936025]
 [  -558.02934517]
 [ 25586.26145707]
 [-39025.197365  ]
 [ -1580.97663742]
 [-38326.22974598]
 [ -8018.64048741]
 [-13629.71112827]
 [-29492.8771083 ]
 [  7556.18701775]
 [ -4987.57812262]
 [ -8452.71945802]
 [  4632.89379981]
 [-10675.2499467 ]
 [ -4481.53481753]
 [  9280.94388621]
 [ 21175.05524398]
 [-33650.12537217]
 [  1951.78731261]
 [ 20320.78764326]
 [-13350.69797524]
 [  4364.59176971]
 [ 29829.91136868]
 [-29236.43780611]
 [ 30066.74056042]
 [ 42981.98532932]
 [-14910.09599869]
 [ -1690.59615001]
 [-24286.12711036]
 [-38491.89762521]
 [ 55916.59636955]
 [  6152.94878389]
 [ 19767.88617485]
 [-38587.00063992]
 [ 32191.66416729]
 [-12845.04598356]
 [  2852.68540785]
 [ 38468.16728038]
 [  3983.94554917]
 [-27547.85290752]
 [  2623.79620218]
 [ 17945.35303193]
 [ 17879.90187562]
 [-25538.43737609]
 [-12949.4054018 ]
 [ 37700.3502321 ]
 [ -9396.25828257]
 [-28566.65233932]
 [ 12987.62237882]
 [ 28865.48533422]
 [-28232.42814045]
 [ 17931.57342964]
 [ 19723.6192667 ]
 [ 39961.03910789]]
