[[-3500.98372343]
 [-1100.61931675]
 [ 3814.55479006]
 [-1714.5476091 ]
 [-5903.16750926]
 [ 1476.96414938]
 [-3757.48751303]
 [-4795.75162052]
 [-1134.37285621]
 [-3188.98100258]
 [-1641.06482757]
 [ -152.33707754]
 [ 2655.62579684]
 [-4996.70294678]
 [ 8356.06642104]
 [ 2590.22638585]
 [ 9604.65052255]
 [-6176.38460725]
 [-4982.94694152]
 [-3309.3273034 ]
 [  290.02841588]
 [ 6783.23602423]
 [  781.65927743]
 [-1951.59817064]
 [ -839.24132287]
 [  824.53345725]
 [ 3263.38893263]
 [-4031.79084877]
 [-5933.26749827]
 [-1115.93874852]
 [-5606.48530966]
 [ 5121.84046826]
 [-2749.82586148]
 [ 3520.4858036 ]
 [  605.57709396]
 [-6566.83649439]
 [ 4553.30769644]
 [-3949.25777646]
 [12709.95691232]
 [ -778.34193536]
 [ 2763.5334279 ]
 [ 4418.86633135]
 [ 9348.07185224]
 [ 1666.09951328]
 [ 3981.20990998]
 [-1894.33100468]
 [ 1143.76382421]
 [ -275.47043305]
 [  433.68123128]
 [ -157.22791824]
 [-5743.95631852]
 [-3359.56012081]
 [-1111.20239707]
 [ 4333.89926053]
 [ -846.77376307]
 [-2377.93591001]
 [  365.97458821]
 [ 1564.15835812]
 [-2072.32103309]
 [-3518.36771493]
 [ -369.77332678]
 [-1900.48676126]
 [-4459.70392317]
 [ 5237.95459054]
 [ 6057.78428154]
 [ 8259.16037781]
 [10200.28963525]
 [-3998.51293078]
 [16037.51620306]
 [-3595.07358892]
 [-2510.37939311]
 [-3673.82266322]
 [  438.25237831]
 [-3347.25918065]
 [ 3640.17146962]
 [-2072.52947977]
 [ 1489.76587173]
 [ 3305.99685518]
 [ -293.50320816]
 [ 2747.04918234]
 [  161.62576288]
 [-3162.95729304]
 [ -251.71939406]
 [-3801.16131845]
 [-5260.75759625]
 [-1274.60537144]
 [-4885.04491673]
 [ -486.98191126]
 [-2437.90801422]
 [-1884.52141703]
 [  848.20412855]
 [-3448.30542813]
 [-5932.05002035]
 [-4504.76495841]
 [ 1658.83294379]
 [ 1542.7119212 ]
 [ 2088.5399027 ]
 [-4766.43736275]
 [ 6835.90801492]
 [ 2031.54092853]
 [ 6665.53144174]]
