[[-36514.92842305]
 [-31182.01938477]
 [ 54080.41177631]
 [-20835.34654765]
 [  7606.35267781]
 [-40660.13777189]
 [ 56759.72707817]
 [ 60248.66468365]
 [ 46107.255985  ]
 [ -4740.28895393]
 [ 22878.16797402]
 [-34606.52119046]
 [-28559.12433242]
 [ 49528.25375742]
 [-25003.30669094]
 [-35089.80374063]
 [-14565.34026501]
 [ 11796.42839338]
 [-33668.99650044]
 [ 69128.20121149]
 [ 34926.2227305 ]
 [-42144.16718986]
 [  5323.28835862]
 [ 45204.70394673]
 [ 32129.24655923]
 [-14028.21154532]
 [-18149.92223457]
 [-18634.25166473]
 [ 10751.97044971]
 [ 37910.43573866]
 [-38042.03587703]
 [-29147.52385456]
 [-31126.9945861 ]
 [-35147.92754697]
 [-29287.65980834]
 [-15683.58713277]
 [-25956.56854019]
 [ 41787.43716741]
 [  2522.99374001]
 [ 21213.00362537]
 [ -7886.70376662]
 [ -6276.25558288]
 [ -9721.64690484]
 [-40988.47525509]
 [-36281.05633442]
 [-17074.81490664]
 [-35073.90401319]
 [ 72188.08484263]
 [ 11955.37783642]
 [-40201.60001154]
 [-18592.81425305]
 [ 52235.20431635]
 [ 42803.17529057]
 [ 29892.4818365 ]
 [ 40960.50782097]
 [ 15133.32262286]
 [ 19139.32582871]
 [-13790.95321907]
 [  7124.31314093]
 [ 12722.45370013]
 [-25790.79305045]
 [-29389.63002199]
 [ 24005.37318997]
 [ 12820.5871538 ]
 [-20368.07609708]
 [  4738.6673795 ]
 [-33722.46129608]
 [-32757.01555498]
 [ 24043.38429781]
 [ 15005.14376977]
 [-23709.44002237]
 [  -269.86480848]
 [ 42515.70220663]]
