[[-14490.30921267]
 [ 69955.54626332]
 [-29976.71109248]
 [ 58980.60881459]
 [ -4522.79206174]
 [-25669.69060012]
 [ 18379.46755973]
 [ -5516.15567999]
 [-30934.47896465]
 [-34753.53141678]
 [ 15510.72481644]
 [-34877.11099591]
 [ 14028.70825662]
 [-38812.11075065]
 [  7895.9964382 ]
 [  1873.05389173]
 [-22444.36642937]
 [ 63380.20432578]
 [-47538.21055103]
 [-29304.27592738]
 [-12783.75698616]
 [-18940.00458993]
 [-47282.07466998]
 [-44331.41321075]
 [-25057.35026299]
 [ -4011.24151907]
 [  7422.72929591]
 [ 33797.37458251]
 [-30472.39715138]
 [ 11866.98686162]
 [ 87585.35681722]
 [-44961.20618287]
 [ 58938.61379103]
 [ 11305.41435891]
 [-30355.9097434 ]
 [-17481.67326042]
 [ 64236.08392248]
 [-15075.66774162]
 [-37118.30999084]
 [-38745.67556731]
 [ 10110.96968081]
 [ -1505.58706559]
 [  3435.68914809]
 [ -8296.69517027]
 [  2644.61561384]
 [-12760.69761949]
 [-23331.12796587]
 [ 56777.79147126]
 [ 10589.41061548]
 [ 53896.89272579]
 [ 42015.166476  ]
 [-32686.47100726]
 [  6519.79644298]
 [-22285.63620807]
 [110232.89868333]
 [-35057.46125763]
 [ 48150.58494671]]
