[[ 45886.68389296]
 [-12656.87089225]
 [-23743.49930772]
 [  1118.4210426 ]
 [ 57772.90501715]
 [ 25995.37690955]
 [ 55630.65083506]
 [-25926.80460577]
 [-32432.59631195]
 [ -6654.65263289]
 [-38031.39014079]
 [-12607.01090587]
 [ 22131.20295716]
 [-20998.77006582]
 [-10864.85612853]
 [-29775.2425932 ]
 [ 42245.05554826]
 [ -9172.73395935]
 [ 32365.96555343]
 [ -2114.87433018]
 [ 10704.7514468 ]
 [ 26695.76434473]
 [ 25354.80959267]
 [ 57242.05759987]
 [-30150.38825488]
 [-20634.45591737]
 [  7521.69156907]
 [  1517.43371797]
 [ 24696.79036016]
 [ 53132.97603751]
 [-31451.14844762]
 [ 15236.18250149]
 [  6191.54916689]
 [ 27801.91772265]
 [-29505.70868717]
 [ 38534.95995164]
 [-18317.09063231]
 [ 14862.98078931]
 [ 44566.12520205]
 [  4509.30096377]
 [  5801.86582482]
 [ -9911.65136708]
 [-15435.40773245]
 [-11385.53961622]
 [-16940.21529666]
 [-11438.60364053]
 [  2795.77580945]
 [-36329.67941033]
 [-20917.50722894]
 [-17256.64480333]
 [ 13028.36615138]
 [ 38044.19438317]
 [-15522.29609759]
 [   492.5060568 ]
 [-29299.11850106]
 [-15670.42937053]
 [-32560.57728678]
 [  3297.41614627]
 [-35240.06008078]
 [ 16278.84572906]
 [-31057.11771107]
 [-35187.18011242]
 [-34188.6888604 ]
 [-28423.0689795 ]
 [ 12150.73558568]
 [  1436.16864314]
 [ 16875.92768561]
 [-27892.57363711]
 [ 27777.09880831]
 [ 40394.89858817]]
