[[ 64070.23501922]
 [-26857.26093129]
 [ 33400.00269165]
 [ -2800.33399733]
 [-32578.93654996]
 [ 29698.99536334]
 [ 11621.94818557]
 [ -8557.74030152]
 [ 17953.42693047]
 [ 35947.80623109]
 [-23735.63879891]
 [-40626.45455699]
 [-28919.60415738]
 [ 27852.43511245]
 [ -8550.51795443]
 [ 15332.65423124]
 [ 41874.06488365]
 [-24263.42316806]
 [ -4504.82846667]
 [-30465.35719755]
 [-30676.76460342]
 [-29294.08088513]
 [  4554.05640897]
 [  8281.00470467]
 [ -2460.2425396 ]
 [ 45561.05474004]
 [ 31847.67954089]
 [ 34541.20310621]
 [ 40582.79020985]
 [ 38521.48381667]
 [-21595.39522951]
 [  3925.98934417]
 [-40427.7834333 ]
 [-37317.86676728]
 [  -658.7869662 ]
 [ 47058.29398742]
 [ 26163.84598063]
 [-36577.19316818]
 [-17910.82904634]
 [-23744.11161225]
 [  7100.23444903]
 [ -6127.58351628]
 [-29645.07780149]
 [ 26186.45103027]
 [ -8610.77201635]
 [ 15032.82191156]
 [-34746.91952314]
 [-39278.59808412]
 [-39199.36597989]
 [ 14291.8259711 ]
 [ 47823.69199975]
 [-16801.90107876]
 [ 10536.63702934]
 [-33804.29238157]
 [ -8129.54828802]
 [ 19015.9555574 ]
 [ 15091.54893303]
 [-25000.92836876]
 [ 41323.98936498]]
