[[ 1.02013041e+04]
 [-1.37155251e+04]
 [ 3.52342946e+04]
 [ 6.59883445e+04]
 [-1.09134201e+04]
 [ 5.31665745e+03]
 [-3.90397490e+04]
 [ 4.13664665e+04]
 [-1.85123899e+04]
 [ 1.35873447e+04]
 [-3.34204489e+04]
 [-3.35268503e+04]
 [ 6.04672497e+01]
 [-3.54791920e+04]
 [-3.15353373e+04]
 [-2.76145944e+04]
 [ 5.80606486e+04]
 [-1.51268123e+04]
 [ 3.38857523e+04]
 [ 1.83538858e+04]
 [ 1.92047646e+04]
 [-1.84966808e+04]
 [ 1.45825957e+04]
 [-3.90656773e+04]
 [-1.70139043e+04]
 [-3.78181432e+04]
 [ 4.30958681e+03]
 [-2.87951360e+04]
 [-7.64011523e+03]
 [-4.93034527e+03]
 [-3.32556856e+04]
 [ 1.71756854e+04]
 [-9.83441948e+03]
 [-2.58640439e+04]
 [ 2.00228189e+04]
 [-4.12662049e+04]
 [ 2.10569377e+04]
 [ 1.18318006e+04]
 [-3.01113610e+04]
 [ 1.95675048e+04]
 [ 2.10000650e+04]
 [ 1.31871083e+04]
 [ 5.95382537e+04]
 [-1.71980284e+04]
 [ 1.03606939e+04]
 [ 2.13392366e+04]
 [ 2.58886651e+04]
 [-3.16621443e+04]
 [ 3.58948181e+03]
 [-4.11197386e+04]
 [ 1.39688781e+04]
 [ 7.84148386e+04]
 [-1.40984091e+03]
 [ 1.75119880e+03]
 [-1.07154097e+04]
 [ 1.28670586e+04]
 [-4.89293503e+03]
 [ 3.65440854e+04]
 [-3.57996066e+04]
 [ 2.80744755e+04]
 [-3.91615686e+04]
 [ 3.17790217e+04]
 [-3.31746132e+04]
 [ 4.21131592e+04]]
