[[-39475.26633743]
 [-49635.5243334 ]
 [ 90667.12757528]
 [ 24777.38088022]
 [-18045.3420401 ]
 [ -3644.22398849]
 [ 85562.4913986 ]
 [-55315.19150964]
 [ -3451.24139226]
 [-10717.35373114]
 [-16909.02774692]
 [-37749.68921845]
 [ 20465.17803611]
 [ 25642.00524888]
 [ 51845.11197698]
 [ 39161.24842343]
 [-22853.86936122]
 [101175.24280121]
 [-31265.62760411]
 [ 25768.2648704 ]
 [ 46576.80430384]
 [-44821.51597781]
 [ 12391.6053046 ]
 [-41910.90648646]
 [  4363.61375188]
 [-17405.70596779]
 [ 14469.58004597]
 [-20819.51329154]
 [-31413.63838463]
 [-35621.18932558]
 [-18359.67642   ]
 [ 10592.41691211]
 [-36944.12446672]
 [  3172.80099557]
 [-20297.24175744]
 [ 45504.94908751]
 [-41451.97428978]
 [-15888.96464196]
 [ 80197.31773473]
 [ 28537.77406608]
 [ 17413.57742147]
 [107604.81547939]
 [-47814.56630484]
 [ 44686.72655603]
 [-26149.98891587]
 [-32707.17584419]
 [ -7635.22600562]
 [   898.60693078]
 [  8929.20680325]
 [-56931.18919301]
 [ 39972.99622136]
 [-42131.81242075]
 [ 30366.51754823]
 [-30155.0603858 ]
 [ 19893.91650479]
 [-48839.14006989]
 [-16396.44359834]
 [ 78721.19132291]
 [ 54874.23812399]
 [ 90217.64924401]
 [-50921.37644539]
 [-15902.01795593]
 [-46528.94012269]
 [-23914.43021936]
 [ 23539.33483348]
 [-17319.05647264]
 [-50054.07953127]
 [ 32710.84767216]
 [-40919.18682324]
 [-53671.6767936 ]
 [ 80794.35686323]
 [ 59614.04431767]
 [-33622.81877395]
 [-61806.74189909]
 [ -1074.2298256 ]
 [ 64395.29806095]
 [-11558.06792477]
 [-36380.67871989]
 [-35594.27411732]
 [-19535.87448055]
 [-31137.36023587]
 [-29875.06923207]
 [ 56295.11210382]
 [ 16500.76109313]
 [-26736.30177985]
 [-52028.66309574]
 [ 62347.13515537]
 [-14613.66710255]
 [ 72205.5980205 ]
 [-28675.7141761 ]
 [-19595.50736282]
 [ 45360.62495948]
 [-14954.06208676]
 [-53228.40919027]
 [  4287.57324326]
 [-14920.79523667]
 [-44714.83608664]
 [-44794.90708122]
 [  9779.08584848]
 [ 64556.02604185]
 [ 68579.69049361]]
