[[-2564.86100735]
 [-2653.34155145]
 [-1416.73395261]
 [13739.46814271]
 [-4347.09501156]
 [ 2846.03774766]
 [-2250.19455614]
 [-2851.75585311]
 [ 2606.17783626]
 [-3730.54140825]
 [ -126.14042302]
 [-5961.42038834]
 [ 1139.49285788]
 [-2258.91141479]
 [  788.89544206]
 [ 2442.04503303]
 [-7044.75349228]
 [ 4401.65656487]
 [-5209.30077008]
 [-3127.36994792]
 [ 4737.25259658]
 [-3038.98652528]
 [-5657.88438907]
 [ 5664.89588832]
 [ 1241.41021867]
 [ 7399.49394261]
 [-1953.86364929]
 [ -258.63968463]
 [-3888.27117965]
 [12141.57830493]
 [ 3001.83751478]
 [-7092.16045329]
 [ 6953.59744314]
 [-1006.02299902]
 [ 1817.74597615]
 [  127.14981829]
 [-1812.41098434]
 [10291.53456994]
 [ 3500.10934634]
 [-2407.17473664]
 [10002.45022139]
 [ 3321.5756469 ]
 [-1778.50541892]
 [ 2754.7215296 ]
 [  852.46337864]
 [-6734.63404617]
 [-3536.30086489]
 [ 1673.89473601]
 [-2143.73817164]
 [-5977.87626113]
 [-6071.33022752]
 [-6325.26919181]
 [-3528.85207279]
 [ 5713.45736491]
 [-1906.01811209]
 [-6773.47344355]
 [-5045.57146599]
 [ 5472.10876544]
 [ 5041.73523275]
 [-3406.58445332]
 [-1102.27354187]
 [ 2761.81859189]
 [-1980.08720068]
 [12268.25776814]
 [ 5905.04065304]
 [-4494.38574586]
 [-2932.90961609]
 [ 2581.33155023]
 [-6276.26994565]
 [-5909.69063791]
 [-2026.60951408]
 [-2075.41873396]
 [-6220.51993954]
 [-4226.73031073]
 [ 2443.31043802]
 [ 4608.38943622]
 [15380.55411729]
 [-4456.25923498]
 [-4322.83127885]
 [  634.44186904]
 [-2366.87008282]
 [-6008.65375135]
 [  -66.68861499]
 [ -566.03315562]
 [ 2090.59651597]
 [ 2855.00393657]
 [ 1101.84734523]
 [ -102.29610809]
 [-2176.19616329]
 [ 3683.45048348]
 [ 4136.26076507]
 [-1138.41291292]
 [-3516.09555338]
 [-6576.00874491]
 [ 6180.00424785]
 [ 3070.82170065]
 [-4040.77872508]
 [ 1904.37671321]
 [ 2165.09540941]
 [ 3024.61995943]
 [ 7233.58389215]]
