[[ 24523.32827087]
 [-12525.28668787]
 [-19620.66041243]
 [ 52659.01986931]
 [-36819.9379632 ]
 [ 10674.52559017]
 [ 38956.44269921]
 [  5757.95594765]
 [-14049.21866826]
 [ 20375.09307816]
 [ 18503.04551944]
 [-18102.31685914]
 [ 19763.4585334 ]
 [-33541.48170298]
 [  7661.49779931]
 [-34321.95472141]
 [-31480.35623465]
 [-36103.10852088]
 [-35193.42800514]
 [ 40840.64005048]
 [-30369.60466147]
 [ 59352.44824803]
 [ 45505.1962957 ]
 [-12742.43913747]
 [ 20592.81708603]
 [-25348.00369623]
 [ 10099.51423047]
 [-18258.4895115 ]
 [ 19454.08491377]
 [-37448.06503262]
 [-37937.20116544]
 [-23801.26590132]
 [-36816.52465956]
 [  2257.6135863 ]
 [ 43661.82311639]
 [ 11074.60057629]
 [ 59983.17374174]
 [ 10490.1609105 ]
 [ -2683.4215029 ]
 [  6873.69597541]
 [-36904.4264549 ]
 [-30852.58360683]
 [  5734.04475526]
 [-35498.17652745]
 [-18905.65933273]
 [-14259.72779811]
 [ -5083.61661414]
 [  6758.40367462]
 [116411.51454068]
 [ -4983.11281903]
 [-20936.68130215]
 [-25489.36282006]
 [ 32112.0133107 ]
 [ 39937.91143042]]
