[[-27151.61917584]
 [  5458.76027751]
 [ 82662.18473336]
 [ 15215.75494301]
 [  5783.58788677]
 [-40451.52021406]
 [-43736.62105323]
 [-12737.45510488]
 [ 14447.36467679]
 [-16806.92190694]
 [-16503.76954541]
 [ 78830.81932535]
 [ -3134.49696004]
 [-15531.85247359]
 [-30173.96986765]
 [ 58397.00357333]
 [-23018.32588186]
 [  2511.75791087]
 [-34908.20847697]
 [ 41979.80812003]
 [-29776.63125003]
 [ -9038.68547843]
 [ 23051.656702  ]
 [ 35763.47211598]
 [ 38559.67707597]
 [ -3222.06106879]
 [-32095.46282279]
 [ 36140.72025067]
 [ 26754.51724281]
 [ 60754.43109213]
 [-39892.92430768]
 [  1155.75658948]
 [-20668.03465852]
 [129924.70142545]
 [ -8729.28402589]
 [  8087.53797678]
 [-36609.63289311]
 [-20575.7838602 ]
 [ 27002.27251184]
 [-25263.26607847]
 [ 10587.61326671]
 [  6803.89999412]
 [  7102.95573613]
 [ 30770.43452204]
 [-17906.02212339]
 [ 19940.3484883 ]
 [-15885.10001802]
 [-36644.10753392]
 [-21419.5401713 ]
 [  4450.51139918]
 [-39791.44232132]
 [-39338.9998471 ]
 [  5735.77106945]
 [-16382.49062736]
 [ 29726.67637988]
 [ 42221.94353933]
 [ 95557.35323502]
 [-15121.901191  ]
 [ 20643.01816326]
 [-35066.4620746 ]
 [-30554.470646  ]
 [-15244.11715767]
 [-23822.98472274]
 [ 18452.41548482]
 [ 28817.20385406]
 [-27426.04106814]
 [  5523.67554684]
 [-35837.92126867]
 [-20784.53955316]
 [-26466.94863294]
 [-20296.24414481]
 [-30374.16847015]
 [-11329.42972064]
 [-32518.16202345]
 [ -5862.16712159]
 [ 39518.79544526]
 [ -5039.06615854]
 [ 36385.49301134]
 [ 60073.07744671]
 [-32743.54937928]
 [ 33178.19278964]
 [-41832.57793774]
 [-36586.22165813]
 [ -6176.35121235]
 [ -8559.2197124 ]
 [ 12246.31313991]
 [ -5275.42611772]
 [-22644.05146567]
 [   654.191715  ]
 [-19005.33133086]
 [-20364.51742567]
 [ 51971.4713837 ]
 [-30146.50977722]
 [-15092.93768825]
 [-38773.43158304]
 [ -6383.8107008 ]
 [ 53212.04289005]
 [ 25015.46875401]
 [-16881.76393644]
 [-17466.09805842]
 [ 44725.16918143]]
