[[ 54414.56979012]
 [  5848.50422589]
 [ 34250.88582689]
 [ 50232.86660928]
 [ 56082.3873491 ]
 [ 53092.79583599]
 [ 52733.00155929]
 [ 30487.02612593]
 [-15344.60937223]
 [  -933.39939277]
 [   799.1909786 ]
 [-13018.45190504]
 [-12071.40086153]
 [ 21341.38340224]
 [ 25083.49632641]
 [-11496.54905724]
 [-17608.67465385]
 [-51911.61973318]
 [-38965.83634568]
 [ 57362.12668935]
 [-53994.93336033]
 [-65137.39506939]
 [ 17341.60823395]
 [-21835.31975028]
 [-34244.31072248]
 [ 22160.40217767]
 [-44448.21981853]
 [ 45822.35908543]
 [-11525.23983622]
 [-16643.82142838]
 [ -2549.53811584]
 [ 31223.35497436]
 [-16325.14833424]
 [ 17526.14583959]
 [ -6979.88531471]
 [ 36084.61829513]
 [ 34021.63191087]
 [ -9046.74112702]
 [-21368.72606344]
 [ 14967.44915045]
 [-29747.82961537]
 [-62953.37162226]
 [ 68229.66138677]
 [128982.62447468]
 [  2781.49278211]
 [ 80775.98961424]
 [-47344.20619421]
 [-40694.31602203]
 [ 22022.35789219]
 [-72998.14780949]
 [ 28156.11410993]
 [  8902.89027147]
 [-40691.02308626]
 [-48282.4751167 ]
 [-67746.83427496]
 [ 30473.10489438]
 [ 29018.95122314]
 [ 11826.06529591]
 [-61423.86806342]
 [ -5113.28783631]
 [ 81372.05938377]
 [-34199.97464477]
 [-35569.38095123]
 [ 34292.60967168]
 [ 16893.90623902]
 [ 12660.65610717]
 [ -9605.48016735]
 [ 28765.47818371]
 [-25240.59605897]
 [-60007.58108691]
 [-34199.69879348]
 [  6009.74329693]
 [  5331.18287774]
 [-18998.13201617]
 [-63955.88700658]
 [-58669.65385094]
 [-35667.97371951]
 [-34334.45957203]
 [-13117.77456516]
 [ 26267.51150257]
 [114634.03911548]
 [-70698.3577546 ]
 [-52438.77383421]
 [ 35926.66649467]
 [-10981.46313512]
 [-43641.54080792]
 [   272.49442121]
 [-65306.72365054]
 [-47623.12508488]
 [ 67900.34080729]
 [-58175.03123525]
 [122292.83560127]
 [  2416.62443011]
 [-24284.46965074]
 [ 65325.78202913]
 [  6406.49768592]
 [-34878.84020603]
 [  6908.68466585]
 [ -2282.60560712]
 [ 70600.53445801]
 [ 76542.13592655]]
