[[  -479.93462606]
 [-19056.17132253]
 [-24547.43859637]
 [-30209.19086486]
 [-37262.39886239]
 [ 44828.28257517]
 [ -9059.83376637]
 [  5822.39703539]
 [ -6172.0942725 ]
 [ -4454.35250901]
 [-13818.54140043]
 [-27932.46262678]
 [-14605.93030732]
 [  5611.0057196 ]
 [-26153.44192598]
 [ 27712.55307583]
 [ 26860.11100539]
 [-26854.00339282]
 [-35382.51364407]
 [-38207.8846844 ]
 [ -5649.72294597]
 [ 36141.34858791]
 [ 24781.38488874]
 [-21220.51704471]
 [ 14555.23560566]
 [  4784.0110142 ]
 [ 23213.60645406]
 [ 23223.47417088]
 [-32137.94761702]
 [ 48777.18846215]
 [ 64051.72964146]
 [ 34095.86365567]
 [  6767.55510146]
 [ 37074.65707907]
 [-32674.23492618]
 [ -9025.73106902]
 [ 55739.31813436]
 [ -8580.50679721]
 [ 27077.00978967]
 [-11824.4404628 ]
 [ -4292.67445199]
 [   356.35646305]
 [ 37317.5980736 ]
 [  3932.53595479]
 [ -3376.51509986]
 [-18319.99941836]
 [-15776.50531109]
 [ 19574.42793239]
 [   775.24003829]
 [ 24332.88763071]
 [-35500.77232986]
 [ -2800.62822767]
 [-26339.24748596]
 [-26188.0662656 ]
 [-23558.0618087 ]
 [  4732.51560716]
 [-13246.76775611]
 [ -5637.30913991]
 [-17772.29099078]
 [ -7341.41811519]
 [   921.86123477]
 [-25957.99174836]
 [-25682.97200293]
 [ 32983.66596097]
 [-11677.58542817]
 [-39111.6731764 ]
 [ -3025.83581527]
 [ 10377.76891866]
 [-18380.38177903]
 [-30588.26739755]
 [-16244.75721799]
 [ 48365.2575141 ]
 [ 28160.60272818]
 [ 26165.59846309]
 [ 17201.7393013 ]
 [ 39814.22681389]
 [ 39126.23403768]]
