[[-6903.62488249]
 [ 9646.90164865]
 [ 3189.11612423]
 [ 4047.85512143]
 [-1827.10673005]
 [-7049.36583603]
 [  671.59524062]
 [ 9218.6827724 ]
 [-4125.35018742]
 [-1308.84123811]
 [ 3417.46099119]
 [-5930.16744391]
 [ -963.93624052]
 [-1871.40603033]
 [-4141.29266272]
 [ 4028.59283516]
 [ 1990.40016925]
 [-5446.79892411]
 [-3507.39713977]
 [-2357.86780781]
 [-2412.43173475]
 [-6608.74539473]
 [-3918.97719794]
 [-2598.36393605]
 [-1368.11767593]
 [  261.20419188]
 [11661.2390716 ]
 [ 4466.4781007 ]
 [ 6963.49454103]
 [-4172.56832823]
 [-3351.2653882 ]
 [ 5533.47241432]
 [  896.83669408]
 [-3712.89765765]
 [ 2363.09289799]
 [-2509.54673089]
 [-7115.31839482]
 [ 8545.6363092 ]
 [  560.76519683]
 [ 1507.64835463]
 [ 6704.70108342]
 [ 5238.10862565]
 [12840.03897858]
 [-1864.61916317]
 [ 5103.94614585]
 [ 4639.57317042]
 [-1390.43940503]
 [  632.93019413]
 [ 5074.34109195]
 [ 2823.5528753 ]
 [ 3089.68099029]
 [ -778.1885346 ]
 [14212.79697467]
 [-6615.77805137]
 [ 2405.86268045]
 [-5167.81784758]
 [-5292.77832041]
 [-5763.42952391]
 [ 1290.71486334]
 [ 6843.58726775]
 [  717.43157857]
 [-1974.88616318]
 [-1864.84390593]
 [-7032.91188528]
 [-2929.73197693]
 [ 4930.79804334]
 [ 1274.53572618]
 [ 7730.72449602]
 [ 2404.9379359 ]
 [-1822.51884951]
 [-6662.63608706]
 [ 4857.68301608]
 [ -766.03306711]
 [-5480.29670773]
 [-2019.96222937]
 [-1045.98318262]
 [  546.62111314]
 [ 9743.88467891]
 [-3385.41915184]
 [-4288.97208578]
 [-5912.62031463]
 [-1644.62627006]
 [ -808.14557843]
 [-1775.44929514]
 [-3121.41546001]
 [12133.3413774 ]
 [-4742.73410097]
 [-3159.96066167]
 [ 5915.45983558]
 [ -517.33868599]
 [-6971.13991663]
 [-3511.72793194]
 [-1252.29447929]
 [-2130.48244793]
 [ 3486.11435832]
 [-2856.18279716]
 [-7052.17861919]
 [ 2753.10401194]
 [-4249.32600657]
 [-7310.68752192]
 [ 7583.30693752]]
