[[-23011.03034581]
 [-33288.53096   ]
 [-28605.60470842]
 [  8429.08322671]
 [ 61256.90377179]
 [ 31424.94039232]
 [  8705.87906151]
 [ -3144.25726181]
 [107381.65152595]
 [ 41036.84408041]
 [-10828.59675694]
 [-33064.7143017 ]
 [-37374.79242285]
 [-11658.37758313]
 [ 55845.77797372]
 [ 59173.25204528]
 [ 45048.38317107]
 [  2385.67058169]
 [-27375.29941165]
 [ 17618.70610416]
 [-23550.67224041]
 [-35931.59407404]
 [-32342.01054039]
 [-22271.2933776 ]
 [-40456.51640132]
 [-23750.00932784]
 [-37720.91334053]
 [ 38388.30008583]
 [-10865.42809397]
 [-37455.95775366]
 [-37653.22309693]
 [ 35690.39545386]
 [  8782.11779535]
 [-22278.47852369]
 [-22130.8709777 ]
 [-28040.96539738]
 [ -1545.80494182]
 [ 16291.17967284]
 [-41687.99841932]
 [-25946.81612895]
 [-13778.89352157]
 [ 27862.56563206]
 [ -9190.81571434]
 [ 48699.27736007]
 [-23869.78255728]
 [ 17512.85590371]
 [ -4062.33555274]
 [-14027.27929983]
 [-41401.34117559]
 [-14150.10582205]
 [-27957.48691106]
 [ 39962.04398713]
 [-41031.30465542]
 [ 12608.48410714]
 [ 93971.05586069]
 [-40845.15963666]
 [-16535.39073482]
 [-37866.39269595]
 [-16070.57476451]
 [ 11255.95942326]
 [ 31783.48036452]
 [ 13888.51785655]
 [  5483.71314534]
 [-37055.15887223]
 [ 27509.56183321]
 [  1751.84419617]
 [-26412.43354709]
 [-21244.43204289]
 [-15393.81654528]
 [-38156.06816459]
 [ 20768.42156358]
 [-41814.40469418]
 [  9016.50486936]
 [-15886.31307054]
 [-34073.24771913]
 [ -4235.14742328]
 [101303.21479583]
 [-22524.4502231 ]
 [ 23713.8748497 ]
 [ 40095.07346891]
 [-40809.03205529]
 [-13160.85418476]
 [ 58187.23090796]
 [ 43301.12680543]
 [-39585.75689528]
 [ -5874.85762253]
 [ 35991.56602924]
 [ 59127.19960085]
 [ -3567.463374  ]
 [-33045.82214533]
 [ 42712.30574739]
 [-37853.00371839]
 [-40493.8261002 ]
 [ 23633.92422008]
 [ 67769.6799137 ]
 [ 28584.14044341]
 [ 42876.72510934]]
