[[ 12629.55045068]
 [-28791.26130635]
 [-44391.67005368]
 [-22992.72322096]
 [  9615.55606322]
 [ -7274.09758956]
 [-48552.75833017]
 [ 95257.89814775]
 [ 15815.38991322]
 [ 71132.26349078]
 [ 44251.16906169]
 [ -1278.07453396]
 [  7414.49244301]
 [-14522.34336176]
 [ 41446.00278391]
 [-21349.38784431]
 [-21498.11560113]
 [  1835.55908274]
 [-14794.85008175]
 [-29613.1408189 ]
 [-46644.31164721]
 [ 14608.6176556 ]
 [ 37953.48221148]
 [ 85150.47277809]
 [-28853.25315954]
 [-19255.19339005]
 [-14941.64653188]
 [-15922.87179328]
 [ 29911.8457917 ]
 [  7415.62525015]
 [-12740.29103004]
 [ 80594.96073998]
 [-47169.80280465]
 [-21884.49886968]
 [-46820.02935573]
 [-30501.03863954]
 [ 78710.034847  ]
 [ -7366.95331222]
 [-41573.20389859]
 [-43569.14862083]
 [ 26147.58674551]
 [-47604.04936639]
 [ 41431.3810439 ]
 [-33285.55614821]
 [-30761.86403702]
 [ 13211.64553144]
 [-29148.43660364]
 [-22423.2402726 ]
 [-15952.27431368]
 [ 21170.34409116]
 [  7379.89190876]
 [  7877.60827021]
 [-13070.12124643]
 [ -2112.75149701]
 [-43137.27796197]
 [ 18373.65773217]
 [  1897.49248352]
 [ 36359.00850834]
 [ 18647.02273664]
 [-30046.56025302]
 [ 38734.3626884 ]
 [ 42812.71432027]
 [ 20096.17199641]
 [ 43924.71137873]
 [-29104.5805503 ]
 [ -8235.9850627 ]
 [ 60946.99081858]
 [   689.96072663]
 [ 15460.53127798]
 [-34060.10030938]
 [-11945.30635322]
 [ 16129.35204347]
 [-46299.20072719]
 [ -5915.6264773 ]
 [-34285.08930913]
 [-32941.39800851]
 [ 35295.07067518]
 [ 17586.81172778]
 [  3478.47235599]
 [ -7510.43383329]
 [ 17818.55311341]
 [-29071.74475871]
 [ 49381.9255947 ]]
