[[-1.29177990e+04]
 [ 1.63485392e+04]
 [-7.57867543e+03]
 [ 3.90611879e+04]
 [-1.28510166e+04]
 [ 4.51138338e+01]
 [ 4.63221953e+04]
 [ 2.12026854e+04]
 [-2.29377663e+04]
 [-5.09130467e+04]
 [ 2.43510786e+04]
 [ 2.16621930e+04]
 [ 5.91344039e+04]
 [ 2.22202013e+04]
 [-4.83429795e+04]
 [-2.44433658e+04]
 [-4.16575945e+04]
 [-4.67045582e+04]
 [-5.38695016e+02]
 [ 1.01874065e+05]
 [ 1.63246166e+04]
 [-8.46880320e+03]
 [-1.55793163e+04]
 [ 1.78248791e+04]
 [-3.09385343e+04]
 [ 6.74538740e+04]
 [-1.98070821e+04]
 [ 9.23751008e+03]
 [-3.13100385e+04]
 [ 1.91026565e+04]
 [ 5.02218271e+04]
 [ 4.15980817e+04]
 [-3.40811126e+04]
 [ 3.85375195e+03]
 [-3.77320856e+02]
 [ 2.55316277e+04]
 [ 4.66821127e+03]
 [ 3.76367751e+04]
 [ 4.54542279e+04]
 [ 1.70160994e+04]
 [-5.01664725e+04]
 [ 6.25804330e+03]
 [ 8.84849862e+03]
 [ 4.27305441e+04]
 [-3.85748425e+04]
 [-3.67990146e+04]
 [-4.08581252e+04]
 [-4.93005047e+04]
 [-1.10427426e+02]
 [ 5.22845159e+04]
 [-3.20046331e+04]
 [-1.20860119e+03]
 [-1.24277706e+04]
 [ 1.51633063e+03]
 [ 3.30788921e+03]
 [ 1.79190385e+04]
 [ 2.84930455e+03]
 [-4.23035888e+04]
 [ 3.43339133e+04]
 [ 6.55181193e+03]
 [-1.84882731e+04]
 [-4.83133939e+04]
 [-2.88499847e+04]
 [ 4.99875511e+04]
 [-4.50542471e+03]
 [ 8.47820794e+03]
 [-1.54803198e+04]
 [ 2.46099035e+04]
 [-1.66341463e+04]
 [ 1.62563924e+04]
 [-1.39581934e+04]
 [ 1.66032645e+04]
 [-2.18036020e+04]
 [ 1.63387937e+04]
 [-4.33248956e+04]
 [ 3.47277317e+04]
 [-1.35119094e+04]
 [-3.04543180e+04]
 [-4.81880032e+04]
 [-2.75129366e+04]
 [ 3.02002137e+04]
 [-4.94028854e+04]
 [-4.47726910e+04]
 [-4.01455224e+04]
 [-1.20485304e+04]
 [-1.87694450e+04]
 [ 2.32655408e+04]
 [-4.58014006e+04]
 [ 4.99969493e+04]
 [-2.99442590e+04]
 [ 6.62654072e+04]
 [ 8.32520309e+04]
 [ 2.20510480e+04]
 [ 5.68637636e+03]
 [ 8.78923396e+03]
 [-1.20743624e+04]
 [-3.03328344e+04]
 [ 1.28286030e+04]
 [ 6.11488220e+03]
 [-3.26788050e+04]
 [ 5.22977011e+04]]
