[[ 17030.21468671]
 [ 24051.10958133]
 [-38675.38953827]
 [ -8591.82242092]
 [-35319.77554431]
 [ 35518.05050118]
 [  3983.24591513]
 [ -7239.3003641 ]
 [ 15467.64124036]
 [ 21495.66091385]
 [-22166.67301127]
 [-15528.61747941]
 [ 21224.80866817]
 [  -591.77238088]
 [-22840.70871756]
 [ -9664.05551886]
 [ 15767.90642541]
 [-12945.73603725]
 [-35450.83385531]
 [  7913.75812348]
 [ -4068.61558757]
 [-37968.54470734]
 [ 13692.37112046]
 [ 40985.05287497]
 [-12580.44595524]
 [ -1755.81107646]
 [ 58330.5825664 ]
 [-35926.48350658]
 [-26007.05461942]
 [ -3528.94537435]
 [-33448.14239993]
 [ -6067.60859391]
 [-26896.56360755]
 [ 31958.81952595]
 [ 54748.33304599]
 [-12305.22241097]
 [-28035.51345287]
 [ 79721.90331503]
 [-33465.35504795]
 [ -7503.95489829]
 [ -1167.84539913]
 [   921.13784345]
 [-19794.87652941]
 [ 14478.78050521]
 [ 55614.72312667]
 [ 24999.74524808]
 [ -1525.99009494]
 [-39275.98499598]
 [ 21508.24299901]
 [  5120.1045979 ]
 [-38003.60061383]
 [-31643.4787232 ]
 [ 13032.32047252]
 [ 23198.31544466]
 [ -1217.62119284]
 [ 32172.88469542]
 [-22871.30854746]
 [  1856.53794648]
 [ 11939.92952989]
 [-32560.21534238]
 [-38660.89944391]
 [-32986.01328459]
 [ 36788.11358779]
 [  9368.18446134]
 [-33575.22539154]
 [-33764.76633682]
 [-13895.9701265 ]
 [  4404.77124338]
 [-35843.14427006]
 [ 18657.71412254]
 [ 17387.38697832]
 [-40002.35179927]
 [-36109.09658123]
 [ 25994.9517754 ]
 [-25456.5820271 ]
 [ -6182.52099785]
 [ 38325.36723344]
 [-17529.06990517]
 [-39730.64507492]
 [  2986.55479188]
 [  6643.96374961]
 [ 79383.06924635]
 [ 28302.32099461]
 [  5578.95209721]
 [  9146.66483134]
 [ -1435.42294843]
 [  3217.45670556]
 [  7469.80140728]
 [ 32420.63660187]
 [ 12228.47666205]
 [  4645.11516526]
 [ -2186.65876304]
 [ 41895.69355493]
 [ -7987.05267248]
 [ 39677.46303318]
 [ -9031.91737254]
 [ 19897.0135414 ]
 [-14899.52720239]
 [-23676.47715234]
 [ -2582.71526662]
 [ 40034.40569553]
 [  2360.23172822]
 [-40258.54700199]
 [  5129.13598412]
 [-35919.14500351]
 [-32758.59438361]
 [ 31747.60030976]
 [ -2780.30283457]
 [-13961.93917825]
 [-33578.9102401 ]
 [ 11076.2048438 ]
 [ -4176.82757207]
 [ -3064.44651897]
 [ 20031.89244277]
 [ 10751.6468955 ]
 [-36143.18272861]
 [-23928.93473756]
 [ 12841.95910032]
 [  7234.75563849]
 [  9236.52293825]
 [ 20086.36992786]
 [-25645.71121197]
 [-15500.64972055]
 [ 44439.77163494]
 [ 38994.06474069]
 [  -585.272957  ]
 [-32363.47560603]
 [ 32753.03470899]
 [-12764.86768231]
 [  1463.0454685 ]
 [ 30332.07284141]
 [ 29338.87645282]
 [ 58577.57768846]
 [-17239.33428627]
 [ 24925.23715928]
 [ 31145.4695841 ]
 [  -947.54773628]
 [ 40555.61162005]
 [-29772.55122307]
 [-22349.98291621]
 [-30617.33041276]
 [-31160.43997683]
 [-31593.00891482]
 [-21174.18146043]
 [-32502.08541455]
 [ 23128.95234674]
 [-35213.86986898]
 [-36425.1493412 ]
 [-25217.37830175]
 [ -6065.81303993]
 [  4597.76355345]
 [ -1954.33567934]
 [ -8742.24459193]
 [-29357.95411923]
 [ 74753.57580429]
 [-15037.08833141]
 [ 24912.23797888]
 [ 22582.96641133]
 [ -2385.8197849 ]
 [-30250.18465678]
 [ -2812.85265914]
 [ 26113.67853702]
 [ 36123.36952143]
 [ 40405.71131542]]
