[[-26165.31790196]
 [  5804.98630299]
 [ 47930.17317414]
 [-27462.53519055]
 [ 40302.66244455]
 [ -3516.10387934]
 [ 28143.75890154]
 [-33252.49931237]
 [ 27524.62180006]
 [-29907.29019759]
 [-34059.93759938]
 [ -7526.80296616]
 [-21405.83041162]
 [ 53403.94998428]
 [  3386.29311119]
 [-18793.60386283]
 [-21544.23747558]
 [ 12107.42109372]
 [-27774.52548758]
 [ -3231.20851193]
 [ -1045.67759091]
 [ -7748.66653411]
 [-32752.85779965]
 [-17610.32416733]
 [ 13829.52624201]
 [ 34883.56220041]
 [ 51868.95914663]
 [ 95138.02438743]
 [ 34180.28730907]
 [-17988.4834538 ]
 [-10720.21482091]
 [-31873.27892367]
 [-14945.57625474]
 [  7690.44343771]
 [-13343.74389676]
 [-26560.41511686]
 [ -5054.88597033]
 [-12750.45343536]
 [-18219.46174979]
 [-27383.91384791]
 [ 47176.48029501]
 [  2707.39617681]
 [-21468.5192939 ]
 [-30702.45431902]
 [ -8873.10573067]
 [-33605.43243627]
 [-21094.91914281]
 [ 41363.92892836]
 [-34390.92443539]
 [ 16272.23386426]
 [ 49435.16708689]
 [ 21249.73262884]
 [  7537.22375441]
 [ 13310.05810553]
 [-32657.27377346]
 [  6553.61622134]
 [ -5629.26766234]
 [-21303.86803387]
 [ 64708.02015586]
 [ 42254.26369241]
 [  -374.30121896]
 [-24210.56576537]
 [ 28471.54635348]
 [ 19564.75396974]
 [-19311.83433693]
 [ 58486.73168337]
 [-15796.79364126]
 [-30618.23068209]
 [ 12138.72943737]
 [-32433.18476624]
 [-27597.04120039]
 [-30285.68627702]
 [-18658.43180224]
 [ -8010.96755492]
 [-18848.31809617]
 [  2459.85257581]
 [ 42582.59753851]
 [ -6935.62602287]
 [-32884.84249524]
 [ 41639.63846727]
 [-28069.674413  ]
 [ -4887.44339372]
 [ 54624.06589388]
 [-27444.15351174]
 [ 36418.74057768]]
