[[ 3.54502597e+04]
 [ 3.45088261e+04]
 [-2.71116688e+04]
 [ 5.80520626e+04]
 [ 1.62857142e+04]
 [-4.09653793e+04]
 [-4.07692236e+04]
 [ 1.98305779e+04]
 [-2.26921201e+04]
 [ 4.06941317e+04]
 [ 6.75678746e+04]
 [-1.43539223e+04]
 [-6.21634522e+03]
 [-7.12150856e+03]
 [ 3.99459935e+03]
 [-3.80128333e+04]
 [ 3.53421487e+04]
 [-3.50981584e+04]
 [ 2.35256061e+04]
 [-2.78101118e+04]
 [-2.12078830e+04]
 [-7.42005301e+03]
 [-2.71702133e+04]
 [-4.00751369e+04]
 [-3.46725830e+04]
 [ 8.18056395e+03]
 [-2.93125421e+04]
 [ 1.54480670e+04]
 [-3.24112852e+04]
 [ 3.67399827e+04]
 [-2.17493560e+04]
 [ 1.39631093e+04]
 [ 1.06351785e+04]
 [ 1.57194044e+04]
 [ 4.55626923e+04]
 [-1.86086689e+04]
 [ 1.24533687e+04]
 [-7.51489988e+03]
 [ 8.40203406e+03]
 [-2.78533717e+04]
 [ 2.08364599e+04]
 [-3.77836840e+04]
 [-1.93430442e-01]
 [-1.93194815e+04]
 [ 4.63241876e+04]
 [ 5.06994469e+04]
 [ 2.26837231e+04]
 [ 1.04877341e+04]
 [-1.19021031e+04]
 [-2.17429817e+03]
 [ 5.33497465e+04]
 [-3.87506309e+04]
 [ 5.34517347e+04]
 [-3.26475669e+04]
 [-2.63058393e+04]
 [-1.49306986e+04]
 [ 5.28768816e+04]
 [-1.60664229e+04]
 [-2.70748367e+04]
 [-3.51519635e+04]
 [-4.02820676e+04]
 [ 2.53631048e+04]
 [ 1.42053124e+03]
 [-1.47936548e+04]
 [-3.23753360e+04]
 [ 8.58991250e+03]
 [ 1.31370859e+05]
 [-3.23858637e+04]
 [ 2.11041968e+04]
 [ 3.80194452e+04]
 [ 6.05238802e+04]
 [-3.62903697e+04]
 [ 1.74236959e+04]
 [ 1.27280646e+04]
 [-6.78909086e+03]
 [-7.58885555e+03]
 [-4.05173369e+04]
 [ 2.65967749e+04]
 [ 1.85323424e+04]
 [-3.92989266e+04]
 [-3.72146870e+04]
 [-6.82989362e+03]
 [-1.08658478e+04]
 [-1.15604081e+04]
 [-3.68637502e+04]
 [ 3.54590823e+04]
 [-3.74871846e+04]
 [-2.96184601e+04]
 [-2.16624005e+04]
 [-2.13044737e+04]
 [-2.13467162e+04]
 [ 8.65365864e+04]
 [ 1.82150320e+04]
 [-3.96193171e+04]
 [ 4.23592085e+04]]
