[[-3.23437833e+04]
 [-5.16299072e+04]
 [ 3.58432995e+04]
 [ 2.61459134e+03]
 [ 4.39578777e+04]
 [-3.90830856e+04]
 [ 4.46512213e+04]
 [-5.07514881e+03]
 [-4.54854433e+04]
 [ 1.13256026e+04]
 [ 4.20838113e+04]
 [-3.73868610e+04]
 [ 3.46557915e+04]
 [-8.54833567e+03]
 [-3.27171421e+04]
 [-4.46644055e+03]
 [-2.12021655e+04]
 [-4.21810090e+04]
 [ 7.73474705e+04]
 [ 7.78200267e+04]
 [-1.85358152e+04]
 [-1.61309386e+04]
 [-7.39790683e+03]
 [-3.69013824e+03]
 [-4.58309151e+04]
 [ 1.86522104e+03]
 [ 4.34599735e+04]
 [ 1.99958215e+04]
 [ 1.81281312e+04]
 [ 1.89693456e+04]
 [-2.83699256e+04]
 [-4.68676299e+04]
 [ 2.42731234e+03]
 [-3.25592725e+04]
 [-1.54732907e+03]
 [-4.18633494e+04]
 [-5.16226944e+04]
 [ 5.82735118e+03]
 [-4.03849675e+04]
 [-1.27654550e+04]
 [ 6.11012498e+04]
 [-1.10740447e+04]
 [ 3.13315998e+04]
 [ 1.09021603e+04]
 [ 5.64214578e+04]
 [ 1.05928416e+04]
 [-3.92450910e+03]
 [-1.26092634e+03]
 [-4.52608536e+03]
 [ 7.35227507e+04]
 [-2.27407145e+04]
 [-5.05236429e+04]
 [-3.68591905e+04]
 [-1.00914206e+04]
 [ 6.67691240e+03]
 [-2.23546804e+04]
 [-2.44568804e+04]
 [ 6.34266987e+03]
 [-3.08339767e+04]
 [-4.36187053e+04]
 [-2.06406807e+04]
 [-2.03403612e+04]
 [-5.03678062e+04]
 [ 2.80274922e+04]
 [-1.34682001e+04]
 [-4.84093901e+03]
 [-4.51133760e+04]
 [-4.87432757e+03]
 [-4.53535047e+04]
 [-2.87471658e+04]
 [ 5.14059086e+04]
 [ 2.99778525e+04]
 [-3.51447816e+03]
 [-4.80885712e+03]
 [ 2.29030271e+04]
 [-2.08401715e+04]
 [-3.58033101e+04]
 [-8.45805067e+03]
 [ 4.12848850e+04]
 [ 1.66570417e+04]
 [-7.68194870e+03]
 [ 1.89342137e+04]
 [ 6.79931897e+04]
 [-4.86510627e+04]
 [-9.28459777e+01]
 [ 3.74707235e+04]
 [ 1.04182370e+05]
 [ 3.55203842e+04]
 [-1.74602216e+03]
 [-8.88844933e+02]
 [ 3.29173514e+04]
 [ 4.54558585e+04]
 [-1.05743920e+04]
 [-1.75827903e+04]
 [-1.89693059e+04]
 [ 9.16961374e+04]
 [-6.40676516e+03]
 [ 1.41257563e+04]
 [-2.00745416e+04]
 [-6.62649833e+03]
 [ 5.19555270e+04]]
