[[ 62533.00951425]
 [-17336.26805888]
 [-38495.88788001]
 [ -5093.73332971]
 [ 56890.81396743]
 [-37403.08213397]
 [ 53377.29989932]
 [ 22045.76299867]
 [ 39215.51247609]
 [ 57107.77517063]
 [-41183.89485874]
 [ 25239.75503292]
 [-38412.90873139]
 [  5495.09317203]
 [ 11842.19578025]
 [ 12259.52401152]
 [  8281.94177581]
 [-18063.977447  ]
 [   787.25783907]
 [ 55336.2593307 ]
 [-15335.67461726]
 [ -4906.60901228]
 [-22172.73118312]
 [-17851.83087844]
 [-36547.6956737 ]
 [   422.80224049]
 [  -299.5745861 ]
 [ -8410.0256932 ]
 [ 18326.96631039]
 [-23730.5166928 ]
 [-12626.0754516 ]
 [-33370.02053496]
 [-27010.91456583]
 [-12972.76742195]
 [ 26292.39376802]
 [ 36473.8128945 ]
 [-38190.55746167]
 [-26685.47434926]
 [ -1992.19715543]
 [-36718.63032548]
 [-12494.19775103]
 [ -5516.75876705]
 [ 45800.7388553 ]
 [ 38196.99605966]
 [-25786.81699951]
 [-27508.32788524]
 [ 20944.93781742]
 [ -4190.95471943]
 [ 29613.05527585]
 [ 92380.60866668]
 [-40773.34169044]
 [-31384.53392965]
 [ 19767.91460804]
 [-16102.66403424]
 [-14222.86103261]
 [-18752.22927092]
 [-27088.69334212]
 [ 41545.83817323]]
