[[ 8.15002623e+03]
 [ 1.86481685e+04]
 [-3.04095977e+04]
 [-5.54544861e+03]
 [-1.70217037e+04]
 [ 2.00851663e+03]
 [-1.71631334e+04]
 [-1.35488210e+04]
 [-9.04453117e+03]
 [-3.39893338e+04]
 [ 1.91487581e+04]
 [ 1.13162219e+02]
 [-1.29316796e+04]
 [-1.38201854e+04]
 [-3.26708635e+03]
 [ 1.74607509e+04]
 [-3.44977457e+04]
 [ 7.49273192e+04]
 [ 1.70730322e+04]
 [ 3.14456680e+04]
 [-3.52734327e+04]
 [-1.04625358e+04]
 [ 4.12844060e+04]
 [ 1.54585484e+04]
 [-2.66659933e+04]
 [-1.94454062e+04]
 [ 1.35970061e+04]
 [ 3.56416132e+04]
 [ 7.43056652e+01]
 [-2.65503205e+04]
 [-5.42144312e+03]
 [-1.01061993e+04]
 [-1.43041735e+04]
 [ 3.39510471e+04]
 [-1.97306973e+04]
 [ 1.54178368e+04]
 [-2.44382431e+04]
 [ 2.77054138e+04]
 [ 3.11141901e+03]
 [-1.14924358e+04]
 [-1.98412136e+04]
 [-3.34326239e+04]
 [-3.52690854e+04]
 [ 2.52318307e+04]
 [ 5.75558754e+02]
 [ 6.43042281e+04]
 [-1.48902219e+04]
 [-3.68520601e+04]
 [ 1.05781503e+04]
 [-1.57688802e+04]
 [ 4.01534007e+04]
 [-1.33338611e+04]
 [ 3.82389369e+04]
 [ 1.02189896e+04]
 [ 3.82821507e+04]]
