[[-35572.44484842]
 [ -5203.33230815]
 [  4563.43556672]
 [-12711.65972605]
 [ -3278.10810129]
 [-31267.24400566]
 [ -6507.43829361]
 [-38133.54233431]
 [ 50629.92665237]
 [-35522.72916957]
 [-37363.5429468 ]
 [  6251.42386915]
 [-30914.86417889]
 [ -3182.26073213]
 [ 34728.70881524]
 [ -8678.61362147]
 [  4964.67199191]
 [ 19827.23165437]
 [  6956.56207489]
 [-19051.9171885 ]
 [-11565.65439852]
 [-30773.9608303 ]
 [ -3531.43596461]
 [  3410.33474585]
 [118608.16798336]
 [-32494.29745556]
 [-12385.20554745]
 [ -2879.27160874]
 [  7195.20946462]
 [-33853.73323005]
 [ 69621.95284464]
 [ 69980.82572225]
 [-21985.43408448]
 [-35978.6372688 ]
 [  8942.5353433 ]
 [-38317.11157212]
 [   470.50672103]
 [ 12674.51143302]
 [  6845.5455334 ]
 [ 52699.66663714]
 [-34132.5200293 ]
 [  -656.10871776]
 [-32058.41235645]
 [-27940.69438268]
 [ 51414.52434902]
 [ -4460.67760381]
 [  1100.88036554]
 [-32765.65268044]
 [-11814.6261274 ]
 [ 15262.83246816]
 [-36826.25405669]
 [ 71671.93466923]
 [ -3401.14344277]
 [ 48102.02959091]
 [ 41026.32273544]
 [   945.56399282]
 [-37168.9243809 ]
 [-37241.78528326]
 [-23913.62146112]
 [-26373.437601  ]
 [  2411.1590717 ]
 [-29427.47999522]
 [ 52993.78475567]
 [-23293.1734437 ]
 [ 20022.74410269]
 [-28351.51278848]
 [ 84814.46928812]
 [  1353.87876592]
 [-36124.44175956]
 [-17473.95497273]
 [  3965.83227075]
 [-15339.10009967]
 [ 18923.72826365]
 [ 36028.82405959]
 [ -6753.66501059]
 [ 39879.14210039]
 [ 20448.85339395]
 [-25260.57816573]
 [  9993.53452336]
 [ 22546.52236982]
 [ 14452.85960684]
 [-34552.94388881]
 [ 21490.41835489]
 [-13245.86951702]
 [ -7158.34143046]
 [  4042.3650959 ]
 [ 19210.75573958]
 [ -8397.58825253]
 [  7836.08515076]
 [-13508.96702325]
 [-27028.31043707]
 [ 10446.25323732]
 [  6364.01047827]
 [ 20208.69242452]
 [-22445.92931549]
 [-17061.0646387 ]
 [ 38684.58581874]]
