[[-38230.63844809]
 [ 45887.09960619]
 [-55607.46445045]
 [ 23943.77664066]
 [-17617.80634605]
 [ 65379.42860114]
 [ 37959.5586099 ]
 [ -4965.79880888]
 [  -947.75344663]
 [ 34479.31271779]
 [ -2121.65292753]
 [  1652.81887085]
 [-37992.73367123]
 [-36521.07683214]
 [-12030.97622587]
 [ 59081.15293393]
 [ 28854.1023564 ]
 [-56764.89930312]
 [ 15021.55717044]
 [ 23180.64969877]
 [-37320.71110879]
 [ 30127.00222871]
 [ 16198.0474233 ]
 [ -8493.95081397]
 [ 25528.06717792]
 [-36826.60916201]
 [-14468.52882719]
 [ 35350.26253406]
 [ 45445.11299528]
 [-52880.10902165]
 [-44026.58786821]
 [-10322.26465018]
 [ 17418.62282953]
 [ -1228.37213367]
 [ -5181.04083738]
 [ -9763.56948108]
 [ -5753.13896317]
 [ 52802.6661493 ]
 [  3044.69517902]
 [  1150.98854527]
 [-30771.24791845]
 [ 77403.56410208]
 [ 80721.67119673]
 [-12500.46060415]
 [-56552.38860137]
 [-22898.65591456]
 [-27740.25446225]
 [-51532.27345713]
 [-15750.85968344]
 [-45698.40259556]
 [ 27799.23484002]
 [ 17495.51644461]
 [  8005.99974859]
 [-28156.75338881]
 [ 61788.01634164]
 [ 28432.7444633 ]
 [  -569.52575447]
 [104815.76606771]
 [ 27927.54886609]
 [-47460.12123155]
 [ 21793.38556484]
 [-51915.3516139 ]
 [ 40084.63500028]
 [-42636.58876891]
 [-26652.47943405]
 [-29775.51858203]
 [-54331.9068299 ]
 [  9340.13428068]
 [-43200.66170815]
 [ -7464.01851288]
 [-34330.34385664]
 [-15094.85411657]
 [-17427.20646554]
 [-30838.37328305]
 [-31033.32340306]
 [ 40061.78158418]
 [ 32109.30503661]
 [-47159.30032388]
 [-17240.47595713]
 [112971.95929182]
 [ 31797.1224509 ]
 [-48226.48006099]
 [ 54626.96177897]
 [ 12313.56689545]
 [-18744.27952631]
 [ 25777.53728012]
 [  2032.02534021]
 [ 21351.17272598]
 [ 11343.22873593]
 [-55036.52052665]
 [-44402.45286275]
 [  4692.93393682]
 [-15567.83074044]
 [ 12951.37581344]
 [ 34036.4599987 ]
 [  7834.64513954]
 [ 49181.5035189 ]
 [-18363.85987029]
 [-13493.26258273]
 [-29563.0027477 ]
 [ 57931.60173114]]
