[[-53785.94898268]
 [  9375.69208684]
 [ 11407.2741144 ]
 [-55077.58481859]
 [-57868.00292026]
 [-29050.33772496]
 [ 71828.25605347]
 [-30686.44370972]
 [ 35553.21508411]
 [-18274.78977034]
 [-20665.17597942]
 [-38230.96113387]
 [ -9434.31533742]
 [-59435.09190691]
 [-28183.35264744]
 [-58083.61754405]
 [ -4813.4685699 ]
 [ 27448.18772849]
 [-48424.8828765 ]
 [-31740.62025563]
 [ 11109.21880738]
 [ 96534.20953742]
 [-38725.36455114]
 [-49187.94562679]
 [ -2391.10557639]
 [ 16813.35011196]
 [-41547.37556918]
 [-20397.22420044]
 [ 42368.91011889]
 [ 10532.78172395]
 [ 22729.11933964]
 [ 48447.8648875 ]
 [ 61372.55261787]
 [ 37059.84789414]
 [  8267.11609479]
 [-20463.5254713 ]
 [  3148.28741805]
 [-11774.77611783]
 [-47653.04572187]
 [  2089.55279938]
 [ 10410.57352107]
 [-45165.34676568]
 [ -6538.54653023]
 [ 15531.9967633 ]
 [ 20232.02448004]
 [ 30038.9604017 ]
 [ 82767.74808386]
 [ 17883.96672308]
 [ 33808.20558123]
 [-37532.41617982]
 [  7308.73357727]
 [ -4656.51558027]
 [  4678.67166635]
 [-42977.85792481]
 [ 37885.86624013]
 [-28767.54314402]
 [  7186.86542555]
 [-56349.76012251]
 [ 54437.3476145 ]
 [-60281.21799772]
 [ 88401.19172436]
 [ 75278.41146973]
 [-20900.60617298]
 [ 32503.86587644]
 [-20403.1256262 ]
 [ -2858.50100469]
 [-36347.076229  ]
 [ 60836.94241758]
 [-14338.35956602]
 [ 37746.03623913]
 [-21944.35490034]
 [ 55588.49055867]
 [-37340.64793972]
 [-58955.76031034]
 [-59778.27490655]
 [ 67696.27291284]
 [-24852.37758123]
 [-11269.92584253]
 [ 11030.67117622]
 [-24016.33305273]
 [  2415.55855665]
 [-30954.91395627]
 [ -5105.37249292]
 [  6043.45712202]
 [-26752.02073001]
 [-27051.93809355]
 [ -8343.1819636 ]
 [ 57753.25538164]
 [ -7933.84611869]
 [-24686.84697266]
 [-21651.79840204]
 [-57778.93500447]
 [ 62432.94244037]
 [ 75976.43038529]
 [ 56870.14472974]
 [ 37986.57098385]
 [ 49451.27967725]
 [-55502.83743456]
 [  9253.38853898]
 [ 31409.88887168]
 [ 63476.76201242]]
