[[-24604.40678075]
 [  4245.1990702 ]
 [ 11532.72806489]
 [ -3104.59104814]
 [ -7872.20562757]
 [-23419.3510911 ]
 [ 60552.03261712]
 [-15781.89297977]
 [ -6949.49709158]
 [-27503.52102036]
 [-13990.60051189]
 [-26058.2039443 ]
 [ 39043.77542788]
 [-19400.69351762]
 [-20388.59548957]
 [-25091.52901871]
 [-32062.35256786]
 [ -3629.55634884]
 [-12989.59330012]
 [-26897.67225151]
 [-10584.07853284]
 [  7565.37954393]
 [ 11742.07244353]
 [  5963.59443076]
 [-11139.09388284]
 [  6676.87661014]
 [ 84245.823995  ]
 [-31153.04924487]
 [-33637.24583155]
 [ 73604.32762492]
 [-23705.4657398 ]
 [ 81990.01089008]
 [ 83433.79191944]
 [ -4535.82859896]
 [-32355.39042228]
 [  6231.33616066]
 [-19382.84729924]
 [ -8522.56235796]
 [-25590.92504554]
 [ 46632.83760981]
 [-32316.52602121]
 [ 81622.63622632]
 [-29869.18301643]
 [  9360.07445706]
 [-22044.72104767]
 [-14043.48485521]
 [-12796.06732502]
 [ 20048.33754544]
 [-16080.25838266]
 [-26988.88467916]
 [ 30296.92066506]
 [ 27284.14532003]
 [-23152.59615501]
 [  3169.09643065]
 [-29289.55668313]
 [ 53219.11002746]
 [ -1219.84003437]
 [-31562.00671839]
 [ 26003.51436245]
 [  4726.69113043]
 [-13946.0546513 ]
 [ 40206.45239317]
 [-27921.61070043]
 [-15846.85941944]
 [ -7339.13359806]
 [-24629.23213338]
 [ 34231.85430705]]
