[[ -3778.41701899]
 [   446.23063362]
 [-48381.69689761]
 [-12322.66249303]
 [ 30062.9158577 ]
 [-57287.35160159]
 [  -507.07646758]
 [-58967.70483432]
 [ 18293.02379166]
 [-47716.46354296]
 [-32133.01224157]
 [-37738.065984  ]
 [ 21246.22500623]
 [-20856.83703445]
 [  8027.92323172]
 [ 45910.14614149]
 [-27134.64509437]
 [-15760.54685449]
 [ 13047.56506271]
 [ 60805.85929713]
 [-63997.12276967]
 [-43072.4999682 ]
 [ 21400.33045489]
 [ 54665.63656626]
 [-34168.05884954]
 [-43154.44816052]
 [-20353.31279572]
 [-32807.3836628 ]
 [111148.40366807]
 [-12464.26918395]
 [128268.25983146]
 [ 41153.33564745]
 [-12136.87015913]
 [-50988.48101595]
 [  2961.37707726]
 [-13823.2321808 ]
 [159124.72713413]
 [-49156.83691084]
 [ 35435.21918561]
 [ 25598.45355737]
 [ -9976.13101618]
 [   172.27225138]
 [  2892.23174149]
 [  7818.11250903]
 [-48994.88123503]
 [-64214.63051394]
 [ 26882.75847878]
 [ 65296.06040627]
 [-62281.78751235]
 [-21405.31515607]
 [ -9609.82960791]
 [-33570.31941907]
 [  1088.3237272 ]
 [-19878.30578271]
 [ -1631.47193552]
 [ 79150.04940914]
 [  7075.2194184 ]
 [ 26580.23548574]
 [ -3571.0528047 ]
 [ 24345.17796852]
 [ 11610.08016729]
 [ 11215.83985675]
 [  4853.04740156]
 [ 20607.64722367]
 [ 59659.11653954]
 [-41481.29375356]
 [ -3116.61597788]
 [  7908.21014162]
 [-39418.86344726]
 [ 72147.73509601]
 [ 11867.6687719 ]
 [ 12619.10619744]
 [-36681.16525287]
 [ 28101.1332286 ]
 [ 11803.19426037]
 [ 35798.21043518]
 [-48946.50829474]
 [ -8573.10634669]
 [-16816.58787023]
 [-45997.89641366]
 [-14777.24638399]
 [  1623.35800022]
 [-66311.32210137]
 [ 37722.10375213]
 [ -5926.36472179]
 [-13302.95491879]
 [-33403.25042048]
 [ 10499.62944002]
 [-67755.97264103]
 [  3100.49392394]
 [-12803.13244391]
 [-24414.98899413]
 [  2082.40436212]
 [ -3580.72591   ]
 [ 27834.22473423]
 [ 30483.50031446]
 [  4432.55927763]
 [ 74413.66595288]
 [ 28159.54357789]
 [-30289.8295982 ]
 [ 70378.99989727]]
