[[-33149.89515725]
 [ 59847.89395856]
 [ 75187.06556005]
 [-30125.64661984]
 [-23096.81444035]
 [-17075.81284376]
 [ -6257.09005307]
 [-12443.2084808 ]
 [ -3379.41397307]
 [  1450.64184554]
 [ -6049.64124915]
 [ 21053.49872774]
 [ 38511.74867274]
 [-31884.02952126]
 [-25992.56827207]
 [-32143.51225828]
 [ 28117.63630599]
 [-31933.40818107]
 [-25057.59194697]
 [ 50090.72652413]
 [ 49343.69150665]
 [-20842.55807994]
 [ 34403.11590635]
 [ 34396.98407453]
 [ 15215.2376665 ]
 [-12758.14731242]
 [  8196.71239876]
 [ 15076.78362717]
 [   866.49403212]
 [ 10705.20339616]
 [ 30243.4119704 ]
 [-21710.12338114]
 [-19227.11739612]
 [-18324.52679403]
 [-29033.25183385]
 [  8679.90032836]
 [ 22262.21448154]
 [-18226.6490357 ]
 [ 31251.7283241 ]
 [  3969.56379014]
 [  -194.30119169]
 [ 35867.25515593]
 [-32107.15891345]
 [-35919.29771736]
 [ 16636.55171151]
 [-28384.08198132]
 [-33877.42529456]
 [-31730.93194605]
 [-24922.30158398]
 [-12041.15157796]
 [-34318.61429227]
 [ 61226.76249825]
 [-29388.49943485]
 [ 17437.43899754]
 [-35195.35140785]
 [ 30188.9262587 ]
 [ 44209.04977123]
 [ 24005.58277164]
 [-19682.33589842]
 [-31634.12625059]
 [-24181.19944306]
 [  7592.45814314]
 [-15162.13665312]
 [ 23933.64928031]
 [-35560.06587529]
 [-35504.64482334]
 [ 75423.13381301]
 [  3123.56961652]
 [ 36828.2137772 ]]
