[[-5.12898795e+02]
 [-3.94523502e+04]
 [ 8.28870983e+03]
 [ 6.21753151e+03]
 [ 5.98450416e+04]
 [-1.14264066e+04]
 [ 7.67200748e+03]
 [ 2.10725451e+04]
 [-2.37642196e+04]
 [ 2.79952662e+03]
 [-2.53777909e+04]
 [ 3.07536829e+04]
 [ 1.48247841e+04]
 [ 8.72189176e+03]
 [-5.78425788e+04]
 [ 2.33201025e+03]
 [-6.00000498e+04]
 [ 2.62635221e+04]
 [ 2.20048283e+04]
 [-1.81914594e+04]
 [-5.40277489e+04]
 [ 7.24927000e+04]
 [-4.59588703e+04]
 [-6.00097259e+03]
 [-7.95916217e+03]
 [ 1.55257455e+04]
 [-6.22030151e+04]
 [ 3.13749517e+04]
 [ 4.86786154e+04]
 [-2.78889549e+04]
 [-5.64082126e+04]
 [-4.46573846e+04]
 [ 1.56078655e+04]
 [-5.20885133e+04]
 [-2.89563928e+04]
 [-4.22345913e+04]
 [ 1.64541466e+03]
 [ 1.22251211e+04]
 [-8.03596081e+03]
 [-4.72948152e+04]
 [-1.56925615e+04]
 [ 1.81325774e+05]
 [ 1.44831388e+04]
 [ 2.58270772e+04]
 [ 7.04556109e+04]
 [ 1.39662780e+02]
 [-4.89566777e+04]
 [ 5.71815319e+03]
 [ 6.31921764e+03]
 [-9.89368934e+03]
 [-2.25478058e+04]
 [ 3.61131164e+04]
 [-2.37979491e+04]
 [ 4.70762846e+04]
 [-6.27731808e+04]
 [ 2.25168186e+04]
 [ 4.48562658e+04]
 [ 5.87855972e+03]
 [-2.94867630e+03]
 [-5.33046776e+04]
 [ 5.40084813e+04]
 [-2.53126238e+04]
 [ 6.75963116e+03]
 [ 5.48187516e+03]
 [ 6.23135106e+04]
 [-5.69698514e+04]
 [-2.33182845e+04]
 [ 2.76429262e+04]
 [ 3.17778636e+04]
 [ 8.92520161e+02]
 [-1.34544470e+03]
 [-5.30151114e+03]
 [ 8.48605467e+02]
 [ 2.10153416e+04]
 [-4.82911158e+04]
 [ 2.47418847e+04]
 [ 6.13590685e+04]
 [ 1.72466474e+03]
 [-3.11339387e+04]
 [-4.18131404e+04]
 [-6.02053936e+03]
 [-2.46573912e+04]
 [ 9.25820841e+03]
 [-5.61497614e+04]
 [-1.75308480e+04]
 [ 1.33254170e+04]
 [-6.22412317e+04]
 [-2.32292672e+04]
 [-1.42164652e+03]
 [ 3.26209139e+04]
 [-2.91427221e+04]
 [ 8.14217619e+04]
 [ 1.61517102e+05]
 [-3.11053307e+04]
 [ 5.23394567e+02]
 [ 2.28066368e+04]
 [-2.39337921e+04]
 [ 2.63232839e+03]
 [-2.38463323e+04]
 [ 1.23402813e+03]
 [ 6.64431217e+04]]
