[[ 23312.49098489]
 [-26869.23819551]
 [  2217.19000217]
 [ 29051.00789775]
 [-29427.43165795]
 [ 22458.71575179]
 [ 11772.91466657]
 [-28737.19607722]
 [ 38573.31170835]
 [  5911.26335487]
 [   747.55481094]
 [-39626.56580956]
 [  7557.07927924]
 [-28352.58483969]
 [-21984.39296022]
 [ 23732.22315649]
 [-33778.75841191]
 [ -6314.14597563]
 [-32755.47912592]
 [-23344.17249167]
 [-37275.91263088]
 [ -5726.57472772]
 [ 73297.93353122]
 [ 23700.95080887]
 [-20099.54376113]
 [ 14160.72359742]
 [ 48831.20856696]
 [ 41219.20675738]
 [ 68639.11442172]
 [-37312.31407833]
 [  7597.75116404]
 [ 36306.98126473]
 [ -8878.16436418]
 [-21700.23982899]
 [-31668.58455802]
 [-41141.9750901 ]
 [ -7892.52727749]
 [-21680.96189044]
 [ -4363.38549225]
 [-19120.03857057]
 [-19267.94304294]
 [-41568.21092184]
 [-16807.37074427]
 [ -3022.93998394]
 [ 25468.71101014]
 [ 36786.22715603]
 [-13088.49924592]
 [ 30177.10706636]
 [ 32111.79506307]
 [ 71497.63109456]
 [ 54263.97957536]
 [ 94403.00053476]
 [-41189.65449673]
 [ 10199.33462739]
 [-39798.00270997]
 [-23680.06360144]
 [-40524.20788215]
 [ 29647.95434491]
 [-27491.33439529]
 [ -2113.17061438]
 [-22949.16366782]
 [ 22985.56122029]
 [  9845.38205274]
 [   733.52065835]
 [ -3326.93641959]
 [-41213.63270576]
 [-18100.61783165]
 [-24124.93931892]
 [  8443.29965244]
 [-17789.5650213 ]
 [  9130.76618086]
 [-42113.45830786]
 [-17493.92369051]
 [-37208.54355333]
 [ 66119.61459245]
 [ 12934.17946146]
 [ 53501.27654765]
 [ 13692.83564682]
 [-29789.25214169]
 [-37241.60107544]
 [-40051.76535216]
 [ -4253.69292885]
 [ -5444.78199018]
 [ 16971.76156757]
 [-24168.63083888]
 [ 15373.20574936]
 [-10609.2986537 ]
 [ 16338.73203586]
 [ 62767.89138799]
 [ 43391.12229818]]
