[[-34540.95599342]
 [ 20516.89266825]
 [  7861.75565852]
 [ 39932.40512607]
 [-42348.8743535 ]
 [-42507.28870615]
 [-32873.70514774]
 [  4884.79237751]
 [ 23352.7679007 ]
 [-14070.71215248]
 [  7333.62101961]
 [-14296.30227564]
 [-26704.78596461]
 [-40730.26299417]
 [-15464.83796434]
 [ -9836.91278733]
 [ 12467.99039144]
 [ 38143.90655864]
 [ 16492.70504565]
 [-41497.69697595]
 [-14581.57691524]
 [-35375.77565455]
 [  1207.49248929]
 [ 38219.62192232]
 [-34677.61727165]
 [ 37040.77520477]
 [ -9752.39971541]
 [ 52491.30082136]
 [  3607.18331662]
 [  9770.59894708]
 [ 98188.31505591]
 [-35183.71692695]
 [  3862.89040005]
 [-37858.51035883]
 [ -3004.51511502]
 [ -9860.68506428]
 [-41964.34397732]
 [ 39823.20618067]
 [-25040.43999616]
 [ 41719.61587299]
 [ 26692.09156612]
 [ -6933.41338335]
 [ 42912.68851886]
 [-18101.06527422]
 [ 32956.084458  ]
 [ 20775.69445588]
 [ 16050.74635921]
 [-13423.06419814]
 [ -5461.73056674]
 [  -272.77643433]
 [-11625.30488031]
 [  1284.34516062]
 [ 11822.51907706]
 [-23377.56023066]
 [ -5798.71158848]
 [-39515.88678818]
 [  4720.48085491]
 [-33683.09462534]
 [   921.07977577]
 [ 50796.20524713]
 [ 14514.7518495 ]
 [ 43393.08450839]]
