[[ 20893.45993417]
 [ -9661.46341045]
 [-19186.20534782]
 [  5691.73412775]
 [ 20616.66919185]
 [ 42216.87429417]
 [ 23246.94354977]
 [-18198.67890013]
 [-27285.14218046]
 [ 31836.59695638]
 [  7729.14397811]
 [ 19068.4982546 ]
 [ 56100.41583893]
 [-33904.96453613]
 [ 12186.62706191]
 [ 17484.82322842]
 [-14386.42835705]
 [ 75866.30924478]
 [-32454.42150913]
 [-26486.88835769]
 [-15426.94525307]
 [ 22527.28935422]
 [-18930.70465688]
 [-28563.45739451]
 [  -251.7613052 ]
 [ 24846.19210976]
 [   217.78804988]
 [  7867.15139122]
 [ 32055.78656765]
 [-35462.83153157]
 [ 26907.53035629]
 [ 25465.92771742]
 [-32405.76709476]
 [ 13875.04626317]
 [-35358.35067193]
 [-28075.5112674 ]
 [-12898.3287391 ]
 [-25655.16367269]
 [ 22087.39147372]
 [-25113.56560004]
 [ 12804.68398013]
 [ -3992.11580483]
 [-21515.21556945]
 [ 27624.08247127]
 [-25752.77829079]
 [-13529.81692469]
 [ -8283.38114664]
 [ 53203.77815847]
 [-23372.18582067]
 [  8494.71755482]
 [  7621.65481018]
 [-14545.37344342]
 [ 66592.33308973]
 [  1530.68683709]
 [ 26950.37981817]
 [ 91362.10564663]
 [-19264.88877382]
 [ 16002.7685948 ]
 [  -956.04297044]
 [  2835.7400583 ]
 [ -6091.08888292]
 [ -2304.12324636]
 [ 18400.37782927]
 [-15278.18898721]
 [-28854.87446251]
 [   199.96981436]
 [-22849.88511886]
 [-35627.03235633]
 [ 20255.50584839]
 [ 26218.8732549 ]
 [-14813.49674939]
 [  7412.65342552]
 [-33128.39469496]
 [ 24624.74483478]
 [ -2672.07200031]
 [-10042.00392406]
 [ -7917.67617316]
 [ 13432.18642314]
 [   967.38176143]
 [-32169.03303274]
 [ 39824.52820327]
 [  3334.63525578]
 [-34546.46637874]
 [-16972.90218404]
 [-12246.17056507]
 [-11041.6266438 ]
 [-26891.64893143]
 [ -9910.27081335]
 [-24238.96457849]
 [ 10608.207685  ]
 [-30981.20591423]
 [ 19828.35915555]
 [-29052.38231929]
 [-30370.66696716]
 [ 36141.76406515]]
