[[ 6557.85313571]
 [ 3061.10094966]
 [-5654.8015504 ]
 [ -640.48947372]
 [-2533.72208663]
 [ 4101.36288832]
 [  398.35212726]
 [-1744.56720273]
 [-4285.96767968]
 [-6642.2091359 ]
 [ 1645.61628811]
 [-4705.05801125]
 [-5533.62229532]
 [-6245.42817105]
 [ 4689.28022657]
 [10301.19098821]
 [-3398.89287339]
 [ 5991.30642295]
 [ 2780.41617042]
 [ 1557.80529269]
 [-3364.35155332]
 [ 2804.26734944]
 [-4037.27893574]
 [-1710.02698872]
 [-4574.9942772 ]
 [ 4443.12983591]
 [-2113.3203282 ]
 [-1191.71473767]
 [-1972.24159131]
 [-1774.84314878]
 [ 8017.65155472]
 [-1256.28523771]
 [ -767.17621256]
 [-1116.00581425]
 [ 3060.01069793]
 [-5908.63736902]
 [ -357.38326089]
 [ 3450.38347447]
 [ 4376.85767994]
 [ 1444.86756325]
 [ 2094.93364685]
 [-5279.66090713]
 [-4871.21522835]
 [-4751.30300765]
 [11986.28117595]
 [ 8619.58033071]
 [ 9550.46074616]
 [-3406.22676831]
 [-3783.417662  ]
 [ 5252.75509001]
 [-4199.55336636]
 [-6692.02315265]
 [ 6750.78394395]
 [-1315.53907737]
 [-6399.23682256]
 [ 2413.45066901]
 [ -630.72125728]
 [-5110.27766751]
 [-6280.40723862]
 [-4593.63890521]
 [ 5029.2623451 ]
 [ 3962.11333083]
 [-2477.23248594]
 [ -441.46770339]
 [-2498.10825748]
 [  407.77143886]
 [ 2102.82116066]
 [-2041.46713106]
 [ 3259.980982  ]
 [ -751.43787124]
 [-4323.02136046]
 [-2108.5283654 ]
 [ 1905.22362246]
 [ 2424.92131624]
 [ 1251.65202177]
 [ 6121.33764238]
 [ -447.15880422]
 [-3571.71398604]
 [ 8137.99927483]
 [ 7446.73203376]
 [-5459.17899453]
 [ -512.59469106]
 [ 3180.91870081]
 [ 3667.41505058]
 [-1152.79644071]
 [-5333.21806575]
 [-1757.9806038 ]
 [-2097.3956331 ]
 [-4402.40626029]
 [-2722.04631954]
 [ 4995.75830756]
 [ -556.93247043]
 [-1388.73648213]
 [  677.68874847]
 [ 1926.05697617]
 [-5440.92919349]
 [-3299.78189361]
 [ 8174.75538282]
 [ 3233.26600902]
 [-1629.00058241]
 [ 6872.68707177]]
