[[-54860.97728679]
 [-33302.72231487]
 [ 10688.74720429]
 [ 33033.43041492]
 [-45690.79223051]
 [-59696.54955743]
 [ 18969.35105397]
 [  -733.02691228]
 [ 36090.18541309]
 [-57767.17309519]
 [ 10876.07591916]
 [ 32533.91082246]
 [ 53629.8224252 ]
 [-26927.17857327]
 [-64282.0165577 ]
 [-58552.58343241]
 [ 98356.51689144]
 [ 45177.17726039]
 [-21183.13676974]
 [ 75951.87303638]
 [-46449.59655632]
 [ 31467.61681291]
 [ -9474.97195011]
 [ 17587.62349122]
 [-62032.76752408]
 [   201.86709972]
 [-30754.6973574 ]
 [-12644.40653806]
 [-45412.73462597]
 [  6093.85585058]
 [-28474.3360417 ]
 [ 71210.88050993]
 [  9354.02638788]
 [-37606.11243089]
 [-41677.74267703]
 [ 64893.76857435]
 [-37659.14593976]
 [-25713.36522265]
 [-30486.55840039]
 [-37534.84653363]
 [-59179.87815506]
 [ 63199.81590532]
 [-34635.498299  ]
 [-42991.89665193]
 [ 32695.74561592]
 [ 28428.11902749]
 [-57668.06313144]
 [ 26674.0712824 ]
 [-44765.69562129]
 [ 77579.30453017]
 [ -6874.31750609]
 [-17507.95214112]
 [-42816.50345965]
 [  8910.14308672]
 [ 14833.90589703]
 [ -9903.24107433]
 [-13269.37713586]
 [ 62481.1279058 ]
 [ 75751.53533684]
 [  9418.39705274]
 [-41627.79898462]
 [ -6011.26497456]
 [-52867.21495013]
 [ 23604.0123737 ]
 [ 25927.57530068]
 [-30015.52898667]
 [ 89999.94758687]
 [ -3294.72794169]
 [-38300.66475039]
 [-24296.05823068]
 [ 35072.81798085]
 [-20684.16444599]
 [ 56404.41047816]
 [ -9460.48848353]
 [  3720.0357419 ]
 [ 26721.01449545]
 [ 30595.85440388]
 [ 31400.42310073]
 [ 64002.46426544]
 [-44423.89540789]
 [ 57294.48453238]
 [ 46908.20187293]
 [ 32557.49557726]
 [-38205.17529587]
 [ 66894.02525807]
 [-29462.16854683]
 [-52975.28191494]
 [ 28301.22720515]
 [ 56477.11381965]
 [  6615.91430098]
 [ 19185.71767833]
 [ 34615.73516972]
 [-32538.90169439]
 [-27190.49281505]
 [-47331.38822168]
 [-52114.14314173]
 [ 53687.10141841]
 [-52932.58639097]
 [ -7920.94820905]
 [  4108.28772172]
 [ 65080.6839158 ]]
