[[ 4.06759189e+04]
 [-1.62694416e+04]
 [-2.31581873e+04]
 [-2.80262196e+04]
 [-3.83670658e+04]
 [-2.18840637e+04]
 [ 2.56587237e+04]
 [ 4.14711367e+04]
 [-3.25266693e+04]
 [ 5.26077531e+04]
 [ 3.92906636e+04]
 [-1.22402691e+04]
 [ 9.32685557e+03]
 [ 1.23912772e+04]
 [-5.49045197e+03]
 [-1.95003613e+04]
 [ 9.76650949e+03]
 [ 1.41077643e+04]
 [ 2.03225183e+04]
 [-7.84071592e+03]
 [-2.02846544e+04]
 [ 3.36329175e+04]
 [ 2.28222918e+04]
 [ 4.59220314e+03]
 [ 4.20753601e+04]
 [ 7.37631641e+03]
 [ 1.13940727e+04]
 [ 2.87311984e+04]
 [-3.26954951e+04]
 [-3.87701824e+04]
 [-2.16221035e+04]
 [-1.51301821e+03]
 [-2.19611598e+03]
 [-2.71214474e+04]
 [-3.73792269e+04]
 [ 2.63809536e+04]
 [-2.71552357e+04]
 [-7.37232717e+03]
 [-2.22898613e+04]
 [ 1.99492007e+04]
 [-4.29069061e+03]
 [-2.16031723e+04]
 [ 1.51195338e+04]
 [-5.54599491e+03]
 [-1.51997327e+04]
 [ 3.68420922e+04]
 [ 1.68782388e+04]
 [ 1.49907960e+04]
 [-2.98481728e+04]
 [ 1.18522597e+04]
 [ 2.49339769e+04]
 [-4.93711041e+03]
 [ 3.56232769e+01]
 [-4.76110753e+03]
 [-3.70771219e+04]
 [-3.42556331e+04]
 [ 1.39380215e+04]
 [-9.50482341e+03]
 [ 7.61486675e+03]
 [ 5.35740215e+04]
 [ 2.54126691e+04]
 [ 2.99616659e+04]
 [ 8.40724476e+03]
 [ 3.90170242e+04]
 [-1.07973359e+04]
 [ 2.21846491e+04]
 [ 1.47926293e+04]
 [-3.24217296e+04]
 [ 2.38238623e+04]
 [-3.97977548e+04]
 [-2.13004061e+04]
 [-1.06699908e+04]
 [-3.16499964e+04]
 [ 4.39047256e+04]
 [ 4.37885915e+02]
 [-2.82472056e+02]
 [ 5.24829655e+00]
 [-2.16932507e+04]
 [-2.84753112e+04]
 [-2.30065460e+04]
 [-3.54792030e+04]
 [ 4.01171106e+04]]
