[[ 63827.31910769]
 [ 48982.66700083]
 [-47260.33752655]
 [ 47351.92224907]
 [-26401.42155397]
 [-58347.27394316]
 [-16758.70885967]
 [ -1426.19868235]
 [  5595.84333973]
 [ 14348.08005249]
 [ 52378.23610879]
 [ 19336.5187267 ]
 [-48163.04249807]
 [ 23953.34186702]
 [-22113.99396717]
 [ 98670.91250408]
 [ 23294.44716362]
 [-24245.5104834 ]
 [ 21469.99896568]
 [-14950.11717918]
 [-38310.94823412]
 [-25843.44285974]
 [  5160.87912816]
 [ -9320.59692406]
 [  1829.34019551]
 [-16681.6029054 ]
 [ -1210.95497558]
 [-33033.46666574]
 [  9649.62001112]
 [-14986.17050226]
 [ 48188.95850743]
 [  5638.68255897]
 [ 16502.40355092]
 [-54528.96026302]
 [-34029.53613246]
 [ 26392.88426782]
 [-44431.91093718]
 [ 89242.43177773]
 [-25692.47398318]
 [ -6203.56378392]
 [  4613.12466807]
 [-10267.97385681]
 [-41962.00081316]
 [-28265.79364406]
 [-41515.97817456]
 [ 95983.13631546]
 [-20151.96101857]
 [-36250.29357798]
 [ -7294.21579395]
 [ 26927.73754283]
 [166683.06862835]
 [ 24600.94117226]
 [-36958.05868127]
 [ 43552.94120419]
 [ 74425.63726366]
 [  8137.16050214]
 [ 18093.98650227]
 [  1564.41094788]
 [ 88471.84434087]
 [-57400.33688648]
 [  7892.33422446]
 [ -9146.05029636]
 [-35423.13053037]
 [-58581.72874945]
 [-49956.65574673]
 [ 46078.09786128]
 [-18760.63746814]
 [ 31220.50509748]
 [-13711.5411279 ]
 [-39306.54163825]
 [   556.69334375]
 [ -5014.16202001]
 [  -948.92240178]
 [-23623.34504477]
 [-50689.8791141 ]
 [-35732.34720722]
 [ 18567.86535587]
 [ 20754.24918096]
 [ 64457.19042489]
 [ 17265.44730562]
 [ -5119.85723268]
 [-55128.18333945]
 [-54489.14556798]
 [-16977.47496065]
 [-40498.770579  ]
 [-28907.95988786]
 [ -1626.90512641]
 [-39259.84517491]
 [ 23477.86555549]
 [ 13868.50456327]
 [ 24361.12477262]
 [-26908.45680059]
 [-16353.72070283]
 [-54065.52901912]
 [ 54166.92972607]
 [ 12813.72705695]
 [-33266.2255648 ]
 [ 57956.44332229]
 [  5721.9834364 ]
 [-16523.5767904 ]
 [ 60302.22355346]]
