[[-46824.86443875]
 [-28540.28584771]
 [-24082.89851326]
 [  9397.86622987]
 [ 13846.51296621]
 [ -3529.47334711]
 [ 14072.12882308]
 [ 42495.97260231]
 [ 72195.43114264]
 [ 61032.15231817]
 [  9677.48811399]
 [-43101.45326051]
 [ 14322.05972097]
 [-35293.12806077]
 [ 21329.33545034]
 [ 26882.40075143]
 [  1940.44661664]
 [ 78001.76272092]
 [ 17495.34691976]
 [ -6257.14260429]
 [ 34731.9121922 ]
 [ -5333.04883739]
 [-42437.57157943]
 [  7443.18235664]
 [-43652.9804218 ]
 [ 65748.93628959]
 [-19170.72641956]
 [-27709.56416752]
 [ 65133.90387903]
 [-56835.89446384]
 [-39549.43808057]
 [-19053.15019317]
 [-38565.7882163 ]
 [ 65216.21741806]
 [ -4755.19139147]
 [123346.26796322]
 [-46087.73011111]
 [   419.68173835]
 [ 64321.59292956]
 [ 18559.4786101 ]
 [-56886.90405787]
 [ 34401.55232722]
 [ -5662.74170585]
 [-38893.56835483]
 [ -8264.08833951]
 [-48153.06629104]
 [-32591.27815691]
 [ 68052.56706063]
 [-13474.36431824]
 [-12252.99631831]
 [ 43050.85332874]
 [-30219.59910786]
 [-33467.77224802]
 [  3976.24671121]
 [ -2801.61644375]
 [  4159.57518306]
 [-13675.19539772]
 [ 28335.1307444 ]
 [ 12756.26842821]
 [ 24199.49838406]
 [ 28036.45563579]
 [-57128.71938142]
 [-42794.94522602]
 [ 30865.35961695]
 [-47995.27691182]
 [-33773.95781729]
 [-29904.91379193]
 [-23938.54193499]
 [-45690.7480118 ]
 [116053.19560576]
 [-20681.05490535]
 [-12920.36318273]
 [ -4710.68165492]
 [-52395.32021998]
 [-15817.34139922]
 [-48467.17866438]
 [ 38411.6834645 ]
 [-33797.80369572]
 [-46016.36336154]
 [-11193.01925882]
 [-32158.66799922]
 [ 13038.29129337]
 [-37348.17388105]
 [ 62964.28052981]
 [ -4090.3919429 ]
 [-27700.43485273]
 [-43781.20067268]
 [  3520.11231671]
 [ 37381.53049256]
 [ 56871.01371227]
 [-14148.78926841]
 [ 49123.32307006]
 [-55361.25123118]
 [ 47831.97372809]
 [ 23252.33750448]
 [-36568.29543774]
 [ 18566.13039718]
 [ 41447.25818202]
 [ 11262.20222495]
 [-19659.96229679]
 [ 60644.8202733 ]]
