[[-42238.42422109]
 [-30161.98522748]
 [-22950.7216468 ]
 [-16150.56099154]
 [-41392.74674404]
 [ 67157.84515494]
 [-42021.0261922 ]
 [ 52032.46896144]
 [ 12044.77090846]
 [-40344.33358808]
 [-22918.47326228]
 [-13846.60951515]
 [-36510.82437015]
 [ 14761.45954514]
 [-16750.09357265]
 [-11902.37074715]
 [-24896.70149656]
 [ 18199.83540279]
 [ 14531.29259185]
 [  9753.27412095]
 [ 45602.68184649]
 [ 48099.0794808 ]
 [-40490.5712701 ]
 [-26725.12044032]
 [  4561.79800264]
 [-41512.14560351]
 [ 39377.2581468 ]
 [-18961.43870055]
 [-13845.02776954]
 [ 13938.60156797]
 [ 43559.9794215 ]
 [-19441.10609409]
 [ 20819.06904533]
 [-42323.08969483]
 [ -1893.5269524 ]
 [-23544.50181472]
 [ 15534.82166185]
 [-20737.36692135]
 [ 38471.3021491 ]
 [-42257.90485936]
 [ 14149.9334372 ]
 [-42021.63681783]
 [-36813.43897204]
 [-30148.42014712]
 [-37161.1159516 ]
 [ 39010.82772932]
 [ 55248.74364724]
 [-35087.62191731]
 [ 31822.32155325]
 [-42730.7420901 ]
 [ 56286.84404346]
 [ -8234.97770989]
 [-11122.29108574]
 [-14627.7489642 ]
 [ -7804.89007134]
 [ -2153.88222526]
 [-32572.69883856]
 [ 31146.68497743]
 [ 11710.01309265]
 [ 46353.38883175]
 [ 38342.6539847 ]
 [ -1901.53599302]
 [  8814.01376037]
 [ 80501.40696233]
 [105952.10494153]
 [ 24135.82001814]
 [-39348.72475405]
 [ -6373.89775341]
 [ 43517.68399936]]
