[[-22216.72366209]
 [-12904.30358424]
 [-15159.18798504]
 [ 21432.19296769]
 [-37270.62208512]
 [ 20457.40657016]
 [-39423.09139144]
 [-29173.32941506]
 [ 17703.61447309]
 [-33952.10396709]
 [-27037.10140817]
 [  7855.48942611]
 [ -3834.93855718]
 [ 11296.96445198]
 [-41358.43234005]
 [ 44486.60826122]
 [-17813.36854654]
 [ -2890.59285473]
 [  3285.71167033]
 [-24942.84723474]
 [ 18832.5098442 ]
 [-33281.70373704]
 [ -8936.28509169]
 [ -6905.25997934]
 [-29404.45281885]
 [135183.53083278]
 [-21034.38668549]
 [ 24200.05361306]
 [ 13521.42456708]
 [-18060.07223734]
 [-13789.77158486]
 [  1439.64689309]
 [-15695.73859452]
 [ 34118.66424345]
 [ 87850.61585051]
 [-27373.71711767]
 [   902.12125133]
 [-32218.4139582 ]
 [ -1129.6838959 ]
 [-42778.3919816 ]
 [ 13650.47815037]
 [-22594.83643673]
 [-35830.1517036 ]
 [ 18339.32258401]
 [ 29553.21965284]
 [ 32207.33025968]
 [  7293.67949946]
 [ -6290.24697706]
 [-31087.29473107]
 [ -9401.27174831]
 [ 43058.52625376]
 [ 18178.60229144]
 [-20859.70346717]
 [-17484.17140798]
 [-23691.28099705]
 [  1822.87244186]
 [ -8659.30605567]
 [-24650.93244686]
 [   924.98799764]
 [ -4759.15481268]
 [ 11188.05986435]
 [ 74912.1774775 ]
 [  2582.801549  ]
 [ -5424.93403629]
 [133546.83318065]
 [-17101.00669291]
 [  6211.89327614]
 [ 12844.22738515]
 [ 41398.86880457]
 [ 36789.00602748]
 [ 28785.4009816 ]
 [-39632.06453432]
 [ -7690.08797652]
 [ 66336.68462669]
 [ 81153.03632358]
 [-37783.61593158]
 [-28591.77575283]
 [-19174.30553437]
 [-15541.94882996]
 [-42555.58343265]
 [-28344.33353702]
 [-32904.31859644]
 [-25109.40575884]
 [-39598.31143195]
 [ 45582.74468961]]
