[[-38003.48382606]
 [ -3937.88837125]
 [  -111.62002185]
 [-23515.83916344]
 [-30542.83051303]
 [-19914.57333273]
 [ 10763.7360275 ]
 [ 32075.78921043]
 [  9680.24097471]
 [ 10610.75968177]
 [ 60761.60303652]
 [-30571.55271839]
 [ -4925.73932023]
 [-11589.46472906]
 [ 32182.04597854]
 [ 33743.69404145]
 [-33614.44372786]
 [-17692.01514947]
 [ 62404.20178154]
 [ -3305.90000479]
 [  2098.8286466 ]
 [-15914.11707489]
 [-37227.40211492]
 [ 40415.52742801]
 [-15923.93284756]
 [-10742.37716167]
 [-26244.71307091]
 [-14973.29670585]
 [ 56697.43883124]
 [-37804.74491733]
 [ 11565.33717258]
 [-35413.72575331]
 [-32840.636328  ]
 [ 19143.35485195]
 [ 26794.4730734 ]
 [-13835.32874664]
 [  9717.21514908]
 [-12071.52996465]
 [-35524.49728431]
 [-17390.0859164 ]
 [  6406.15470008]
 [  3531.69270796]
 [ 55571.13283361]
 [ 31778.02036961]
 [ -6014.4641135 ]
 [-20151.82316073]
 [-17815.81272234]
 [-31610.22146874]
 [-23189.72455339]
 [ -6346.47419459]
 [-28102.00061291]
 [  -195.54050861]
 [-32821.80611663]
 [ 49461.21358653]
 [ -2856.98312608]
 [-10147.81615959]
 [ 36213.80574158]
 [ 30639.40290746]
 [ 12073.56157835]
 [ 11429.57427006]
 [ 16467.21827382]
 [  6150.1632051 ]
 [ 34399.56762579]
 [-34145.1646745 ]
 [ 51143.77312886]
 [ 22003.08242782]
 [ 33393.8095845 ]
 [-11007.81795216]
 [-37299.25556995]
 [ -7105.00757607]
 [ 43527.60384612]
 [-33499.43013342]
 [-29725.89043308]
 [-22279.50071919]
 [ 15102.4498875 ]
 [ 38266.14219147]]
