[[-26473.15425224]
 [  -458.71901781]
 [  9845.46084459]
 [ 15655.89983161]
 [-38629.07903941]
 [  4828.65787326]
 [ -1869.51431107]
 [ 63892.35993957]
 [ 14499.23402171]
 [-26156.25847921]
 [ 41173.77300121]
 [-27103.83014553]
 [-25094.22069864]
 [-47645.05552446]
 [-17276.92118991]
 [ 21158.44408475]
 [-28457.62202163]
 [-30151.75739141]
 [-46567.82943907]
 [-39452.00650218]
 [-22660.19169643]
 [ 83174.81177127]
 [-31610.87115004]
 [ 90667.4717347 ]
 [-22191.79525544]
 [ 88708.50708409]
 [-35797.4597186 ]
 [ 44776.26142104]
 [  5278.96515962]
 [-48639.30620181]
 [133634.88001865]
 [-28935.54813201]
 [ 41326.89862183]
 [ 19913.85049265]
 [-12700.50406431]
 [-30171.97859921]
 [  6783.65804576]
 [  2680.73497364]
 [-28608.13345161]
 [   639.44198513]
 [124224.1871025 ]
 [  1862.73939987]
 [ 28717.65489365]
 [-23643.30923745]
 [  -151.15360701]
 [ -9189.45516359]
 [-17892.56614762]
 [ 10653.03591578]
 [ -9996.5235827 ]
 [-19326.26688486]
 [-16501.18462821]
 [ 20187.06511507]
 [-28451.18569527]
 [-37353.11891215]
 [ -6140.01657379]
 [-15213.07146126]
 [-48714.46975701]
 [ 22011.95127067]
 [-11958.38431334]
 [ 58692.50897168]
 [ 38570.0233303 ]
 [ 14430.93914829]
 [ 14728.39052792]
 [ 12767.74586983]
 [ 15368.72660243]
 [-33950.27838705]
 [ 56561.32091311]
 [-10205.02125586]
 [-46471.41785079]
 [  7690.96620327]
 [-19672.33713185]
 [  4430.52462381]
 [-26215.99911955]
 [ 14364.55018436]
 [-45877.7352992 ]
 [ 76278.50262689]
 [-39504.69313233]
 [-37318.94695359]
 [  5839.49976462]
 [ 69160.99269678]
 [ 41795.77958755]
 [-36453.55669355]
 [-47203.06349119]
 [-45292.04277546]
 [-26781.06215298]
 [-26736.30761641]
 [ 21282.33545294]
 [-34878.95159866]
 [-16748.87779851]
 [-10309.19244373]
 [ -8343.02742736]
 [-23057.90693396]
 [-35318.22684219]
 [   422.49367083]
 [-40086.16786422]
 [ 79319.28823929]
 [ 41331.87228544]
 [ 22950.73207299]
 [-40212.73159376]
 [ 19536.86923346]
 [ 50646.6666885 ]]
