[[-12712.31729465]
 [ 35332.55152888]
 [-21472.38489222]
 [ 22192.95355788]
 [  7883.53682165]
 [-11064.2780407 ]
 [  9016.14347217]
 [-26411.67128584]
 [-13107.30757505]
 [-36584.31710132]
 [-22373.51477446]
 [ 53606.22532552]
 [  6084.03947891]
 [-39150.25843503]
 [-48037.6613011 ]
 [-48406.00387593]
 [-16745.54965529]
 [ -5312.77425969]
 [ 45389.18556669]
 [-24706.56851894]
 [  2556.40277594]
 [ 32049.4880765 ]
 [-32759.33150374]
 [128535.16558781]
 [-41979.97191326]
 [-51354.9255855 ]
 [-10456.25662923]
 [-31807.41169228]
 [-48301.60414779]
 [-35412.20611118]
 [-46861.52804374]
 [ 22122.2570888 ]
 [ -4571.35519225]
 [-30382.00394764]
 [-23407.23117773]
 [-30854.88905879]
 [154291.70848018]
 [-42031.28062723]
 [ 12080.87424446]
 [ 49952.25287909]
 [-37501.47589472]
 [  1328.52539727]
 [ -1133.69689282]
 [ -4991.17832147]
 [ 16347.26121554]
 [ 10640.61710248]
 [-32840.57578345]
 [  2188.16946166]
 [ 61960.54178238]
 [100389.28558691]
 [ 59313.05540442]
 [-10111.84912277]
 [-29913.75289845]
 [ 28982.25581603]
 [ -1554.84734332]
 [ -8168.99041555]
 [ 26141.68461109]
 [ 44623.1129565 ]
 [-13060.50760232]
 [ -6068.75275295]
 [ 83370.4794776 ]
 [ 67479.01871602]
 [-28272.67601013]
 [-48259.42807201]
 [-32882.28861921]
 [-22190.41674903]
 [ 17912.24993638]
 [-15115.27110857]
 [-42803.97012363]
 [ 20664.14306961]
 [-17585.67053158]
 [ 17454.99836348]
 [ 17819.73353794]
 [-33915.12561525]
 [-46143.05373494]
 [-33539.63240896]
 [-19485.35866528]
 [ 15354.77716973]
 [ 42173.11342128]
 [-24956.6166425 ]
 [-21001.53735747]
 [-33710.60004058]
 [-26114.84670786]
 [-25395.40227556]
 [ 15172.98200555]
 [ 79131.61827066]
 [110347.77541096]
 [-14405.05544815]
 [-15948.08500869]
 [  3157.76687176]
 [ 13431.81546677]
 [-47036.53468301]
 [ -2622.63858247]
 [-19084.77500986]
 [ 45923.84057286]
 [ 17026.30430566]
 [ -6156.64970672]
 [  7944.68793808]
 [  9571.20300349]
 [-38707.9389867 ]
 [ 53661.51396285]]
