[[ 7482.30854951]
 [ 2890.49629444]
 [ 3880.32114041]
 [ 5328.24124109]
 [-7031.42427181]
 [ 3463.282497  ]
 [-4403.77911313]
 [  -28.41442753]
 [-2111.09565638]
 [   54.80618991]
 [-4255.35812099]
 [-2089.22353934]
 [-6713.00590929]
 [-2103.35949849]
 [-1741.24461669]
 [ 7996.51652326]
 [17740.62048999]
 [ 1030.79624722]
 [ 1636.79206801]
 [-6250.09793746]
 [-4110.54324732]
 [ 3096.0962478 ]
 [ 5504.78314292]
 [-1866.58181957]
 [-5688.85302827]
 [-2713.68212022]
 [  817.16727251]
 [-2215.08272814]
 [ 2957.11318867]
 [-5495.77398652]
 [-5341.10962781]
 [ 2293.74774971]
 [ 4066.49613646]
 [-3895.29751567]
 [ 1899.37953721]
 [ -896.00223182]
 [ 3929.90430437]
 [ 4084.47511343]
 [-3378.43769478]
 [ 1922.29318374]
 [-3672.34430667]
 [  834.20088243]
 [-2500.33673697]
 [-5360.0118866 ]
 [-5843.00295063]
 [ 6991.48156952]
 [-1307.61597855]
 [  471.81997609]
 [ 5066.1826006 ]
 [ 4714.4735193 ]
 [-7733.66163633]
 [ 1487.84857093]
 [ 1367.00979577]
 [ -514.78082274]
 [ 1390.97537307]
 [ 1312.35441569]
 [-4968.82454666]
 [-7611.37947813]
 [ 5299.48657874]
 [-1731.51506336]
 [ 1226.33415947]
 [ 4270.89036356]
 [-6758.93979967]
 [ 4591.55362542]
 [ 1086.11975404]
 [ -101.64733319]
 [ 3984.14813095]
 [ -459.37866609]
 [-6322.32630563]
 [-3305.39566434]
 [-4125.99917179]
 [-2748.6102551 ]
 [ 1774.5679401 ]
 [-6543.34249551]
 [11258.1866922 ]
 [-2508.20353773]
 [  924.24546951]
 [ 3834.36915766]
 [ 1702.40764762]
 [ -729.90098716]
 [  987.41162685]
 [-6681.26243943]
 [-4067.96555633]
 [ 3107.28035711]
 [ -578.63089362]
 [-5172.38960211]
 [-2617.18982274]
 [ 5805.57515399]
 [ -139.21154347]
 [ 1801.98754427]
 [-3818.423159  ]
 [10487.66605091]
 [-4480.52140945]
 [ 2066.84197724]
 [-2771.26435667]
 [ 3139.8520628 ]
 [ 3450.01428057]
 [-1300.81034073]
 [-6459.08051518]
 [ 8751.41195867]
 [ 7946.90579852]]
