[[-14039.6506155 ]
 [ 33181.6961611 ]
 [ 15665.99305278]
 [-27347.76201528]
 [-29604.71738602]
 [  4710.44428198]
 [-12016.96542802]
 [-26372.9357721 ]
 [-36208.09311175]
 [ 53730.06974826]
 [ 30701.81253139]
 [ 48050.13641707]
 [ -7571.00553209]
 [-36856.04806307]
 [-32984.57897037]
 [ 18777.49172559]
 [ 10525.53579654]
 [ 20546.1079446 ]
 [ 10693.69924242]
 [-23912.7503587 ]
 [-14661.11872367]
 [ 28600.50995614]
 [ 28390.68066384]
 [ 31426.75425806]
 [  9314.95047617]
 [ -2343.73038472]
 [ 12549.73458658]
 [-15027.56822754]
 [ 13379.3127686 ]
 [ 10419.89857006]
 [-18717.31748115]
 [ 35686.62409459]
 [-26986.52896906]
 [-27753.65832628]
 [ 24440.93501565]
 [-27256.49460843]
 [-24235.49449232]
 [-30729.3453198 ]
 [-37331.05362075]
 [-35765.20477236]
 [ 36048.47950828]
 [  2026.9314991 ]
 [ 26093.1301133 ]
 [-28004.24001584]
 [ 17357.3662432 ]
 [-20252.65870984]
 [ 12560.36521066]
 [-23036.43028251]
 [-14223.57200298]
 [ 23904.61862635]
 [-26875.35162214]
 [ 11063.23528789]
 [ 36626.16611308]
 [-40689.67853957]
 [ 45610.7051529 ]
 [  8234.14211932]
 [-13116.43655514]
 [ 13602.8627415 ]
 [ 40701.01245147]]
