[[ 1.36626506e+04]
 [ 3.89420061e+04]
 [ 1.45066067e+04]
 [-3.32369432e+04]
 [ 3.34237405e+04]
 [-1.22777439e+04]
 [ 4.95113756e+04]
 [-8.56125044e+03]
 [-4.11593567e+04]
 [-1.21996916e+04]
 [-3.15987421e+04]
 [-1.53454635e+04]
 [-3.14702395e+04]
 [-3.51333097e+04]
 [-6.48034067e+03]
 [ 3.20845170e+04]
 [ 4.22148681e+04]
 [-3.49993759e+04]
 [ 1.21085149e+05]
 [-2.36152267e+04]
 [-3.99503026e+04]
 [-4.52016279e+04]
 [-5.02306124e+04]
 [-1.59791254e+04]
 [-3.75294122e+04]
 [ 9.28547686e+03]
 [-1.20617189e+04]
 [ 3.92662146e+04]
 [-3.02310797e+04]
 [ 1.47440227e+04]
 [ 9.22471211e+04]
 [-1.31866826e+04]
 [-1.21285595e+04]
 [ 2.54115461e+04]
 [ 8.08072996e+04]
 [ 4.50319328e+04]
 [-2.58548927e+04]
 [-4.63715425e+04]
 [-3.66301446e+04]
 [-4.84549286e+04]
 [-6.66115970e+03]
 [-2.11118383e+04]
 [-4.70325418e+03]
 [-5.34194825e+04]
 [ 2.60471839e+04]
 [-2.39452409e+04]
 [ 1.01546396e+04]
 [-1.59455682e+04]
 [ 4.07220869e+04]
 [-2.04141344e+04]
 [ 3.90597361e+04]
 [-1.40507941e+04]
 [-2.00067960e+01]
 [-4.05773855e+04]
 [ 4.75562811e+04]
 [-1.23107017e+04]
 [-7.41732507e+03]
 [-1.94307891e+04]
 [-1.85070772e+04]
 [ 1.09864004e+04]
 [-3.93961437e+04]
 [ 6.73326294e+03]
 [ 2.87518289e+04]
 [ 4.13930125e+04]
 [ 2.63870630e+04]
 [-1.74287921e+04]
 [ 2.97795613e+04]
 [-4.46550708e+04]
 [-2.83035020e+04]
 [ 1.56334389e+04]
 [ 2.72936320e+03]
 [-1.93918721e+04]
 [ 6.98199602e+04]
 [-4.36474263e+04]
 [-5.06061124e+04]
 [ 5.35992190e+04]
 [ 4.25561714e+04]
 [-4.51394317e+04]
 [ 1.11492702e+05]
 [-1.90239326e+04]
 [-4.36989873e+04]
 [ 1.41925284e+04]
 [ 7.72743408e+04]
 [-1.91531694e+04]
 [ 4.46050404e+04]
 [-1.97700936e+04]
 [-1.12635262e+04]
 [-3.85736631e+04]
 [-3.83156549e+04]
 [-2.68696654e+04]
 [ 1.25531937e+04]
 [ 3.77169923e+04]
 [ 1.80541165e+03]
 [ 3.06136649e+04]
 [-7.18493142e+03]
 [ 1.20739523e+04]
 [ 2.27930919e+04]
 [-3.02060110e+04]
 [-7.11966343e+03]
 [-1.10393461e+03]
 [ 5.38785362e+04]]
