[[  1153.3689706 ]
 [ 27601.2808507 ]
 [ -4389.81973194]
 [-22434.75511021]
 [ 34932.35368422]
 [110484.91705619]
 [  9914.98747086]
 [-37887.43705274]
 [ 90843.43960141]
 [-15828.24924438]
 [-34760.68970766]
 [-54380.81203838]
 [-41638.75030014]
 [  9330.01287046]
 [-44082.22157903]
 [ 25405.54530683]
 [ -6817.42421137]
 [-45618.38675698]
 [ 20313.00582198]
 [ 15013.06904132]
 [ 26482.49468182]
 [-26927.28610584]
 [ -1909.86965285]
 [  6834.06497293]
 [-50886.85982819]
 [  7778.91595705]
 [  9161.37272473]
 [-51693.39206629]
 [-51573.20647285]
 [ -2419.98549077]
 [-51339.80027988]
 [ 36747.72483672]
 [-40769.00564886]
 [ 20610.28210556]
 [ 42910.17664814]
 [   483.7379538 ]
 [ 27243.08429372]
 [ 49263.73535794]
 [ 17730.44341768]
 [ 23976.06247985]
 [-51972.04135401]
 [-51948.27859646]
 [ -4791.24626367]
 [-24577.98930053]
 [ 23150.86236828]
 [  8362.16917371]
 [ 19720.99710141]
 [ -5233.69328349]
 [ 46827.22184025]
 [-28757.7498222 ]
 [ 74247.94481206]
 [ -1239.93930109]
 [  5041.1383371 ]
 [ -1513.43085722]
 [ 28081.56007153]
 [-24572.22403243]
 [-19713.12825656]
 [ 32004.44826379]
 [  -301.09455278]
 [ 40488.06434428]
 [137155.53772154]
 [-51316.04665717]
 [-22797.66052693]
 [ -4038.23937461]
 [-39889.32548739]
 [ -7604.20528575]
 [-12670.78188592]
 [-23008.40039794]
 [ 38304.00444228]
 [-13263.62480146]
 [ 11044.98398475]
 [-25312.79871883]
 [-16977.94619058]
 [-18718.29948628]
 [ 16074.22059389]
 [  9180.00985049]
 [-17896.30396943]
 [-51209.16971612]
 [-33197.78834534]
 [137212.1679862 ]
 [-42982.29909076]
 [-35599.67336416]
 [ 37165.15325959]
 [  6083.29777328]
 [ 23010.19019748]
 [-32166.74039911]
 [ 11550.10645702]
 [-51336.56956332]
 [ 51951.81997083]
 [ -5127.91365017]
 [-37025.7237021 ]
 [ 36407.95732233]
 [-12537.40357131]
 [-41454.26236974]
 [ 33457.93788013]
 [ -1065.84734625]
 [ 51803.4310809 ]
 [ -9731.81246503]
 [-48440.37463537]
 [-37191.32303776]
 [ 54861.19733318]]
