[[ 40315.26535768]
 [ 90941.27014175]
 [  3421.50095822]
 [ -1063.60786443]
 [-35530.67617086]
 [ 38643.05917569]
 [ 11120.37917876]
 [ 23592.89963245]
 [-43250.07932757]
 [-18481.79635374]
 [ 23352.70420381]
 [ 35036.66374956]
 [-38826.32503642]
 [ -2786.93919269]
 [ 28514.37842668]
 [-43885.43420406]
 [  5528.63295716]
 [-44777.4051078 ]
 [-31621.330309  ]
 [-37609.05794786]
 [-43567.02599712]
 [ 28972.29784542]
 [-40810.49517209]
 [-33686.48523239]
 [   740.015037  ]
 [ 26614.27091429]
 [-43321.63223212]
 [  4702.59850361]
 [ 13184.07519848]
 [ 50685.26025165]
 [-24002.49457909]
 [ 57321.83709814]
 [-37292.3642254 ]
 [ 54855.70956363]
 [ 14246.99532506]
 [ 21656.66669704]
 [ 32344.94491538]
 [ 11570.74498284]
 [ 13528.5103719 ]
 [ 23809.74335569]
 [ 42728.88840489]
 [-15094.47485549]
 [ 22423.1747484 ]
 [-41542.16355875]
 [-41389.9520977 ]
 [ 13983.06900961]
 [ 19788.98346932]
 [  6373.55167398]
 [  3780.57853443]
 [ -8095.42128293]
 [  4846.52911895]
 [ 62724.91462341]
 [ 23589.17902784]
 [-38283.47831943]
 [-41673.65852167]
 [ -7178.09543997]
 [-38845.44020557]
 [ -1877.47413517]
 [-40907.72390711]
 [ 70772.03921601]
 [-40139.42807364]
 [-16853.27052529]
 [  2515.50759098]
 [-15255.61636962]
 [ 52139.58164687]
 [-42993.09487789]
 [ 11571.75779199]
 [-21158.76110322]
 [-40876.80129992]
 [ 27767.27913546]
 [  2744.96983611]
 [ 12216.08501836]
 [-24135.79870866]
 [-18606.55131247]
 [ 23086.06952319]
 [ 69484.36981123]
 [ -1989.41538643]
 [-28832.27499669]
 [-32153.16458413]
 [-42163.39269273]
 [-31254.67535643]
 [  1750.6147294 ]
 [   673.4010128 ]
 [-43309.07262817]
 [-36740.83530495]
 [  9329.67737594]
 [ -6318.4408552 ]
 [ 21382.79903373]
 [ 23958.95617554]
 [-32374.37417595]
 [-20419.97313778]
 [ 37168.45481882]
 [ 14084.35069356]
 [ 29621.76365132]
 [ -1412.39950239]
 [ 27181.40265397]
 [ 45416.82883967]]
