[[-5532.2942284 ]
 [-2509.54026421]
 [12188.44822252]
 [ 3505.74130737]
 [-6740.19904667]
 [ 3067.542537  ]
 [-2381.30013744]
 [-1933.12755729]
 [ 2413.66032015]
 [-1632.54440165]
 [ -965.98517209]
 [-4047.56876449]
 [ 4912.93937721]
 [ 4653.85656384]
 [ 7164.33457842]
 [ 2673.11616228]
 [ 5020.04055982]
 [-1509.94751982]
 [-5109.72289438]
 [ 1224.33098464]
 [-3416.17917179]
 [ 5740.75409056]
 [ 3590.02737421]
 [ -989.52309317]
 [-1903.41805832]
 [  165.76302705]
 [  207.86478587]
 [-1653.65182501]
 [-3311.18573504]
 [ 6063.40286057]
 [-3908.70835853]
 [ 6077.24044249]
 [-2178.53982879]
 [ 1390.26759404]
 [  -76.19776772]
 [-1393.87371845]
 [ 9947.55852563]
 [-2091.54544454]
 [ 3827.25892329]
 [ 4754.98605986]
 [ 5628.19826734]
 [ 4274.93060994]
 [-2540.78945233]
 [-3403.56599712]
 [-1505.52519425]
 [-6886.51282261]
 [ 3917.07091196]
 [-2337.92270958]
 [ 5023.49315223]
 [-5292.64221173]
 [ -471.31398599]
 [-6937.75398469]
 [ 2982.87119168]
 [-3873.69486495]
 [ 7128.00403034]
 [ -633.24144266]
 [ 2756.16039238]
 [ 3391.71630761]
 [-4329.53915567]
 [10215.78225435]
 [-3622.30411891]
 [-2204.85968249]
 [ 3271.86759104]
 [-2059.5802698 ]
 [-5007.19844424]
 [-6496.34629378]
 [-6158.75129403]
 [-5026.44925612]
 [-4158.89854828]
 [ 2491.64274225]
 [-2289.4903045 ]
 [ 3064.99517689]
 [-6054.8764151 ]
 [ 5351.39898827]
 [-5960.43810251]
 [-2087.22883592]
 [ 2063.754903  ]
 [-4615.41086564]
 [10936.43020996]
 [ 3815.96485627]
 [-4572.28855355]
 [-1298.44212673]
 [-2634.63740454]
 [-4537.59362473]
 [-1783.24711076]
 [ 3452.37952026]
 [-1051.37639359]
 [ 6715.26305269]
 [ 3650.87562603]
 [-2246.99963739]
 [-5076.77880903]
 [-4312.49999365]
 [ -783.35883307]
 [ 4328.95394659]
 [-4170.37342743]
 [ 5281.17751308]
 [ 2834.97796163]
 [-1454.15320689]
 [-4524.86700386]
 [-5481.0401367 ]
 [ 7758.20379993]]
