[[-35880.89852868]
 [-32966.62131553]
 [-35065.72221982]
 [ 14912.01021724]
 [ 21142.65313308]
 [  7890.9123106 ]
 [-21134.82853231]
 [ 22468.12767643]
 [ 15305.85050679]
 [-25657.0461507 ]
 [  9955.76335771]
 [ 14736.5923238 ]
 [  5063.785414  ]
 [-32677.50299678]
 [-14493.01633415]
 [ 43715.092994  ]
 [ 74299.80506417]
 [ 31482.44111749]
 [ 10119.99788364]
 [ 41947.24500866]
 [ 21515.60804151]
 [ -8164.21600753]
 [-30222.10064857]
 [ 47265.80102333]
 [-11738.53788944]
 [  4244.78472343]
 [  -245.77416328]
 [ 20422.46145269]
 [ -1699.01670107]
 [-30344.37554468]
 [ 27376.019356  ]
 [-23547.13986739]
 [  2661.51002581]
 [-10127.83410752]
 [ 20920.99620468]
 [ 30822.72876573]
 [ 17348.06915858]
 [ 12240.97583731]
 [-37520.94601139]
 [  6972.80615694]
 [-18543.12618103]
 [-27052.50996356]
 [ 22828.63358295]
 [ 92138.76446162]
 [ 39370.77767186]
 [-20440.21723215]
 [-34811.50985199]
 [-14647.21773492]
 [ 16720.3401404 ]
 [-16301.0696742 ]
 [-26142.36615775]
 [-11128.64231753]
 [ 19965.98318177]
 [-20721.72237023]
 [-24949.83109611]
 [-35855.7590562 ]
 [-16178.38090944]
 [ -3664.49705519]
 [-35364.97260372]
 [-27411.37986809]
 [  1955.29684364]
 [-33113.05454489]
 [ 38382.46552364]]
