[[-19975.44157827]
 [  5173.75588598]
 [ 24281.3141147 ]
 [ 40952.08565923]
 [-13218.29962477]
 [ 23051.70320339]
 [-17973.26020983]
 [-15287.46308978]
 [  9106.31228617]
 [-16598.50854931]
 [ 42889.917545  ]
 [  1965.58315638]
 [ 27653.84141365]
 [ -4423.39886673]
 [ 28052.70463584]
 [-36036.85725623]
 [ -1207.09568446]
 [  1723.35069395]
 [-17094.59132338]
 [ 69437.66557068]
 [ 42449.90703379]
 [-19512.79642428]
 [-31587.00312544]
 [ -3425.98656445]
 [ 35207.4245218 ]
 [-17044.82313335]
 [ 11315.98530982]
 [ -8675.73028861]
 [ 18743.24256817]
 [-29970.57813931]
 [-19711.12248436]
 [ 32087.92615084]
 [-35652.91494926]
 [-16421.07945352]
 [ 43704.69447986]
 [-14528.90210895]
 [-21622.99528257]
 [-22802.12727082]
 [-28532.26374226]
 [-35248.68765661]
 [ -7398.5804092 ]
 [-27968.26422533]
 [ 24693.33053301]
 [-35836.25807932]
 [ 30467.3959846 ]
 [ 55213.49095814]
 [ -1478.74662786]
 [  1866.05890258]
 [ 15480.28499768]
 [-28167.26586732]
 [ 20529.64373729]
 [ 12728.64188958]
 [  1410.66894073]
 [  1159.28953198]
 [-14047.65757826]
 [-29885.05275716]
 [ -1523.02213141]
 [ 10339.50403808]
 [-19790.52874623]
 [-15021.77585945]
 [-26335.61605513]
 [ 24278.28906989]
 [ -9712.68782493]
 [ 50829.4546431 ]
 [  6086.22578779]
 [ 19684.36978447]
 [-35630.17596229]
 [ 39713.72821237]
 [ 23322.079822  ]
 [ 38979.74077136]
 [ 40227.70022956]
 [ 47866.91984   ]
 [  8306.02659242]
 [  2138.57876932]
 [-23463.21669586]
 [ 14161.25206274]
 [-27872.8248113 ]
 [-25448.62491994]
 [-33489.27584595]
 [ -1449.57933334]
 [ 30938.0006372 ]
 [-15232.1629587 ]
 [-29302.60429126]
 [-14420.05264579]
 [  4045.64282818]
 [-28104.98702248]
 [   705.58446199]
 [ -2708.64879617]
 [-24815.51152834]
 [-13144.85738288]
 [ 13291.35397142]
 [  5219.63651413]
 [  2958.30320279]
 [-38778.21304028]
 [ 16522.44666769]
 [-10432.65759584]
 [ -7252.56148728]
 [-32985.25179661]
 [-18548.62324296]
 [ 25836.15471409]
 [ 40461.60083679]]
