[[-35702.0335641 ]
 [ 36001.75947099]
 [  5170.31279698]
 [ 30911.36046897]
 [-28610.40070575]
 [-12972.08073168]
 [  3919.1243578 ]
 [-35870.06181505]
 [-26502.00530415]
 [-50133.46844063]
 [  6413.5235399 ]
 [ 46754.25543468]
 [-49758.22970624]
 [-48563.67740198]
 [-41464.11508962]
 [  4605.02567924]
 [  3067.83322475]
 [-49897.67382988]
 [ 68932.15460144]
 [-28429.74919618]
 [-22982.54966208]
 [ 19572.85665915]
 [ 26401.66625311]
 [ 55125.23254637]
 [ 67335.65252399]
 [-43227.66683055]
 [ 31406.29080146]
 [-11939.81531143]
 [-45442.87467111]
 [ -9073.52762188]
 [  -359.29271539]
 [   588.56692169]
 [ 53337.65359607]
 [-22352.64063893]
 [-26747.12299723]
 [ 53590.90487006]
 [-26021.02797818]
 [ -2980.81210322]
 [ 25636.67847262]
 [  -237.36498786]
 [ -9888.1504638 ]
 [ 15396.90763882]
 [ 97920.0077964 ]
 [ 13023.44666382]
 [ 42764.3585837 ]
 [ -8946.89550206]
 [-17425.08914191]
 [ 28036.11861156]
 [ -9240.51287215]
 [-28125.90949856]
 [ -6725.58301821]
 [ 61094.36496779]
 [  4649.42266911]
 [-26048.63023698]
 [108046.85008781]
 [  -944.24767223]
 [ -3232.78869154]
 [-44414.66631427]
 [-30070.03734337]
 [  1996.32554842]
 [-12912.70772803]
 [-19451.90325486]
 [-17719.49074616]
 [ 11162.25921222]
 [ 10528.617122  ]
 [-47764.42615021]
 [-15866.34446651]
 [-30922.66450351]
 [-41475.99752048]
 [ 56552.68566447]
 [-17046.44488889]
 [ 43090.23393847]
 [ 74360.06370446]
 [ 37135.23932912]
 [ 67454.95889764]
 [-35533.4932031 ]
 [-26506.9749486 ]
 [ 29758.29271672]
 [  7059.416632  ]
 [-19350.80016289]
 [-35501.63340533]
 [ 40148.43149683]
 [-40413.77706884]
 [-41498.28370554]
 [-41347.62675128]
 [-32763.57113261]
 [ 29169.35624467]
 [118295.95501915]
 [ -6070.15168105]
 [-46173.23095704]
 [-16809.04506871]
 [-44928.40986618]
 [  7848.78673154]
 [-25756.40510302]
 [ -9213.70608938]
 [ 36956.72685668]
 [ -6893.39697968]
 [ 14088.32309519]
 [-42599.82116504]
 [-16456.99284273]
 [ 52718.87305435]]
