[[ 40183.56035009]
 [-37155.23056632]
 [-26741.69835591]
 [ 46793.16913604]
 [112704.34108583]
 [-28318.70291748]
 [-57710.14809321]
 [-43519.31699724]
 [ 89743.27190764]
 [-15721.55757833]
 [ 19084.78096287]
 [-45323.096585  ]
 [ -4700.40113684]
 [ 12606.05225881]
 [ 28363.66267016]
 [-36837.50531843]
 [ 91986.25690796]
 [ -7236.50909923]
 [-29431.27874121]
 [  2237.16438877]
 [139150.00349929]
 [-51363.894951  ]
 [-71535.28793863]
 [ 51194.04719643]
 [-11858.73106681]
 [-55335.0434651 ]
 [-52680.65359462]
 [ 13543.1154489 ]
 [-67482.10571459]
 [-67460.41011946]
 [-61155.64018162]
 [ 49248.88182699]
 [ 24922.20723197]
 [ 23936.99857064]
 [-33298.38737467]
 [-53402.59742085]
 [ 29382.42827634]
 [-23670.96969183]
 [-21183.57863963]
 [-70408.88862611]
 [ 99209.36934552]
 [-48925.75674882]
 [-28264.46162514]
 [-39394.7720213 ]
 [  9233.19802066]
 [ 29388.45893751]
 [ 43517.95042608]
 [ 56658.86919537]
 [ 72439.06670267]
 [-24989.70782884]
 [ 44260.26311167]
 [ 21422.27545116]
 [-56205.90984114]
 [-57153.89472259]
 [ -7702.07123216]
 [  7155.34451259]
 [ 83321.80552312]
 [-34212.54567359]
 [  7090.22695173]
 [-19284.65990516]
 [   433.56105181]
 [ 65095.56608416]
 [-64877.53293075]
 [ 61388.99404018]
 [ 65848.67421038]
 [ -4812.53618574]
 [ 13801.78514528]
 [ -4201.0847176 ]
 [ 60251.77154193]
 [  1665.81410971]
 [-29276.51703527]
 [ 36557.25754322]
 [-45226.82089208]
 [ 17833.36028318]
 [ -1903.80101655]
 [-47741.63216777]
 [-17880.85024073]
 [-25805.52379576]
 [ 86620.27559862]
 [ -1852.77080054]
 [ 11727.98298551]
 [-16596.96601286]
 [-21270.79989192]
 [-65279.84917736]
 [-48972.7101499 ]
 [ 18609.34457596]
 [-69909.71233112]
 [ 13325.59049758]
 [ 41361.70275041]
 [101147.19825548]
 [-42571.39631026]
 [-10691.00733061]
 [  -317.19159682]
 [ 11075.46296139]
 [-49436.73612833]
 [-14520.39310877]
 [ 16130.64218297]
 [-36575.64379163]
 [-11558.42603607]
 [ 49293.56170674]
 [ 75597.29161162]]
