[[-29912.8781792 ]
 [   908.24826504]
 [  2538.86304969]
 [  5727.32590244]
 [-27303.45451896]
 [  3862.48111786]
 [-12596.15211706]
 [  9183.25414653]
 [-13497.98898541]
 [ 45042.36059307]
 [-25031.63250377]
 [-31254.1402169 ]
 [-25751.1035745 ]
 [  4956.60850077]
 [ 63382.03052678]
 [-28971.17644118]
 [ 29314.55370892]
 [ 11497.63131503]
 [ 10744.85811452]
 [ 13552.76048555]
 [-32461.73997136]
 [-16729.07447458]
 [-10834.9815967 ]
 [ -4276.01059333]
 [-14326.64239773]
 [ 40074.53452471]
 [-18159.26402822]
 [-22041.18370966]
 [ 32478.47011398]
 [-36393.10422186]
 [-38443.01040486]
 [-32383.49258596]
 [ 40066.46946466]
 [  4097.36369648]
 [-32744.03196225]
 [ 14246.19173708]
 [ 33506.78093253]
 [ 13187.3983451 ]
 [-31408.13399383]
 [-39545.75144118]
 [-30765.23256534]
 [ 77709.57655764]
 [ 19111.56176203]
 [-15183.44128219]
 [  1203.29706974]
 [  2486.7751297 ]
 [-28196.84540192]
 [  2301.6250814 ]
 [-38328.68484011]
 [ 52829.03401805]
 [ 19472.84968476]
 [ -6152.8876381 ]
 [-38458.59669133]
 [ 11081.11502715]
 [ 11105.43463361]
 [  1481.9495949 ]
 [ -7602.5873948 ]
 [ 24198.28327397]
 [ 20340.78952927]
 [-23183.51526906]
 [-13479.4433684 ]
 [ 26003.53390225]
 [ 37264.9850048 ]
 [ 21314.39822806]
 [ 12308.54294624]
 [-21009.25086932]
 [ 32448.93152617]
 [  3878.29400719]
 [ -4807.19228795]
 [  9222.53863869]
 [-21827.2533154 ]
 [  7482.86215885]
 [  1707.3682308 ]
 [-37224.13453627]
 [-16278.81277262]
 [ 47345.46935424]
 [  6312.88004354]
 [  -417.4537925 ]
 [ 40615.00491928]]
