[[-6.06633640e+04]
 [ 4.19555091e+03]
 [ 2.11319977e+04]
 [-6.17159063e+04]
 [ 1.94055845e+04]
 [ 1.66192666e+03]
 [-4.29707985e+03]
 [-5.78067004e+03]
 [-3.34301401e+04]
 [ 1.36447074e+04]
 [-3.66829540e+04]
 [-3.59714796e+04]
 [ 1.37705651e+04]
 [ 5.95713893e+04]
 [-4.83406468e+04]
 [-2.92626229e+04]
 [-2.90447801e+04]
 [-2.61514421e+04]
 [ 4.57940809e+04]
 [ 4.13173533e+04]
 [ 4.39472487e+04]
 [-2.82345934e+04]
 [-5.03618008e+04]
 [-4.44943926e+04]
 [ 5.66232405e+04]
 [ 3.90007659e+04]
 [ 3.16558027e+04]
 [-1.73622073e+04]
 [ 1.64884928e+03]
 [-1.82937782e+04]
 [-4.54214720e+04]
 [-3.23639920e+04]
 [-1.58366970e+04]
 [-4.27011519e+04]
 [ 4.26275210e+04]
 [ 1.31503833e+04]
 [ 6.24690276e+03]
 [-3.32488160e+04]
 [-3.31334984e+04]
 [-4.75783586e+04]
 [ 2.04659942e+03]
 [-1.38041914e+04]
 [ 1.08136677e+05]
 [-2.55124418e+04]
 [-1.29262027e+04]
 [-2.69171329e+04]
 [ 1.14799934e+04]
 [ 6.52795071e+04]
 [-4.07213308e+04]
 [-3.47118835e+04]
 [ 2.56056824e+04]
 [-2.53983972e+04]
 [ 1.81967737e+04]
 [ 1.84255545e+04]
 [-2.50943735e+04]
 [-2.23518836e+04]
 [ 1.15713048e+03]
 [ 2.75937737e+04]
 [ 5.60090819e+04]
 [-6.97389514e+02]
 [-3.74962251e+04]
 [ 1.18536386e+04]
 [-3.15548659e+04]
 [-3.97270483e+04]
 [-1.35240610e+04]
 [-3.42334266e+04]
 [ 1.33608924e+04]
 [ 1.94441564e+04]
 [ 1.33252013e+01]
 [ 9.79889294e+03]
 [-4.03970259e+04]
 [-1.52722356e+04]
 [-3.26146656e+04]
 [-4.93972368e+04]
 [-1.41984250e+04]
 [-3.19974697e+04]
 [ 8.41959722e+04]
 [ 8.06387086e+04]
 [-4.48721964e+04]
 [-3.01042746e+03]
 [ 2.59299971e+04]
 [-3.50525938e+04]
 [-6.51218227e+04]
 [ 9.20384678e+04]
 [-1.93473822e+04]
 [-1.56811522e+04]
 [ 4.83891644e+04]
 [ 9.22497596e+04]
 [ 1.74956487e+04]
 [ 7.87285137e+04]
 [-1.37306652e+04]
 [ 5.83621074e+04]
 [ 5.18804174e+03]
 [ 2.59326036e+04]
 [ 4.87050208e+04]
 [-1.20433350e+04]
 [-2.26958573e+03]
 [ 2.84586922e+04]
 [ 1.54467034e+03]
 [ 2.83960002e+04]
 [ 6.87615017e+04]]
