[[-5791.64198249]
 [ -788.7155948 ]
 [-4480.30646579]
 [-4200.42376924]
 [ 2414.6146778 ]
 [-5173.47220397]
 [-4075.11981682]
 [ 4766.24014226]
 [-3061.78193692]
 [ 5309.7643691 ]
 [-1593.28212017]
 [ 8566.66651862]
 [ 3066.86230309]
 [-1290.08926577]
 [-2849.29486691]
 [ 3346.10929909]
 [  -22.5143824 ]
 [14677.51600874]
 [-4529.31760027]
 [-2232.38226142]
 [ -969.99273682]
 [-3049.85715088]
 [-1041.71299009]
 [-2458.13820374]
 [ 1968.25280382]
 [ 2510.54252752]
 [-2858.96235443]
 [ -119.29228799]
 [ 5658.55216096]
 [-6264.07103076]
 [ 3895.99993866]
 [ 8775.78664492]
 [-1930.39022184]
 [-7381.19447985]
 [-5206.415701  ]
 [-2639.80407977]
 [ 2857.43820015]
 [ 5848.22455293]
 [ 7725.9021899 ]
 [-1687.69736607]
 [-4939.24658035]
 [ 6988.2651809 ]
 [ 2484.58615185]
 [ 4407.76407996]
 [-6954.59222518]
 [-4585.62027293]
 [ 4753.77710054]
 [ 1810.76989666]
 [   58.03187305]
 [ 3484.14174148]
 [-1394.13888229]
 [-4573.44093521]
 [-4571.49255819]
 [ 5552.36177455]
 [13069.89786694]
 [ 6785.83332415]
 [-7359.35679649]
 [ 3658.41194416]
 [ 2433.23425958]
 [-5506.80434001]
 [ 9738.35255304]
 [ -776.64102954]
 [-2206.97510505]
 [-7090.96158137]
 [ 2743.49196628]
 [-6667.49186983]
 [-3971.49477281]
 [ -223.66822964]
 [-3734.55556725]
 [-4969.69872373]
 [-3520.80784729]
 [-6536.73669779]
 [ -326.12350001]
 [ 6575.12893717]
 [-1514.81113957]
 [-4175.26824998]
 [ 2122.8082644 ]
 [-6600.60725218]
 [-5086.38990211]
 [ 5937.90318655]
 [ 4523.70402458]
 [ 6105.22165882]
 [-3783.76341473]
 [ -284.28491586]
 [ 1082.66018849]
 [-2306.16584838]
 [ -399.48089397]
 [-2432.45532923]
 [-3477.75600758]
 [-1144.7360406 ]
 [ 5428.34571617]
 [-2500.72438851]
 [-4746.74884035]
 [-2978.30362331]
 [ 4396.22818476]
 [-3356.71410996]
 [ 1487.49933909]
 [ 2274.64750344]
 [ 3299.75997435]
 [ 7802.62931291]
 [ 7452.96988472]]
