[[-12477.25237332]
 [ -3622.18967408]
 [ -1747.25613756]
 [-25223.35253089]
 [ 56655.37418708]
 [ -4023.22897596]
 [  9736.43389243]
 [-33752.65722971]
 [  4617.73567972]
 [ -1535.14012671]
 [ 12566.2351737 ]
 [ 28279.49763934]
 [-59840.63994835]
 [ 22210.78706984]
 [-53737.4176431 ]
 [ 22648.41935988]
 [ -6181.96913711]
 [-43240.2995329 ]
 [ 41502.60663779]
 [-34466.20198802]
 [-38325.04845233]
 [ -6523.51216479]
 [ 65259.8328391 ]
 [  7793.52108225]
 [-12626.74365738]
 [ 40870.4405235 ]
 [ 12106.911286  ]
 [-46363.2469643 ]
 [  -394.1414663 ]
 [ 32557.69040435]
 [-13073.83849548]
 [-17022.2950618 ]
 [-32392.76729934]
 [ 10304.8039619 ]
 [  1251.19983313]
 [-46863.35080461]
 [-12553.23298326]
 [ 21238.82800384]
 [-59293.89841606]
 [-35187.02632722]
 [-54965.96849511]
 [  -403.8486347 ]
 [-12649.88885033]
 [-11270.52049689]
 [-26159.00029855]
 [-51219.08806733]
 [ 74796.83768293]
 [-28105.87473424]
 [  3075.92455079]
 [115606.48879254]
 [  6370.31440365]
 [-26828.45541002]
 [ 15622.18601992]
 [ 36940.50520585]
 [ 68728.92535698]
 [ 25112.77697757]
 [-51044.95163275]
 [-25475.73788307]
 [ 44448.44859868]
 [ 13650.98947498]
 [ -5358.61826045]
 [-39300.0428428 ]
 [-49420.87636466]
 [ 47803.59935747]
 [-53840.38901299]
 [  6726.24066555]
 [-18774.91607131]
 [ -2305.09816348]
 [ -3203.43941246]
 [-23321.54262761]
 [ -5792.20174033]
 [ 25153.34341809]
 [-25844.57184664]
 [ 40552.12967397]
 [ 63936.16323952]
 [ 29527.09295245]
 [-50389.93567391]
 [-26233.89232766]
 [ -2390.63322429]
 [  7989.2132642 ]
 [ -1345.41362415]
 [-25679.94341532]
 [-16967.0895386 ]
 [ 13800.75864166]
 [ 65701.67011048]
 [ 16233.95486429]
 [ 13273.03508996]
 [-22447.63965966]
 [ -9534.94193801]
 [-50216.15789263]
 [ 68698.39051656]
 [ 11673.00752955]
 [ -7286.07770106]
 [ 14165.06135384]
 [235755.8220801 ]
 [ 12818.90320712]
 [-13224.68072604]
 [-33352.7867503 ]
 [-40716.15669559]
 [-52225.01319901]
 [ 63721.97388444]]
