[[-1.99643941e+04]
 [-1.25159582e+04]
 [-2.99267475e+04]
 [-3.51704381e+04]
 [ 8.86806012e+03]
 [ 1.11739303e+04]
 [ 5.55756929e+02]
 [-5.03243619e+03]
 [-3.71109555e+04]
 [-3.58466472e+04]
 [ 7.90145391e+03]
 [-4.00803894e+04]
 [-2.16924047e+04]
 [ 1.52378519e+04]
 [ 1.47004265e+04]
 [ 5.90905681e+04]
 [ 7.55611315e+03]
 [-1.44515119e+04]
 [-4.27788270e+04]
 [ 4.88064996e+04]
 [ 2.43730164e+04]
 [-3.21956571e+03]
 [ 3.63280678e+04]
 [-3.79727138e+03]
 [ 1.26822261e+04]
 [-3.21580504e+04]
 [ 7.53697283e+03]
 [ 2.17830168e+04]
 [-3.12715777e+04]
 [ 2.16142144e+03]
 [ 2.27296917e+01]
 [-8.49192419e+03]
 [-1.62822745e+04]
 [-1.20161282e+04]
 [-4.16290258e+04]
 [ 4.60501846e+04]
 [ 5.92947576e+04]
 [ 5.91654046e+04]
 [-4.61662517e+03]
 [-3.14196890e+04]
 [ 6.18879110e+04]
 [-1.77073513e+04]
 [-3.78151512e+04]
 [-3.86306482e+04]
 [-2.63570741e+04]
 [ 4.64261223e+04]
 [ 4.73180722e+04]
 [-3.61051271e+04]
 [ 1.88368907e+04]
 [-2.83883269e+04]
 [ 2.93381526e+04]
 [-3.19010453e+04]
 [ 1.75833129e+04]
 [-3.93225249e+04]
 [ 3.51774403e+03]
 [ 3.76810878e+04]
 [-6.87057407e+03]
 [-2.80581685e+04]
 [ 3.72237909e+04]
 [-1.52580659e+03]
 [-9.35781647e+03]
 [-1.13057779e+04]
 [-2.66480461e+04]
 [-2.49166607e+04]
 [-3.92026418e+04]
 [ 5.86949651e+03]
 [-4.07663035e+04]
 [ 4.77159505e+04]
 [-3.19955614e+03]
 [-4.22098319e+04]
 [ 2.17877777e+04]
 [-2.41065692e+04]
 [ 1.38280924e+04]
 [-3.46430887e+04]
 [-9.28893644e+03]
 [ 2.06187779e+04]
 [ 3.95954486e+04]
 [ 6.15785594e+04]
 [ 3.81368109e+04]
 [ 7.08684430e+04]
 [-4.05815694e+04]
 [ 4.26266299e+04]
 [-2.73460913e+04]
 [ 4.35511130e+04]]
