[[ 20550.84695982]
 [ 48590.72940458]
 [ 51529.39779357]
 [ -8452.43817503]
 [ 65955.70321852]
 [-30213.18496091]
 [-31748.80623769]
 [-27100.21525755]
 [-33128.18394579]
 [-41209.62398181]
 [-35678.44948421]
 [ 27873.76301725]
 [ 21815.09386902]
 [ 36388.27582471]
 [ -7122.50385054]
 [-43954.94419741]
 [  3050.57319317]
 [ 20834.02671319]
 [ 39489.56760032]
 [  8516.17059012]
 [-11773.46366517]
 [  5342.73972926]
 [-25008.92760091]
 [ 23097.99176191]
 [ 27401.44152923]
 [ 21859.8691202 ]
 [-24344.32642414]
 [-39178.7416644 ]
 [-16705.96427468]
 [-40237.52491667]
 [ 19050.35746295]
 [ 73384.96170855]
 [ 17873.97256805]
 [ 16273.73427627]
 [ 11439.94414117]
 [-20088.87715707]
 [ 65363.64406222]
 [-19634.82112182]
 [ 41975.09742457]
 [-13646.89911842]
 [ 95229.34348845]
 [-18296.88656601]
 [-38848.47266495]
 [-25319.39401484]
 [-21918.51597038]
 [-10795.26452743]
 [ -4972.12368131]
 [  5943.21837623]
 [ 15181.87408828]
 [ 13642.88206371]
 [-40786.01779339]
 [-45574.57798676]
 [-12645.42062003]
 [-12076.97311365]
 [-43729.56537534]
 [ 19147.49334219]
 [ -3121.75847766]
 [ 22247.2384838 ]
 [ 38808.85917581]
 [ -1480.15566501]
 [-40699.07961531]
 [ 18076.7730419 ]
 [ 37921.51839581]
 [ -1810.19335349]
 [-45518.06014824]
 [-33195.14564541]
 [-28636.47640692]
 [ -1653.8143964 ]
 [ 32728.23748978]
 [  6317.25441711]
 [-37360.39786875]
 [  1448.06673395]
 [ 47631.61643744]
 [-18920.21387076]
 [-40077.16352594]
 [ 16459.04410875]
 [-28472.71615473]
 [-45998.58664681]
 [ 23986.60347507]
 [ -2933.81283079]
 [ 11640.7578676 ]
 [ 49018.60778536]]
