[[-9.47815196e+03]
 [ 1.69216430e+04]
 [-3.97175486e+04]
 [-2.62740665e+04]
 [ 2.12652831e+04]
 [-2.28228111e+03]
 [-2.52621780e+03]
 [ 4.64587903e+04]
 [-1.37923438e+04]
 [ 4.42818578e+01]
 [ 3.18755335e+03]
 [ 9.85813167e+03]
 [-2.57537630e+04]
 [-2.61182805e+04]
 [-6.74810435e+03]
 [-3.81034234e+04]
 [ 3.01159181e+03]
 [-2.54286749e+03]
 [ 1.79455389e+04]
 [-3.24634402e+04]
 [ 1.15149241e+04]
 [ 5.76404053e+04]
 [ 3.64046608e+03]
 [-2.94880196e+04]
 [ 5.99606721e+04]
 [-9.80246522e+03]
 [ 1.43234053e+04]
 [ 3.25295319e+04]
 [ 2.57551269e+04]
 [-1.08236792e+04]
 [-1.67708544e+04]
 [ 1.83263504e+04]
 [-6.71525827e+03]
 [-1.20747194e+04]
 [-3.29643413e+04]
 [-2.45109359e+04]
 [-2.08410448e+04]
 [ 9.33477894e+03]
 [-2.67935212e+04]
 [ 4.87655473e+04]
 [ 5.64189334e+04]
 [-2.22465962e+04]
 [-8.90961925e+03]
 [ 1.79567132e+04]
 [-3.09875535e+04]
 [ 4.32563133e+04]
 [ 1.76988587e+04]
 [ 1.61840658e+04]
 [-3.29371179e+04]
 [ 2.23428198e+04]
 [-1.79809169e+04]
 [-2.18055699e+04]
 [-2.40930746e+04]
 [-3.45551834e+04]
 [ 1.69952465e+04]
 [-7.26888806e+03]
 [ 7.17127355e+03]
 [-2.99714397e+04]
 [ 1.89231338e+04]
 [-2.37956728e+04]
 [ 4.11002654e+04]
 [-3.50483937e+04]
 [-1.29112718e+04]
 [ 4.26913213e+04]
 [ 1.02313914e+04]
 [ 8.09903224e+03]
 [-4.56764961e+02]
 [ 3.99139925e+04]]
