[[  8301.03503217]
 [-36935.83068102]
 [ 53395.04769192]
 [ -7248.15674411]
 [ 48360.61022079]
 [-11810.95770779]
 [-30046.156088  ]
 [  1905.84154702]
 [ 30040.11677539]
 [  6046.88714929]
 [ 38616.67505338]
 [-10773.86281812]
 [-37186.04730452]
 [-24673.17131725]
 [  -522.06309172]
 [-29251.86090706]
 [-12248.32428645]
 [  4653.47888338]
 [-41027.47053113]
 [ 26549.40720829]
 [ 18461.1462595 ]
 [-32573.0868206 ]
 [-17546.32272717]
 [-35600.51891278]
 [-39483.96120767]
 [-11410.52847179]
 [ 10356.53335967]
 [  3957.66938544]
 [ 20216.90881717]
 [-35288.7605802 ]
 [-18240.52526087]
 [-16052.31549465]
 [-28884.07859273]
 [ -6312.44731804]
 [  -989.70099528]
 [-26054.77893541]
 [ 11210.72942589]
 [ 31867.97647429]
 [ 46319.5672083 ]
 [ 20825.77979936]
 [ 16789.69282918]
 [-20416.71208867]
 [ 46525.16315298]
 [ -6566.97335629]
 [   848.86967938]
 [-11822.84722792]
 [ 19293.79046293]
 [-35235.57100167]
 [-34265.20647021]
 [ 40131.98919131]
 [ 54204.64011813]
 [-12731.5755828 ]
 [ 79873.67644594]
 [  1588.10001426]
 [-20282.50740163]
 [ 15181.29989345]
 [ 91171.69982393]
 [  7635.75540631]
 [-25852.78429552]
 [  8289.88642151]
 [-39888.85951983]
 [-26677.68410133]
 [-10668.06718773]
 [ 23719.1489236 ]
 [-31546.20130391]
 [  9843.24869314]
 [ 21875.84346905]
 [ 21553.85966734]
 [-22076.64972895]
 [-13373.34228404]
 [-25395.85302413]
 [ 44955.09956416]
 [-26555.14313505]
 [ -5535.69347858]
 [-13550.48427826]
 [ 12130.53226887]
 [-34383.53400069]
 [ 70226.54958846]
 [-14161.78406348]
 [-29378.35072778]
 [  1064.24525941]
 [-40129.61253541]
 [ 20547.15370735]
 [-37630.93286772]
 [107907.68623531]
 [-10580.67719663]
 [ 14105.56308605]
 [ 19185.42398058]
 [-37103.17690553]
 [-30245.03056588]
 [ 34636.0567844 ]
 [-38154.20383425]
 [ 41602.52813737]]
