[[ -6707.1770457 ]
 [ -8424.17338976]
 [-10032.07363855]
 [-25968.38442621]
 [ 41996.80374125]
 [-22342.66381435]
 [ 10586.32065063]
 [  7444.58698428]
 [-25503.44774868]
 [ -5960.00379712]
 [ 45231.84758485]
 [ 20100.44041831]
 [ 21485.12056237]
 [ 16946.78242076]
 [ 74284.37849793]
 [  4308.9390834 ]
 [ 15448.53244173]
 [-26052.86387253]
 [ 29374.49106055]
 [-13765.01708482]
 [-23856.22203593]
 [ 49806.65560869]
 [  4243.94475524]
 [-20534.94493956]
 [ 56393.66524394]
 [-26215.20230324]
 [-13488.36123331]
 [-23927.90357461]
 [-20073.5935583 ]
 [-23960.06976921]
 [  3396.88822988]
 [ -8210.37532106]
 [ -9373.52786777]
 [  5831.04297783]
 [-16183.48572297]
 [ -3145.85735879]
 [-17689.52346308]
 [ -6614.83306732]
 [ -6755.22212698]
 [ 22846.84109157]
 [-18929.77783457]
 [ 81973.11272839]
 [-19756.88437519]
 [ 35006.42434614]
 [ 20464.36421588]
 [-12685.29459536]
 [-14717.40781076]
 [ 16503.9428232 ]
 [-25703.98666888]
 [ -4964.56412453]
 [-24599.1000359 ]
 [-26274.41984492]
 [-24514.87771341]
 [-24697.3034834 ]
 [  2550.84608794]
 [-14434.40624729]
 [-10934.49717773]
 [-24358.20345134]
 [ 25129.6789684 ]
 [ 26997.94128395]]
