[[-1.43076134e+04]
 [-2.52886265e+04]
 [ 4.71624381e+01]
 [ 5.70796075e+03]
 [-3.72996790e+04]
 [ 3.77323368e+04]
 [ 6.90351215e+04]
 [ 2.03612584e+04]
 [ 1.44041546e+04]
 [-1.81941409e+04]
 [-1.50594593e+04]
 [ 1.53923784e+04]
 [ 3.84625623e+04]
 [-2.69321836e+04]
 [-3.13190297e+04]
 [ 4.00407623e+02]
 [-2.94906440e+04]
 [-4.25612480e+04]
 [ 1.80218329e+04]
 [ 8.46867685e+03]
 [ 7.87228852e+04]
 [-6.97869425e+03]
 [-1.65540423e+04]
 [-4.34862072e+04]
 [ 6.23586646e+03]
 [-3.84087754e+04]
 [-1.41065063e+04]
 [-1.23236136e+04]
 [-3.71243992e+04]
 [-2.65438267e+04]
 [ 1.46904004e+04]
 [ 1.92363118e+04]
 [ 4.07172278e+04]
 [ 2.14150159e+04]
 [ 3.91200148e+04]
 [-1.83568716e+04]
 [-1.72844234e+04]
 [-5.32528786e+03]
 [-4.39893663e+04]
 [ 5.30668689e+04]
 [ 5.21197271e+03]
 [ 2.29834411e+04]
 [-4.30282907e+04]
 [ 2.77766818e+04]
 [ 2.57420581e+04]
 [-2.42565831e+02]
 [ 2.66847810e+03]
 [ 2.15494990e+04]
 [ 6.70437694e+03]
 [-4.10463783e+04]
 [-2.96092276e+04]
 [ 5.79743899e+03]
 [ 1.06466220e+04]
 [-5.42935821e+03]
 [-3.27214737e+04]
 [-8.51106223e+03]
 [-1.25518195e+04]
 [-4.60203173e+03]
 [-3.45016951e+04]
 [ 2.57660879e+04]
 [ 8.65188535e+03]
 [ 2.71298582e+03]
 [ 6.34634453e+04]
 [-3.37123960e+04]
 [ 2.54305275e+04]
 [ 1.49747931e+04]
 [-2.19739929e+04]
 [-4.00484557e+04]
 [ 4.78511892e+04]
 [-2.99505018e+04]
 [ 1.48533318e+04]
 [ 1.61342706e+04]
 [ 8.70635864e+03]
 [ 4.48766742e+04]]
