[[-28021.06569409]
 [-12988.8158741 ]
 [ 21011.67523976]
 [-20048.00194418]
 [ -8370.7143959 ]
 [-24669.82974967]
 [ 13379.8199349 ]
 [ 32620.24415391]
 [ 46398.42432293]
 [-24917.78403631]
 [ 42656.85577881]
 [-10364.98827477]
 [-22721.78849115]
 [-18867.11942436]
 [  3572.92605075]
 [-33051.37576209]
 [ 22976.6829168 ]
 [-38316.25514353]
 [-37562.84873823]
 [110327.31693572]
 [ -5769.45288264]
 [-14056.65315821]
 [  8079.77729242]
 [ 43455.88497981]
 [ 12689.15398336]
 [-25261.02908686]
 [-24258.09392778]
 [ 17447.66740156]
 [-12081.71680084]
 [ -4006.94257347]
 [-13655.25630446]
 [-29719.21892224]
 [ 46465.33726416]
 [-11954.01728324]
 [-13629.4667859 ]
 [  6815.75830472]
 [ 23557.26713557]
 [-14954.97967668]
 [-31551.34654409]
 [-36184.06877673]
 [  3799.25687559]
 [-15264.54456492]
 [-27006.10637192]
 [ 12103.20476946]
 [ 50384.05570608]
 [-23839.50716214]
 [-16234.53572   ]
 [-30398.14274966]
 [  8004.11020359]
 [ 10351.21235708]
 [ 48147.28854942]
 [  2044.32496364]
 [ -7199.76269537]
 [  -619.83328425]
 [-28937.97606078]
 [ 41268.77345511]
 [-28800.03473935]
 [ 35561.58080558]
 [ 44822.47855178]
 [-35480.08958797]
 [-10820.08378993]
 [-20376.44145335]
 [  1115.70791276]
 [-24985.84730873]
 [-16824.44758406]
 [   283.70539602]
 [ -8059.48264425]
 [-32639.67396669]
 [-38655.86431702]
 [-37713.72470893]
 [-22085.71070253]
 [-22150.25756026]
 [ 57893.88576879]
 [-16042.70343618]
 [ 98973.9247767 ]
 [-21034.85823888]
 [-11600.88019449]
 [  4990.87103471]
 [ 37646.13167925]
 [-36755.20296686]
 [ 17341.07485149]
 [ 39800.43535519]
 [   504.47685976]
 [-18016.45808222]
 [-31987.80804207]
 [  2535.96144062]
 [-27950.89664712]
 [ 28016.18707043]
 [ 32444.94304563]
 [ 21389.78770936]
 [  6369.41330335]
 [ 21995.76975502]
 [ 48974.80951934]
 [ 15480.65097866]
 [  3802.01468567]
 [-35105.41386688]
 [ 16068.28962307]
 [ 38853.41116663]]
