[[  9222.83505082]
 [ 20327.4731114 ]
 [-35039.48470325]
 [-34761.41529889]
 [-13695.17565707]
 [ -8369.86754146]
 [  5858.91516479]
 [ 24667.6199126 ]
 [-28270.73032632]
 [-34244.24540674]
 [ 56916.21342855]
 [  5606.08478553]
 [-30121.48817279]
 [ 20518.76322666]
 [ -6801.8800015 ]
 [ 34455.42300556]
 [-34917.46161275]
 [  4320.87920688]
 [ -5795.29861434]
 [ -4448.98480906]
 [ 49341.16974777]
 [ -6373.55374037]
 [ 42952.10694958]
 [ 59700.83647107]
 [-20968.15976887]
 [-21751.34112325]
 [-41705.27221322]
 [-30706.1117252 ]
 [ 38772.45392836]
 [-36937.6978803 ]
 [ 28422.48837807]
 [ -2541.36244155]
 [ 35813.2233971 ]
 [  1489.973189  ]
 [  2034.16937458]
 [-34138.1742516 ]
 [-28645.5364144 ]
 [-14693.24204148]
 [-37825.30031914]
 [-22108.0540574 ]
 [-12809.71727436]
 [ -6668.86899136]
 [ 21212.72543068]
 [-18291.09737733]
 [-37895.42950099]
 [ 26407.26508485]
 [ -6668.31826336]
 [ 89044.84756977]
 [-22334.87525858]
 [ 57048.0154733 ]
 [ 47221.49168947]
 [-35080.32716476]
 [ 53448.87665969]
 [-32450.94020116]
 [ -7902.43067172]
 [-28691.36672549]
 [-33753.48071195]
 [-21264.30277417]
 [-23364.56461436]
 [  -492.82990147]
 [ -3126.83560789]
 [  6100.1024554 ]
 [ 18409.99207308]
 [-18657.06310756]
 [   811.34133329]
 [-24327.54319617]
 [ 74518.84571043]
 [  4344.34779942]
 [-34410.09723318]
 [-25167.11742012]
 [ 13249.19644959]
 [  3304.73731728]
 [  1016.56664203]
 [ -9395.91928089]
 [-42703.96597577]
 [-36156.9207141 ]
 [  3811.27495754]
 [ 47119.73819283]
 [-39493.03034182]
 [ 60425.88247647]
 [ 96402.35983715]
 [ 12003.0824929 ]
 [-35634.76910507]
 [-44113.56534957]
 [-28730.84844654]
 [ 34197.20766012]
 [ -2393.73483041]
 [ 56321.27252749]
 [ 44301.95668284]]
