[[ -7186.96951928]
 [ 16631.26987396]
 [-35261.66202756]
 [ 22260.36652613]
 [ 14853.74324226]
 [ 34716.48052656]
 [ -3962.14222174]
 [ 13223.82469341]
 [ 22121.11694129]
 [-14837.97775902]
 [  9216.9562689 ]
 [-16410.4955782 ]
 [-39436.91233016]
 [ 39023.9581481 ]
 [ 55562.59573537]
 [-39035.87118429]
 [-28504.72224021]
 [-24817.72635784]
 [-24725.15874206]
 [-29740.11720434]
 [  7774.48770829]
 [-29595.27670423]
 [-41737.24214975]
 [102472.29158813]
 [ -2985.59363869]
 [-18673.34402663]
 [  3986.16328983]
 [  2343.95898323]
 [-34665.61174226]
 [  9575.58511776]
 [-30203.57451337]
 [ -8310.37646664]
 [-20882.97831269]
 [ -6286.99310314]
 [-38504.03500384]
 [-35523.17607991]
 [ 29213.61838028]
 [ 42176.53854931]
 [-19462.8826061 ]
 [  7488.26804663]
 [-21248.09872885]
 [ 77609.69032128]
 [ 14022.26106455]
 [-19303.28139147]
 [ 14310.65856906]
 [ -6911.66984602]
 [-31026.47905278]
 [-16411.28356157]
 [  1282.7039476 ]
 [-42474.04780821]
 [ 46783.41194984]
 [-36128.08832129]
 [ 44309.22345144]
 [-40296.94066263]
 [ 15438.89239566]
 [  1940.28400548]
 [ 60115.94483789]
 [125598.79611393]
 [ 23175.17699778]
 [-26212.02886132]
 [-13874.49949294]
 [-28535.30064469]
 [-41863.61043016]
 [  8251.30374311]
 [ 26275.34205146]
 [  3168.76950567]
 [  4661.42275842]
 [ 13160.22901807]
 [  8230.46531282]
 [-35056.160071  ]
 [  1133.98746877]
 [ 12151.49254534]
 [-24168.95129269]
 [ 44143.37306792]]
