[[-19182.89973619]
 [-33596.43202364]
 [-34816.8394625 ]
 [-37501.90388137]
 [ 61332.93220308]
 [-22111.75839748]
 [ 71382.96029412]
 [-12488.78342134]
 [ 59819.92336539]
 [-28729.94352881]
 [ -1455.59256621]
 [ -9856.83727301]
 [-27460.90205872]
 [-17422.33897813]
 [ 16825.75831421]
 [-21691.43025427]
 [-30505.52601216]
 [-37394.11176663]
 [ 24050.24839134]
 [ 10783.77289865]
 [-18422.81151194]
 [ 26297.91237736]
 [-32242.418764  ]
 [-25748.73125339]
 [ -7074.5857998 ]
 [ 73499.80422198]
 [104050.08582771]
 [-26818.17921025]
 [ -9909.95860913]
 [ 28423.74761438]
 [  -464.54127435]
 [ -9463.89197186]
 [-22956.09146296]
 [ 11612.83125303]
 [ 14592.07675652]
 [-24629.67260316]
 [ 30896.84526069]
 [ 14530.35603071]
 [-13981.85464869]
 [ 15534.07914574]
 [-14205.72186144]
 [-30453.62741879]
 [-24991.89350303]
 [-36230.69494684]
 [ 65412.65161142]
 [ 46937.64570713]
 [-12166.49426337]
 [ 15678.76068177]
 [-35919.4530324 ]
 [-28489.23471914]
 [ 34925.18371217]
 [ -9419.66480746]
 [  2605.38158552]
 [-34348.61735891]
 [105919.68992297]
 [-35769.16500395]
 [ 26115.13407288]
 [ 51591.46485118]
 [-12977.29699766]
 [ 57661.07798922]
 [-26824.37700564]
 [ -8494.86103162]
 [ 13244.64492778]
 [-27461.0932131 ]
 [  6964.46036442]
 [-38089.98427881]
 [  9842.34810973]
 [-33280.54737231]
 [-31658.89834136]
 [-34049.4329357 ]
 [-29121.73067792]
 [-30885.55017587]
 [ 28707.56702294]
 [ -7232.54077591]
 [ 38759.5716772 ]
 [ 38135.3871222 ]]
