[[-25716.03769617]
 [ 26429.69430006]
 [111853.31827694]
 [-31796.19104431]
 [ 11110.59850924]
 [-30235.89820804]
 [-22338.09370196]
 [  1112.29971588]
 [-25978.3132263 ]
 [-11263.54435472]
 [ 73258.66807336]
 [ 45282.10749888]
 [ -2527.38102747]
 [-31496.95479195]
 [-31597.34938142]
 [-26203.80370038]
 [ -8884.46713021]
 [-24080.46147899]
 [  -789.25987539]
 [ -5562.56342608]
 [-31470.54596922]
 [-28663.57505405]
 [  7336.36315431]
 [ -2384.56714212]
 [ 10256.25785941]
 [-27307.35439376]
 [ 14623.54234466]
 [-22871.86250259]
 [-31079.02024536]
 [  2072.93124162]
 [ 15499.94042743]
 [ 61974.62354211]
 [-14406.14286708]
 [ 29575.46111873]
 [-30283.51131645]
 [-21506.06624818]
 [  4183.56195527]
 [ 10788.83402442]
 [ 12712.04544595]
 [ 31408.24835895]
 [-25772.42060382]
 [-10391.84429025]
 [ -8111.73828936]
 [ -5183.52793122]
 [ 35506.63494451]
 [   495.57566856]
 [-20509.64464282]
 [ -2205.99887581]
 [  1258.59261695]
 [-20101.95617604]
 [ 35443.69980705]
 [  4082.12886412]
 [   375.35394026]
 [  1023.31889581]
 [ 13264.55454789]
 [ 42786.46113358]
 [-10857.12492057]
 [  5272.263728  ]
 [-12383.40701141]
 [-30688.36515802]
 [ 25661.91268756]
 [ 33854.51584082]]
