[[ -6360.08964223]
 [ 16365.5113525 ]
 [-37481.79406824]
 [ 17881.15265945]
 [-32514.15765042]
 [-17953.73844162]
 [-47141.44946125]
 [-15624.21522655]
 [ 16721.46224868]
 [   466.91827336]
 [ 63071.27655103]
 [ -9865.72881707]
 [ 22164.86250578]
 [  -141.02449242]
 [ 91628.74932989]
 [ 41572.8539519 ]
 [-34492.53192529]
 [-37533.800165  ]
 [-20269.03348424]
 [   451.90559688]
 [-39735.47128654]
 [-29967.84405356]
 [ 16719.10346489]
 [ 24323.8983552 ]
 [-30840.65802497]
 [-21079.90170511]
 [ 21829.14494735]
 [ -4399.3589144 ]
 [ -1056.01520169]
 [ 36236.19163922]
 [-43968.28788825]
 [-28271.61501155]
 [ 47054.36182016]
 [ 25265.41964749]
 [-19433.4124692 ]
 [-20162.18985327]
 [ 19394.00853695]
 [-31992.96583839]
 [-26106.65018287]
 [-40667.28599012]
 [-43643.58589914]
 [ 15667.08114803]
 [ 42993.88540127]
 [-21935.33534649]
 [ 16102.40590188]
 [ 88042.74182002]
 [-39696.47840921]
 [-18167.88732737]
 [ 13390.96956937]
 [ 35100.40304184]
 [  1690.39178958]
 [ 45843.56666682]
 [-35606.90137037]
 [-21512.09101488]
 [ 58899.16259991]
 [ -6686.53972795]
 [-11612.1990341 ]
 [-14399.13207111]
 [ 37026.24641688]
 [ -9932.19935696]
 [-26733.36541823]
 [-23499.36911942]
 [-46988.63331782]
 [ 26640.42697814]
 [ 11121.49983418]
 [  3598.56120138]
 [  -917.22242738]
 [-19902.31526698]
 [-10555.69842047]
 [ -1772.87703604]
 [-19575.206911  ]
 [ 26693.59485448]
 [  8643.45794724]
 [-37686.77450311]
 [ -2914.48437398]
 [ 10409.14084024]
 [ 36907.14992177]
 [ 34378.02731697]
 [ -1481.58714245]
 [-32231.0620036 ]
 [ 11761.41900237]
 [-37559.98452611]
 [-12269.09317627]
 [-44623.07576256]
 [-42473.7494332 ]
 [-28039.6848568 ]
 [ 94203.61006901]
 [  9294.35515385]
 [-17203.42034994]
 [ 84303.69699277]
 [-18472.31735943]
 [   322.59400976]
 [-17599.91425019]
 [ -3066.38655341]
 [ 29571.89592097]
 [-20043.03069999]
 [ 13929.24839977]
 [ 27713.59606997]
 [ -7063.25771919]
 [ 47528.13023018]
 [ 48278.50836273]]
