[[ 71887.60746946]
 [-21200.2172038 ]
 [-35396.88517598]
 [ 12660.49680488]
 [  6158.09486957]
 [ 13425.38309899]
 [ 27656.4723145 ]
 [-32494.51671364]
 [ 35847.16281707]
 [-27662.37794263]
 [-17354.49425219]
 [-32831.73128867]
 [-37589.31869956]
 [   431.73392572]
 [-14119.5701889 ]
 [ 28396.74229396]
 [ 51774.19187276]
 [-10859.28907941]
 [ 17465.45592103]
 [-20446.98515249]
 [ -8750.2258751 ]
 [ -7537.07954241]
 [ 61396.29962122]
 [-16770.25793123]
 [-10700.68376667]
 [-34885.26204591]
 [-19177.76070046]
 [ 40393.52979925]
 [ -1356.24283138]
 [-28007.93700293]
 [-35504.62498069]
 [ 10042.25954496]
 [-33923.45726892]
 [ 27835.30798077]
 [ -3799.66995708]
 [-25880.23967968]
 [  4155.14760429]
 [-24212.859457  ]
 [-33746.31405896]
 [ 26599.85038926]
 [ -9046.96422443]
 [-18512.00364283]
 [ 27858.73299292]
 [ 55897.43413842]
 [  5886.03608573]
 [ 39981.61550501]
 [ 34741.46824892]
 [ -2764.03706473]
 [-30020.56953098]
 [-28467.54386036]
 [ 57499.43732438]
 [ 16032.50095604]
 [-30804.54767743]
 [ -8525.82261767]
 [ -1167.61933292]
 [-31299.19785071]
 [-28734.95532747]
 [-25003.20028447]
 [  4117.44160452]
 [ 69176.08137656]
 [-36786.9921241 ]
 [ 44781.18250692]
 [-22946.80256125]
 [ 17987.92754683]
 [-31544.23345604]
 [ 59673.43427932]
 [-12968.35474775]
 [ 16294.09116827]
 [-15824.6726694 ]
 [ 22722.61376875]
 [-29915.46056423]
 [  1329.35701327]
 [ 22584.09494441]
 [-15259.24166275]
 [ 14875.11917125]
 [  1915.28592807]
 [-32985.36203032]
 [ 29835.55766262]
 [ 15814.39847435]
 [  -558.87961078]
 [ -8710.74175486]
 [-13005.19054551]
 [  5777.30871356]
 [-34380.63049122]
 [  2534.16869003]
 [ 37878.83239574]]
