[[ -8500.36366194]
 [ 53259.86321646]
 [ 55152.14271236]
 [-28282.60777144]
 [-47798.20818126]
 [ 45579.63256685]
 [ 10936.85408731]
 [ 27619.93898467]
 [ 49008.28163842]
 [-20095.403801  ]
 [ 36389.74460087]
 [ 49789.15441955]
 [-52190.20131221]
 [  4099.19909972]
 [ 13197.16734887]
 [-18273.42471492]
 [-66408.06636494]
 [  5568.52602415]
 [ -8449.93570079]
 [ 75238.30014197]
 [ 47020.7438907 ]
 [ 27176.11467165]
 [-58282.42122684]
 [ 12619.07744039]
 [ 22766.07072524]
 [ 41837.275898  ]
 [-39597.69425685]
 [ 35769.57034418]
 [-26089.14611633]
 [-40596.9031529 ]
 [ -7700.23142539]
 [-42319.66605712]
 [-46595.60231403]
 [ 22975.35406444]
 [-23631.32337419]
 [   249.95975076]
 [106065.61685988]
 [ 18601.91978987]
 [-58669.41725142]
 [-49214.58487287]
 [ 18119.85926562]
 [-23248.71037541]
 [ 30263.51571304]
 [-27548.9658673 ]
 [-62097.62926368]
 [-13498.80337543]
 [ -9355.30577892]
 [-13598.17496401]
 [ 94590.47831787]
 [-17674.29501741]
 [-19324.48676747]
 [ 42422.78813083]
 [-33506.95784486]
 [-28459.67550647]
 [ 60047.8702425 ]
 [ 42225.32991563]
 [ 19694.3489554 ]
 [ -3872.53252022]
 [-13653.86382885]
 [ 98145.64372228]
 [ 86748.27903877]
 [ 31378.5950347 ]
 [-46058.35511936]
 [-54196.76230501]
 [-25596.67635692]
 [ -5621.07031986]
 [  -215.50844712]
 [  1708.45875393]
 [-52002.977895  ]
 [-52845.81214718]
 [ 11847.67471702]
 [ 14238.28953036]
 [ 33444.59044309]
 [ 99924.52147511]
 [ -3239.8282809 ]
 [ 10747.88150924]
 [-34317.88779491]
 [-54914.73947658]
 [ -5595.29929888]
 [  7444.74444173]
 [ 31846.44485445]
 [-29388.67669896]
 [-10138.01118175]
 [ -5370.90719934]
 [  3339.933459  ]
 [ -3114.2113479 ]
 [-14498.51703844]
 [-17230.9384368 ]
 [-53169.65373027]
 [-39188.49720303]
 [-35851.40155053]
 [ -1322.26921317]
 [ 48961.13806334]
 [-11878.72573714]
 [-58209.14749351]
 [-37586.57947224]
 [ 37551.35912793]
 [-41448.60055901]
 [-26697.64407342]
 [ 42621.04805558]
 [ 68208.06629708]]
