[[ 58146.19452509]
 [ 16615.45462778]
 [-26244.61297753]
 [-18655.88926443]
 [-42221.05826908]
 [ 60740.93942434]
 [-37468.17726828]
 [ 66518.93271461]
 [ -4916.69704781]
 [-40510.36572654]
 [-21034.7364522 ]
 [-25933.33812468]
 [  5909.60678736]
 [ 41664.87326173]
 [-26539.28746226]
 [ 11576.12423589]
 [-37288.85330001]
 [ -6304.8436078 ]
 [ -4521.15930569]
 [-29510.58814968]
 [ 57283.20709888]
 [-18559.77918387]
 [ 54379.32435452]
 [-18856.65217865]
 [ -3998.17337318]
 [ 34659.3765989 ]
 [-43449.93061906]
 [  4119.22166423]
 [ 28621.64216504]
 [ 70339.98043786]
 [-44008.9218039 ]
 [ 15541.77821115]
 [ 25512.41487115]
 [ 36777.8996453 ]
 [-43544.07774763]
 [ 91579.74695502]
 [  4394.76522021]
 [-15301.79501093]
 [-20365.21516726]
 [ 27876.00215552]
 [-25000.22260076]
 [   603.9802831 ]
 [ 10309.10513227]
 [   676.99409751]
 [ 17497.96652654]
 [ -6477.53510761]
 [ 12231.56879156]
 [-11437.57886642]
 [-22229.66712068]
 [-43385.11091081]
 [ 19223.39792587]
 [-36852.52072751]
 [-29359.92116734]
 [-33795.73976183]
 [-35028.04940799]
 [ 45581.56606878]]
