[[-24269.26158124]
 [ 38771.35681304]
 [-23097.73709139]
 [ 11101.70897529]
 [-38298.7743699 ]
 [-40345.98849617]
 [ 47048.11516841]
 [-40252.12760661]
 [  2508.00654489]
 [-39172.49987215]
 [-11136.96636908]
 [-23798.40837466]
 [ 37166.16357804]
 [  4226.38298259]
 [-26173.61371925]
 [ 10467.81609169]
 [  6888.12005075]
 [-12301.35610955]
 [-16536.07742331]
 [  9802.91650403]
 [ 13993.16667452]
 [ -7139.83241855]
 [  -900.02547574]
 [-25798.18806478]
 [-27396.69993464]
 [-26392.26694968]
 [ 23527.87273591]
 [ -6945.35531618]
 [ 27749.20290554]
 [ 14069.89971018]
 [-36151.16962606]
 [-35030.34699977]
 [-11033.5500383 ]
 [ 18112.36518127]
 [ 29145.36730705]
 [ -9205.00226333]
 [ 67418.90467428]
 [ 15527.86480052]
 [ 28086.57133285]
 [ -5215.83032534]
 [-15645.72956636]
 [-31346.29488142]
 [-12330.98093456]
 [ -4811.23828202]
 [-41952.31741557]
 [-14571.18230831]
 [ 15569.42745095]
 [-41812.82920729]
 [ 18688.15416605]
 [ 44949.66656815]
 [  9024.99432655]
 [-42638.52115497]
 [-17397.65381447]
 [-35510.58150963]
 [-23511.72955992]
 [ 90511.90580114]
 [-12196.63655915]
 [ 24060.0828862 ]
 [-21984.03441938]
 [-39517.47734863]
 [-34558.6748865 ]
 [ 44604.88267626]
 [-23757.56420351]
 [  1842.77884662]
 [ 73959.05920245]
 [-29892.04686088]
 [ -4537.55008402]
 [ 66462.42334609]
 [-28874.35009204]
 [  2535.58628815]
 [ 34345.65554364]
 [  5212.83991163]
 [-27438.971995  ]
 [ 49998.46082958]
 [-16908.07460422]
 [-11450.59606258]
 [ 11402.895769  ]
 [120455.49853277]
 [ 43934.62741227]]
