[[ -6224.36981838]
 [-25113.60725357]
 [ 46114.67408561]
 [-44450.10783797]
 [ 83437.64096568]
 [-13311.30519246]
 [-20829.1886993 ]
 [-28377.98917125]
 [-42868.81384501]
 [-20595.17263896]
 [ -2667.75551733]
 [-21264.70257829]
 [-43327.51167123]
 [ 63508.73267604]
 [-17351.55741896]
 [-32148.80870047]
 [-43701.31277629]
 [-36128.00337267]
 [ 12737.19313485]
 [ 51351.54636855]
 [ 20282.9842564 ]
 [-30501.49890274]
 [ 55518.09526231]
 [ 10728.21288623]
 [  5904.63389219]
 [ -5671.5979054 ]
 [-21920.53667706]
 [-34023.76455651]
 [-39696.3814498 ]
 [ 31950.97137643]
 [ 36994.41877138]
 [-43312.5016802 ]
 [  4748.90111219]
 [ 21976.24386182]
 [-34040.87314539]
 [-12176.91832269]
 [ 66424.56871487]
 [ 12621.23551815]
 [ 48202.53620633]
 [-22066.38196667]
 [-18031.77408   ]
 [  8972.76178767]
 [  3834.64236179]
 [120915.41459922]
 [-25704.19928351]
 [-13821.63998164]
 [ -1039.80113864]
 [ 18998.53295809]
 [-16660.56177065]
 [112964.75275569]
 [114825.22274777]
 [-18427.6973886 ]
 [-41165.84906805]
 [ -1245.80829867]
 [ 24768.17918055]
 [ 22147.10633042]
 [-38383.51764784]
 [ 13220.95060238]
 [-16879.58113512]
 [-43433.74376084]
 [-36626.33889324]
 [  4333.3418766 ]
 [-12462.01098852]
 [-41744.76064738]
 [-10383.16881269]
 [-35630.03974975]
 [  8960.16025846]
 [-12308.6876271 ]
 [ 52332.79920117]
 [-32877.30878194]
 [-32780.66328596]
 [-20931.26119733]
 [-28302.87093477]
 [ 14904.35136575]
 [ 19487.27939153]
 [-12848.98000352]
 [ 65548.67913375]
 [-24220.85585434]
 [-18362.02338691]
 [ 82864.23382138]
 [   584.78136525]
 [   663.36790278]
 [-36781.19124361]
 [ -4155.91044262]
 [-25848.24022746]
 [ 45392.5990535 ]]
