[[-8.16655784e+03]
 [-5.38745133e+03]
 [ 2.33570401e+04]
 [-7.04077251e+03]
 [-1.24489820e+04]
 [ 1.85722263e+04]
 [ 1.04752931e+04]
 [ 1.80548637e+04]
 [ 6.53503644e+03]
 [ 2.35328827e+04]
 [ 1.33826789e+04]
 [ 9.01785614e+03]
 [-4.57198189e+01]
 [-3.75408025e+04]
 [ 2.20311741e+04]
 [ 4.00839328e+04]
 [ 4.63224541e+04]
 [-1.74187938e+04]
 [-3.12584137e+03]
 [ 4.10756081e+04]
 [-2.89458877e+04]
 [-2.07603756e+03]
 [-1.26961270e+04]
 [-2.85362281e+04]
 [-3.80164839e+04]
 [-5.23137350e+03]
 [ 6.40744973e+04]
 [ 2.69318578e+04]
 [-2.34857893e+04]
 [ 1.30664860e+04]
 [-3.90934004e+04]
 [-1.51024815e+04]
 [ 3.10082889e+04]
 [-3.62536015e+04]
 [ 3.26442645e+04]
 [ 4.73324993e+04]
 [ 2.43980040e+04]
 [-2.69735531e+03]
 [-7.31430541e+03]
 [ 1.82190059e+04]
 [ 4.75369426e+02]
 [-2.12723806e+04]
 [-3.67000677e+04]
 [-1.48018748e+04]
 [ 3.89110474e+04]
 [ 9.24907062e+02]
 [ 1.71244984e+04]
 [ 8.12711477e+03]
 [ 3.05680881e+04]
 [-6.83118370e+03]
 [-3.43519338e+04]
 [ 2.37943200e+04]
 [-6.62287335e+03]
 [-1.81938345e+04]
 [-1.85202701e+04]
 [ 1.49507089e+03]
 [ 2.21297676e+04]
 [ 2.16841136e+04]
 [ 2.17005154e+03]
 [-8.64238136e+03]
 [ 6.05346285e+03]
 [-3.15008408e+04]
 [-3.83282944e+04]
 [-9.63930068e+03]
 [-1.87690352e+04]
 [ 4.11088832e+03]
 [-3.46400397e+04]
 [-1.28078062e+04]
 [-2.35323845e+04]
 [-2.50107110e+04]
 [-3.35126194e+04]
 [-1.22883654e+04]
 [ 6.45269051e+03]
 [ 1.83417265e+03]
 [ 3.53641808e+04]
 [-2.31118088e+03]
 [-6.79208426e+03]
 [-6.00383561e+03]
 [ 2.09392099e+04]
 [-5.97845807e+03]
 [ 3.57098725e+04]
 [ 3.03463795e+03]
 [-3.59242744e+04]
 [-3.78469962e+04]
 [-2.78802848e+04]
 [ 2.21822191e+04]
 [ 5.59503225e+03]
 [ 2.05306380e+04]
 [ 3.97593883e+04]]
