[[ 56112.81072829]
 [ 24431.25301202]
 [-25310.36310802]
 [ -2198.75859011]
 [ 53059.36356527]
 [-35032.19292246]
 [ 64474.65166154]
 [ 14629.0874486 ]
 [  7846.94717675]
 [-16727.5142344 ]
 [ 15043.55254329]
 [-24331.01953652]
 [-23175.88559715]
 [ 37562.70696339]
 [-13982.15478536]
 [-15761.72279824]
 [-27182.72071577]
 [ -3436.07702583]
 [   177.60930667]
 [-16610.25544803]
 [ 42322.37198668]
 [-20279.96897964]
 [-30682.66472398]
 [-32892.22153993]
 [ 62799.94904329]
 [-29211.65886161]
 [-33971.8683924 ]
 [ 36234.00322151]
 [-35192.51637476]
 [-27264.09054327]
 [  7649.59640272]
 [-17141.43025992]
 [-13902.11201493]
 [ 12942.52835919]
 [-30152.28268163]
 [ 76603.94098768]
 [ 15968.46355171]
 [  3907.43137772]
 [ 29191.97566101]
 [-21784.733593  ]
 [ 48616.99320575]
 [ -2316.90621698]
 [-17072.75409744]
 [  5294.908518  ]
 [  3492.6396256 ]
 [-31800.60186526]
 [-33043.79823905]
 [-10765.36280012]
 [-34009.38586125]
 [ 58407.48240209]
 [-34466.64672693]
 [-21474.14150466]
 [-20379.54177985]
 [ 43908.25843403]
 [ 26066.8440178 ]
 [-27982.88051079]
 [ 29336.57169112]
 [  8731.9824576 ]
 [ -1340.41068791]
 [-22589.30388489]
 [-13625.18811906]
 [ 13664.81488758]
 [-31387.60321577]
 [ 35698.36213945]]
