[[-57109.65621144]
 [ 19649.62307531]
 [-45631.30277494]
 [ 20996.17925369]
 [-33664.82872454]
 [ -6064.0437037 ]
 [  -802.90022558]
 [ -6572.10356477]
 [ 54025.0339435 ]
 [ 33460.05669781]
 [  6674.06910363]
 [ 77377.55955653]
 [-22407.51971962]
 [-27243.75331358]
 [125406.64096623]
 [-19945.72637668]
 [-23681.95239823]
 [ -2298.95071426]
 [-22959.0402176 ]
 [ 37379.25339071]
 [ 35534.21503229]
 [-45624.96815509]
 [ 16656.25353539]
 [ 35117.91461934]
 [-11877.83387649]
 [ 55396.86214388]
 [  2784.33916435]
 [-40751.75131919]
 [ 94907.26887655]
 [-42949.21289377]
 [-16032.97783132]
 [-33007.89581347]
 [-57806.13671221]
 [  -318.18391536]
 [-23769.8923226 ]
 [-36736.37638449]
 [ 29462.26029277]
 [ -9497.50931268]
 [ 53117.22821308]
 [-59242.33661082]
 [ 26771.97815327]
 [ 30380.86070893]
 [-51870.95352338]
 [-43849.09778909]
 [ 45155.8590906 ]
 [ 17477.82275644]
 [  4617.53390129]
 [ 29548.885441  ]
 [ -5574.80109401]
 [-31587.12081065]
 [-32713.78656595]
 [-56326.37059399]
 [ 30274.68784848]
 [ 16140.1388985 ]
 [ 81217.10695363]
 [-11714.62004142]
 [ 28898.92898063]
 [  2935.08777994]
 [ 69230.12378487]
 [ 38217.17327711]
 [-36297.62916787]
 [-18818.96125402]
 [-44533.75776798]
 [ 57254.18440446]
 [  7127.38234066]
 [-45052.63124841]
 [ 46460.50386935]
 [ 19680.48401609]
 [-30515.72043895]
 [-50136.10131641]
 [-30180.9854933 ]
 [ 91190.2046698 ]
 [  1011.05992569]
 [ 20222.38061353]
 [ -4238.72113088]
 [-28456.56927575]
 [-14060.25729616]
 [  9040.58990255]
 [-45517.80931253]
 [  6955.43848469]
 [-38413.30300632]
 [-39128.45351182]
 [ -1590.79481306]
 [ 20380.76975719]
 [ 57553.66942044]
 [-51539.03822771]
 [-14525.32161605]
 [ 31441.91717198]
 [-31600.06764144]
 [  -384.34616281]
 [-19359.87969779]
 [-50878.70633505]
 [ -1043.51459164]
 [-23832.34953233]
 [-28885.85402409]
 [-33927.95985155]
 [ 81105.5255181 ]
 [-21797.33471953]
 [-23522.08117694]
 [ 39636.69658706]
 [ 62363.03824837]]
