[[ 4.04062644e+04]
 [-3.22067571e+04]
 [-2.89851725e+04]
 [-2.80865203e+04]
 [-1.23744651e+02]
 [-1.42453044e+04]
 [ 5.04225909e+04]
 [-3.71961960e+03]
 [ 2.91443653e+04]
 [-3.88711618e+04]
 [ 3.03578319e+04]
 [-2.06342713e+03]
 [-2.30627999e+04]
 [ 4.16520215e+04]
 [-6.97337347e+03]
 [-2.96744101e+04]
 [-4.76848020e+03]
 [-2.78785979e+04]
 [-4.33323030e+03]
 [-2.70741066e+04]
 [-3.76000139e+04]
 [ 6.25613562e+02]
 [ 5.39024308e+04]
 [-2.81736580e+04]
 [-3.76938651e+04]
 [-4.41899137e+03]
 [-2.04469505e+04]
 [ 1.82246671e+04]
 [-3.82075443e+04]
 [ 5.82870665e+04]
 [ 3.39146315e+04]
 [ 8.71505648e+03]
 [-2.79272485e+04]
 [-3.03456393e+04]
 [ 2.35726512e+04]
 [-3.44021940e+04]
 [ 7.10005258e+00]
 [-6.64749912e+03]
 [ 1.22892694e+03]
 [-3.18688291e+04]
 [ 4.33119527e+04]
 [-3.65976325e+04]
 [-3.54022634e+04]
 [ 3.97512916e+04]
 [ 9.50399578e+03]
 [ 2.57110108e+04]
 [-1.62830393e+04]
 [ 1.02665774e+04]
 [ 7.00688175e+04]
 [ 4.47732045e+04]
 [-3.39691152e+04]
 [-3.15957297e+04]
 [-1.20118967e+04]
 [ 1.30121211e+03]
 [ 6.11586723e+04]
 [-2.37259432e+03]
 [ 8.52911299e+04]
 [-1.58340469e+04]
 [-2.83091475e+04]
 [-1.50570522e+04]
 [ 6.51149221e+03]
 [-2.53480731e+04]
 [ 3.77286276e+03]
 [ 4.12504884e+04]
 [-2.81018916e+04]
 [-3.55471779e+03]
 [ 8.46722781e+04]
 [-1.16874086e+03]
 [-3.59096144e+04]
 [-1.25818061e+04]
 [-3.90913493e+01]
 [-1.71764163e+04]
 [-3.42848550e+04]
 [ 7.14259686e+04]
 [-1.36062575e+03]
 [ 2.30315954e+04]
 [ 1.34211898e+04]
 [-1.74696447e+04]
 [ 2.92359526e+04]
 [ 5.04518358e+04]
 [ 2.86782870e+04]
 [ 2.02674430e+04]
 [-3.78232696e+04]
 [-2.55912971e+04]
 [-2.87253601e+04]
 [-2.06372908e+04]
 [-5.95941295e+03]
 [ 2.22645051e+04]
 [-3.21845053e+04]
 [-2.70932459e+04]
 [ 2.26175035e+04]
 [-2.40165013e+04]
 [-2.29424676e+04]
 [ 3.93769985e+04]]
