[[-2.71189529e+04]
 [-3.95123635e+04]
 [-6.13922529e+03]
 [ 2.03054480e+04]
 [ 1.63805510e+03]
 [ 2.84151892e+04]
 [ 1.43243555e+04]
 [ 3.20462227e+04]
 [-3.77566002e+04]
 [ 9.80876881e+04]
 [-2.83291852e+04]
 [ 7.24489147e+02]
 [ 5.85898370e+04]
 [-3.90086949e+04]
 [ 1.72381351e+04]
 [-2.82934199e+04]
 [ 9.32767460e+03]
 [-3.68491785e+04]
 [-1.37925520e+04]
 [-2.98660868e+04]
 [-2.63963607e+04]
 [-2.36057461e+04]
 [-1.74772446e+04]
 [-3.36800476e+04]
 [-2.60559379e+03]
 [-1.11550418e+04]
 [-3.05799346e+04]
 [-1.91592737e+04]
 [-2.15653099e+03]
 [-2.80128364e+04]
 [-3.45173085e+04]
 [-5.37029929e+03]
 [-8.59971893e+01]
 [-3.41302346e+04]
 [ 1.83611330e+04]
 [-3.79279312e+03]
 [-3.16402868e+04]
 [ 2.25079249e+03]
 [-1.16875963e+04]
 [ 4.05145023e+04]
 [ 3.94059100e+04]
 [ 7.13905839e+04]
 [ 2.18886987e+04]
 [-3.55331509e+04]
 [-1.76811463e+04]
 [-3.59420536e+04]
 [ 9.63940939e+04]
 [ 1.24404439e+04]
 [-4.03192117e+03]
 [-1.13499346e+03]
 [-2.18570759e+03]
 [ 2.77592343e+04]
 [ 6.55433874e+04]
 [ 4.84696064e+04]
 [ 5.48091911e+04]
 [-2.29447293e+04]
 [-1.32841421e+04]
 [-2.18713915e+04]
 [ 4.70207551e+04]
 [-3.24909359e+04]
 [ 1.40499868e+04]
 [ 3.08244709e+04]
 [-3.97449066e+04]
 [ 1.22365112e+04]
 [-1.91747602e+04]
 [-1.64187639e+04]
 [-1.47154991e+04]
 [-3.64954241e+04]
 [-2.91234193e+04]
 [ 5.57063402e+02]
 [ 8.76630981e+04]
 [-3.29018932e+04]
 [ 7.80048049e+02]
 [ 5.33761801e+03]
 [ 4.03181408e+04]]
