[[ 15874.66745463]
 [ 44045.81787982]
 [-30991.6088111 ]
 [-15326.31401646]
 [  8633.49488975]
 [ 27018.53679846]
 [-39457.60118812]
 [ 27154.58765287]
 [-20476.43428464]
 [-25095.08618923]
 [ 19332.95801632]
 [ 32328.43736344]
 [-11380.87723158]
 [-38636.85501965]
 [  1974.81972895]
 [  5943.94017774]
 [-27711.61382121]
 [ -1819.75659155]
 [-23909.38395611]
 [ 11759.5774717 ]
 [ 28048.78274747]
 [ -3674.34395968]
 [ -4291.23036062]
 [-19096.75500387]
 [-38462.52160078]
 [  6730.79011339]
 [-16732.67591351]
 [-16245.03450367]
 [ 18912.54883362]
 [ 18623.58324255]
 [ 42178.12026582]
 [-14125.74097959]
 [ 13002.80721946]
 [-24310.87736458]
 [ -1445.50087072]
 [-28897.65831963]
 [ 19176.07114457]
 [-27764.67843837]
 [-38748.50895565]
 [ 32819.6830851 ]
 [ 28568.75063308]
 [-32330.69370381]
 [-13985.12341531]
 [ 11816.33972253]
 [ 12048.16336074]
 [-16636.32591924]
 [-24376.49455904]
 [-26939.01892122]
 [-38604.13711569]
 [-29265.09201642]
 [ 37615.8500187 ]
 [  1780.77089506]
 [ -8880.05463628]
 [-35896.7823626 ]
 [  9891.87361527]
 [ 35370.78943244]
 [ 29351.93501808]
 [ 28950.84943487]
 [-13169.10430443]
 [ 10911.54276245]
 [  3423.66011993]
 [ -8876.99713576]
 [   820.38481223]
 [ -6301.65745215]
 [ 14335.41777463]
 [ 13945.71102959]
 [   248.64064379]
 [ -4549.5410823 ]
 [-12881.92695482]
 [ 61331.99223749]
 [ 48565.28442999]
 [-39519.88667631]
 [ -6073.24932949]
 [ -4879.90245049]
 [  4578.85132158]
 [ 10981.20885787]
 [ 41306.63506204]
 [-38242.88209363]
 [ 50606.05224129]
 [ 40434.35932526]]
