[[ 18233.57192107]
 [ -7161.39455527]
 [-36006.90318996]
 [-25881.34470238]
 [-15443.22435086]
 [ 52487.29552244]
 [-10962.94092086]
 [-38407.80636178]
 [ 21183.25002244]
 [-17086.05916247]
 [-34225.4630751 ]
 [ 71861.29597886]
 [-36724.96872579]
 [ 28769.61137081]
 [ 70660.26543205]
 [  5471.17016146]
 [-30094.76359852]
 [  6630.19539483]
 [ 18538.53106468]
 [ 12134.77173434]
 [-42273.38120606]
 [  8754.01064953]
 [  -547.43944243]
 [-25850.32459143]
 [   719.1911455 ]
 [-48168.94282939]
 [-42785.13237674]
 [ 49254.94597501]
 [-36765.4043495 ]
 [-15641.45793256]
 [ 48169.39715659]
 [ -7376.0754524 ]
 [  5984.61601328]
 [ 45273.07289858]
 [ -1764.32972402]
 [ 11634.16102032]
 [-12842.52866832]
 [-34013.11902503]
 [ -4046.52151319]
 [ 28321.30968994]
 [ 11883.55445009]
 [-20766.90396748]
 [-27636.71430017]
 [ 49499.47468602]
 [ 15154.63424509]
 [ 70139.53083946]
 [-39596.15626875]
 [ 35256.09882697]
 [-48224.78494561]
 [  9698.18492231]
 [109270.77600284]
 [-21138.61722015]
 [ 17929.37620775]
 [-41690.01874541]
 [ -2473.53150844]
 [ 12143.25256091]
 [-35641.45814781]
 [ 97635.42158835]
 [-40089.4775264 ]
 [-10868.60271368]
 [ 60034.38104675]
 [-10419.44732885]
 [-13026.62381788]
 [ 50459.65556958]
 [ -6292.59789967]
 [ 76434.02482146]
 [  9182.20930583]
 [ -9514.55606913]
 [  5137.57649497]
 [-48634.94565557]
 [-25914.9021076 ]
 [-16578.10780632]
 [-38507.94119394]
 [ 44371.75324085]
 [-34736.08136888]
 [-33530.335785  ]
 [ 81415.75004888]
 [-39776.65537747]
 [ 15385.47595168]
 [-45756.27256539]
 [-32449.36251991]
 [  2837.28690186]
 [ 29545.54884153]
 [-33831.75774478]
 [-37637.1545766 ]
 [-24706.00846816]
 [ 21586.39866932]
 [ 40864.78961941]
 [  -231.99383345]
 [ 35182.91399379]
 [  3965.45635887]
 [ 39148.71534463]
 [-28983.08319535]
 [-36131.44256509]
 [-16482.62008797]
 [-34444.52808623]
 [-27788.69351821]
 [-40402.67774824]
 [ -6337.55648893]
 [  6068.23321568]
 [ 49327.35800269]]
