[[ 1.33306766e+04]
 [ 3.93190815e+03]
 [-1.15863140e+04]
 [-4.63593768e+04]
 [-3.95830416e+04]
 [ 5.65791593e+04]
 [-5.10196619e+03]
 [ 7.04603077e+04]
 [-2.34390936e+04]
 [ 1.54388186e+04]
 [-4.32147151e+04]
 [-9.73209645e+03]
 [-2.70120034e+04]
 [ 5.52665941e+04]
 [-1.74482414e+04]
 [ 1.63039342e+04]
 [-6.33682668e+03]
 [ 5.48286586e+04]
 [-3.52274475e+03]
 [ 3.01896512e+04]
 [ 1.01914318e+05]
 [-2.89802269e+04]
 [ 6.46930156e+04]
 [-3.61635984e+04]
 [-6.55188733e+03]
 [ 1.15346626e+04]
 [-6.20378970e+03]
 [ 6.68612313e+03]
 [-3.63658159e+04]
 [-2.30004668e+04]
 [ 9.07467748e+04]
 [ 1.09487309e+04]
 [-2.41804371e+04]
 [-2.02671653e+04]
 [ 1.68659858e+04]
 [ 4.37956975e+04]
 [-4.72590986e+03]
 [-2.28549683e+04]
 [-4.05393691e+04]
 [ 9.36485089e+02]
 [ 1.17996027e+05]
 [-9.17812167e+03]
 [-4.55101588e+04]
 [-1.38642401e+04]
 [ 2.61675106e+03]
 [-3.72987446e+04]
 [-1.97940345e+04]
 [ 1.18270358e+05]
 [-4.87320176e+04]
 [-2.95453216e+04]
 [-8.76091984e+03]
 [-3.72435332e+04]
 [-3.35872833e+04]
 [-4.28333044e+03]
 [ 4.05614758e+04]
 [ 4.14953751e+04]
 [-3.46284928e+03]
 [ 1.59610995e+03]
 [-3.45068201e+04]
 [-2.36367986e+04]
 [-2.00005469e+04]
 [ 1.08963749e+04]
 [-5.21312507e+04]
 [ 6.22374934e+03]
 [ 5.61757727e+04]
 [-4.41810502e+03]
 [-4.26849125e+04]
 [ 2.42830115e+04]
 [-4.93811906e+04]
 [-3.56129550e+04]
 [-1.89510302e+04]
 [-4.39635477e+04]
 [ 1.81449084e+04]
 [-4.32954586e+04]
 [-1.96252894e+04]
 [ 2.54144539e+04]
 [ 7.27552494e+03]
 [-4.32172930e+04]
 [-2.29644195e+04]
 [-4.39338643e+04]
 [ 1.49576769e+04]
 [ 4.09045695e+04]
 [ 1.50599894e+04]
 [-8.26847102e+00]
 [-5.10625169e+03]
 [ 1.91309603e+04]
 [ 1.04903610e+04]
 [ 2.91250330e+04]
 [ 2.21695646e+03]
 [ 1.43946425e+04]
 [ 1.43967258e+04]
 [-4.37434002e+04]
 [-3.64004888e+04]
 [ 9.91839915e+04]
 [-3.59684685e+04]
 [ 3.35523645e+04]
 [ 2.83282641e+03]
 [-1.01489415e+04]
 [-4.03171210e+04]
 [ 1.27995396e+04]
 [ 5.29584221e+04]]
