[[-8.62630243e+03]
 [-1.68478886e+04]
 [ 2.34520612e+04]
 [ 1.78047315e+04]
 [-1.31190501e+04]
 [ 4.51772696e+04]
 [ 1.71611259e+04]
 [ 1.39917099e+04]
 [-1.11483964e+03]
 [ 2.25390697e+03]
 [-3.38947226e+04]
 [-3.55519170e+04]
 [ 7.67352087e+04]
 [-1.57698869e+04]
 [-3.35200228e+04]
 [ 2.06881685e+04]
 [ 1.56495949e+04]
 [-1.68264699e+04]
 [-1.24193782e+04]
 [-2.61070153e+04]
 [ 3.26557636e+03]
 [-4.00297688e+03]
 [ 2.23453941e+04]
 [-2.22962629e+04]
 [ 2.48609601e+04]
 [-2.20048773e+04]
 [ 1.50080370e+04]
 [-2.41564447e+02]
 [-1.26769264e+04]
 [ 1.23626328e+04]
 [-9.70346690e+03]
 [-4.93794547e+01]
 [-3.88876421e+04]
 [-1.11705331e+04]
 [ 2.42338093e+04]
 [-5.94075025e+02]
 [-3.79279118e+04]
 [-2.02331449e+04]
 [ 4.25932093e+03]
 [ 2.08290275e+04]
 [ 2.90761269e+04]
 [-2.06672262e+04]
 [ 4.17940730e+04]
 [ 2.40924336e+04]
 [-1.21166339e+03]
 [-2.35448249e+04]
 [-3.66752735e+04]
 [ 3.22142920e+04]
 [-3.22200198e+04]
 [ 5.13508183e+04]
 [-1.73326879e+04]
 [ 3.09901310e+04]
 [-3.23719029e+04]
 [ 1.48844705e+04]
 [-3.68512009e+04]
 [ 2.32981124e+04]
 [ 2.45975362e+03]
 [ 1.14740044e+03]
 [-4.34120045e+03]
 [ 4.23302040e+04]
 [ 6.43250876e+04]
 [ 2.36305443e+03]
 [ 3.85189982e+04]
 [ 1.95986880e+04]
 [ 2.12461767e+04]
 [-3.76369566e+04]
 [-1.59932885e+04]
 [-3.38327369e+04]
 [-3.46225982e+04]
 [ 2.02969282e+02]
 [-3.59577100e+04]
 [ 1.19424273e+04]
 [-1.73395708e+04]
 [-3.88591897e+04]
 [-6.83141711e+01]
 [-2.10906583e+04]
 [-1.43731031e+04]
 [-4.81152739e+03]
 [-8.67206983e+03]
 [ 5.14573931e+04]
 [ 2.44005599e+04]
 [-1.64607159e+04]
 [-9.25101164e+03]
 [ 4.00898802e+04]]
