[[-61908.58417999]
 [-16448.86275579]
 [-43622.75708566]
 [-12203.31366637]
 [-36981.91922089]
 [-33803.15598953]
 [-21298.38500128]
 [ 96225.46739779]
 [ 24034.98168808]
 [-13472.58026707]
 [-59780.45027144]
 [-12304.4465139 ]
 [ -6998.45858302]
 [-36180.15074099]
 [ 44646.8271701 ]
 [ 11739.99040282]
 [-59810.18263941]
 [102094.5994775 ]
 [-47790.78849214]
 [ 13486.23933814]
 [ 44744.5147533 ]
 [ 69900.87670682]
 [ -8454.86221332]
 [-28539.01567191]
 [-23223.49897604]
 [ -4735.4171565 ]
 [ 13581.86009642]
 [-17837.91702063]
 [ 68374.51986218]
 [-46555.34900632]
 [ 51717.85447145]
 [  4066.76588419]
 [-48648.40680033]
 [ 17330.42691936]
 [-30641.93043092]
 [ 34953.96950848]
 [-16280.62943926]
 [ 60314.20301843]
 [-27174.59205124]
 [ 57810.63162516]
 [-45560.93438325]
 [  1132.9555429 ]
 [-61415.2323742 ]
 [-32694.15681191]
 [-10591.21517665]
 [  5246.85263437]
 [-34857.00593131]
 [-26044.53071149]
 [ 11554.99325341]
 [ 18749.82599404]
 [ 47801.00050799]
 [-45088.68979612]
 [-59497.7652256 ]
 [ 80513.89470082]
 [ 11286.87295155]
 [-67134.88473235]
 [ 41485.27850951]
 [-42947.59090772]
 [ 33746.73392524]
 [-17891.05274219]
 [-16979.75327204]
 [ -2537.4470082 ]
 [ 10778.94288906]
 [ 46340.6293077 ]
 [-24138.61159449]
 [ 46704.8177313 ]
 [-21414.97760009]
 [  2373.47306062]
 [-16430.24823869]
 [  9410.00631923]
 [128030.20952643]
 [-44106.41559817]
 [  2381.31378492]
 [-55419.24558519]
 [ 58087.99985693]
 [-35034.97880981]
 [-28469.05847184]
 [ 32002.97588649]
 [-59699.05218826]
 [  6630.43464823]
 [-11330.23863795]
 [-52994.46433458]
 [ 68403.90895347]
 [-26356.6221776 ]
 [-20347.56538513]
 [ 87122.93097549]
 [-19720.88859221]
 [-29675.02777843]
 [ 27364.55445627]
 [ 33135.19031468]
 [ 41060.56766261]
 [   740.895099  ]
 [-42638.78423484]
 [  2044.42431252]
 [ 33375.35272888]
 [ 80033.35168066]
 [ 23854.97448678]
 [ 18849.76036093]
 [-33803.91850167]
 [-25752.83940633]
 [ 68069.859956  ]]
