[[-5181.2846906 ]
 [ 3890.07113231]
 [-2276.6155505 ]
 [ 2189.56575557]
 [-2989.15228995]
 [ 6035.8309888 ]
 [19070.91131873]
 [-4397.75617511]
 [  643.63827327]
 [-3728.37968282]
 [-2531.39694932]
 [ 7032.5954709 ]
 [ 2753.48740657]
 [ 2398.5649505 ]
 [ 2816.31712037]
 [-4014.29059763]
 [ 8039.48330926]
 [-2742.71496144]
 [  866.27246938]
 [-5463.85870959]
 [ 1032.51511055]
 [ 6974.15909737]
 [ 4798.56423968]
 [-5888.04528681]
 [-4858.33092738]
 [-1881.92172572]
 [ 3828.7189872 ]
 [ 5024.96486017]
 [ 2533.31574361]
 [ 6840.98617198]
 [-5927.99475858]
 [-3341.62638345]
 [-6973.97301942]
 [-4655.75311663]
 [-7830.7652221 ]
 [-4359.96535505]
 [  842.38256958]
 [-1789.37632662]
 [ 8105.90142394]
 [-2954.46897744]
 [  491.28017485]
 [-1277.27999065]
 [-7585.97844423]
 [ 8153.91654236]
 [ 2813.96850259]
 [-1811.97084483]
 [ 2018.45102891]
 [ 1268.50125875]
 [ -804.27948039]
 [-3068.37411387]
 [ -686.07972747]
 [-2984.05435718]
 [ 4549.94087118]
 [-2340.10536169]
 [-1257.1132282 ]
 [-3722.36669419]
 [  522.88042569]
 [-2229.8938598 ]
 [ -908.38666834]
 [ 4450.86912055]
 [ 7094.96449438]
 [ 1004.36952372]
 [ -835.64640784]
 [-3020.35116734]
 [-6386.17065083]
 [ 3130.05886139]
 [-1502.63501598]
 [ -953.00072356]
 [ 2674.65786008]
 [ 2688.1799964 ]
 [ 1680.61001772]
 [-5123.02424185]
 [-1196.82152157]
 [-5845.51451358]
 [12619.89979203]
 [ -724.97257948]
 [-3178.21280572]
 [ 2505.67836056]
 [-6597.10916123]
 [-4410.98581491]
 [14382.13328979]
 [-5537.27442586]
 [15789.76535956]
 [ 5026.34876941]
 [ 3035.435662  ]
 [-6683.42642455]
 [-2179.87713619]
 [ 3474.30971527]
 [ -922.29384844]
 [  628.95061157]
 [-4541.75335927]
 [-8055.98228029]
 [-3582.48630025]
 [ 5586.64980944]
 [ 6624.74130926]
 [-8444.58286067]
 [-2625.86014594]
 [-1886.08228103]
 [-4503.56569939]
 [-6733.62491447]
 [ 8569.85090401]]
