[[-5112.6701582 ]
 [ 2941.61391789]
 [-2986.08904199]
 [  420.86159448]
 [ 9540.72940965]
 [ 5011.16245739]
 [ 3932.83248752]
 [ 4810.34233778]
 [-1969.44777893]
 [ 4519.15877293]
 [ 8210.40596911]
 [ 2417.81926255]
 [11684.94769648]
 [ 1437.16384084]
 [11018.06636499]
 [-6262.03264067]
 [ 4307.9593613 ]
 [  206.69403693]
 [-4352.759942  ]
 [-5284.93295998]
 [-2891.17023947]
 [-4595.45696889]
 [-5093.56122967]
 [-2354.57873296]
 [-1807.29843897]
 [-4851.26350248]
 [ 4012.31737867]
 [ 2086.63539039]
 [-4531.90330009]
 [-5713.12448769]
 [ 2626.58113533]
 [ 7038.48988007]
 [-1576.87882097]
 [-4113.42931783]
 [15804.25994619]
 [-4505.86327101]
 [  360.31585091]
 [ 4436.83358301]
 [-3668.80001724]
 [ 8147.47290705]
 [  -23.18037185]
 [-1208.58569016]
 [-2452.73797223]
 [-1813.52860812]
 [ 4667.72506925]
 [-2750.83526029]
 [  927.25789846]
 [ -867.29302424]
 [-3916.43287955]
 [ 1049.94931448]
 [-4566.64574719]
 [-2293.96424221]
 [ 8360.39677512]
 [-2463.21370226]
 [-4567.31036423]
 [-1015.94312019]
 [-5122.16090882]
 [ 9161.8950661 ]
 [-4016.48643755]
 [-4051.65000607]
 [-4557.47924655]
 [  802.46155042]
 [ 1506.55763214]
 [-3981.83645559]
 [ 3976.53351805]
 [ 5036.8451497 ]
 [-3263.45958821]
 [  575.32117098]
 [-5132.36374571]
 [ -273.97624975]
 [ 1652.40508611]
 [-3342.95810882]
 [ 6852.0632475 ]
 [-2560.95829301]
 [ 2085.43080728]
 [ 4229.2740083 ]
 [-5822.7679842 ]
 [-2488.90110928]
 [ 1302.49582229]
 [ 5367.56633441]
 [-4424.44613367]
 [ 2860.39317986]
 [-4166.70335576]
 [ 6533.6311133 ]
 [-2089.00121604]
 [-2517.5547418 ]
 [ 2008.19438972]
 [-4568.27090157]
 [-1923.49826054]
 [ 7245.25993789]
 [-5173.35647671]
 [-3319.88532006]
 [-3190.39422525]
 [ 1765.46430114]
 [-3824.38687586]
 [ -493.41307388]
 [ -254.8131682 ]
 [-2096.92248391]
 [-6196.8698027 ]
 [-4474.33895289]
 [ 6367.87579974]]
