[[ 17797.16109575]
 [ 15287.39816494]
 [ 18216.09451411]
 [  4030.92813921]
 [-21083.57676978]
 [ 30809.02138333]
 [ 23476.49361615]
 [  4539.9081825 ]
 [ 40261.56612055]
 [ 17543.2237315 ]
 [-21309.70611743]
 [ 10439.64467044]
 [ -6260.31521337]
 [-20233.15158229]
 [ 29329.08781779]
 [ 12421.80111456]
 [  1346.45160336]
 [ 21870.40830647]
 [ 24983.006877  ]
 [ 11521.09617881]
 [-32818.37561057]
 [   259.6275674 ]
 [-12164.27635832]
 [-38060.95759022]
 [-29990.83398536]
 [ 34450.10476765]
 [-27786.99522003]
 [  5721.85352316]
 [-30182.87407236]
 [-11471.59811018]
 [-14664.70620957]
 [ 46494.40231084]
 [  9837.9349638 ]
 [-26403.60628128]
 [ -7527.7555588 ]
 [-37076.54426072]
 [ 13668.05135224]
 [-20809.56170685]
 [-34055.82723553]
 [ 27049.00950278]
 [ 52137.39926271]
 [-31661.10046542]
 [-33339.36100188]
 [-13477.18587445]
 [ 47858.48982272]
 [ -3834.49969836]
 [ 17229.426261  ]
 [ 14215.98821253]
 [-16327.48088842]
 [ 25941.92727689]
 [-26913.38623431]
 [-28301.25634778]
 [  6328.69054541]
 [-40383.24842736]
 [ 31290.13581818]
 [ 55304.29882595]
 [-37988.86405989]
 [  2854.042653  ]
 [ -1420.40966093]
 [ 59924.20461193]
 [-27845.04175596]
 [-39282.10300649]
 [ 19058.87247704]
 [-23923.05853523]
 [-13573.59989085]
 [-32781.57256805]
 [ 23221.23263125]
 [  6516.90888624]
 [ 20049.01766847]
 [  2381.71898117]
 [-10840.93533542]
 [-31872.86380537]
 [ 40550.18023345]]
