[[ 2.18548228e+03]
 [-5.63853897e+02]
 [ 2.39487200e+03]
 [-4.53507274e+03]
 [ 8.46362375e+03]
 [ 2.65971760e+02]
 [-4.81427631e+03]
 [ 3.54336523e+03]
 [ 1.78842162e+03]
 [-3.02083706e+03]
 [-3.87465112e+03]
 [-3.43630916e+03]
 [-4.68489227e+03]
 [-4.16016386e+03]
 [-5.40262295e+01]
 [ 4.58524297e+03]
 [-3.29728449e+03]
 [-5.02024124e+03]
 [-2.18834178e+03]
 [ 1.52157540e+03]
 [-5.23796058e+03]
 [-2.06158882e+03]
 [ 5.59834110e+02]
 [ 6.41853992e+03]
 [-5.48516193e+03]
 [-3.24886936e+03]
 [ 2.11868675e+03]
 [-3.90553506e+03]
 [-6.87501218e+03]
 [-7.59130017e+03]
 [ 1.17519171e+04]
 [-6.39322443e+03]
 [-3.18891834e+03]
 [-3.25923908e+02]
 [ 1.06144918e+03]
 [-6.47945568e+03]
 [ 1.12861092e+04]
 [ 9.22868897e+03]
 [-5.09971524e+03]
 [ 6.43202972e+02]
 [-4.07728918e+03]
 [ 1.34975233e+04]
 [-6.11893725e+03]
 [-6.45551180e+03]
 [-4.59399239e+03]
 [ 3.19719818e+03]
 [-1.97907993e+03]
 [ 9.15323602e+03]
 [ 8.90984597e+02]
 [ 1.33128470e+04]
 [ 8.76240627e+03]
 [-6.89271000e+03]
 [-6.59443782e+03]
 [-3.39518566e+03]
 [ 2.19127034e+03]
 [ 1.07180849e+04]
 [ 6.16938699e+02]
 [-5.24259874e+03]
 [-4.27930228e+00]
 [-7.55976780e+03]
 [-1.61831609e+03]
 [-6.80023425e+03]
 [-5.44481656e+03]
 [-2.41129292e+03]
 [-1.91383414e+03]
 [ 8.99476753e+03]
 [-5.89186063e+03]
 [-2.35249417e+03]
 [-3.35736513e+02]
 [-2.84499634e+03]
 [ 4.37388000e+03]
 [ 7.42769601e+03]
 [-2.76605604e+03]
 [-5.95008660e+03]
 [ 3.74535736e+03]
 [-3.51151101e+03]
 [-4.00778067e+03]
 [ 3.05283055e+02]
 [ 7.81496418e+03]
 [ 7.51637802e+03]
 [-7.30269554e+03]
 [-6.98448274e+03]
 [ 2.21968882e+03]
 [-5.28122374e+03]
 [-2.54967609e+03]
 [-2.88045952e+03]
 [-3.75275315e+03]
 [ 2.30071787e+03]
 [ 5.22069958e+03]
 [ 5.88455398e+03]
 [ 7.34838435e+03]
 [ 2.34776096e+03]
 [ 1.04130020e+04]
 [-5.20143223e+03]
 [ 2.50151076e+03]
 [ 1.08654536e+03]
 [ 5.78143654e+03]
 [ 1.04038245e+04]
 [ 2.73915361e+03]
 [-3.24932281e+02]
 [ 7.68555762e+03]]
