[[ -2972.17531809]
 [-11804.45442445]
 [-31290.61837967]
 [-10660.86997683]
 [ 41187.75079825]
 [-30467.06663304]
 [  5988.95221189]
 [ 20426.18001256]
 [ 12527.18971512]
 [ -4507.98188493]
 [ 15220.85802273]
 [-22463.43104103]
 [ -4600.25027019]
 [  9429.74827959]
 [-31024.6469977 ]
 [ 37602.43169953]
 [-11455.85491961]
 [ 39170.51828496]
 [-29202.19845444]
 [ 54465.28930596]
 [-25605.51857957]
 [ 43267.32660074]
 [-11009.65076112]
 [ 24225.72533235]
 [ -5610.6870716 ]
 [-26916.72845159]
 [  3674.82405574]
 [-24862.87672338]
 [  5661.83452212]
 [ 11015.55964442]
 [-37376.63027178]
 [-34954.25690694]
 [ 35157.83661313]
 [ -8589.90652106]
 [-13507.31462401]
 [ 54935.06273283]
 [-13287.99784455]
 [-36144.58569968]
 [ 23241.80460967]
 [-26275.10323671]
 [-20698.28955592]
 [ 33886.6588645 ]
 [-10113.66208091]
 [ -1460.7087021 ]
 [ 15227.86566365]
 [ -2222.20051159]
 [ 73936.47846087]
 [ 12333.14550917]
 [ -7381.87362438]
 [-14430.48592194]
 [-37048.89042827]
 [  3852.38005193]
 [ 12582.14845105]
 [ 16099.29408041]
 [-11760.62892016]
 [-39290.95054053]
 [-23248.1558681 ]
 [-20172.65144341]
 [ 30039.16253151]
 [-25613.60955383]
 [ 36996.09732634]
 [ 25810.87174939]
 [  -673.18127063]
 [ 13734.65632631]
 [-19545.68718862]
 [  -540.25629803]
 [-13910.22079449]
 [ 25411.14976654]
 [ -5644.78474325]
 [-33790.05640742]
 [ 18944.19179799]
 [ 32996.09932847]
 [ -4577.31675182]
 [ -2763.43076305]
 [ 23465.1523717 ]
 [ 13260.10359058]
 [-36348.80470608]
 [-31282.32111743]
 [  1487.0445588 ]
 [ 44818.11470926]
 [ -8954.45015371]
 [-38654.72679895]
 [-15030.38835325]
 [-22123.81823396]
 [ 29792.84814377]
 [ 39951.01307365]]
