[[-32608.78817519]
 [   479.44695735]
 [-36163.69852568]
 [ -8838.83680149]
 [ -2135.60145934]
 [-33123.95968084]
 [-47071.15491049]
 [ 31994.26414246]
 [ 21372.42306696]
 [-35489.47286393]
 [ 51431.2650039 ]
 [-27691.2486046 ]
 [-18559.71498847]
 [ -5477.69704249]
 [-22690.0510782 ]
 [  9163.6647656 ]
 [  3798.8282614 ]
 [  1342.7505424 ]
 [ -7869.77729422]
 [ 10094.49692123]
 [-42854.51075963]
 [ 79894.92577047]
 [-47232.50139686]
 [  2621.75643179]
 [-13995.77717333]
 [ -9304.36928395]
 [-15729.31904169]
 [ 44735.83435015]
 [ 23265.42853935]
 [ 12568.41908424]
 [  9748.24575568]
 [  1892.77328904]
 [-23715.10047409]
 [ 49917.36257387]
 [-20345.32072663]
 [ 15547.10175243]
 [-11095.17384729]
 [-32314.84076629]
 [  5859.56601173]
 [-15124.03054908]
 [ 22304.88968684]
 [ 26827.35164717]
 [-25122.98298692]
 [ 62553.37220757]
 [ -3469.53957095]
 [ -7653.02085008]
 [ 28281.2697331 ]
 [ 44362.2127761 ]
 [-33965.55192242]
 [-21168.37112653]
 [ 58648.27081595]
 [-32972.76982392]
 [-33554.29621002]
 [ -7036.63271203]
 [ 44872.86805573]
 [ 20228.44255368]
 [ -9922.76456142]
 [ -6078.47443103]
 [ 55455.88899065]
 [-13745.17790625]
 [  9983.57419046]
 [-29491.47144368]
 [-37237.89077542]
 [ 11973.80690144]
 [-46583.3435585 ]
 [ 82832.56512042]
 [-34647.4979586 ]
 [-42506.27360889]
 [ 63556.30555878]
 [ 31555.46776898]
 [-44577.83433649]
 [ 48171.62749615]]
