[[-43477.26650441]
 [-41840.47450082]
 [ 23655.92655967]
 [ 20736.73411393]
 [-33471.10896174]
 [ 27770.48203613]
 [  9108.15304048]
 [ 40248.75446093]
 [-19066.32392359]
 [  6362.75126586]
 [ 33229.73272559]
 [ 11574.54782262]
 [-33853.00506936]
 [-18618.68702732]
 [  6431.31261439]
 [   475.20237272]
 [ 27949.76370801]
 [-28299.12208198]
 [-14683.94273699]
 [-29858.52118536]
 [ 19099.19534204]
 [  1382.9159299 ]
 [ -5752.02435157]
 [-10769.2794991 ]
 [ -8014.67840855]
 [  8041.81000673]
 [  6801.70813441]
 [ 13797.80047346]
 [ 30629.39665606]
 [ 36819.88904408]
 [-30345.42176754]
 [-14408.49176755]
 [146315.32514276]
 [-23788.68341024]
 [ 32378.75430447]
 [  4255.55103305]
 [  1681.47351924]
 [-38777.36704129]
 [-33925.26424884]
 [-17896.07167426]
 [ 15274.49090349]
 [ 36735.08253035]
 [  7224.57173705]
 [-24215.04996418]
 [ 12560.84788859]
 [-43606.89890844]
 [-19799.55061149]
 [-31178.98770578]
 [-14092.86841189]
 [ 89853.54879976]
 [ 32403.12597834]
 [ 30008.10617323]
 [-44848.24524084]
 [-45284.58087765]
 [ 15298.03288939]
 [ 17578.43951165]
 [-37999.93682245]
 [-23713.17117287]
 [-34098.40284231]
 [ 46015.73411214]]
