[[-24860.35393365]
 [   623.73169457]
 [ 67064.3463954 ]
 [ -6972.65005101]
 [-26951.03831763]
 [  9396.4247952 ]
 [ 25810.19159553]
 [ 34551.94714759]
 [ 36389.04614746]
 [-18718.19835062]
 [ 23126.06816105]
 [  5340.77987357]
 [-21833.23076023]
 [-19635.6605239 ]
 [ 76287.80396707]
 [-31045.75796236]
 [-36505.2483332 ]
 [ -9465.33375593]
 [  6090.47078339]
 [-16572.84450465]
 [ 13747.10683643]
 [ 18183.91465966]
 [ 86305.51436323]
 [-13173.32130321]
 [ 26149.33230552]
 [  5697.1698766 ]
 [ 17417.48982445]
 [-12903.28603775]
 [ 21765.45368731]
 [ 33861.41191519]
 [-14040.90135954]
 [  2781.6881507 ]
 [-31597.03659784]
 [-34424.52597954]
 [  6277.41101556]
 [ -8216.07280232]
 [  1236.81907259]
 [-26540.354276  ]
 [-23870.04359524]
 [ 85070.02684525]
 [-31668.47768064]
 [-12372.90215267]
 [ -8930.26765089]
 [ 34525.58875124]
 [ 16455.12132848]
 [ 17063.98419731]
 [-13900.18854362]
 [-12489.90633166]
 [-15634.80151279]
 [-30979.85611267]
 [ -3961.74468504]
 [-33711.58952019]
 [-36352.03537998]
 [-28265.7195548 ]
 [   899.80508722]
 [-23384.26796216]
 [-18346.34381074]
 [-12576.93039446]
 [-11228.65415076]
 [-31095.23464686]
 [ 50441.45791544]
 [-29677.30333507]
 [ 28463.17233917]
 [ -4854.56584326]
 [ 24986.81775312]
 [-14426.21404425]
 [-33397.80648434]
 [  1478.23557922]
 [-19976.48730171]
 [-18765.33571845]
 [ 43621.82457907]
 [ -9802.99859537]
 [ 42567.92842802]
 [-31699.17199984]
 [ 41529.85547594]
 [-35389.73402019]
 [ 20841.02857302]
 [-25834.57324355]
 [ 37283.40873833]]
