[[-10534.59630839]
 [-38182.4765981 ]
 [  9446.64875829]
 [-16163.63202399]
 [-22721.76710955]
 [-26582.10216874]
 [ 11563.83607049]
 [-11088.7795709 ]
 [-37167.75883685]
 [  5839.86609386]
 [ 15135.52584293]
 [ 37659.59837914]
 [ 26829.39711287]
 [-41713.37574425]
 [  1105.76444903]
 [-18564.72604828]
 [  2728.77747144]
 [ 49389.11534439]
 [ 45939.45837703]
 [ -3679.70088795]
 [-18779.99880382]
 [ 19519.90128102]
 [ 12870.95451364]
 [ 15812.69608072]
 [  2274.97365562]
 [-17228.19213522]
 [ 11649.7734082 ]
 [  3895.25891095]
 [  8534.10945953]
 [ 11983.37767357]
 [ -9769.39159116]
 [-23746.67676004]
 [-30511.45012614]
 [ 45032.50592341]
 [-16043.59917082]
 [ 55189.01708884]
 [ -4961.46686796]
 [ 38359.12401457]
 [-12722.38371629]
 [ 10891.19573282]
 [-36274.60196032]
 [-39929.98550042]
 [ 47326.72107045]
 [  2695.82462898]
 [ -3124.48172131]
 [ 32819.4576985 ]
 [-39548.04511024]
 [-41525.16840689]
 [-35765.18337573]
 [ 20746.21406599]
 [-38599.43931511]
 [ -7666.97204539]
 [ 31525.1533215 ]
 [ 35644.07437157]
 [-39643.77860869]
 [-33277.96630917]
 [-39099.43069292]
 [ -5272.06553897]
 [-36962.19301224]
 [-40935.45924218]
 [-28683.46344258]
 [ 21477.96836174]
 [-32798.90861936]
 [-28428.28347858]
 [ -2778.88285349]
 [ 20493.77661124]
 [ 80776.3259848 ]
 [-25967.00843549]
 [126223.21343336]
 [  9056.68505679]
 [-17105.66103031]
 [  4976.98536522]
 [-19868.94276368]
 [-15684.87776528]
 [  9809.97497567]
 [ 12989.53590368]
 [  9078.66999293]
 [ 21958.41368357]
 [ 18462.98472289]
 [-12987.57611757]
 [ 25996.58841826]
 [  9125.48298887]
 [ 30687.04602227]
 [ 34776.63153111]
 [-41682.22528448]
 [-24525.92875289]
 [ 42332.63142123]]
