[[  127.17416333]
 [-1380.72687104]
 [-2935.24598079]
 [-4935.92058713]
 [-2988.79378247]
 [16793.52775725]
 [-1977.31307212]
 [-6377.16421469]
 [-3876.05203851]
 [-3780.27822331]
 [-5650.50452536]
 [-5980.72824914]
 [ 2750.02089921]
 [ 4746.45654514]
 [ 6598.83116687]
 [-3727.17972787]
 [ 1943.61849557]
 [ 1517.47176114]
 [-6095.50277206]
 [-4196.01823198]
 [ 6316.44037009]
 [-5637.26983108]
 [ 1463.54391215]
 [ 4103.38324072]
 [-3904.06256337]
 [ 4326.93667231]
 [ 5564.67180947]
 [-5159.51907084]
 [ 4319.85867072]
 [-4961.96429479]
 [-5040.31848744]
 [ 3745.82043487]
 [-6073.3202643 ]
 [ 7051.15408132]
 [-2199.54717395]
 [ 1941.92339497]
 [ -443.1017719 ]
 [ 4961.43519901]
 [ 1139.05930934]
 [ -762.19524991]
 [ 9792.82806809]
 [-1764.25360025]
 [ 2402.80721633]
 [ -325.85181514]
 [ 7380.00134052]
 [ 6535.17784714]
 [-3409.64670195]
 [-7420.94130603]
 [ 7886.77782276]
 [-4076.76055993]
 [-1599.10948938]
 [ 5536.41836804]
 [ 2026.13348138]
 [-6157.81718963]
 [ 4793.88115546]
 [-3793.2572096 ]
 [  835.31453259]
 [ 2671.93866094]
 [-2983.56254761]
 [-3882.29242939]
 [ 3767.08129085]
 [  727.73977815]
 [-1473.57672237]
 [ 1605.44275973]
 [ 3456.33662442]
 [-5617.0255246 ]
 [-1190.57781573]
 [-2793.54365987]
 [-3738.71603349]
 [  -85.73711618]
 [ -923.33758451]
 [ -107.20372972]
 [ 5641.61482145]
 [-2799.38729892]
 [-1617.47260381]
 [-3345.13916986]
 [ 1403.14637431]
 [ -454.99087328]
 [-3943.8192009 ]
 [-2315.39264574]
 [  830.71560308]
 [  247.15836531]
 [-4816.73963857]
 [ 4335.13384048]
 [ -401.64176525]
 [-3322.14887253]
 [ 8621.85545652]
 [-3292.76484298]
 [-1396.17027562]
 [-4143.9497944 ]
 [  614.16663564]
 [-2734.17240152]
 [11162.47150511]
 [-1094.01700662]
 [ 2608.7972168 ]
 [-1878.52752277]
 [ 1363.90125761]
 [ 6600.37985522]
 [-4071.35293329]
 [-1204.92289592]
 [ 7487.08172236]]
