[[ 36132.93078956]
 [ 52430.18899131]
 [-39316.70062805]
 [ -5720.73030907]
 [   402.87630535]
 [-21098.32535066]
 [-33789.15066674]
 [-25668.32955023]
 [ 15778.81713917]
 [-10407.75564686]
 [ 12609.06510663]
 [ -3881.89819808]
 [-35416.3048817 ]
 [ 16099.66330006]
 [  8122.21885612]
 [  5533.40792173]
 [-31616.68945555]
 [-19606.23428633]
 [ -3950.75702612]
 [ 57470.70437838]
 [ 26231.3122843 ]
 [ 31479.14673966]
 [-37439.42988209]
 [  3103.76543974]
 [-35138.61152442]
 [  9221.63903663]
 [ 21494.71740803]
 [ -2296.89960755]
 [ -6438.19856303]
 [-22981.43003511]
 [ 41569.55050193]
 [-17101.60201608]
 [ 18462.31843248]
 [-32944.36474755]
 [-22185.87126551]
 [ 26246.18969941]
 [ 40486.85970961]
 [-25432.64903927]
 [ -9384.81910661]
 [ 47207.97620451]
 [ 25627.50526954]
 [-15269.85897634]
 [ -4049.66336285]
 [-14691.42281608]
 [-31270.47729591]
 [-16778.22496802]
 [ 31998.90253291]
 [ 15142.92838453]
 [ -4955.29257146]
 [-29781.87434948]
 [ 32737.03467401]
 [ 29815.82241223]
 [-34340.95575446]
 [ -3431.50643921]
 [-31863.81948078]
 [-17049.02772568]
 [ 28581.29485847]
 [ -5733.58817265]
 [ 26903.06649606]
 [ 39104.50587704]
 [-34203.06126166]
 [ 59279.46307934]
 [ 48301.91176552]
 [-36425.9922213 ]
 [ -3981.99943038]
 [ 38949.48012898]
 [ 20068.23111969]
 [ -2049.08975344]
 [ -7785.05910287]
 [ 41399.98155548]
 [-33012.07356038]
 [  1287.46678884]
 [-26075.67915691]
 [ -4108.32242678]
 [ -8787.93905777]
 [-36243.22600127]
 [ 24991.75888443]
 [-33553.60962672]
 [-29520.12886446]
 [-38421.39437235]
 [ 71511.99080464]
 [ 54896.82514616]
 [-16185.25275991]
 [-35179.1526952 ]
 [ 51314.92849662]
 [-18517.79548387]
 [  5661.72169879]
 [ 29025.37807587]
 [-26748.99164633]
 [ 21330.34443309]
 [-37723.49663034]
 [-31872.55274975]
 [-28735.60003427]
 [-35123.6132598 ]
 [  1378.04116104]
 [ 10810.82217191]
 [ 12940.27374638]
 [-14491.23006968]
 [-11659.6097341 ]
 [ 14743.60844539]
 [ 15278.00665163]
 [ 20660.76573925]
 [-18363.49521028]
 [-25873.72315301]
 [ 77381.38524845]
 [ 22010.3443438 ]
 [ 14231.34106252]
 [-36952.40587938]
 [-15011.81783845]
 [-33638.35921917]
 [  4872.94397662]
 [ -6904.2285559 ]
 [ 64329.10715446]
 [ 28345.74636956]
 [-24693.00935164]
 [ 22300.83830231]
 [ 16246.75419823]
 [ -5366.89548272]
 [ 17901.13232752]
 [ 37865.84564939]
 [-25945.30410854]
 [-21673.8869393 ]
 [ -5852.55724397]
 [  8148.56182189]
 [  -643.11071878]
 [ 60990.87319389]
 [-34725.41407352]
 [-14589.92200123]
 [ 32278.97736544]
 [-40091.60381169]
 [-38599.63646893]
 [-28299.56694783]
 [ 13692.11926552]
 [  9792.65489194]
 [ 16363.84238204]
 [ -9085.35738275]
 [ -3581.83059061]
 [ 21246.53916054]
 [  6501.3818912 ]
 [-39588.69427497]
 [-21696.06654711]
 [-31459.28846106]
 [-10534.5733235 ]
 [-19587.2392966 ]
 [  1484.28362246]
 [-14797.36478852]
 [ 11226.29909567]
 [  5776.69178388]
 [ 34585.72154048]
 [-16556.57953609]
 [-13040.41691309]
 [  4471.68947719]
 [-17280.80104972]
 [ 40218.00390329]]
