[[ 62833.4386213 ]
 [   901.88788425]
 [-28829.50741996]
 [ 42283.62450973]
 [ -8629.87949871]
 [100418.40250795]
 [ -9597.14622845]
 [ 32234.63350091]
 [ -5403.56883402]
 [-24943.86397314]
 [ 14086.19209924]
 [-35296.65654659]
 [ 62449.78987786]
 [-32450.48415929]
 [-30599.0248791 ]
 [ 45635.20862164]
 [-39801.71384308]
 [-19794.10375245]
 [-39158.51086134]
 [ 45525.92114194]
 [  3680.24922967]
 [ 30390.83484623]
 [-27416.85810972]
 [ 15174.02181124]
 [-66649.47469888]
 [ 53002.41509184]
 [ 17666.11828485]
 [-65097.05855531]
 [ 53457.48939803]
 [  5445.25949554]
 [-48206.91995399]
 [ 29594.12677921]
 [ -5875.73685938]
 [ 54729.55262699]
 [ 24767.01469861]
 [ -8355.89221677]
 [-23310.15600687]
 [  4867.29030036]
 [ 41913.41935261]
 [ 23381.92146345]
 [-42483.8153811 ]
 [-15035.77297503]
 [-52514.80854556]
 [-24861.068452  ]
 [-36651.14184801]
 [-33058.45372629]
 [ 34895.03836646]
 [-51211.36541869]
 [-61646.81243645]
 [ 48722.60586495]
 [ 23184.62486431]
 [  2019.96965942]
 [-11641.72070838]
 [ 98538.58313093]
 [ 42984.94371404]
 [ 16314.39056697]
 [-55350.73529539]
 [ 88592.02149559]
 [  5943.03085533]
 [-26808.2119369 ]
 [ 32626.24262817]
 [ 74501.42049944]
 [-15915.46796445]
 [-45724.73129238]
 [ -2199.72790462]
 [ 14150.34566898]
 [ -1190.73846725]
 [-17629.2532472 ]
 [ -6941.6901338 ]
 [ -2916.21830495]
 [ 62192.90256103]
 [-22773.40032436]
 [ -9289.38012094]
 [  5951.58295219]
 [-12990.69193185]
 [-23273.7055162 ]
 [-44158.54974785]
 [ 14215.0158372 ]
 [ 35438.52163356]
 [ 14120.20556099]
 [ 16285.72644219]
 [-19277.4866678 ]
 [-16564.72218679]
 [ 31476.09095908]
 [-18978.99837529]
 [-42440.6826099 ]
 [-23207.47717849]
 [-45855.9487684 ]
 [ -1361.82116665]
 [ -7676.91624548]
 [ -9024.22520954]
 [-48370.05342768]
 [-61781.08105262]
 [ 41927.9409093 ]
 [-27845.25347373]
 [  5063.9022367 ]
 [-17566.6301002 ]
 [  6861.23670051]
 [ -5216.98620155]
 [   407.14549005]
 [ 68441.81239458]]
