[[ 17816.62639361]
 [ 16638.93210621]
 [ 10263.75769495]
 [ 38912.12207617]
 [  9095.29124428]
 [-24466.57544776]
 [-29310.08240912]
 [-23499.12601099]
 [-29150.14357809]
 [ 50942.10456796]
 [-23906.99965519]
 [  2365.80857552]
 [-38080.1653904 ]
 [-37863.61414293]
 [   900.75926972]
 [  8112.32904338]
 [ 14602.94778305]
 [ 19882.12978406]
 [ 66959.73401961]
 [-40416.20915555]
 [  9406.37146373]
 [ 25897.76960578]
 [ 36770.7814414 ]
 [ 39206.90638727]
 [ 23139.95974651]
 [ 15609.27628641]
 [ 36873.19036483]
 [  1282.89412438]
 [ 53948.28990192]
 [ -4873.58759714]
 [-23080.17350824]
 [   618.97796274]
 [ 23721.66039736]
 [-37865.10694244]
 [-37723.75181478]
 [ 19340.58999791]
 [-13119.45802383]
 [ 32402.14508583]
 [-10656.88697362]
 [-33185.62268267]
 [-34647.05870837]
 [ 13236.26113463]
 [-16844.14057768]
 [-35083.77652472]
 [ 32631.29407003]
 [-24849.93376241]
 [ 25542.48330934]
 [-18405.53004517]
 [ 27895.25646386]
 [ 31756.76673059]
 [ -9754.27828917]
 [-24092.89002891]
 [   834.8472396 ]
 [-36872.02078408]
 [ 43658.45416197]
 [-32439.71056462]
 [ 48456.05986027]
 [  5776.13602486]
 [ 11747.62795819]
 [-28870.73560111]
 [-16372.39247871]
 [-26792.94126256]
 [  3378.71937885]
 [-11385.73773805]
 [-34617.61532734]
 [-38167.41576873]
 [-27695.65336328]
 [ 26282.01959375]
 [-39098.10639345]
 [ 53217.44700922]
 [-34216.34998594]
 [-37746.14659927]
 [-35518.09438228]
 [-34429.73966194]
 [ -4027.12260368]
 [-11772.89049889]
 [  6649.07456048]
 [-17482.38982405]
 [-33563.45038268]
 [-20031.25888864]
 [  7300.98727557]
 [-11072.18683954]
 [-10647.4112918 ]
 [  5979.05618453]
 [ 45228.55730308]
 [-28921.24977213]
 [ -6056.57767738]
 [ -1868.90870925]
 [ 36075.37617734]
 [ -2757.56092546]
 [-10503.27149776]
 [ 37456.56083141]
 [ 12029.85112013]
 [-39294.9041336 ]
 [ 17400.01663303]
 [-19094.42516928]
 [-10798.24591485]
 [-38898.60394992]
 [-33657.75526371]
 [-27313.32861858]
 [  5910.15861941]
 [-17403.35815655]
 [ -1339.23291702]
 [-30317.28698934]
 [-31951.05168639]
 [  8268.37734963]
 [ -1733.96968702]
 [ 32769.03451687]
 [-39388.32251568]
 [-18878.35918749]
 [-14560.29068264]
 [-10811.67731514]
 [ -9402.47653591]
 [ 15310.70940964]
 [-27518.52203115]
 [-18194.37730401]
 [-22475.10809877]
 [-15175.5569429 ]
 [-23932.66885502]
 [ 34122.17137546]
 [ -8673.83478376]
 [-26827.52018455]
 [ -3125.78525909]
 [ 38170.45762173]
 [ -2097.349941  ]
 [ 25306.95314856]
 [-17605.70031989]
 [ 27851.43600357]
 [-16458.03580316]
 [ 24389.51537691]
 [ 74834.05065715]
 [  7490.87520633]
 [ 42638.14533509]
 [-38514.39022317]
 [-17062.16172661]
 [ 52957.37276895]
 [-39431.83902281]
 [ 30726.67648609]
 [ -3510.56666774]
 [-36551.55788386]
 [  7409.63212373]
 [ 39553.53762243]
 [ 20113.87186733]
 [ 77294.32090485]
 [   210.2728362 ]
 [-32768.21132009]
 [ 34462.06359312]
 [  -850.05980005]
 [ 25898.50614713]
 [-33960.5642839 ]
 [ -1712.84629956]
 [ 79955.98758253]
 [ -9615.93635285]
 [-22526.25482833]
 [  6561.53302072]
 [ 20314.27060498]
 [ 14647.07703347]
 [ 24197.88774735]
 [-26087.24047444]
 [-33500.43766906]
 [  8686.60527842]
 [-15918.88137247]
 [-27858.14994541]
 [-20335.23037093]
 [ 18983.22572417]
 [ 18670.67989754]
 [ 12569.21601914]
 [ 34745.26102296]
 [ 12638.16998221]
 [  6298.74240639]
 [ 25572.07662676]
 [ 34149.1325788 ]
 [ 43555.40901666]
 [  6892.74764245]
 [-18701.65955677]
 [-33677.03814961]
 [ 45044.81482734]
 [ 18417.6390148 ]
 [-37077.00459208]
 [ 15326.6863583 ]
 [  6309.79567685]
 [ 18195.20635338]
 [ 39074.45296549]
 [-21180.97135433]
 [-32374.18497782]
 [-32484.92375811]
 [-19273.99571682]
 [-30778.10059306]
 [ 23612.2911114 ]
 [  6712.45155734]
 [ 13579.05375224]
 [ 44885.05546234]
 [-16045.81130147]
 [ 40515.51364319]]
