[[-3.46203757e+04]
 [-3.14479960e+04]
 [-7.04905803e+03]
 [-3.08727394e+04]
 [-3.88899042e+04]
 [-1.37569095e+04]
 [-4.64766956e+04]
 [-1.48937508e+04]
 [-2.70226366e+04]
 [ 5.45743590e+04]
 [ 2.42861596e+04]
 [ 1.58979415e+03]
 [-9.53532153e+03]
 [-2.38378723e+04]
 [ 2.94816571e+04]
 [ 1.28205531e+04]
 [ 4.84016077e+04]
 [ 2.02108925e+04]
 [ 6.23446632e+04]
 [ 1.66293790e+04]
 [ 2.55831111e+04]
 [ 1.48214731e+04]
 [-3.52410222e+03]
 [-8.58773925e+03]
 [-3.73771424e+04]
 [ 2.61916847e+04]
 [ 5.00905947e+04]
 [-2.84928492e+03]
 [ 4.07329654e+04]
 [ 1.09360715e+04]
 [-2.96269186e+04]
 [-3.01061522e+04]
 [ 3.29798257e+04]
 [ 2.68985935e+04]
 [-4.74790580e+04]
 [ 7.30510535e+04]
 [ 2.70393202e+04]
 [-2.41315816e+04]
 [ 2.58296686e+04]
 [-3.15076587e+04]
 [ 4.56873596e+04]
 [ 5.86805359e+04]
 [-7.66501050e+03]
 [-1.00396645e+04]
 [ 1.82712241e+04]
 [-3.21652758e+04]
 [-2.13946991e+04]
 [ 2.64529198e+04]
 [-3.95944699e+04]
 [ 1.29046265e+04]
 [-1.57785481e+04]
 [-4.73307288e+04]
 [ 2.48776555e+04]
 [ 6.64733078e+04]
 [-2.28707145e+04]
 [ 2.22492506e+04]
 [-2.88291240e+04]
 [-1.51876295e+04]
 [ 1.86177476e+04]
 [-1.77584045e+04]
 [-1.31046603e+04]
 [-3.39108537e+04]
 [ 3.88628123e+04]
 [ 1.19225932e+04]
 [-2.85554124e+04]
 [ 3.54017453e+04]
 [ 5.55816302e+04]
 [-7.67636585e+03]
 [-1.68566733e+04]
 [-1.97137038e+04]
 [-4.94419606e+04]
 [ 4.96685232e+03]
 [-4.18196238e+04]
 [-9.27441468e+03]
 [ 3.37250788e+03]
 [-4.87172890e+04]
 [ 2.22407381e+03]
 [ 5.64019552e+04]
 [ 1.31588880e+04]
 [ 1.34910411e+04]
 [-3.12931743e+04]
 [ 4.52799146e+04]
 [-4.97883255e+04]
 [-2.70554179e+04]
 [ 4.74028576e+04]
 [-1.76127544e+04]
 [-2.71953666e+04]
 [-3.37111864e+04]
 [ 1.21668930e+04]
 [-5.76967655e+01]
 [-3.24383660e+04]
 [-1.26679131e+04]
 [ 3.55726559e+04]
 [-2.35379762e+04]
 [ 8.97274494e+04]
 [-3.76495000e+04]
 [-3.41428827e+04]
 [-1.05849285e+04]
 [ 1.93098178e+04]
 [-4.45381300e+04]
 [ 5.19681199e+04]]
