[[  7650.80700578]
 [-13716.60374035]
 [-29883.00186693]
 [-37846.73628039]
 [ 96860.47157643]
 [-15343.57795244]
 [  6937.89093002]
 [-14849.26947193]
 [-35372.83644048]
 [-29558.44512601]
 [ -4664.75584955]
 [-35133.30051033]
 [-33470.47614681]
 [  4344.76817499]
 [ 18446.69921468]
 [ 40765.18201874]
 [ 99720.63883644]
 [-41307.09607303]
 [  3345.79500733]
 [-21078.56935813]
 [ 18420.92373029]
 [-35712.83102703]
 [-40308.56141128]
 [ -5454.901063  ]
 [  4380.35212521]
 [-26422.56442541]
 [-14628.55416149]
 [  7264.20083812]
 [ 16435.89473425]
 [-20398.31188081]
 [ 68963.26114711]
 [  9551.00122849]
 [  -453.66546308]
 [ 51172.68884996]
 [ 65718.77300784]
 [-17138.49377046]
 [-33234.68165064]
 [ 12399.11341242]
 [ -7097.3357395 ]
 [-11539.50566372]
 [ 70127.8237258 ]
 [ 13325.16934931]
 [ 41161.32491454]
 [ 13740.64191446]
 [-38137.73048612]
 [  2734.12495308]
 [ 41169.55640493]
 [-29420.66927633]
 [-35130.40980561]
 [-41510.21895312]
 [ 13558.89760105]
 [-12456.38482914]
 [ -6637.52298198]
 [-40288.98929617]
 [ 43173.51496284]]
