[[ 16833.03410332]
 [-29490.27499375]
 [ 37716.15134361]
 [-26915.97779935]
 [-37893.82457067]
 [ -8018.09265645]
 [  1520.63891592]
 [ 43438.69648483]
 [-13567.91090335]
 [  3262.82983966]
 [-29530.66814617]
 [-18539.74333204]
 [ -7319.78935693]
 [ 51747.35472576]
 [ 17165.48072266]
 [ 12194.12560174]
 [-13955.92599707]
 [ -9581.96485977]
 [ 20812.94726476]
 [   698.79635088]
 [ -6053.84972278]
 [-33294.36813336]
 [ 20781.18650079]
 [ 39022.36722191]
 [ 47208.65175799]
 [-10291.40766028]
 [  -131.87186257]
 [ 14788.71971371]
 [ 21285.0944747 ]
 [  5140.36946094]
 [-20186.61553948]
 [-18663.26902083]
 [-16442.3631134 ]
 [-34912.96916004]
 [ -6972.228642  ]
 [ 10980.30868764]
 [ 13577.17348456]
 [ 21337.36617025]
 [ 13208.12736427]
 [ -7842.44670951]
 [-29682.97424185]
 [-32527.28246697]
 [ -5511.19735803]
 [ 34788.91079258]
 [-13838.20937289]
 [-12839.20551761]
 [  4976.73574803]
 [-35655.69392204]
 [ 30277.92874055]
 [ 30059.91256271]
 [ -9071.92941234]
 [-18257.08863528]
 [   639.33569834]
 [ 33731.59788694]
 [ 38392.48302481]
 [ 20795.73066291]
 [ 28328.41712126]
 [ 34549.72857894]
 [  9652.55109993]
 [ -9646.88422176]
 [-37196.68245302]
 [-39040.45324551]
 [ 20506.05387613]
 [ 32446.21553459]
 [-20552.02168895]
 [-34133.89626501]
 [-16753.93100873]
 [  3008.92834323]
 [-11312.40303322]
 [-24893.36107917]
 [-34355.17375872]
 [ 40366.48771054]]
