[[-21434.50451186]
 [ -1854.79534954]
 [ -9323.931388  ]
 [  4887.85085706]
 [ 28798.62826891]
 [-30397.30530639]
 [-17665.84117542]
 [-37862.33353562]
 [  1533.86689725]
 [  9484.64178295]
 [-33726.96735674]
 [-24135.59404943]
 [ 25416.5768486 ]
 [ 36746.52270026]
 [-25741.00939046]
 [ -5731.90877034]
 [ 26103.99419685]
 [-35854.13475073]
 [-33276.16471889]
 [-12590.81840186]
 [-10767.70228654]
 [ 37041.2175704 ]
 [ -9381.02758677]
 [-26121.41963975]
 [ 25815.91354012]
 [ 46016.62274863]
 [ 35977.28717852]
 [ -6707.04140804]
 [ 35717.07387032]
 [-23247.75172949]
 [  -900.64066308]
 [-21028.55885969]
 [ -6979.68526706]
 [  5607.52592241]
 [-28976.3791425 ]
 [ 14394.4525154 ]
 [-22509.6328777 ]
 [-23964.99004797]
 [-20868.92674417]
 [  -262.08864453]
 [-18959.355388  ]
 [  6492.33314409]
 [ 19420.40422483]
 [ 26897.99990813]
 [ -9689.4477904 ]
 [ 41463.18901595]
 [ -9462.68943791]
 [ 64616.39551746]
 [ 11371.86580054]
 [ 62195.24928148]
 [-32195.76099878]
 [ -4381.20457254]
 [ 38827.95513123]]
