[[-5755.36060722]
 [ 1988.4195594 ]
 [ -692.62052782]
 [-4842.99244566]
 [-4981.58493495]
 [ 1854.8590008 ]
 [ 2825.43098662]
 [-3283.69369486]
 [-1290.47607082]
 [ 2559.45091501]
 [-1241.63234922]
 [  321.54725124]
 [ -959.26413865]
 [ 6051.98682968]
 [-6176.84554038]
 [ 1862.45051677]
 [-4707.14166815]
 [ 1324.30895076]
 [-2239.04116363]
 [-4171.17758958]
 [ 1440.06225509]
 [  474.62981389]
 [-1876.51649099]
 [-3679.53187037]
 [-3991.32552371]
 [-6627.79202341]
 [ 8210.98401353]
 [-6140.09027569]
 [ 1823.17799643]
 [ -513.56882981]
 [ 6574.81854997]
 [ 3508.21672098]
 [-2779.44002732]
 [ 7678.64683331]
 [  702.09896758]
 [-4563.64364495]
 [ 4716.70789874]
 [-1502.35236711]
 [ 7674.63806119]
 [ -148.50660457]
 [-7356.6270946 ]
 [-4668.77078561]
 [-3823.9602995 ]
 [-3394.91013013]
 [-1808.12210545]
 [ 5024.37380031]
 [ 2504.41850567]
 [-6480.78217463]
 [ 2187.49307219]
 [-7542.70238679]
 [-3106.72027112]
 [ 8905.98179177]
 [-6062.40411233]
 [ 6301.02108785]
 [-1271.07751238]
 [ 2954.94878063]
 [ 1179.74519685]
 [-6987.23007596]
 [-1483.51994251]
 [-6507.48264931]
 [ 1032.4312085 ]
 [ 8706.67247828]
 [-1197.6688863 ]
 [11115.1960741 ]
 [14984.88333225]
 [-3630.77980825]
 [ 1185.50629656]
 [-4320.76978836]
 [-2466.17404731]
 [-4382.54330184]
 [-6724.40778542]
 [-1691.60839351]
 [ 2269.12269458]
 [-5224.9301188 ]
 [-1887.58862321]
 [ -349.306546  ]
 [-2036.42608188]
 [ 9088.07832457]
 [ 1900.26561911]
 [-3640.25856106]
 [ 4319.56956587]
 [-1113.03636324]
 [-2831.42599046]
 [ -792.17414991]
 [ 2045.21959766]
 [ 1359.74021435]
 [ -308.58057031]
 [-5985.91465094]
 [ 1419.07137633]
 [-3507.14425526]
 [  720.97705621]
 [  775.15223893]
 [-6662.54331927]
 [  694.99093108]
 [ 8056.61290753]
 [  797.8717035 ]
 [-4517.37007777]
 [ 8372.06349634]
 [19735.83010864]
 [ 6699.88666763]
 [ 7860.5845702 ]]
