[[-1.05148222e+04]
 [ 3.86352655e+04]
 [-2.52227119e+03]
 [-3.00247688e+04]
 [-2.49338917e+04]
 [ 4.95488658e+04]
 [ 2.91931050e+04]
 [ 2.37364526e+04]
 [-1.86174634e+04]
 [ 6.32811722e+02]
 [ 3.22492392e+04]
 [-1.43427821e+04]
 [-3.38328445e+04]
 [-1.80340766e+04]
 [-2.55456633e+04]
 [ 5.52513243e+03]
 [-2.33312318e+04]
 [ 1.36884386e+04]
 [-1.38558754e+03]
 [-1.55639465e+04]
 [-6.22864833e+03]
 [ 2.25000196e+04]
 [ 3.80233396e+03]
 [ 1.83133023e+04]
 [ 6.26588722e+04]
 [-2.45153420e+04]
 [ 6.19980908e+04]
 [-3.44722578e+04]
 [-1.46770602e+04]
 [-2.45577608e+04]
 [-6.82349308e+03]
 [ 8.63901560e+04]
 [ 1.92767702e+04]
 [-2.85224427e+03]
 [-2.42991697e+04]
 [ 5.01909231e+04]
 [-2.77505728e+04]
 [-3.47099414e+04]
 [-2.09763596e+04]
 [-3.08840449e+03]
 [-3.41187891e+04]
 [-1.23329355e+04]
 [-6.91851231e+03]
 [ 4.83186687e+04]
 [ 1.77894919e+04]
 [-8.51675739e+02]
 [-3.49818993e+04]
 [-7.75738418e+03]
 [ 1.24172562e+04]
 [ 7.57544015e+04]
 [ 6.08919655e+03]
 [-2.82669791e+04]
 [ 7.25519993e+03]
 [ 1.84540898e+04]
 [-2.69411919e+04]
 [-2.78991454e+04]
 [-1.73762359e+04]
 [-2.43157120e+04]
 [-3.46965672e+03]
 [ 9.67841174e+03]
 [ 8.52224146e+00]
 [ 1.74591469e+04]
 [-1.91118742e+04]
 [-3.24398222e+04]
 [-7.79218675e+03]
 [-2.11960519e+04]
 [-1.90564268e+04]
 [-2.52474845e+04]
 [ 6.81513561e+04]
 [-1.17289696e+03]
 [-8.45323983e+03]
 [-1.84909501e+04]
 [ 3.54285856e+04]
 [-1.33524519e+04]
 [ 3.51086232e+04]]
