[[  3543.59343331]
 [ 51189.57428594]
 [-14907.12575704]
 [-26910.67597788]
 [ 63226.88432009]
 [ 14618.85883609]
 [-38116.7845827 ]
 [-37999.06956552]
 [-15424.90240154]
 [-35993.52272171]
 [ 19521.9159662 ]
 [-18266.39922111]
 [-20718.91703135]
 [-19528.46602992]
 [ 77179.33690508]
 [ -5927.09290514]
 [-34874.94373316]
 [-36034.54798162]
 [ 13016.52391061]
 [-15550.20444982]
 [-30853.37244179]
 [ -6040.86751237]
 [-13136.85210544]
 [  9754.10804931]
 [ 32139.21799081]
 [-38596.10468867]
 [ 53612.16377386]
 [ -4773.67504137]
 [ 42937.74113715]
 [  8501.01015584]
 [ 83081.08297495]
 [ 17817.11583075]
 [-35618.52829089]
 [-18520.51332097]
 [-35645.37030519]
 [ 16700.95277537]
 [-28980.683738  ]
 [ 34330.37396511]
 [ 37072.50605439]
 [-36397.19235547]
 [-34038.50045659]
 [-31285.6880523 ]
 [ 29024.30480226]
 [-26127.72335256]
 [-33960.83333325]
 [  1221.01207982]
 [ 48598.0588449 ]
 [-24051.98105102]
 [-26786.77724918]
 [ 77963.99814638]
 [-23444.32834274]
 [ 31279.53523768]
 [ 43470.85746504]
 [ 17748.93533631]
 [ -6321.35162504]
 [ 50921.79176396]
 [-28139.26709746]
 [-28100.22490606]
 [  9501.44849476]
 [ 50830.35298664]
 [ -9978.10280058]
 [-29523.35292127]
 [-24979.70741374]
 [-29192.80677792]
 [  1320.33463224]
 [-12467.85649902]
 [ 37461.34490356]
 [ -6570.22942745]
 [-33800.39159356]
 [ 38710.85466068]]
