[[-2.46162812e+04]
 [ 3.50413774e+04]
 [ 3.83520918e+04]
 [ 3.47595780e+04]
 [ 6.56013929e+03]
 [-5.37030102e+03]
 [-6.63213232e+02]
 [-4.65775537e+04]
 [ 3.77644007e+04]
 [-9.54617810e+03]
 [-3.00147615e+04]
 [-4.03966296e+04]
 [-1.55858308e+04]
 [ 7.28850411e+04]
 [ 2.39532295e+03]
 [ 1.90306885e+04]
 [ 4.82965685e+04]
 [ 1.16729678e+04]
 [-7.39942110e+03]
 [ 4.33246439e+04]
 [ 8.49218841e+04]
 [ 8.03570160e+04]
 [ 2.94062331e+04]
 [-4.35594141e+04]
 [ 1.66551332e+04]
 [-3.96273686e+04]
 [ 2.90113114e+04]
 [-2.94112054e+04]
 [-9.84548323e+03]
 [-6.68025853e+04]
 [-6.00896131e+04]
 [-6.46480010e+04]
 [-2.60593108e+04]
 [ 2.39091199e+04]
 [-2.99508520e+04]
 [-2.89815509e+03]
 [-3.28184074e+04]
 [-3.40409503e+04]
 [-4.33122108e+02]
 [-1.33205341e+03]
 [-4.06812388e+04]
 [-5.65907487e+04]
 [-1.34618433e+03]
 [ 2.95765065e+04]
 [-2.64443419e+04]
 [-5.60453384e+04]
 [ 3.97569762e+04]
 [-4.43737614e+02]
 [-4.55707009e+04]
 [-6.06324130e+04]
 [-3.20891459e+04]
 [-7.62853052e+03]
 [-8.36327954e+03]
 [ 3.79879154e+04]
 [-4.22853815e+04]
 [-8.91159774e+03]
 [-1.60997169e+04]
 [-5.79567931e+04]
 [-3.99369532e+04]
 [ 1.74001354e+04]
 [ 3.68927742e+04]
 [ 2.85078093e+04]
 [-1.89349863e+04]
 [ 3.96452174e+04]
 [ 1.21812975e+04]
 [-5.97487034e+04]
 [ 8.82662354e+03]
 [ 2.01531558e+04]
 [-3.31806881e+04]
 [-1.84916415e+04]
 [-5.38227900e+04]
 [ 6.09291030e+03]
 [ 4.66289888e+04]
 [ 5.26915582e+04]
 [-4.15511538e+04]
 [ 2.31160307e+04]
 [-4.61487534e+04]
 [ 4.26301661e+00]
 [ 7.63487190e+04]
 [-5.76236503e+04]
 [ 1.23724234e+05]
 [ 7.76905544e+04]
 [ 3.83682550e+04]
 [ 4.83026401e+03]
 [ 4.31793840e+04]
 [ 5.76162247e+03]
 [ 6.76378850e+04]
 [-2.22108708e+04]
 [ 8.67933607e+04]
 [ 2.08249245e+04]
 [ 1.17856760e+05]
 [-3.33421822e+04]
 [-3.76170894e+04]
 [-1.09094179e+04]
 [-4.13934090e+04]
 [-4.45943007e+04]
 [-3.44141580e+04]
 [-6.20450917e+04]
 [ 6.40494790e+04]
 [-2.12944186e+03]
 [ 7.35679855e+04]]
