[[ 2.46438434e+04]
 [-5.79184881e+03]
 [ 3.19747772e+04]
 [-3.62840488e+04]
 [-3.83159637e+04]
 [ 4.14506218e+04]
 [-8.04906503e+03]
 [ 7.82916647e+04]
 [-3.27531747e+04]
 [-9.41574585e+03]
 [-4.62847232e+04]
 [-1.29736707e+03]
 [ 2.34138565e+04]
 [ 3.51072810e+04]
 [-4.29254619e+04]
 [-4.49452263e+04]
 [-3.80502092e+04]
 [-4.25923134e+04]
 [ 5.30764133e+03]
 [-3.81504952e+04]
 [ 5.74684260e+03]
 [-3.53837228e+04]
 [ 1.77072642e+04]
 [-4.29602339e+04]
 [ 1.17753521e+04]
 [-2.06042941e+04]
 [ 8.35630452e+01]
 [ 5.74691729e+04]
 [-5.92076778e+03]
 [-3.73360237e+04]
 [ 7.79110602e+04]
 [ 6.57892296e+03]
 [-4.56051058e+04]
 [-2.15733503e+04]
 [-1.93181457e+03]
 [-2.91845295e+04]
 [ 1.87084118e+04]
 [ 3.06140889e+04]
 [-2.49482942e+04]
 [ 3.24641269e+04]
 [ 3.92740061e+04]
 [-1.01411942e+04]
 [ 2.94817001e+04]
 [ 9.65316177e+04]
 [-4.48234113e+04]
 [-3.10901154e+04]
 [ 2.28931594e+04]
 [-1.28197247e+04]
 [-3.70826334e+04]
 [-2.27520612e+04]
 [-3.35594232e+04]
 [-2.44667892e+04]
 [-4.02407639e+04]
 [-1.81510748e+03]
 [-4.37487771e+04]
 [-2.70887884e+04]
 [ 1.84225409e+04]
 [ 6.57913437e+04]
 [-7.07572534e+03]
 [-3.19960142e+04]
 [-1.24310284e+04]
 [-3.20974577e+03]
 [-1.88350660e+04]
 [-2.07060178e+04]
 [ 9.78799501e+04]
 [-2.42391617e+04]
 [-4.58444464e+03]
 [-1.09954168e+04]
 [-2.31987839e+04]
 [ 2.60448075e+04]
 [ 8.38835533e+04]
 [-2.87158775e+04]
 [ 1.53627983e+04]
 [-2.62509495e+04]
 [-3.74167036e+04]
 [ 1.09349734e+05]
 [ 3.91949879e+04]
 [ 2.86473764e+04]
 [ 2.02916684e+04]
 [ 3.72897687e+04]
 [ 4.66884550e+04]]
