[[-43435.10873776]
 [  5543.82439471]
 [ 70390.61917181]
 [ 13166.66311979]
 [ 15502.15196312]
 [-46607.37472399]
 [ -5512.11430041]
 [107834.21047837]
 [ 18640.40649617]
 [-15543.81630964]
 [-19560.20813506]
 [-49244.38773244]
 [-47784.70618526]
 [-55626.21777167]
 [  7743.69646785]
 [-37367.89214079]
 [-30817.65283563]
 [-54118.42235661]
 [-38490.08978179]
 [-18678.44285224]
 [-52523.4514369 ]
 [ -6002.94900607]
 [ 10726.10728061]
 [-30619.78735721]
 [-38768.79046264]
 [ 48609.00804557]
 [  1433.54481506]
 [-34816.50617914]
 [-62921.22293898]
 [ -7551.94122029]
 [-11692.52468385]
 [  3477.31593954]
 [ 26313.85075234]
 [-37852.20941025]
 [ 22347.50125925]
 [-45651.69279051]
 [-35244.07367053]
 [ 20603.20155436]
 [-41900.28320619]
 [ 36586.1963604 ]
 [ 78939.34980706]
 [  1744.77092296]
 [-61587.45149588]
 [ -6601.03224767]
 [ 99279.79308554]
 [ 77087.3027717 ]
 [-37807.18357048]
 [ 59245.48690606]
 [-15148.62271845]
 [ 27309.02247625]
 [-21921.17936232]
 [ 29422.92952766]
 [ 54920.97523434]
 [-32539.59060277]
 [ 17922.0540567 ]
 [ 42447.48941713]
 [  9505.78377324]
 [-40165.66893388]
 [-41430.41060591]
 [ -4775.85104717]
 [-45356.30286175]
 [-14819.57189497]
 [-43747.61685405]
 [ 61919.03115933]
 [-41521.38468495]
 [ -4796.26869838]
 [-35362.05955105]
 [ 30417.05607878]
 [-38994.33506853]
 [-38149.75427972]
 [-54296.98103086]
 [  9748.12677467]
 [ 17566.44720753]
 [ -5796.43710354]
 [ 10124.30357127]
 [-12381.36273636]
 [-46885.85288583]
 [ -3282.75955817]
 [ 46378.66125416]
 [-53638.00758701]
 [-34451.6946445 ]
 [-36246.37397913]
 [ 94888.84514592]
 [ 14752.71747601]
 [ 89895.33735888]
 [160459.73474445]
 [-10131.29061542]
 [ 67110.55836723]
 [-53852.36791759]
 [-14289.41780572]
 [ -3324.5885422 ]
 [-28315.76663203]
 [ 14055.08017428]
 [ 49758.50287555]
 [ 24024.97113332]
 [ 55946.61399113]
 [112654.92711506]
 [ 12330.69891258]
 [-63428.9275879 ]
 [ 34603.10991233]
 [ 66318.40450462]]
