[[-30722.03660507]
 [ 34693.35345196]
 [ 11414.98534236]
 [-16962.26067492]
 [-30939.19211392]
 [ -3688.67938907]
 [-22960.13793819]
 [-11146.67824983]
 [-29172.76229629]
 [ -2358.85758944]
 [ -3411.47917787]
 [-15105.12767877]
 [ 23295.46947391]
 [ -5489.2023727 ]
 [ 40381.27763574]
 [-23866.38768854]
 [-26695.75692104]
 [  -281.85010192]
 [ 24053.54523023]
 [  2466.53265924]
 [  3497.28355231]
 [-32488.25001056]
 [ 24586.71490248]
 [ 21183.04749373]
 [ -6119.20769892]
 [-38201.97084178]
 [ 14896.54753534]
 [ -3028.57728414]
 [ 23839.16757104]
 [-36253.66710033]
 [ 26348.43609556]
 [-31508.22286872]
 [-12431.90229831]
 [-19502.64101476]
 [-27446.51697668]
 [-35369.10087063]
 [ 36884.36447728]
 [-15050.95657431]
 [ -1239.28799307]
 [ -6291.45760167]
 [-30396.24550432]
 [  4046.59669838]
 [-15824.21301918]
 [ -2068.74010408]
 [ 60812.18733076]
 [ 47458.68510469]
 [ 23714.01787516]
 [  8126.68837555]
 [ 15803.15900346]
 [-14034.17946737]
 [ -1669.03581579]
 [ 13528.70379984]
 [-32093.84952788]
 [ 31318.13919903]
 [ -1182.93305265]
 [  8354.32007523]
 [-38529.53118112]
 [  3325.18683441]
 [ 22278.28050321]
 [-21878.45299206]
 [104881.64198615]
 [ 36193.48752772]
 [ -6085.922891  ]
 [-11465.2652386 ]
 [ 17399.58487307]
 [ -9739.32809513]
 [ -5271.77438874]
 [-36079.19436379]
 [ 21053.71744232]
 [ 17312.11397833]
 [ 16314.36671654]
 [ 16500.57152113]
 [-11374.02443109]
 [ 30901.3649887 ]
 [-37647.34847772]
 [ -4011.54692192]
 [-19779.78585097]
 [ 40014.80539633]]
