[[ -7014.55676564]
 [-43259.1036921 ]
 [-23508.3540096 ]
 [-28311.29086889]
 [123192.58164493]
 [-33386.05166181]
 [-40225.94008366]
 [-31533.75859083]
 [ 10155.307516  ]
 [  3945.05274637]
 [-48652.43228595]
 [ 76264.80661148]
 [ 23736.79650324]
 [ 25780.29499929]
 [ 47920.52433899]
 [-29381.75563233]
 [ 40037.84386744]
 [  2240.73891882]
 [ 50771.60346825]
 [-62148.80954239]
 [  2153.68635542]
 [-51442.45937216]
 [-38740.46365668]
 [ -8392.25444113]
 [ 36951.79789062]
 [  -247.485479  ]
 [-26491.66939041]
 [-16880.7224257 ]
 [ 39344.75893403]
 [-37209.28981697]
 [  1072.65174991]
 [-39851.82065662]
 [ 27863.49750969]
 [ 28440.2008081 ]
 [ 32550.94774823]
 [ -3737.1764373 ]
 [ -3734.01723343]
 [ -9796.55648683]
 [-47628.35483478]
 [-36333.33566174]
 [ 15827.29885433]
 [-30702.21642209]
 [-40449.21667087]
 [ 38806.12702463]
 [ -8606.52973124]
 [-65094.82013315]
 [-41509.69233523]
 [100019.53233311]
 [-42903.65948622]
 [-54900.99448158]
 [  1637.03825359]
 [-39128.33740665]
 [-69971.48295579]
 [ -1971.14762761]
 [-48800.20875084]
 [-11029.63884221]
 [ 84491.50532548]
 [ 42340.97736342]
 [ -6056.75459029]
 [ 88592.02469478]
 [ 47309.22200477]
 [175674.49759682]
 [ 46847.08190002]
 [-13119.79625309]
 [-20165.45043096]
 [-39629.17758211]
 [ 47774.90054629]
 [  9383.17224348]
 [ -2843.14266757]
 [  2221.05260249]
 [ 18035.22296152]
 [-18440.66121596]
 [  7955.66746202]
 [ 29077.46691227]
 [ -9368.83057345]
 [-64914.49018992]
 [-19073.30390814]
 [-16430.40967039]
 [ 84262.3526477 ]
 [-27019.33837912]
 [-52936.27347391]
 [ 95280.81996882]
 [  1804.72328643]
 [ -9165.1445711 ]
 [-12246.01137741]
 [-48449.09684328]
 [ 36257.9204618 ]
 [-47365.88725714]
 [  8289.93149359]
 [ 38174.94218387]
 [ 34267.19118559]
 [-50240.46252241]
 [-48683.90238849]
 [ 25482.26905743]
 [-11387.74645203]
 [-20802.93666225]
 [ -4234.38122294]
 [-28063.81390879]
 [ 12383.82863438]
 [ 28992.75740072]
 [ 70273.50342697]]
