[[-20555.5989715 ]
 [ 14661.75775557]
 [ -5801.25869036]
 [ 18211.66746439]
 [-53234.79223336]
 [-22567.54367384]
 [-35475.20270655]
 [ -1184.5293583 ]
 [-55990.39337035]
 [169574.12874561]
 [-32381.55553415]
 [ -4839.86829247]
 [-52676.17686975]
 [-30894.91197594]
 [   848.52995799]
 [  3211.17249703]
 [ 19102.86805018]
 [-57222.42185745]
 [-26179.131402  ]
 [ 48965.13220983]
 [  3140.17750935]
 [ 23473.10737783]
 [-39363.2006384 ]
 [-21762.66387446]
 [-13001.85314896]
 [ 47518.32211423]
 [-29302.16937811]
 [-35203.80368401]
 [ 23781.71654365]
 [ 83542.18710267]
 [-38592.75387359]
 [ -8420.68514744]
 [  5309.43907666]
 [ 45682.43735975]
 [-66841.66532767]
 [  9491.30352407]
 [-44350.62661616]
 [-40471.28059979]
 [ 40389.03621427]
 [-63016.8744972 ]
 [-10318.26341676]
 [ 28211.95597743]
 [-20456.74635161]
 [-11640.25560347]
 [-30002.89828492]
 [ 47651.19354277]
 [-46500.47210228]
 [-29985.06464299]
 [ -7067.58589228]
 [ 29428.72200678]
 [-19534.8097435 ]
 [ 10455.64015809]
 [100436.86293223]
 [-52794.24485611]
 [ -7680.2069933 ]
 [ 19744.16025406]
 [-32058.56753546]
 [ 28241.65476028]
 [  6609.30935322]
 [ 49830.05552292]
 [-32479.5286593 ]
 [-35925.35945473]
 [  3546.15554212]
 [-61817.10290765]
 [   630.18078733]
 [ -7033.19847273]
 [-18314.89682029]
 [ 43929.97788399]
 [ -2122.60026717]
 [ 24766.15588496]
 [ 14549.04667698]
 [-66452.00802313]
 [-41144.40610158]
 [ 58102.2757314 ]
 [-32555.20553809]
 [ 17041.43718791]
 [ 87662.10825206]
 [-24634.32334655]
 [ 47032.11381546]
 [  3865.31853233]
 [ 49980.68306312]
 [ 55937.12142529]
 [ 11486.74008603]
 [ -8167.33551049]
 [110368.23420698]
 [-37303.47253419]
 [-59314.29561306]
 [-37969.43824187]
 [ 15946.54882508]
 [  2737.80110011]
 [-12451.68699713]
 [ 36209.87020312]
 [   334.5461489 ]
 [101717.49535198]
 [-33600.39470383]
 [-39040.58473905]
 [   269.19213063]
 [ 71777.4466959 ]
 [ -2998.67798358]
 [-14708.39448357]
 [ 68037.3102085 ]]
