[[-10366.90691111]
 [ 29681.44793653]
 [ 18090.11177121]
 [ 36756.29642686]
 [-29742.5951512 ]
 [ 41966.7762108 ]
 [ 10759.24425742]
 [ 61297.21732261]
 [ 29870.79799003]
 [ 13994.03305033]
 [-38107.32674108]
 [-37868.85161915]
 [ 28060.80208909]
 [ 19837.11045735]
 [   800.46588489]
 [-38035.43216894]
 [ 30562.396732  ]
 [-18503.23513071]
 [-20841.70447481]
 [ 27624.60914081]
 [ 22742.10240887]
 [  1403.94866727]
 [-33207.13383094]
 [   469.61477957]
 [ 27938.48590652]
 [-27253.59665486]
 [ 17242.97991263]
 [-38644.25844557]
 [-12108.77311412]
 [ 30657.5163211 ]
 [ 54486.81426683]
 [-13361.00496015]
 [-38995.60608278]
 [-34232.29444158]
 [-29451.64558763]
 [-36548.96754776]
 [ -9212.72424109]
 [-15553.5456568 ]
 [-24368.7204701 ]
 [ 66642.33174041]
 [ 35310.07785255]
 [-35606.50908492]
 [-29611.81686166]
 [ 45650.29911288]
 [ -3499.2208812 ]
 [-10096.10775272]
 [  2638.51661243]
 [ -8608.47855277]
 [ 13235.21792713]
 [ 32257.96489788]
 [-18643.57134692]
 [-23020.52169232]
 [ 61669.74115777]
 [  2952.90758374]
 [ 31767.05334831]
 [  2176.3748735 ]
 [ 23463.73408625]
 [ 12133.95710253]
 [-10282.66920047]
 [-29269.28843703]
 [ -1365.52005687]
 [-32147.65917623]
 [-14765.07955903]
 [-16387.3520904 ]
 [ 17034.23987303]
 [-17725.18876239]
 [-21256.28455835]
 [ -2343.04949127]
 [-32377.89343758]
 [-29933.43657003]
 [-33425.62845361]
 [-32240.92713363]
 [ 41303.21391977]
 [-10829.68503902]
 [ 15894.10307589]
 [-32101.21147216]
 [  6141.68007563]
 [ 23578.26671888]
 [ -1463.3281577 ]
 [-19409.85317828]
 [ -8221.53752076]
 [ -8780.6509732 ]
 [  1705.33493258]
 [ 26320.09439335]
 [ -3144.4364188 ]
 [ 20587.41791802]
 [ 25416.71941628]
 [-36619.68314962]
 [ 17458.89408777]
 [ 40350.39103789]]
