[[-58835.57178648]
 [-45056.76712933]
 [ 88312.27693338]
 [-19462.92543528]
 [-19832.74819616]
 [-38173.42855983]
 [-30510.29836999]
 [-10547.76903987]
 [  8848.277417  ]
 [-37565.28664258]
 [-50171.52791858]
 [-62161.89312569]
 [ 17200.57711806]
 [-17423.73422321]
 [ 58939.83813612]
 [-62820.15025537]
 [ 28323.6119925 ]
 [ -6353.78471014]
 [-36022.214478  ]
 [ -3613.28815423]
 [ -1366.18000943]
 [ 34169.88402814]
 [-24867.19743596]
 [ 12900.50308696]
 [ 12528.99075639]
 [-31675.40208365]
 [-31274.7009264 ]
 [  3215.91332896]
 [ 36718.27106665]
 [ 42870.69158253]
 [ 68775.8984324 ]
 [ 15216.25271137]
 [ -1969.52222885]
 [  8421.51110102]
 [-13840.46867971]
 [ 21507.92372635]
 [-10289.41933013]
 [ 40986.03100392]
 [-22072.73692797]
 [ 97028.08094442]
 [-16311.43895914]
 [ 17349.38354731]
 [ -8544.99261923]
 [ 70192.44882824]
 [  7995.02557319]
 [ 60176.64798622]
 [ -6458.62452782]
 [-28210.77052844]
 [-12213.29055765]
 [-16488.79603406]
 [-12732.62738459]
 [-50247.83982992]
 [-16584.64287961]
 [-10681.5277271 ]
 [ 20080.66602221]
 [ 16388.65577388]
 [ 41018.30856512]
 [-52836.46656119]
 [ 89154.82063556]
 [ 50193.17737653]
 [ -9022.5183242 ]
 [ 13939.69205988]
 [-30532.71541947]
 [ 13496.1473211 ]
 [-16379.29450227]
 [-50052.82767413]
 [ 20401.42566677]
 [ -2589.12797387]
 [ 63126.87848891]
 [ -5284.43332905]
 [ 55157.68149161]
 [-47148.40808073]
 [-25498.48454421]
 [-43731.41333359]
 [-25691.98494659]
 [-44487.83709291]
 [  7707.78505764]
 [-23451.10043278]
 [ 31454.55719067]
 [  -971.55001075]
 [ 15979.01404685]
 [ 13364.91322991]
 [ 20490.71475215]
 [-14006.91813144]
 [  2846.81367387]
 [ 40021.11962461]
 [ -6747.40617632]
 [  -349.79908156]
 [-26593.35596915]
 [ -1097.1637078 ]
 [-63898.4466573 ]
 [-45827.75430927]
 [-57470.65890432]
 [-29145.69396671]
 [ -7143.27364401]
 [ 47942.03488775]
 [113949.59834768]
 [ 25467.15362614]
 [-11114.3645829 ]
 [  1595.36691099]
 [ 64822.05637053]]
