[[-21606.28598683]
 [-28304.61840163]
 [ 10245.86745155]
 [ 33184.94539373]
 [-33764.0083678 ]
 [-15500.33999675]
 [-16934.24353061]
 [ 55503.92960624]
 [ 46386.86491923]
 [-15360.26062075]
 [-35441.44353661]
 [-29289.16921129]
 [-30089.14462659]
 [ 22700.79894512]
 [-26177.18041878]
 [-33808.04480367]
 [-10465.25631112]
 [-13120.48467409]
 [-19772.2331584 ]
 [ 51759.2856981 ]
 [-18610.64809035]
 [-18285.6345576 ]
 [-14747.73335514]
 [ 52897.64708713]
 [  7112.83620498]
 [-20057.0514768 ]
 [-26194.26793388]
 [  3494.78263233]
 [ -7173.65859586]
 [ 33001.63917862]
 [-36366.74186664]
 [ 43951.38988508]
 [ 73607.54701096]
 [-35682.76671757]
 [-31083.4235857 ]
 [  1755.14732313]
 [-25148.92882105]
 [ 37698.48417559]
 [  2743.12427457]
 [ 25673.20789156]
 [-25718.72877609]
 [  4553.10707499]
 [-14278.52005307]
 [ -2625.63255747]
 [105441.00081894]
 [ 34845.43410065]
 [-26690.76379071]
 [ -8418.65574906]
 [-35315.38720164]
 [ 61809.14060302]
 [  8681.56865812]
 [  -821.48854683]
 [ 14106.28510839]
 [-26958.24105487]
 [-27343.04766679]
 [ 37334.41960942]]
