[[  6300.26905563]
 [-30659.13248539]
 [-24455.32560918]
 [-33161.85652968]
 [ 10113.45369071]
 [-26679.69512516]
 [-15189.72316269]
 [-30204.6076894 ]
 [ 42429.38244109]
 [-31463.36026229]
 [-24290.44774539]
 [-34236.71540362]
 [-30184.89333912]
 [ 17033.7500738 ]
 [ 20437.56955687]
 [ -3537.56008157]
 [ 10229.8348108 ]
 [ 71850.09451014]
 [-27469.68412763]
 [-18824.87515141]
 [ 15336.0954358 ]
 [-17871.95996452]
 [-18594.51200957]
 [ 20990.98777792]
 [-35480.66101967]
 [-25389.75506229]
 [ -6172.94499833]
 [ 55685.03134294]
 [ 40789.3081006 ]
 [  5460.82734416]
 [ 49775.26191255]
 [  1576.7644488 ]
 [-10125.7950677 ]
 [-34375.653667  ]
 [-20551.3318331 ]
 [-35408.2903376 ]
 [ 49920.35545349]
 [  4487.12642841]
 [ 31980.37948622]
 [ 38941.08557282]
 [ 19081.02566347]
 [ 25269.42666442]
 [ 41690.14631352]
 [-11757.8334255 ]
 [-31989.89252909]
 [-30459.68036286]
 [ -7915.01052428]
 [ -9910.49647971]
 [ 54861.48103325]
 [  1873.85868078]
 [-10269.20499357]
 [ 45597.96412247]
 [-29289.04837879]
 [ 60010.3032339 ]
 [ 14039.70937586]
 [-31026.3891833 ]
 [-28399.06052872]
 [  1076.49203879]
 [ -7560.52299151]
 [ 73571.72031535]
 [  5329.65931439]
 [ 25514.06291122]
 [-34965.40672307]
 [  1307.03043604]
 [-35764.31590791]
 [ 25871.91956543]
 [ -6968.43892168]
 [-30835.03484038]
 [-26134.07594287]
 [ 32446.18243892]
 [-32124.16207713]
 [-31708.57339344]
 [ 20060.02926202]
 [-23708.71190523]
 [  3832.21301193]
 [-17832.37210862]
 [ -9848.01420413]
 [ 58615.62766192]
 [-20591.40339236]
 [ 38139.26376958]]
