[[-11904.54893052]
 [-33904.65274136]
 [ 17963.61540546]
 [ -2093.03459084]
 [-21674.47609576]
 [-17226.93112449]
 [-22961.84299746]
 [  9953.04338311]
 [-36101.03722357]
 [-25793.88534621]
 [-16327.63109969]
 [ 30106.3310796 ]
 [-33759.90176238]
 [  2966.10315939]
 [-21306.93561899]
 [ -8729.98441968]
 [ -4577.25938229]
 [-22777.18200624]
 [   899.41260017]
 [ 11721.88827806]
 [-32967.07141234]
 [ 21435.7935331 ]
 [-17638.81283782]
 [ -3058.27599328]
 [-28530.71764626]
 [ 18823.81780289]
 [ -6023.6838212 ]
 [ 41669.45222618]
 [ 15281.87941094]
 [ 61164.90237276]
 [-26476.9230311 ]
 [-26569.6383759 ]
 [-11130.41222376]
 [ 43835.49639498]
 [-30201.0336496 ]
 [ 42101.153372  ]
 [ 88591.73950459]
 [ 94211.06488838]
 [-10992.59243915]
 [-29382.40455189]
 [-31172.78623016]
 [ 21156.97782476]
 [ -1876.48639277]
 [-16899.58988307]
 [-29089.17282856]
 [-27621.16013103]
 [-19209.20731512]
 [ 89266.54797391]
 [-33875.5206149 ]
 [  4908.69031191]
 [-18104.87757231]
 [ 20364.83901487]
 [ 47800.41410854]
 [ -7561.85207308]
 [-16277.92870876]
 [ 13146.96819545]
 [ 39582.84576275]
 [ -4534.31830931]
 [-34923.85879777]
 [  1906.85509577]
 [ 30527.06809911]
 [-26129.27162005]
 [ 36780.51322186]]
