[[  1590.49939271]
 [ 24827.74159673]
 [  3974.85172646]
 [  4081.39143554]
 [  6311.01864515]
 [-31084.16775579]
 [-23927.97426439]
 [-22380.04337808]
 [ 28254.35518973]
 [-11551.22835954]
 [-24991.87680448]
 [-15497.73176457]
 [ 33298.77391046]
 [ 48039.49866609]
 [  1933.83868832]
 [-24378.79016544]
 [-27391.2130046 ]
 [ 40754.72111297]
 [-30707.63856263]
 [ 53480.48086232]
 [ 28367.58596534]
 [-20448.82311556]
 [ 10297.4575434 ]
 [-33857.30640131]
 [-30566.28091216]
 [-29353.73221808]
 [-18586.12457649]
 [ 30562.792516  ]
 [ -6998.86345095]
 [ 46487.37318568]
 [-27099.74289771]
 [ -5985.1131486 ]
 [-10602.22026172]
 [ 29019.33723899]
 [  7697.91027725]
 [-16341.35107648]
 [-33226.76801862]
 [-14130.32903926]
 [ 33514.43898914]
 [-30136.61960867]
 [-22574.03401657]
 [ 17173.54581722]
 [-16279.98515812]
 [ 13335.0955552 ]
 [ 72364.51147935]
 [-13533.26332944]
 [ -2328.12370952]
 [ 58373.04003102]
 [-30729.21455365]
 [ -6524.17520405]
 [-33322.08651051]
 [ 37870.80867909]
 [-17076.24723719]
 [ 35423.91804531]]
