[[-17305.82385919]
 [ 51926.83447853]
 [-26061.33258256]
 [ 40410.81615995]
 [ 87984.95132492]
 [-21102.37466331]
 [-43674.17424987]
 [ 23563.59108043]
 [-51693.84003125]
 [ 87011.37655428]
 [-34503.36061089]
 [-19417.89073602]
 [-55021.02517079]
 [ 24388.93846192]
 [ 14462.64016339]
 [  7562.25970087]
 [ 59335.24317595]
 [-35945.45761286]
 [ 19418.21543836]
 [ -5305.90415718]
 [-53822.52395061]
 [-52173.43960476]
 [-13191.58537451]
 [ 92299.61679875]
 [-13995.35717713]
 [-54205.57076347]
 [-44135.86421605]
 [ 95373.2609756 ]
 [-31972.14894017]
 [-64825.54394522]
 [-11799.25056316]
 [-13250.68764523]
 [-56967.57999738]
 [ 44468.55045722]
 [ 64483.64333127]
 [-26961.93287468]
 [ -7400.69737725]
 [ 13000.9246554 ]
 [-25048.07420658]
 [-64443.29824609]
 [-34968.59369941]
 [-30397.26659201]
 [-22351.71333703]
 [-30207.50644799]
 [-61034.15226221]
 [-45260.75434342]
 [-31529.5987058 ]
 [180298.39755279]
 [ 35132.87723023]
 [-19661.52130989]
 [ 15170.4853319 ]
 [ 17096.58054537]
 [ 47312.04591345]
 [ 31670.0830619 ]
 [-54868.16770667]
 [ 49379.18858739]
 [-47445.89562903]
 [-23752.49908827]
 [-27217.19428197]
 [-11633.38676206]
 [ 36152.8161233 ]
 [ -9690.43983163]
 [  3914.47891105]
 [ 33991.66958139]
 [-61839.08141419]
 [-12886.44172243]
 [ -7649.12635507]
 [ 60130.13254816]
 [-11979.60482152]
 [-20337.6488583 ]
 [  8972.22139609]
 [ 60864.4478265 ]
 [-44455.03975405]
 [-15205.65168279]
 [ 56388.60665215]
 [ 26749.26935541]
 [ -8515.80737696]
 [-33173.61484071]
 [ 48277.36923819]
 [-12817.52684773]
 [-19942.57317941]
 [-45785.36761558]
 [  -317.92251701]
 [-32395.81210843]
 [ -7457.41934801]
 [-16705.87776616]
 [ 22984.66379933]
 [-55193.35376253]
 [ 68429.89810197]
 [ 26734.77961186]
 [ 45940.58175669]
 [ 10862.78050824]
 [ 76368.06966156]
 [ 71364.93282974]
 [-48560.62710047]
 [ 24546.95804376]
 [  2676.76275767]
 [ 42768.54666994]
 [-39615.40226449]
 [-40792.17846345]
 [ 66569.02681787]]
