[[-1.19152176e+04]
 [ 7.91154949e+03]
 [ 2.63586770e+04]
 [ 3.77606576e+04]
 [ 6.06897797e+04]
 [-4.19397253e+04]
 [ 5.21932705e+04]
 [-3.89713493e+04]
 [ 9.31407092e+03]
 [ 2.93305223e+04]
 [ 3.66591194e+04]
 [ 1.19781324e+04]
 [ 3.93322741e+04]
 [-3.76760755e+03]
 [-2.43005319e+04]
 [ 3.85505893e+03]
 [-1.76888621e+04]
 [ 3.60612646e+04]
 [-3.56206653e+04]
 [-4.91377795e+02]
 [-2.42834241e+04]
 [-3.11525975e+04]
 [-1.65512637e+04]
 [-3.04841724e+03]
 [-3.44394365e+04]
 [-2.34979142e+04]
 [-2.98211832e+04]
 [ 4.35065534e+04]
 [ 5.78302556e+03]
 [ 2.02013078e+04]
 [ 3.35656529e+04]
 [-3.36436715e+04]
 [ 7.57068029e+03]
 [-3.65675247e+04]
 [ 3.27138412e+04]
 [-1.08994768e+04]
 [-2.13759327e+04]
 [ 5.63796994e+04]
 [-4.14488000e+04]
 [-1.15210842e+04]
 [-1.37717360e+04]
 [-7.97406772e+03]
 [-3.99464165e+04]
 [ 1.97806315e+04]
 [-8.18121267e+03]
 [ 3.17513145e+04]
 [-1.03274388e+04]
 [ 2.47857066e+04]
 [-5.41619419e+03]
 [ 1.11485306e+05]
 [-1.29546853e+04]
 [-3.42779108e+04]
 [ 1.42728819e+04]
 [ 3.96497957e+04]
 [-4.24226366e+04]
 [ 2.08683537e+04]
 [ 2.44886564e+01]
 [-4.09992612e+04]
 [ 1.33592462e+04]
 [-2.63758533e+04]
 [ 4.34223467e+04]
 [ 9.43261637e+03]
 [-3.49470556e+04]
 [-1.41258577e+04]
 [ 3.20314752e+03]
 [-2.42503245e+04]
 [-3.31012793e+04]
 [ 1.01090062e+04]
 [ 4.79928406e+04]
 [-1.02365673e+04]
 [-2.68479464e+04]
 [ 5.82448838e+04]
 [-4.21959193e+03]
 [-3.24617255e+04]
 [-2.77568784e+04]
 [-3.90276848e+04]
 [ 3.57431469e+04]
 [ 2.46920127e+04]
 [-8.56534514e+03]
 [-1.72502228e+04]
 [-3.54187999e+04]
 [ 4.30556937e+04]
 [ 1.01256840e+04]
 [-4.27283254e+04]
 [-1.41431174e+04]
 [ 2.95286571e+04]
 [-4.20186992e+04]
 [ 4.44931289e+04]]
