[[-15719.69063299]
 [ 32453.81931166]
 [ 43608.52943725]
 [-25742.33434722]
 [ 70580.86531711]
 [-17324.07820357]
 [ 50124.1522864 ]
 [ 25017.30810118]
 [-32622.1300726 ]
 [ 15832.97614201]
 [ -6152.27695164]
 [-22277.70524143]
 [ 18967.24362246]
 [ -9268.16416835]
 [-32773.82577753]
 [-16800.83739443]
 [ -1368.59726565]
 [-18288.03630906]
 [-12776.96932775]
 [-29489.40759597]
 [-17052.10816735]
 [ -8316.25465437]
 [ -7211.27930678]
 [ 65144.62882963]
 [-32571.88520112]
 [-24177.79412588]
 [-28271.73661819]
 [ -6365.85095113]
 [ 74078.2500873 ]
 [-25390.45351119]
 [-16180.03711476]
 [  3262.14317029]
 [ 20151.57396148]
 [-24077.10574457]
 [-19068.88768226]
 [ 23205.95729274]
 [-21916.26427791]
 [-25188.1419556 ]
 [ -5271.96901825]
 [ 27808.72565346]
 [-15248.34547369]
 [ 22778.72131095]
 [ 32120.93556473]
 [ 10185.88548898]
 [ 27968.05236466]
 [ 17497.6241804 ]
 [-14572.98479762]
 [-31362.61518765]
 [  5204.43250989]
 [-19395.55997106]
 [ 27652.29951527]
 [ 15689.14964103]
 [-18620.9639485 ]
 [ -3589.28136959]
 [ 26483.41731433]
 [-18327.55577154]
 [-17512.14390613]
 [-15523.41905989]
 [ 32898.34285647]]
