[[ 2.00445917e+04]
 [ 2.40135032e+04]
 [-4.28626848e+04]
 [ 3.00866709e+04]
 [ 1.81671291e+04]
 [ 1.49289518e+05]
 [-3.63050999e+04]
 [ 1.35721333e+04]
 [ 1.66301020e+04]
 [-1.31854211e+04]
 [-3.84124560e+03]
 [ 6.04841137e+03]
 [-6.13091563e+04]
 [ 1.06255286e+02]
 [ 5.82549710e+03]
 [-2.22144390e+04]
 [ 6.76882466e+04]
 [ 1.07716714e+04]
 [-1.29573224e+04]
 [ 8.41899265e+03]
 [ 3.71892777e+04]
 [-1.17103534e+04]
 [ 3.70939416e+04]
 [ 5.62567526e+04]
 [-2.10236260e+03]
 [ 1.43572916e+04]
 [-1.65231193e+04]
 [ 1.76480912e+03]
 [ 2.26745804e+04]
 [-2.94364799e+04]
 [ 3.37919581e+04]
 [ 1.68106710e+04]
 [ 3.21536888e+02]
 [ 4.97488747e+04]
 [ 2.98341527e+04]
 [-2.78348884e+04]
 [ 1.46997830e+03]
 [ 3.23130544e+04]
 [ 2.80722090e+04]
 [ 9.11091888e+04]
 [-3.64481394e+04]
 [-6.86828487e+03]
 [ 1.52832302e+04]
 [-3.25066905e+04]
 [-1.77078795e+04]
 [-5.07406097e+04]
 [-8.74109045e+03]
 [-3.48091005e+04]
 [ 1.60048941e+04]
 [-4.91873154e+04]
 [-4.29736370e+04]
 [-8.61109821e+03]
 [-3.52354406e+04]
 [-3.67279744e+04]
 [-4.15994850e+04]
 [-1.07761427e+04]
 [-1.63147456e+04]
 [ 5.78727155e+04]
 [ 3.40420879e+03]
 [-1.15438372e+03]
 [-5.32177517e+04]
 [ 8.62161035e+04]
 [ 1.96437210e+04]
 [ 4.78446821e+04]
 [ 1.47600384e+04]
 [-1.49187094e+04]
 [-1.41189978e+04]
 [-1.65999828e+03]
 [-6.54470407e+03]
 [ 1.16787562e+05]
 [-4.86178972e+04]
 [-2.25537890e+04]
 [-6.22474572e+04]
 [-2.60768671e+04]
 [-1.26844107e+01]
 [ 4.22257630e+04]
 [-6.37765732e+04]
 [ 1.92937054e+04]
 [-4.43105261e+04]
 [ 3.58377398e+04]
 [ 7.58356571e+04]
 [ 1.45992067e+04]
 [-5.64785335e+04]
 [-2.73975191e+04]
 [-5.37225408e+04]
 [-5.27234182e+04]
 [ 4.01343963e+04]
 [-8.71357200e+03]
 [-3.75961316e+04]
 [-4.89921144e+03]
 [-4.57993552e+04]
 [-2.68493298e+04]
 [ 9.54631983e+04]
 [-5.76459943e+04]
 [ 6.37047823e+03]
 [ 7.55067531e+03]
 [-1.75283468e+04]
 [-5.68641433e+03]
 [-6.05353020e+04]
 [-1.42827616e+04]
 [ 6.44312519e+04]]
