[[-39032.92376193]
 [ 41228.80186598]
 [ -7327.97552093]
 [ 19548.49796566]
 [-28112.64103486]
 [ -9169.55695087]
 [-20722.31355466]
 [  5344.01665665]
 [-18049.14477754]
 [-10490.89070692]
 [-23708.26833054]
 [-28644.52995425]
 [ 31373.4849086 ]
 [-29667.20752262]
 [ 15654.56890202]
 [  4953.54427876]
 [ -2000.21643746]
 [  6635.32654099]
 [  1740.6480845 ]
 [ 50115.13577679]
 [-10046.59734098]
 [-11271.8541199 ]
 [ 18099.95354683]
 [-38585.8110162 ]
 [-19775.43155841]
 [-34779.34640967]
 [-20025.21691943]
 [  2575.95103438]
 [ 25671.72805374]
 [ 25122.52998592]
 [ 11968.92817909]
 [ -6253.77723811]
 [ 11094.20996205]
 [-11965.83889924]
 [-28623.95782454]
 [-18746.49775642]
 [ 83551.20345617]
 [  9528.01979278]
 [ 29040.50551627]
 [  4198.96258423]
 [ -5072.11120411]
 [  4004.3571634 ]
 [ -3592.83105929]
 [-37262.43237705]
 [ 19026.95420617]
 [ 37509.01214847]
 [   668.25215943]
 [ 13864.42079332]
 [ 29376.34431815]
 [ 18706.75864355]
 [ 14369.46961205]
 [ 18283.79640437]
 [-24165.19032045]
 [ 16341.57220981]
 [  2869.73330147]
 [ -7499.9874272 ]
 [-18486.44229951]
 [-38591.99610171]
 [-33849.41591882]
 [-23685.25807684]
 [ 23682.04208017]
 [-15780.10743878]
 [  1391.65230448]
 [-12469.58531739]
 [ 22644.33466787]
 [ -4926.40073902]
 [ 10174.89297141]
 [   176.39896454]
 [ 14563.11531161]
 [  1346.07938578]
 [ 18864.24648237]
 [-32878.75239704]
 [ 40676.03004205]
 [-30724.97194919]
 [ 39672.97356389]]
