[[ 33935.34834066]
 [  4244.32053688]
 [ -7166.78807662]
 [-31905.45810173]
 [ 43566.34006789]
 [-23744.42499526]
 [ 54943.31216898]
 [ 10173.05334401]
 [ 23816.90506635]
 [ 73999.08767146]
 [-37468.93984724]
 [-30780.52304167]
 [-29221.27637153]
 [  -530.49760192]
 [-31575.0738406 ]
 [-22420.39008264]
 [ -4587.94547029]
 [-34038.91982049]
 [  1745.82793489]
 [-20067.46732824]
 [ -2136.88187935]
 [ 11552.37421669]
 [  3642.28063993]
 [-29875.66630325]
 [ 36680.74301667]
 [-37948.29094558]
 [-39031.08468376]
 [-38894.98336055]
 [ 72678.08710084]
 [ 13722.98504387]
 [-29907.43728428]
 [ 69666.33018324]
 [-35200.80291426]
 [ -7813.11764292]
 [ 39106.95983011]
 [ -3415.13515308]
 [-35312.37033332]
 [ 16971.23718717]
 [ 16832.40057654]
 [  4053.32282543]
 [-22222.74147119]
 [ 19691.81563668]
 [-35023.93499894]
 [-34487.76140974]
 [-38243.59300816]
 [-23195.0200277 ]
 [ 20636.54326913]
 [ 22747.30458214]
 [-19934.97181844]
 [-27601.84701956]
 [  9603.37925971]
 [ -7759.31964845]
 [ 72478.51916169]
 [ 27206.30241426]
 [-29197.11109035]
 [  6405.88140016]
 [-18257.48743602]
 [ 19600.41443579]
 [ 20529.10453843]
 [ -9127.96291353]
 [-14557.6141064 ]
 [ 55489.91614424]
 [  6932.74343322]
 [ 39517.51290942]]
