[[ 45356.77764307]
 [-21660.43071342]
 [-24998.67732269]
 [ 18189.70670677]
 [ 13446.37488389]
 [-30933.16619237]
 [  6510.62948183]
 [ 27457.39570707]
 [ 78006.23514707]
 [-27569.45056488]
 [ -7965.55085083]
 [-27767.75344614]
 [ -6190.82053007]
 [ 52167.96282947]
 [ -3643.17623732]
 [-35009.57047543]
 [-32729.45047764]
 [-35971.67185311]
 [ 42744.21088916]
 [ 30582.41059775]
 [-32821.34205018]
 [  2531.6753028 ]
 [ 34856.79710234]
 [ 27664.28713947]
 [-34750.3128878 ]
 [  2905.32730674]
 [ 35824.01057408]
 [-20265.20098386]
 [ 10118.82627194]
 [-37429.51423179]
 [ 18588.67602998]
 [-33474.1962255 ]
 [ 26851.75501394]
 [ 37796.51952559]
 [-12731.75054739]
 [-17275.73264218]
 [  5476.90840421]
 [ 33749.05645274]
 [ 19185.66204014]
 [  -284.94100484]
 [-33319.6000911 ]
 [-37644.59352741]
 [ 43493.26812102]
 [ 26543.3479302 ]
 [ 28172.00770557]
 [-35223.03351862]
 [-22800.8562818 ]
 [103901.93664885]
 [-14481.92850341]
 [-27246.38534187]
 [ 39391.70991132]
 [ 30727.53965986]
 [ 33610.91956535]
 [-28880.39648202]
 [-34324.32895097]
 [ 27119.11904866]
 [-36465.13715477]
 [ 23842.28309607]
 [ -4784.24245219]
 [-19785.9840542 ]
 [ 23445.29205161]
 [  -604.37930063]
 [  4674.12858941]
 [-35898.91630147]
 [-21157.87741881]
 [ 67216.51341964]
 [-28054.9774586 ]
 [-30775.53296995]
 [-22899.92006485]
 [ 45340.22661596]
 [-34982.51784741]
 [-11781.47929131]
 [-36771.51636354]
 [-32178.60819156]
 [ 10472.77162765]
 [  3947.23490808]
 [-27422.40674343]
 [-12069.65562798]
 [-28388.68854809]
 [-30624.07133155]
 [  5844.15478725]
 [-12951.6611558 ]
 [-29243.51289443]
 [ 20948.46257849]
 [ 54468.18029498]
 [-33430.81072825]
 [ 14767.11744152]
 [-20102.16895599]
 [-13256.05172277]
 [ 16710.23341927]
 [  9327.26805033]
 [-29524.62511452]
 [ 26573.65310561]
 [ 39276.28590625]]
