[[-2.29391937e+04]
 [-3.11060435e+04]
 [-1.13353262e+04]
 [ 2.41973883e+04]
 [ 5.77151139e+04]
 [ 2.72356529e+04]
 [ 1.84659670e+04]
 [ 1.96916806e+04]
 [-1.57334766e+04]
 [-3.86248043e+04]
 [-3.63127391e+04]
 [-1.57734772e+04]
 [ 5.59112055e+03]
 [-2.79666950e+03]
 [-1.20726310e+04]
 [-1.45475536e+04]
 [ 1.12214325e+04]
 [-2.01281607e+04]
 [ 3.34860833e+04]
 [ 1.15932522e+03]
 [ 1.74375227e+04]
 [ 2.78499620e+04]
 [ 3.40807819e+04]
 [-3.06873443e+04]
 [-6.33793861e+03]
 [ 1.88550066e+03]
 [ 3.32155108e+04]
 [-3.28418862e+03]
 [-3.82526781e+04]
 [-2.50639175e+04]
 [ 4.71324470e+02]
 [ 2.33812155e+04]
 [-3.36848171e+04]
 [-4.18854127e+03]
 [-2.70052176e+04]
 [-1.49624154e+04]
 [ 1.29033565e+04]
 [-3.02005743e+04]
 [ 1.49981076e+04]
 [-1.24667419e+04]
 [ 9.91082392e+03]
 [ 2.23010186e+04]
 [ 3.76336158e+04]
 [ 2.09716370e+04]
 [-1.83456703e+04]
 [-8.88286949e+02]
 [-3.13146219e+04]
 [-3.59755891e+04]
 [-1.67912591e+04]
 [-3.07575019e+04]
 [ 5.20442060e+03]
 [ 2.85235370e+04]
 [-1.68335819e+04]
 [ 3.54612864e+04]
 [ 1.81930149e+04]
 [ 2.55248480e+04]
 [ 4.65750501e+02]
 [ 3.11201033e+04]
 [-1.35895492e+04]
 [-2.71132185e+04]
 [-3.32536859e+04]
 [ 3.08053511e+04]
 [ 4.49775003e+04]
 [-2.74045993e+04]
 [-3.02321621e+04]
 [ 7.22131442e+04]
 [-2.66280242e+04]
 [ 2.02303693e+04]
 [-1.90144256e+04]
 [ 2.27468653e+04]
 [ 3.25031713e+04]
 [-3.66017927e+04]
 [ 1.56600840e+03]
 [-2.04564161e+04]
 [-2.34645999e+04]
 [ 1.44192326e+04]
 [ 2.42038677e+04]
 [ 3.58198879e+04]
 [ 8.28785449e+03]
 [-1.76948903e+04]
 [-6.02494974e+03]
 [-2.05025679e+04]
 [ 7.15810879e+01]
 [ 3.45695043e+04]
 [-1.83321987e+04]
 [-3.73542628e+04]
 [-6.39984152e+03]
 [ 6.27673115e+03]
 [-2.67298555e+01]
 [ 1.04735125e+05]
 [ 1.98240239e+03]
 [-1.34720718e+04]
 [-1.93710853e+04]
 [-3.88475226e+04]
 [-1.09616141e+04]
 [ 1.44793194e+04]
 [-2.67584214e+04]
 [ 1.73057220e+03]
 [ 4.03405113e+04]]
