[[ 51416.72966696]
 [ 44823.38070565]
 [ 12061.19459937]
 [ 28494.81118739]
 [  4393.11402843]
 [-30595.00922069]
 [ 30364.42351968]
 [ -4764.6772294 ]
 [  4707.60371012]
 [-33290.30542145]
 [-25411.217949  ]
 [-25541.50943775]
 [-36946.40571751]
 [ 35510.26228126]
 [ 28967.19167855]
 [-17428.74090726]
 [-28945.37463652]
 [ 77592.63845906]
 [ 54624.6968144 ]
 [   808.25403793]
 [ 33286.72655619]
 [ 24074.33520885]
 [ 40778.19403904]
 [ 59534.86412887]
 [-32947.08273546]
 [-28399.6898321 ]
 [-33598.50702047]
 [-30592.18110049]
 [  6206.73973815]
 [ 32487.41487252]
 [ -1287.15782676]
 [-37968.46506258]
 [-34697.66000009]
 [ 29240.2175705 ]
 [  7558.96724286]
 [  7295.17706751]
 [-38301.55770623]
 [-24371.58820139]
 [   425.57232216]
 [ 25896.47064494]
 [-21286.63983017]
 [ -9706.60742554]
 [   246.8505734 ]
 [-30468.89856246]
 [-22900.78131974]
 [ -7400.91803979]
 [-28996.40244325]
 [-12149.95511599]
 [-31808.21094386]
 [-26242.50687191]
 [ 21913.20562536]
 [ -6660.98572128]
 [ 38475.31063798]]
