[[  -775.39789953]
 [ 44352.44904001]
 [ 23418.86031396]
 [ 57232.20209369]
 [-49715.79354527]
 [ 41529.05391996]
 [ 73575.05238411]
 [  9007.89498881]
 [-41270.59185627]
 [ 25436.43824981]
 [  2205.67739472]
 [   766.84623579]
 [  1255.84028072]
 [ 45923.22579387]
 [ 53140.85535003]
 [ 28225.89628357]
 [ -9258.19589274]
 [ 23350.03360652]
 [ 16349.62938796]
 [-41607.51568369]
 [-17739.84084673]
 [-26335.44067875]
 [-29197.8631009 ]
 [-10853.0979764 ]
 [ 40891.19932582]
 [ 11959.78448127]
 [ -7175.07076563]
 [-24831.03723896]
 [-45623.68379053]
 [-14391.13054033]
 [ -7086.24821492]
 [ 25336.67787035]
 [-37826.63089445]
 [-12973.19429161]
 [-28752.08370833]
 [  7984.36764446]
 [-30380.21527159]
 [   902.89113456]
 [ 12926.04951889]
 [ -2507.05494625]
 [ 22148.86160014]
 [ 24358.10387588]
 [ 52251.60823553]
 [ -6923.12511574]
 [ 54811.97221803]
 [  2952.33617281]
 [  6755.98206343]
 [-52254.95441032]
 [  2686.78524967]
 [ 15561.08021254]
 [ 12019.73870816]
 [-23840.1142684 ]
 [ 54701.20419298]
 [ 25492.46292916]
 [  2562.5515136 ]
 [-38174.88687447]
 [-27559.47326301]
 [ -8456.16258311]
 [-50059.1414971 ]
 [ 74867.72420567]
 [ 56276.62530884]
 [ 25886.8730707 ]
 [-28616.10640968]
 [  2391.47488544]
 [-35255.56612272]
 [ 30653.74749031]
 [-18564.07389794]
 [ 27659.54176438]
 [-27713.33713838]
 [-22091.98637969]
 [-42624.10674794]
 [-13140.01879354]
 [  3895.99435503]
 [-11681.29148349]
 [-32026.31284847]
 [-50664.79992097]
 [ 19751.12447605]
 [ 10793.69271059]
 [-36086.10287458]
 [-21351.67771552]
 [-21289.02215573]
 [-27150.94743656]
 [-48732.33328816]
 [-41870.51390017]
 [ 46303.71996127]
 [-30545.39371606]
 [-20973.00843207]
 [  9635.84894097]
 [  1688.18959708]
 [ 80318.00848941]
 [-18686.06739981]
 [ -5006.73962879]
 [ -9256.13844921]
 [  3526.14031319]
 [  6174.81286756]
 [ 11048.05053204]
 [-48293.29124408]
 [ 37266.28632629]
 [ -8770.40914509]
 [ -4254.27728196]
 [ 53235.97995486]]
