[[ 31991.54172552]
 [-29794.81871246]
 [ 42230.58112287]
 [-11218.90395748]
 [ 39581.22989435]
 [ 62840.5899934 ]
 [ -8651.6733122 ]
 [ 14879.10899627]
 [-25698.52097826]
 [ -9867.00104612]
 [ 12899.88042415]
 [ 42140.37031812]
 [  8664.96376482]
 [  4545.67872504]
 [ 24344.79014736]
 [  1818.40441498]
 [-28764.14391097]
 [-33533.70985384]
 [-30468.38583063]
 [ -4678.74852624]
 [-25269.21568997]
 [ 18791.30969793]
 [-12865.70850986]
 [-34822.19925074]
 [-28962.79854034]
 [ 30179.40967417]
 [-33491.93085217]
 [-13436.80528215]
 [-21991.98929017]
 [  7438.43376435]
 [ 77398.05795322]
 [ 31346.79000924]
 [ 63630.9323859 ]
 [-17199.02618986]
 [ 41791.82144333]
 [-25899.3709923 ]
 [ -8647.53911032]
 [-16148.87932473]
 [ -2101.50563604]
 [ -2161.1690464 ]
 [-27891.41729703]
 [-10427.45287468]
 [ -9892.90723773]
 [-14329.64693836]
 [ 20775.00560259]
 [-12823.79260296]
 [ 23252.23230165]
 [ 12459.92183889]
 [-13534.12087226]
 [  5924.89625056]
 [ 12288.06946813]
 [ 46123.94065711]
 [ 24173.60819355]
 [-24087.54748468]
 [ 55149.89306482]
 [ 25067.09785049]
 [-34640.59658025]
 [ -9271.23882569]
 [ 60328.84547925]
 [ 33311.9095431 ]
 [ 62328.84983104]
 [ -6466.61646275]
 [ 48188.31250095]
 [-29544.58351485]
 [-34346.14038099]
 [-28121.15165143]
 [-21978.97153201]
 [-29020.60003802]
 [-10291.83454751]
 [-26211.20607266]
 [-24765.48046229]
 [-12439.31141858]
 [-25927.01277099]
 [ 15206.43104426]
 [-32142.06933877]
 [ 16061.80110796]
 [-16440.6377395 ]
 [-31597.49756338]
 [-11381.35218249]
 [-32079.12595241]
 [  5024.3876224 ]
 [-15638.74541879]
 [ 26128.83312377]
 [-27278.91156009]
 [ 11840.02491582]
 [-19019.91527528]
 [-13387.4078161 ]
 [-12707.96121481]
 [ 27971.76028856]
 [-33443.5915705 ]
 [  2682.40412243]
 [  7165.78504949]
 [  7784.84949761]
 [-28949.86476842]
 [ 37035.22776065]]
