[[ 15137.20320721]
 [ 33846.17200632]
 [ -7209.270337  ]
 [  9868.26572233]
 [-31643.69593773]
 [-29298.24829131]
 [ 16582.61810074]
 [ -1766.79923176]
 [ 43765.47897304]
 [ 15112.74710682]
 [-32284.11853656]
 [ -7794.08858571]
 [-19580.39339665]
 [-30989.92610109]
 [ 39613.51723841]
 [-34377.02635595]
 [-38641.92070431]
 [-17997.03343135]
 [ 40789.87038748]
 [ 10032.87377128]
 [-39993.1997759 ]
 [-19898.26444795]
 [-38943.62341606]
 [-15390.84098025]
 [-29035.22120555]
 [ 13079.54332739]
 [ 18609.58798367]
 [-19706.32998915]
 [-37786.95937888]
 [-23090.0476578 ]
 [ -5004.08731521]
 [-33600.52955208]
 [-35905.17324187]
 [ 24148.25457137]
 [-39780.51024403]
 [-11686.50696182]
 [ 36680.3807519 ]
 [ 37554.63129689]
 [ 24958.87689176]
 [-37991.11908246]
 [166037.37913663]
 [-28670.29931312]
 [ 46682.16405295]
 [ 39175.41105083]
 [-26018.96234778]
 [-33957.0054999 ]
 [ 15579.64939853]
 [ 44255.58107989]
 [-16552.41424503]
 [ 32663.42016277]
 [  -197.71485295]
 [  4874.38737403]
 [ 15743.31682498]
 [ 40232.87984614]]
