[[  5469.46627145]
 [ 94203.07691185]
 [-29356.1142664 ]
 [-20965.40966465]
 [-33525.98505759]
 [ 39657.89026006]
 [-26407.26149691]
 [  2210.98171848]
 [ 19330.8160865 ]
 [   491.00099439]
 [-29490.12280073]
 [-16882.06339394]
 [-24763.27891717]
 [-28979.3607201 ]
 [ 21172.2121082 ]
 [  4431.96184211]
 [-31134.84805491]
 [-22323.18961277]
 [ 19123.61092282]
 [-23974.42866834]
 [-35534.10686657]
 [-28089.47405936]
 [ -5266.14756566]
 [ -4494.86840869]
 [  6472.06018802]
 [-22277.08398395]
 [  -398.34825815]
 [   656.43592825]
 [107944.65095543]
 [-30083.29138097]
 [ 37164.93499093]
 [  7313.21919056]
 [ 40467.28796491]
 [ 16516.71042868]
 [ 42598.19105429]
 [-23805.31623455]
 [ 78022.17675234]
 [ 37953.73409532]
 [-30585.41452219]
 [ 27011.06437481]
 [ -3576.63369569]
 [-29016.73069452]
 [-18447.4458599 ]
 [ 40487.54523974]
 [ 10676.7046687 ]
 [-20164.24398183]
 [-30006.51067681]
 [ 28754.01619784]
 [ 18912.10126576]
 [  8272.85874201]
 [ -3524.64626683]
 [ -4401.50205467]
 [-23178.04473206]
 [ 11125.24645743]
 [ 10520.52326192]
 [ 12195.33985211]
 [ 16959.95663355]
 [-11174.84309477]
 [-26942.69779368]
 [ 41818.53351903]
 [ 29838.55056422]
 [ 11046.50128064]
 [-10643.7440479 ]
 [-33910.68138055]
 [ -8069.49486336]
 [ -4418.45093682]
 [-33502.52786517]
 [-33836.80542626]
 [-29932.53168876]
 [-29229.39760675]
 [  9346.65478848]
 [-27279.73359385]
 [-15267.63939164]
 [-31091.75200101]
 [-24348.62297199]
 [-33981.76622615]
 [ 45112.40761978]
 [ 12657.61305149]
 [ 38346.52460246]
 [ 35581.33391187]]
