[[  3755.03820224]
 [ 32506.22979595]
 [-37396.9764113 ]
 [-11636.06754544]
 [  6292.3444167 ]
 [-24232.22878644]
 [ 27757.18572191]
 [ 27228.81362108]
 [ 13102.51992968]
 [ -2022.01408126]
 [ 11615.17455603]
 [-29530.51034215]
 [ 21337.8486782 ]
 [ 23578.68282658]
 [-21241.91645243]
 [ 30758.53216503]
 [-15489.1362988 ]
 [-14258.7166101 ]
 [-30413.54165016]
 [  -680.99319864]
 [-27298.09509021]
 [-37590.20701021]
 [-26884.96138971]
 [ -3720.19776024]
 [-24169.91965403]
 [  7360.56491338]
 [-13206.03643083]
 [ 18061.6915442 ]
 [ 46230.52403112]
 [-16654.23456439]
 [ 13679.97222494]
 [ 14007.02946484]
 [-28587.05258641]
 [-37206.60201867]
 [ 34833.84040085]
 [ 53055.08447567]
 [ 52434.27374451]
 [ -2154.95407928]
 [-17670.52925319]
 [ 21335.28770264]
 [ 27301.3232729 ]
 [-37456.26408372]
 [ 17859.10669929]
 [-20420.45671299]
 [  8872.4270122 ]
 [-17737.39118619]
 [ 41907.49856552]
 [  2563.17504527]
 [-34859.58408519]
 [-37947.69510731]
 [ -2982.03081024]
 [ 20781.236838  ]
 [ 30397.29085392]
 [ 96755.49986426]
 [ -5495.88172262]
 [  3473.15062317]
 [ -3889.52655296]
 [ -8011.26466619]
 [ 18946.85307052]
 [ 21674.46637904]
 [ -1800.06271195]
 [ 25319.98129285]
 [   999.3278768 ]
 [-36743.16592652]
 [-36892.92516947]
 [-27346.47955915]
 [-17753.38323548]
 [-23774.72407596]
 [  2954.37993657]
 [-38455.757951  ]
 [-37296.96501174]
 [ -6195.59257436]
 [-23827.30466363]
 [   470.4969307 ]
 [ -4840.47778816]
 [-21494.70415166]
 [-30558.95766988]
 [ -1249.45275365]
 [ 34536.61524986]
 [ 26839.34920386]
 [-13628.26645036]
 [  6373.81535707]
 [ -4083.6640807 ]
 [ 11465.23695069]
 [-25276.9180212 ]
 [ -3275.66436142]
 [ 10659.55934401]
 [ 44046.88277319]
 [ 30116.29126769]
 [ -2786.794184  ]
 [-26944.35275655]
 [-15987.71101121]
 [   243.89683258]
 [ 20623.20801724]
 [-16115.08255102]
 [ 48646.08673654]
 [ -5584.40160896]
 [ 39699.01814993]]
