[[-29008.08001434]
 [-36334.44992713]
 [-16461.85866733]
 [-45415.11870745]
 [-33920.76851305]
 [-22077.1906184 ]
 [ 37709.30418542]
 [ 12705.06258646]
 [ 41032.77861633]
 [ 28821.86375936]
 [ -2317.50860601]
 [  9653.78034024]
 [ -7770.88527227]
 [ 57866.40595594]
 [ -6851.56510278]
 [  8426.20170282]
 [-24825.46947691]
 [-21597.59284076]
 [-36309.82628902]
 [ 13077.60901901]
 [ -2367.43648966]
 [147093.49722829]
 [-24867.93933778]
 [ 28520.89016544]
 [  9819.80587882]
 [-43760.93571183]
 [ 12181.86116422]
 [ 63132.88967106]
 [ 18914.42049503]
 [ 67279.08497567]
 [-37898.77065419]
 [  6504.07800631]
 [  5088.57304915]
 [ -3773.65374023]
 [ 54361.1832938 ]
 [-13353.66990294]
 [ 60145.14586669]
 [ 73626.4277614 ]
 [-38534.57003341]
 [ -4355.79139998]
 [ 30431.49183883]
 [ 34867.67400753]
 [ 26129.14471139]
 [-35210.29504109]
 [-39076.87354215]
 [-36809.8616885 ]
 [-42028.14943179]
 [-44112.08833635]
 [  9243.69078787]
 [ 34156.30036872]
 [  4709.56328896]
 [-43100.62797946]
 [ 25431.10675849]
 [-32052.89903944]
 [ 63536.31505031]
 [ 17605.77798444]
 [-41305.37257394]
 [-31921.6644639 ]
 [-32123.48925845]
 [  1047.86954657]
 [ 52364.6476552 ]
 [ -4938.88737775]
 [ 19127.74962929]
 [-18099.75045708]
 [ 17107.01046101]
 [ 21763.67319214]
 [ -6559.31575975]
 [ 18666.72481393]
 [-26980.11089717]
 [  -379.22719627]
 [-20636.6922914 ]
 [-16583.07712742]
 [ 21869.74298872]
 [-18971.31204429]
 [-44386.1029284 ]
 [ -7328.96640661]
 [-30013.78777269]
 [-22607.70254533]
 [-44274.24562505]
 [ 14392.95885656]
 [-11030.03017619]
 [-30895.03066229]
 [ 33061.35916247]
 [-16392.12583615]
 [-32770.24634932]
 [  6665.92103978]
 [ 19925.81938071]
 [ -2777.17583223]
 [-31026.23828593]
 [ 54676.83723673]
 [ 74172.51820851]
 [-20884.2764394 ]
 [-41786.93535945]
 [-40532.90698707]
 [-43547.2038675 ]
 [ 42306.55118321]
 [-36275.56098754]
 [ 45829.58482306]]
