[[ 3.54764199e+04]
 [ 6.79413117e+03]
 [-2.80582550e+04]
 [-2.40165503e+04]
 [-1.26744057e+04]
 [-2.58805314e+04]
 [ 8.95989884e+03]
 [ 6.57007816e+04]
 [ 6.87900932e+04]
 [-2.30978238e+04]
 [ 1.90420762e+04]
 [ 2.51444113e+04]
 [-2.45083468e+04]
 [-8.05451401e+03]
 [-1.71790088e+03]
 [-3.32370397e+04]
 [-3.32600080e+04]
 [ 6.12554663e+04]
 [ 1.79828931e+04]
 [ 2.02641849e+03]
 [-3.12747556e+04]
 [ 5.64534298e+01]
 [-1.41187210e+04]
 [-3.36676909e+04]
 [-5.64576006e+02]
 [-3.33585058e+04]
 [ 1.96365261e+04]
 [ 5.59005764e+04]
 [-1.02880590e+04]
 [-3.42450832e+04]
 [-3.46496666e+04]
 [-2.16029918e+04]
 [-6.79740910e+03]
 [-1.66218232e+04]
 [ 5.45728702e+02]
 [ 2.69234445e+04]
 [ 1.45214642e+04]
 [-1.98898047e+04]
 [-7.40291282e+03]
 [ 2.54017118e+04]
 [ 6.91315841e+04]
 [ 1.81003608e+04]
 [ 1.48110592e+04]
 [-2.65372054e+04]
 [ 3.19080262e+04]
 [-2.44749401e+04]
 [ 2.36000559e+04]
 [-2.96874125e+04]
 [-7.97064289e+03]
 [ 1.92773631e+04]
 [-1.82828429e+04]
 [-2.26671890e+03]
 [-4.12294069e+03]
 [-1.55308828e+04]
 [-1.95071747e+04]
 [ 1.76254458e+04]
 [-2.12442541e+04]
 [ 3.57952611e+04]]
