[[  3381.87252538]
 [   414.90284406]
 [-45300.46822347]
 [-48427.99316147]
 [-25070.30806073]
 [ 60430.30368385]
 [ 66185.38605996]
 [-17656.24871544]
 [ 22038.0385442 ]
 [  5442.5058749 ]
 [ 38488.53167087]
 [ 23268.25431868]
 [-48379.30028473]
 [-46874.89591881]
 [ 47832.96526713]
 [-14677.61488318]
 [-54110.1347961 ]
 [-35434.11830985]
 [-27903.95666718]
 [-43926.49497621]
 [-29358.60673852]
 [ 81267.49528487]
 [-23604.87733892]
 [ 65208.76963373]
 [ 42695.85509908]
 [ 29799.01461959]
 [ 28166.75252174]
 [  8502.22531185]
 [ 23192.86654989]
 [ -8120.99340372]
 [-31706.28312021]
 [-21812.75369047]
 [ -3212.28399587]
 [-12918.08843853]
 [-52207.25177809]
 [ 29315.37315982]
 [ 37940.08071557]
 [ 86946.25521965]
 [-27188.23577371]
 [ 41536.48188487]
 [ 13567.41740987]
 [ 13584.2666419 ]
 [-19844.16817111]
 [ 17237.19696793]
 [-34458.18311266]
 [-25592.27501066]
 [-17409.58568708]
 [-32731.58629297]
 [ -1550.08341162]
 [-31273.11091087]
 [-54389.18190675]
 [-45741.07474198]
 [ -5841.61987621]
 [  7278.73569008]
 [ 62485.50869749]
 [ -8805.11729779]
 [-29657.94566487]
 [ -6187.97441127]
 [-44781.40239839]
 [-27182.69913343]
 [-28903.77465276]
 [  4166.71498574]
 [-36599.16657978]
 [ -7300.56619432]
 [ 66338.25072345]
 [115372.72141494]
 [  3274.60726169]
 [ 77231.28007803]
 [ -7455.38355604]
 [-47282.9009456 ]
 [ 16349.99660601]
 [-11845.35949743]
 [   652.86601888]
 [ 53721.22033078]
 [-40290.50477874]
 [-44391.94613762]
 [-22129.93776645]
 [-23051.80060052]
 [-43543.829526  ]
 [ 61223.99060358]
 [-13336.13062506]
 [  4453.17446784]
 [-39312.95077114]
 [ -4961.09456801]
 [-34790.44001453]
 [ 18949.75277366]
 [149539.58653177]
 [ 44293.28456681]
 [-33927.1638137 ]
 [ -1726.0980391 ]
 [-10007.02392576]
 [ 49970.60858201]
 [ 55497.93917588]
 [  -427.54769204]
 [ 15879.75756094]
 [-55343.19869874]
 [-52275.30713073]
 [ 19714.72833173]
 [-11352.06594325]
 [-39246.42845045]
 [ 55751.09683615]]
