[[-45724.9883895 ]
 [-41103.12292333]
 [ 63505.8172496 ]
 [ 90316.42804955]
 [  -410.35948081]
 [  2186.79652193]
 [ 85217.2324096 ]
 [ 15134.23138521]
 [ 25990.07450097]
 [-16293.88143389]
 [-11005.30905365]
 [ 49520.57559114]
 [ 38651.09955107]
 [-15634.28949917]
 [ 16172.18493882]
 [-41406.29282501]
 [ 15633.69898184]
 [-29194.0236543 ]
 [-31386.08319764]
 [ 17870.82812998]
 [  1179.72460085]
 [ -6057.24389958]
 [  4298.73192676]
 [ 24756.20466911]
 [ 39875.71288956]
 [-40114.12893703]
 [ 22302.36093149]
 [-23681.91320625]
 [ 11116.89061268]
 [-27011.80596747]
 [ 48254.31708864]
 [-46612.42564371]
 [-16861.78523791]
 [ 55566.25039871]
 [  2831.40085656]
 [-43041.71372879]
 [-17665.34496074]
 [-24636.73701137]
 [-12545.43331432]
 [ 18803.81090676]
 [ 36818.696672  ]
 [-35235.10289627]
 [-43277.77933965]
 [ 42965.34943204]
 [-18492.20229856]
 [ 25888.74796948]
 [-43082.37333068]
 [ -8744.29968587]
 [ -9800.36521288]
 [-37544.49675349]
 [ 36501.53519342]
 [-14352.86953486]
 [-28883.71297943]
 [ 18399.82811671]
 [ 32489.81161492]
 [  3690.43063275]
 [ -4435.37960487]
 [ -5548.8568431 ]
 [-35781.52296761]
 [-38765.18449508]
 [-30745.49967644]
 [-46377.95674467]
 [-28513.28537251]
 [-22843.53868117]
 [ 20864.59737317]
 [-34025.79387927]
 [ 54071.06371143]
 [ 40869.91581522]
 [-32645.65289338]
 [ -8417.08833933]
 [ 30804.75880766]
 [  7667.02661689]
 [ -4221.14608769]
 [ -9686.21379249]
 [-10597.96580298]
 [ -1762.49686324]
 [  5224.49481788]
 [ 28463.54488967]
 [ 12923.9095801 ]
 [-21866.43622771]
 [-22155.48339207]
 [ 22388.05774547]
 [ 21589.31126418]
 [-45036.3349067 ]
 [ 42420.46852264]
 [ 46921.92131464]]
