[[ 16362.80466701]
 [-17095.14389939]
 [ 30715.19382854]
 [  2252.72821261]
 [ 23511.72479098]
 [ 26220.10513869]
 [  3828.82130668]
 [-38744.49451814]
 [-24183.54427243]
 [ -3762.63212835]
 [  3324.12569821]
 [ 11675.2162052 ]
 [ 30450.98346254]
 [-31738.25413341]
 [-21257.49496232]
 [  -704.95113904]
 [-20427.1223622 ]
 [ 25512.67096245]
 [-13030.63879073]
 [ 13069.81923857]
 [ 28551.20807602]
 [-14942.41387082]
 [-22107.71456233]
 [ 16480.72361983]
 [ 11316.10918968]
 [ 18777.35790555]
 [-34904.40539714]
 [   318.02663458]
 [-26126.07143232]
 [ 16383.59781863]
 [  8542.5455447 ]
 [-34058.75239646]
 [-10265.24099398]
 [-17313.95230769]
 [-29972.87450495]
 [ 14215.27138582]
 [ 23521.00525066]
 [ 44430.44925623]
 [ 48260.79602769]
 [ -6205.44579863]
 [-37406.18871515]
 [ 26141.17896553]
 [ 35862.26666498]
 [-31163.6864832 ]
 [ 23024.36698374]
 [-39228.98691058]
 [ 53854.34453185]
 [ 13995.75603644]
 [  7176.43674927]
 [-10044.5172585 ]
 [ 27997.03704047]
 [ 14819.91378864]
 [-34108.56791531]
 [-29198.66279687]
 [ 14989.7845375 ]
 [-39052.96544858]
 [ 45912.71198943]
 [-17488.21548754]
 [-28826.50285845]
 [  8926.97005094]
 [ 29261.3446474 ]
 [-11432.86894052]
 [-18958.06581196]
 [-24789.84786817]
 [ 12865.80008225]
 [  3941.35236949]
 [  7504.88915989]
 [ 30051.19017921]
 [-38180.82418196]
 [  8632.33825735]
 [ 44199.13464251]
 [-13991.36490237]
 [  3657.62101451]
 [ 20301.4848761 ]
 [ -6329.25299518]
 [  5872.87858104]
 [  4420.6838015 ]
 [-26863.29398848]
 [  4247.53347617]
 [-31799.2948985 ]
 [  1485.08048251]
 [ 22470.24707209]
 [-27031.15406347]
 [ -8060.24201662]
 [ -8027.18200305]
 [ -7505.17533606]
 [-33005.62185079]
 [ 39435.23251275]]
