[[-28577.97816386]
 [-60867.33357919]
 [107484.11524638]
 [  6837.99141244]
 [ 42928.36745553]
 [-20045.82915619]
 [-16629.03085306]
 [ 60458.96139043]
 [-38762.6632744 ]
 [-19144.77994818]
 [-44215.0930279 ]
 [-48943.85100459]
 [ 39853.41139582]
 [  5769.70869615]
 [ 13104.44141778]
 [ 36335.33521723]
 [-48359.22588722]
 [-18772.42290591]
 [ 96006.21052109]
 [-55163.33121397]
 [100575.22202607]
 [-26444.42107624]
 [ 16185.36606075]
 [-13641.18019233]
 [-19307.46875249]
 [ 42950.81426107]
 [-46786.22202443]
 [-20966.44575795]
 [-68692.50511535]
 [-70213.13510507]
 [-69475.39273201]
 [ 55910.95679913]
 [-19161.19007512]
 [-44190.21465844]
 [-55324.79509347]
 [-51804.40103068]
 [ 22788.70762358]
 [-17028.90552744]
 [-29571.39571599]
 [ 28193.88430983]
 [-22456.33874185]
 [-68496.94344787]
 [ 27191.95734983]
 [ 30024.86055612]
 [  3838.23004222]
 [-39718.10347938]
 [104027.96777556]
 [-57890.96270446]
 [ 60107.55009643]
 [-48915.5961226 ]
 [ 33328.56979242]
 [ 28348.08656315]
 [ 10048.43621291]
 [ 23880.05753064]
 [ 56556.52902552]
 [ 31493.0613837 ]
 [ 22137.39939167]
 [-56043.03282606]
 [-75284.96502433]
 [ 93924.38791386]
 [-20824.28058251]
 [-23470.74601573]
 [  5418.96450264]
 [-60532.86994566]
 [ 35364.66817935]
 [-11179.69743378]
 [ 45067.46267276]
 [-47704.58433981]
 [ 10171.22450458]
 [-53771.00323544]
 [159832.39746336]
 [-48179.75446993]
 [  5850.35374681]
 [ 65988.42476163]
 [ 49189.90021109]
 [-13591.95666691]
 [-56322.12354658]
 [ 39006.52119502]
 [-18365.90715723]
 [-34515.96243975]
 [ 29750.89975688]
 [ 23022.82411518]
 [ 14462.07657734]
 [ 87272.72815333]
 [ -4936.07208091]
 [ 30921.8653751 ]
 [ 49543.34992422]
 [-54162.0894782 ]
 [-10341.79822693]
 [ 39790.66073795]
 [-39155.83240259]
 [-14630.09545588]
 [-66485.54414223]
 [-40218.24654768]
 [  4064.00151656]
 [ 51071.7193576 ]
 [ 43287.32085821]
 [ -4807.92538073]
 [ 11930.86197179]
 [-57207.1692822 ]
 [ 77279.46502065]]
