[[-12345.48550685]
 [ 12367.0565007 ]
 [-47038.4475327 ]
 [ 16618.73503158]
 [-19031.36538574]
 [-12618.47207677]
 [ -8855.80434585]
 [-18715.13699588]
 [-17542.25656314]
 [  7591.08624499]
 [ 77900.94782281]
 [ 50781.71554945]
 [-18058.58797904]
 [-43864.61784193]
 [ 22658.31021547]
 [-11844.30701601]
 [ 59440.46994877]
 [ 23308.01975571]
 [-34516.4842145 ]
 [ 96158.55130029]
 [ 17885.06598039]
 [-20775.79448444]
 [ 22684.00915166]
 [ 12925.45228563]
 [-33705.18241099]
 [  6102.69812124]
 [-44184.07554445]
 [ 12864.66847756]
 [ -7511.5867026 ]
 [103539.94719522]
 [ 40782.99331775]
 [-24573.8138909 ]
 [ -9673.57447101]
 [  3725.71568516]
 [-49437.10495109]
 [ 50297.53143188]
 [ -1928.84525549]
 [ 13903.3264374 ]
 [-15284.82607307]
 [-41234.71015541]
 [ 22818.78701693]
 [-50426.24088075]
 [-11122.26102571]
 [-41862.93299477]
 [  2739.5079499 ]
 [ 20208.37523099]
 [ 42136.61843207]
 [-33039.26181   ]
 [   188.88036228]
 [-39796.65635507]
 [ -6731.05790866]
 [ 24168.22415299]
 [-52415.68463776]
 [ 40515.56700772]
 [-40552.85826553]
 [ 38254.0426698 ]
 [ -7352.30134889]
 [-31961.14631464]
 [ 14988.90548682]
 [ 62018.52724889]
 [-47604.24985827]
 [-43804.99326694]
 [ 34336.86348411]
 [ -1037.99339255]
 [ 30640.45778521]
 [-22577.82332973]
 [ -8327.91874718]
 [  7443.05995428]
 [-21128.29011824]
 [ -2809.26296101]
 [ 31402.56741865]
 [ 32776.01880644]
 [ 45293.44330309]
 [  6536.53913747]
 [ 74342.13889971]
 [ 29398.23663008]
 [ 56987.32989663]
 [ 11944.74367855]
 [  8576.72724041]
 [  -364.03849265]
 [-44507.03103121]
 [  1843.5178835 ]
 [  6494.1803705 ]
 [-41602.4394526 ]
 [ 35821.27589229]
 [-39117.49800684]
 [-36227.00603893]
 [-45959.51701547]
 [ 42988.19913511]
 [-29383.23317874]
 [-43312.91306438]
 [ -4194.67346255]
 [ 10999.15813698]
 [-33467.63197633]
 [ 31548.04711069]
 [-46099.15949827]
 [-21363.86864896]
 [-46093.98895818]
 [-43276.88926272]
 [ 11315.05992562]
 [ 52635.28815783]]
