[[-30679.13985072]
 [ 19509.68812436]
 [-13054.67061485]
 [-32543.91390865]
 [-17719.81611959]
 [  3364.7365723 ]
 [ 12486.42901281]
 [ -5271.61117765]
 [ 11599.52237469]
 [-36855.27103867]
 [-21537.42810474]
 [ -9359.72684503]
 [  -329.57666584]
 [ 14696.33712576]
 [-19632.22231071]
 [  7602.92693877]
 [ 53784.2825629 ]
 [-27639.01270051]
 [-31075.32701865]
 [ 18568.92864321]
 [ 55490.22084067]
 [ 71768.51107001]
 [-34820.40049943]
 [-14002.35376534]
 [  8615.74264972]
 [-16208.47547565]
 [-19341.54836647]
 [ 61946.26301668]
 [  4246.40926428]
 [-14343.52621046]
 [-19192.41146179]
 [ -3279.75430332]
 [  1432.18477052]
 [ 33348.95442721]
 [-36343.25599457]
 [-32350.12306297]
 [ 44627.89692091]
 [ 24863.32894921]
 [-18726.33772621]
 [ -1847.07124502]
 [-33465.83031438]
 [ 22405.02862372]
 [ 18401.89528845]
 [ 26658.85205386]
 [-22447.80651802]
 [-38560.44567541]
 [-35966.69865377]
 [ -8332.07856617]
 [ -7219.92336539]
 [-36881.46344516]
 [ 44869.781084  ]
 [ 44344.26786475]
 [ 26723.92611087]
 [ 48654.69880628]
 [ -6046.4383772 ]
 [-35675.05130088]
 [  7312.24251336]
 [ 15903.97582548]
 [ -5158.11262255]
 [  3697.25321036]
 [-26154.65906105]
 [ 16010.03010703]
 [  5580.10497453]
 [ 26968.72198911]
 [-26372.75399821]
 [-17048.90535079]
 [ 38970.80026784]]
