[[-4.04613245e+04]
 [ 6.81363575e+04]
 [-4.01624456e+04]
 [-2.74968638e+04]
 [ 1.89257388e+01]
 [ 3.06970281e+04]
 [ 2.04130082e+04]
 [ 6.44362150e+03]
 [-6.79848626e+02]
 [ 6.98428287e+02]
 [-4.15563015e+04]
 [ 5.34140216e+04]
 [-3.95715140e+04]
 [-1.07181104e+04]
 [-9.32866192e+03]
 [-1.16501985e+04]
 [-8.59481843e+03]
 [ 4.85168546e+04]
 [-1.77033669e+04]
 [-4.07264927e+04]
 [-2.71319603e+04]
 [ 1.07680744e+04]
 [-2.22712883e+04]
 [-6.56665338e+03]
 [ 6.10503082e+04]
 [ 6.16501996e+03]
 [ 5.52586765e+04]
 [ 6.54323133e+04]
 [-2.33047429e+04]
 [-3.81153033e+04]
 [ 1.52781509e+04]
 [ 4.45148451e+03]
 [ 1.92526450e+04]
 [ 1.35410524e+04]
 [ 1.30560654e+04]
 [ 2.77134459e+04]
 [-2.65972642e+03]
 [-1.16556017e+04]
 [-1.49291907e+04]
 [ 6.84815046e+03]
 [-2.55555453e+04]
 [ 1.28084534e+04]
 [-3.23856763e+04]
 [ 4.35715489e+04]
 [ 3.18364029e+03]
 [-3.74529711e+04]
 [-3.87305726e+04]
 [-2.33086569e+04]
 [-5.23397195e+03]
 [ 4.86809178e+04]
 [ 1.64739984e+04]
 [ 3.52881190e+04]
 [ 5.91830784e+04]
 [ 3.81485614e+04]
 [ 8.02003567e+03]
 [-3.15487797e+04]
 [-1.52347096e+04]
 [-1.23273525e+04]
 [ 3.82990048e+04]
 [-3.89808724e+04]
 [ 3.00519812e+04]
 [ 9.68618797e+03]
 [-1.27702111e+04]
 [-3.73004445e+04]
 [-7.31158434e+03]
 [-4.04513048e+03]
 [-1.90702547e+04]
 [-1.84694202e+04]
 [-3.44264887e+04]
 [ 1.46257196e+04]
 [-2.51250002e+04]
 [ 8.20397003e+03]
 [ 1.13013153e+05]
 [-7.64075236e+03]
 [-3.58167618e+04]
 [ 6.42414350e+03]
 [-2.18628510e+04]
 [-3.66781176e+04]
 [-2.51669359e+04]
 [-3.34535185e+04]
 [ 3.17580782e+04]
 [-2.93932305e+04]
 [ 4.17695513e+04]]
