[[ 3.25868025e+04]
 [ 6.37003865e+03]
 [-9.60396890e+03]
 [-2.11674568e+04]
 [ 7.66775666e+03]
 [-3.68196997e+03]
 [ 3.08771892e+03]
 [-3.59994979e+03]
 [ 8.06551183e+03]
 [ 6.93987829e+03]
 [-2.32746685e+04]
 [-2.05353872e+04]
 [-1.63667270e+04]
 [-1.21514882e+04]
 [ 4.32400968e+04]
 [-2.29377737e+04]
 [ 1.76201883e+03]
 [ 2.89293004e+04]
 [-6.10616284e+03]
 [-2.90896995e+04]
 [-1.88781972e+04]
 [ 3.00681374e+04]
 [-3.22262070e+04]
 [-3.60972246e+04]
 [-3.14752005e+04]
 [-1.79667114e+04]
 [ 3.83563355e+02]
 [ 3.49780304e+04]
 [ 9.55426032e+03]
 [-3.28682068e+04]
 [-3.35348538e+04]
 [-3.14417379e+04]
 [-6.74097129e+03]
 [ 1.41982601e+03]
 [-2.20936427e+04]
 [-1.84471327e+04]
 [-3.48347533e+04]
 [-2.01076052e+04]
 [ 5.36654991e+04]
 [ 1.94235001e+04]
 [ 4.11304280e+03]
 [-2.20093529e+04]
 [ 6.40560193e+04]
 [ 1.91719085e+04]
 [ 4.88236889e+04]
 [-1.80668847e+04]
 [ 3.16047440e+04]
 [ 3.13740114e+04]
 [-4.65364833e+01]
 [-2.41677983e+04]
 [-3.28063846e+03]
 [-1.19998554e+04]
 [ 3.64317612e+04]
 [-2.78499698e+04]
 [ 1.85190809e+04]
 [ 5.83395994e+04]
 [-2.41561500e+04]
 [-2.67220424e+04]
 [-2.59740156e+04]
 [-3.30424382e+03]
 [-2.37555585e+04]
 [-5.57514111e+03]
 [ 9.84337173e+03]
 [-2.64466478e+04]
 [-1.83205216e+04]
 [-2.83442871e+04]
 [ 6.05010178e+03]
 [-3.40567073e+04]
 [ 2.73915829e+04]
 [ 3.86132170e+04]
 [ 1.07141139e+04]
 [ 2.89546565e+04]
 [-2.91981706e+04]
 [ 3.15031389e+04]
 [ 7.26008924e+03]
 [-2.81333081e+04]
 [ 1.85615888e+04]
 [ 7.84155004e+04]
 [ 7.99127066e+03]
 [-1.66121422e+04]
 [ 2.64066063e+04]
 [ 2.67316833e+04]
 [-3.78147155e+04]
 [-2.41357042e+04]
 [ 1.26288389e+04]
 [ 7.07245012e+04]
 [-3.49650579e+04]
 [-2.20291065e+03]
 [ 3.78735201e+04]]
