[[-30542.30808418]
 [-21777.70132785]
 [ 12048.00838377]
 [ 17268.42523595]
 [ 13522.75110166]
 [ -5326.59359387]
 [ 29532.48224612]
 [ 17815.31307398]
 [  7663.38520197]
 [-14003.29468199]
 [ -1143.45790872]
 [ -4486.59742727]
 [ 10219.31607406]
 [ 15950.7346171 ]
 [ 35862.97899679]
 [ 14558.20487149]
 [-25722.94838897]
 [ -3263.20323159]
 [ -3798.14846314]
 [  2375.62979522]
 [ 36027.59182259]
 [-26981.91405816]
 [-15262.55790455]
 [-31658.48691337]
 [  7182.67787661]
 [ 40511.16821815]
 [ 10886.83854004]
 [-29008.31576042]
 [-22128.45908512]
 [ -7642.81464549]
 [-36412.65327618]
 [ 22301.9744436 ]
 [-39346.23793631]
 [  6060.92735683]
 [ 27873.22667344]
 [ 39867.21267639]
 [  -405.3350757 ]
 [ -6281.59073449]
 [-29618.46777934]
 [ 27727.00585016]
 [-25478.97164082]
 [ 17946.08920423]
 [  6427.02228548]
 [-35521.11658137]
 [  6281.26388286]
 [  6537.72883313]
 [  9560.75486837]
 [ 16803.20747864]
 [ 22716.27354164]
 [ 19055.5413366 ]
 [ 14306.76671164]
 [  2756.26416739]
 [-38608.3587264 ]
 [ 38410.14741391]
 [-23139.12021106]
 [-20056.74367895]
 [  6320.46037751]
 [-25957.42618547]
 [-31212.41604494]
 [-17145.45820288]
 [-31410.07119242]
 [ -6515.39780005]
 [-16884.34198909]
 [-26690.24830388]
 [-26745.01605242]
 [-17336.99897496]
 [ 26533.82867813]
 [ 43482.08366259]
 [ 52097.36149757]
 [ 13022.12486579]
 [ 39544.17591678]]
