[[-5.53077465e+04]
 [ 6.64232781e+01]
 [-2.17552309e+04]
 [ 4.52351380e+04]
 [-5.34065521e+04]
 [ 3.94391309e+04]
 [ 1.42445727e+05]
 [ 6.53410123e+04]
 [ 2.43869381e+04]
 [-6.58568987e+03]
 [ 1.00919772e+04]
 [-2.20551429e+04]
 [-4.93945638e+04]
 [ 4.40146469e+03]
 [ 4.31053730e+04]
 [ 3.81382938e+04]
 [-5.71516918e+03]
 [ 3.95611914e+04]
 [ 9.91092562e+04]
 [ 7.29331391e+02]
 [-5.39718191e+04]
 [ 6.98602718e+03]
 [-2.75597760e+04]
 [-5.46987987e+04]
 [ 1.51761106e+04]
 [-1.51062559e+03]
 [-5.08472282e+04]
 [-2.12731123e+04]
 [-3.69201490e+04]
 [ 3.40789177e+04]
 [ 2.20388026e+04]
 [ 3.25986692e+04]
 [-2.06762757e+04]
 [-8.58069219e+03]
 [ 4.48171488e+04]
 [ 3.09912898e+04]
 [ 1.57774489e+04]
 [-4.63308055e+04]
 [-2.69047595e+04]
 [ 7.06200733e+03]
 [ 3.45583985e+04]
 [-9.76240219e+03]
 [ 4.14553796e+04]
 [-1.74472396e+04]
 [-1.62366668e+03]
 [ 2.23850238e+03]
 [-4.40468381e+04]
 [-9.61289516e+03]
 [-3.70073242e+04]
 [-1.08772927e+04]
 [-2.53978064e+04]
 [-4.62105761e+03]
 [-1.51056867e+04]
 [ 4.99356241e+04]
 [ 2.19693671e+04]
 [-1.45339456e+04]
 [-4.21310438e+04]
 [-4.36193727e+04]
 [-4.38968492e+04]
 [ 1.37407917e+04]
 [-4.18687826e+04]
 [ 8.57496808e+03]
 [ 7.29778266e+03]
 [-2.72304856e+04]
 [ 1.58120710e+04]
 [-3.01122677e+04]
 [-3.04121350e+03]
 [ 2.50014467e+03]
 [-2.01316506e+04]
 [ 2.67377521e+04]
 [-4.10907263e+04]
 [ 8.47045572e+04]
 [ 2.19671661e+04]
 [ 1.41288777e+04]
 [-3.88772352e+04]
 [-2.79672055e+04]
 [ 5.57618020e+04]
 [-1.61153518e+04]
 [-5.41309226e+04]
 [-8.26390672e+03]
 [ 5.45638818e+03]
 [-5.23284685e+04]
 [ 1.50560185e+03]
 [-1.79535409e+04]
 [ 3.32369570e+04]
 [-1.19693708e+04]
 [ 3.29501480e+04]
 [-4.70492513e+04]
 [-2.60410373e+04]
 [ 1.55892387e+04]
 [ 1.94827133e+04]
 [-1.27651928e+04]
 [ 2.75043561e+04]
 [ 4.85167057e+04]
 [-8.63491353e+03]
 [-2.64991168e+04]
 [ 2.26815330e+04]
 [-3.76602869e+04]
 [ 3.39505994e+04]
 [ 2.90733793e+04]
 [ 5.61213670e+04]]
