[[-4835.30376475]
 [  228.73069718]
 [-2842.72842968]
 [-6881.17355154]
 [-1040.56514816]
 [ 5971.08746348]
 [ 2608.74539941]
 [-2543.2964123 ]
 [ 4047.6913165 ]
 [ 7948.09379786]
 [-1374.84028376]
 [-3579.16621517]
 [ 9811.11273148]
 [  870.9430042 ]
 [-2732.6039938 ]
 [-2591.43719179]
 [-5026.21914269]
 [-6440.96280316]
 [-5763.69216983]
 [ 6175.1625821 ]
 [11426.33539157]
 [ 8925.99059706]
 [-7991.50954879]
 [  827.25147575]
 [ -302.66578357]
 [ -478.22960586]
 [  218.88480559]
 [ 3708.55836973]
 [-1087.85728462]
 [-6752.89779153]
 [ 1740.61694115]
 [-5207.36755987]
 [ 9021.22204064]
 [-7733.86289095]
 [-3663.67652618]
 [-1990.75408546]
 [ 4076.76844444]
 [-7869.98565124]
 [14852.35448197]
 [-4216.96397404]
 [-5374.61201065]
 [-6604.89252706]
 [-3542.78325986]
 [  934.40679765]
 [  378.01096944]
 [  400.06745537]
 [-2093.94956137]
 [ 1666.64960529]
 [-2683.4880269 ]
 [  733.15313078]
 [ 9050.42221515]
 [ 2606.17847283]
 [ 1407.0055217 ]
 [ 6763.8183805 ]
 [ 8408.67290207]
 [ -950.91063538]
 [ 4173.68763334]
 [-2029.67240967]
 [-3089.43283965]
 [-2121.26335457]
 [-7937.67135782]
 [ 4613.2005118 ]
 [-5183.27075242]
 [-1605.02919451]
 [-2028.91968468]
 [ 3310.38558895]
 [ 1663.73929684]
 [-5931.16069573]
 [-3903.36238089]
 [15335.67839179]
 [-7884.9260526 ]
 [ 1657.86833396]
 [-2525.76601973]
 [16117.96906497]
 [-2213.63645255]
 [-7206.83000203]
 [ 1067.72917118]
 [-6249.61728607]
 [ 1363.08969516]
 [-3012.53983833]
 [-2058.8333249 ]
 [  589.95884145]
 [ 8548.10437295]
 [-6651.79642665]
 [-6290.462279  ]
 [ 6757.05050631]
 [   41.59563478]
 [-1498.28576527]
 [ 7114.04970816]
 [ 3281.06930375]
 [ 2974.77075554]
 [-1943.77892434]
 [ 2642.96631516]
 [-6819.67519481]
 [ 5006.96453895]
 [ 7042.82871856]
 [-7183.77242796]
 [-3012.89683616]
 [-1610.43588556]
 [-3919.2101587 ]
 [ 8241.26066847]]
