[[  2547.18882926]
 [ -3997.34109601]
 [ 24820.3683043 ]
 [-15092.56407361]
 [-33364.6019657 ]
 [-28951.11850931]
 [-33986.17577209]
 [-19792.81676781]
 [-20770.09249719]
 [-25400.55165039]
 [ 14350.06676088]
 [ 30670.10998942]
 [ 75144.82464323]
 [ 31814.73229599]
 [-33356.03796059]
 [  4280.24545989]
 [ 33591.02928511]
 [  5849.6433265 ]
 [ -1122.09456417]
 [ 17248.19832981]
 [ -4588.41163884]
 [-35405.89450197]
 [-33051.37622166]
 [ 94689.1817987 ]
 [-11416.05657351]
 [-21005.43882329]
 [  8073.73478778]
 [  7959.52269149]
 [-23468.43441652]
 [-14736.17957172]
 [-13003.09368979]
 [ 23008.16675375]
 [ 23975.31995878]
 [-27639.20911071]
 [-20407.56011934]
 [ -3835.53064315]
 [ 21350.56556465]
 [-14423.9911739 ]
 [-33286.0527864 ]
 [ 47264.88474574]
 [ -9454.18765678]
 [-34349.34239212]
 [ -5699.96561084]
 [-10354.34660671]
 [ 54106.85405111]
 [ 13841.13206675]
 [  7785.18821109]
 [-21459.69844465]
 [ -9137.60248455]
 [ 38928.0675494 ]
 [ -3590.53997151]
 [-22854.61278473]
 [ 12481.54240251]
 [-14626.93646586]
 [  9847.28873928]
 [ 38378.92679928]]
