[[116441.67235322]
 [  4655.83537307]
 [ 25354.79030486]
 [-30223.33417648]
 [ 18008.17598705]
 [-36088.05077086]
 [-25348.91492872]
 [-25322.43208261]
 [-18591.87866506]
 [ 22247.14463526]
 [-26723.32577877]
 [-33791.76011132]
 [-18948.27779343]
 [ -1732.37295551]
 [  6690.91110642]
 [ 22346.79647657]
 [-10272.15927566]
 [-56358.1902597 ]
 [ -2137.85014721]
 [ 10038.48104937]
 [ 94075.02905342]
 [ 74059.84608966]
 [ 94612.7556149 ]
 [-34740.62325673]
 [  1167.15294575]
 [  5008.21800328]
 [ 14747.50662661]
 [ 73907.24150511]
 [-19386.72215686]
 [ 31094.2286262 ]
 [164220.68215578]
 [ -1194.6267221 ]
 [-10199.77754782]
 [ 40437.74345164]
 [-62954.96644076]
 [ 55582.38586978]
 [-28290.3292109 ]
 [-52974.21419825]
 [-39064.29255284]
 [-54869.08552052]
 [ 80398.14234175]
 [-22427.21094368]
 [ 68815.74492753]
 [  1963.41684983]
 [-33237.66253056]
 [-17137.78277192]
 [ 38248.59250231]
 [ 11597.72493226]
 [ 58246.30281943]
 [ 34779.82624016]
 [ 12957.43412427]
 [-45403.03066408]
 [-65363.57139205]
 [ 10984.0987089 ]
 [-58333.83887017]
 [ -9368.58355188]
 [-10485.95557789]
 [-37064.98530189]
 [ 13348.30443715]
 [-13700.81864474]
 [ 10065.92005237]
 [ 83228.86246181]
 [-51225.76434623]
 [ -9902.71408983]
 [-23989.98394189]
 [-35879.00126812]
 [ 45839.13499691]
 [-28533.21831768]
 [-21794.20480892]
 [-38020.37784222]
 [ 19272.45131779]
 [ -9812.00508186]
 [-37814.02753933]
 [ 13749.49428662]
 [-68808.54886826]
 [-57087.86291656]
 [-28479.13326035]
 [-54587.07186345]
 [-57198.0627957 ]
 [ 10661.53792122]
 [   323.15658778]
 [ 67417.78482287]
 [ 86828.19651113]
 [ -8012.79158041]
 [-47948.85279113]
 [ 27885.75264899]
 [-26591.15471074]
 [ 43329.4653106 ]
 [ 58179.26402686]
 [-27555.43261587]
 [ 40842.63475208]
 [-14093.82138558]
 [-16378.48973603]
 [ 63419.98515229]
 [-52789.64138629]
 [-49012.75791489]
 [-41896.43286065]
 [-30570.73194313]
 [-20112.61130198]
 [-17248.50599279]
 [ 71581.34015251]]
