[[ 70213.77201073]
 [ 58675.58048586]
 [ -1917.26506386]
 [-18568.00829503]
 [ 18789.87027132]
 [-23689.03998427]
 [-11629.50281926]
 [ 35954.91578679]
 [  8012.03956628]
 [ 36148.33847349]
 [-35044.67578437]
 [ 17696.25916128]
 [  9750.58005401]
 [-40048.03492468]
 [-19566.24141947]
 [-17960.05225988]
 [-24318.88397599]
 [-16369.42158488]
 [-14341.73987934]
 [-19927.58729649]
 [  3248.12360409]
 [-14707.90910673]
 [ 17154.96203184]
 [  9991.29704265]
 [-23802.57001373]
 [  -642.10989588]
 [ 12268.01823596]
 [-27979.96069608]
 [ 14632.3750152 ]
 [-30690.00935224]
 [-38550.16983043]
 [ 52754.171556  ]
 [  2889.01335617]
 [-29356.42559159]
 [ 48976.41830843]
 [-31231.72697392]
 [-38233.25393375]
 [-41891.94456141]
 [ 67438.32006699]
 [-30438.00141163]
 [ -3123.33438527]
 [   226.59139839]
 [ 19457.08557965]
 [-36528.71569629]
 [-31495.07130759]
 [  9720.11501464]
 [  1400.10636033]
 [  4164.70593924]
 [ -4318.05985578]
 [-13274.83152368]
 [ 27771.6932196 ]
 [ 38893.75383567]
 [-40542.32579204]
 [ 29737.42626877]
 [  3632.98529473]
 [  6682.25832637]
 [ 12942.12136121]
 [  9532.31023753]
 [ -5350.32663686]
 [-12576.51311022]
 [  7404.28420834]
 [-29960.38728803]
 [-21334.5561572 ]
 [-26235.5107265 ]
 [  8555.72817646]
 [ 74564.66433416]
 [ 20894.14207323]
 [ 15789.5236047 ]
 [ 27339.17200053]
 [-35371.17509984]
 [-22755.82817622]
 [-13051.1482699 ]
 [  5383.57060007]
 [-11443.77040204]
 [-11689.49875813]
 [-16105.32358186]
 [-33553.90738057]
 [ 60290.86738013]
 [ 37501.00748688]
 [ 49615.11226725]
 [-32690.28478041]
 [  6585.1524516 ]
 [-10373.32886323]
 [ 41946.36073929]]
