[[-2.60822219e+04]
 [ 7.86656403e+03]
 [ 6.88616914e+03]
 [-5.18984009e+03]
 [-3.32187270e+04]
 [-3.37640213e+04]
 [ 4.59387848e+04]
 [-2.06486108e+04]
 [ 2.85109510e+04]
 [ 1.01369250e+05]
 [ 2.75442165e+04]
 [ 1.22739404e+05]
 [-3.54588771e+04]
 [ 1.12637288e+04]
 [-2.43853992e+04]
 [ 1.91944319e+04]
 [-3.31353837e+04]
 [-1.13779272e+04]
 [-2.13109492e+04]
 [ 3.93983512e+04]
 [-2.94025110e+04]
 [ 7.34497475e+04]
 [-2.52887569e+04]
 [-2.20136830e+04]
 [-3.18621952e+04]
 [ 5.98838697e+04]
 [ 3.57701870e+03]
 [-3.39208885e+04]
 [-3.24628758e+04]
 [-3.65853196e+04]
 [-3.79426799e+04]
 [ 2.02429990e+04]
 [-1.33970017e+04]
 [-3.55168299e+04]
 [-2.93966065e+04]
 [ 2.87824213e+04]
 [-3.37639617e+04]
 [-3.55378918e+04]
 [ 3.65185123e+04]
 [-2.67861778e+04]
 [-3.05889495e+04]
 [ 4.99129623e+04]
 [-2.14159180e+04]
 [-2.37157763e+04]
 [-1.85261343e+04]
 [-3.88581733e+04]
 [ 3.98302024e+04]
 [ 2.30457698e+04]
 [-4.12564349e+03]
 [-1.05090029e+04]
 [ 3.69174971e+04]
 [-1.79453427e+04]
 [-7.26152280e+03]
 [ 7.86383610e+02]
 [ 6.29233695e+04]
 [-3.47846912e+04]
 [-7.69036432e+03]
 [-1.09957517e+04]
 [ 2.07629933e+04]
 [-3.01254399e+04]
 [ 3.42394426e+04]
 [-1.68707478e+04]
 [ 2.44336426e+04]
 [-3.49759321e+04]
 [-2.91439920e+04]
 [ 1.83836350e+04]
 [-1.70143467e+04]
 [ 2.00823940e+01]
 [ 7.59706560e+04]
 [-2.73937770e+04]
 [-2.33883537e+04]
 [ 5.36386649e+04]
 [ 3.23773230e+04]
 [ 4.89552191e+04]
 [-1.17208484e+04]
 [-3.75188461e+04]
 [-3.34880320e+04]
 [ 3.18417657e+03]
 [ 9.45378441e+04]
 [ 2.72439973e+04]
 [ 3.16226818e+04]
 [-2.72390581e+04]
 [-1.90219194e+04]
 [-3.88618988e+04]
 [-3.56574598e+04]
 [-2.56639727e+04]
 [ 3.28850973e+04]
 [-9.74165398e+03]
 [-3.21451746e+04]
 [ 3.95722256e+04]]
