[[-14871.01907248]
 [ -4681.13135997]
 [-20580.4721871 ]
 [-36719.93916198]
 [ 45613.8611907 ]
 [-39074.27237586]
 [-37034.55325246]
 [-14145.03896832]
 [-11733.4879933 ]
 [  5804.58182991]
 [-35515.79792684]
 [ 49251.8463303 ]
 [ 27627.66900006]
 [-11442.85225363]
 [-18855.11035172]
 [-25400.32950715]
 [ 70714.86276309]
 [-13183.39725217]
 [-11447.58288398]
 [-26367.60574486]
 [  6966.62873572]
 [ 39810.44578349]
 [ 29076.77128274]
 [ 16165.76160128]
 [ -8123.24391585]
 [  1406.13514251]
 [-27898.58305442]
 [  7004.49604154]
 [-21413.79568199]
 [ -6263.43655073]
 [-36412.98155587]
 [-25016.27013726]
 [-13505.81215317]
 [ 27156.04367548]
 [-18773.5213001 ]
 [-36544.08391249]
 [  5746.06739443]
 [-19407.71454625]
 [-14541.13374048]
 [  7360.78385702]
 [ 41150.21782555]
 [ 16175.39930752]
 [  3106.65292059]
 [-26929.04770423]
 [ 14121.60844968]
 [  5024.70309014]
 [ 75043.93242304]
 [ 69022.02376565]
 [  -665.24331965]
 [-18646.49238829]
 [ 17800.16479908]
 [-39370.24032454]
 [ 32336.42970327]
 [-18726.32249478]
 [ 16673.93310107]
 [-32555.89124226]
 [-15323.39854303]
 [125034.03539299]
 [-18072.94738995]
 [ 32704.50893591]
 [-38085.26331463]
 [-20833.7008047 ]
 [ 31097.30864672]
 [-29842.35031134]
 [  5583.13291775]
 [-29871.14874112]
 [ -2137.79921692]
 [ 15433.00672867]
 [ 39918.77497286]]
