[[ 2.09318492e+04]
 [-2.76340109e+04]
 [ 7.25843614e+04]
 [-3.50998002e+04]
 [-3.27253645e+04]
 [ 4.58714720e+04]
 [-5.02099616e+02]
 [ 1.43865658e+04]
 [-3.32576086e+04]
 [-3.26046194e+04]
 [ 2.23327259e+01]
 [ 1.28403234e+04]
 [-3.24081465e+04]
 [-1.67088526e+04]
 [ 7.20208299e+03]
 [ 4.47034767e+03]
 [-6.55223477e+03]
 [ 2.17196346e+03]
 [-2.42674947e+04]
 [ 4.09747312e+04]
 [-1.75148024e+04]
 [-3.71052453e+04]
 [ 5.88155454e+03]
 [-3.64493277e+04]
 [-3.40617196e+03]
 [ 6.57125370e+04]
 [ 8.01710240e+03]
 [ 2.01387505e+04]
 [ 1.15032766e+04]
 [-2.92300258e+04]
 [ 2.77425084e+04]
 [ 1.65833689e+04]
 [ 2.51958684e+04]
 [-3.15223474e+04]
 [-6.61391468e+03]
 [-1.47649753e+04]
 [-2.22872106e+04]
 [-3.71898343e+04]
 [ 1.10668063e+04]
 [ 5.57692148e+04]
 [ 8.86292422e+03]
 [ 1.16266813e+04]
 [ 8.50459129e+03]
 [ 1.48892771e+04]
 [ 1.76130836e+04]
 [-1.43778122e+04]
 [ 2.90734046e+04]
 [-1.12217359e+04]
 [ 8.73703153e+02]
 [-1.35311047e+04]
 [-3.39198395e+03]
 [ 2.46937705e+04]
 [-1.52705321e+04]
 [-2.98057602e+04]
 [-5.54575131e+03]
 [ 1.87189247e+04]
 [-1.37186375e+04]
 [ 2.00407021e+04]
 [ 1.90605057e+04]
 [ 1.04456254e+04]
 [ 8.12901859e+03]
 [ 2.82832246e+04]
 [-1.01463555e+04]
 [ 2.29288230e+04]
 [-4.48273583e+03]
 [ 8.75557148e+03]
 [-3.15061505e+02]
 [ 7.83121094e+03]
 [-6.65696370e+03]
 [-2.59889667e+04]
 [-2.59349533e+04]
 [-1.46172793e+04]
 [ 3.29485912e+04]
 [-1.01694837e+04]
 [-2.89947052e+04]
 [ 3.22957426e+04]
 [-2.94585558e+04]
 [ 1.11037312e+04]
 [-2.05099701e+04]
 [-3.25651283e+04]
 [ 9.38629073e+02]
 [-9.22209765e+03]
 [ 2.06804286e+03]
 [-3.67986010e+04]
 [ 2.95878309e+04]
 [ 2.22763486e+03]
 [ 3.97335659e+04]]
