[[-27054.06048759]
 [  1766.41358817]
 [-40427.49655156]
 [ 53190.80133039]
 [ 33664.41726408]
 [-19466.0650596 ]
 [ -6447.28701274]
 [ 37432.08118145]
 [-25639.09876909]
 [ 10536.26687456]
 [ 57432.20625003]
 [-11831.47107087]
 [  6187.35810757]
 [-10552.64550237]
 [-37021.31945535]
 [ -7328.58706656]
 [-27015.74465227]
 [  5948.97704987]
 [ 31011.47144769]
 [-20910.56061345]
 [-41602.17617719]
 [-25970.10127291]
 [-34232.39386533]
 [-11354.23127231]
 [ 45601.89058363]
 [ 25219.73043867]
 [-34886.17666268]
 [  8583.0785948 ]
 [ 27102.60688794]
 [-26374.89122705]
 [-43553.61403954]
 [-29490.77000256]
 [  5471.11756998]
 [-46948.7451014 ]
 [ -5544.51227955]
 [ 16997.77919967]
 [-46330.19661242]
 [ 25988.2937801 ]
 [-42279.19629161]
 [ -2305.27748638]
 [ 69639.37014589]
 [ 22308.95268859]
 [ 39407.4981362 ]
 [ 18932.90238993]
 [-44848.24794621]
 [ 36143.3514529 ]
 [ 16766.36184367]
 [-17475.96169663]
 [  6608.27233659]
 [ 58564.28373691]
 [ 65201.15386446]
 [  6410.20056387]
 [-31611.10408772]
 [-13614.90504467]
 [ 48140.08179553]]
