[[-12205.60438983]
 [ -6878.43846887]
 [-23596.62765807]
 [-17789.00495134]
 [ -1867.57370974]
 [ 49814.37765772]
 [-12262.22826656]
 [-26563.25710873]
 [ -1753.86087129]
 [ 18715.9507104 ]
 [-20862.68144901]
 [ 47468.00735053]
 [-27625.78930686]
 [ 21301.3847694 ]
 [-32718.34657795]
 [ 24492.46337408]
 [ 34014.97269949]
 [ 13261.18690069]
 [-33518.37599085]
 [ -9234.21559031]
 [ -8425.09131165]
 [  6804.32260611]
 [-16353.53195189]
 [ 14290.09069179]
 [  6057.43413087]
 [-29978.08384811]
 [ -5361.89863038]
 [-31910.93447875]
 [-15409.38482917]
 [-26055.28643912]
 [-11598.41030765]
 [-30237.41649377]
 [-14493.45585315]
 [ 10576.8442552 ]
 [-36536.41766734]
 [ 21132.71596085]
 [ 69223.12233836]
 [-11907.6294892 ]
 [-27113.6567125 ]
 [ 13529.92831476]
 [ 29460.5152162 ]
 [ 27119.56529444]
 [ 23822.89123363]
 [-22714.06529932]
 [ -1033.54857756]
 [-33344.30756891]
 [ 90166.22524425]
 [-23005.53396475]
 [-19129.22146513]
 [  6475.38369226]
 [  5279.709283  ]
 [ 27176.15173515]
 [-28241.60891816]
 [-16033.16834275]
 [  8652.1292503 ]
 [ 30752.50223336]
 [ 23813.25538781]
 [-14112.65830002]
 [  1863.4213937 ]
 [  7270.65172541]
 [ 28484.5961974 ]
 [ 35646.69290209]
 [-27280.85392052]
 [-10695.92643981]
 [ 17575.07364683]
 [-16994.5949735 ]
 [-29376.45178089]
 [-22799.54655317]
 [  1668.36812293]
 [ 15299.7743471 ]
 [-10400.07299971]
 [ 31212.25510854]
 [ 43951.7179861 ]
 [-16151.82814256]
 [ 31642.73166896]
 [ -5442.18929612]
 [-32452.18784658]
 [-16551.44668812]
 [ 37094.03235351]]
