[[-3.77643924e+04]
 [-1.65104236e+04]
 [ 5.07284548e+04]
 [-1.73408659e+04]
 [ 3.27887945e+04]
 [ 4.29556112e+04]
 [-3.51794643e+04]
 [ 1.47496612e+04]
 [ 3.32995299e+03]
 [ 3.47431344e+04]
 [-3.72897563e+04]
 [ 1.06038593e+04]
 [ 3.02482476e+04]
 [-2.91232750e+04]
 [ 7.24108577e+03]
 [ 3.36516762e+04]
 [ 2.60988957e+04]
 [-1.92919244e+04]
 [-3.63888869e+04]
 [-1.47583421e+04]
 [-2.76273037e+04]
 [ 9.41382146e+04]
 [-1.98275839e+03]
 [-2.70660849e+04]
 [ 3.13093173e+04]
 [ 1.19800881e+02]
 [-3.59949066e+04]
 [ 1.03893908e+04]
 [ 7.88434396e+04]
 [-3.42935554e+04]
 [ 2.80884566e+04]
 [-4.01768011e+04]
 [ 1.33197969e+04]
 [ 2.34538013e+04]
 [ 2.31583361e+04]
 [-3.57229875e+04]
 [ 7.16003737e+04]
 [-4.68984472e+03]
 [-2.33216546e+04]
 [-2.07573451e+04]
 [-3.84893774e+04]
 [ 6.41451253e+04]
 [-7.46219840e+01]
 [-3.54165994e+04]
 [-2.60629506e+04]
 [ 1.24953950e+04]
 [ 4.68542950e+03]
 [ 5.47384402e+03]
 [-2.40868636e+04]
 [-4.59566075e+03]
 [ 1.55182464e+04]
 [ 7.38942399e+03]
 [-2.70647261e+04]
 [-3.90189264e+04]
 [-9.64664523e+03]
 [ 1.51554392e+04]
 [-1.69470913e+03]
 [ 9.84487456e+03]
 [-1.25499539e+04]
 [-1.78582458e+04]
 [ 1.69910455e+04]
 [-2.51253093e+04]
 [ 1.16170956e+04]
 [ 7.58163356e+04]
 [ 1.34661408e+04]
 [-2.87129732e+04]
 [ 4.26064384e+04]
 [-3.81123279e+04]
 [ 2.53389833e+04]
 [-1.76330965e+04]
 [-1.28471146e+03]
 [-3.16037417e+04]
 [ 5.45590021e+04]
 [-4.05301255e+03]
 [-2.36803178e+04]
 [ 1.05135758e+04]
 [-3.13981371e+04]
 [-3.72718136e+04]
 [ 7.62483337e+04]
 [-2.10903484e+04]
 [-1.12877102e+04]
 [-2.48616249e+04]
 [-3.67457772e+04]
 [ 3.94220628e+03]
 [-1.18163694e+04]
 [-5.52980368e+03]
 [ 2.12228885e+03]
 [ 1.62380791e+04]
 [-3.29944651e+04]
 [-3.06862112e+04]
 [ 4.12554130e+04]]
