[[-6357.48986033]
 [ 3281.51061963]
 [ 9182.21809755]
 [  381.72255174]
 [-7362.09031388]
 [-6267.59115205]
 [ 1557.66841317]
 [-8705.80017112]
 [12233.15112572]
 [10124.21963657]
 [ 4458.78108775]
 [-2212.66463723]
 [12268.66475576]
 [ 1197.35722283]
 [ 4313.27860755]
 [-5390.83048791]
 [  462.57995396]
 [-6916.43701982]
 [-5250.95903296]
 [-2243.49987339]
 [-4234.13108571]
 [-8009.64914296]
 [-6917.34310204]
 [-2269.50368565]
 [ 2217.04754784]
 [-6720.89978957]
 [13011.60861918]
 [ 3189.77339204]
 [15347.45522632]
 [  846.60866381]
 [-6545.28686858]
 [ 5294.15586996]
 [-5218.28364618]
 [-3610.19929122]
 [ 4292.94396825]
 [ 1000.18408057]
 [-8314.51103571]
 [ 4639.76420997]
 [-2316.78814228]
 [ 2114.91521791]
 [ 8769.91256626]
 [-8542.07162343]
 [-5924.96320244]
 [-4644.06717445]
 [-7106.18377126]
 [-5547.35219134]
 [-5473.60046668]
 [ 9818.40767688]
 [-1232.26692125]
 [  997.16971376]
 [-1855.10482489]
 [-4245.20081108]
 [ -443.87444829]
 [-2551.44600549]
 [ 1525.65351688]
 [ 1168.93698581]
 [-3434.9784872 ]
 [  928.28944707]
 [-6937.02875425]
 [-7572.82552132]
 [15858.75472154]
 [ 8826.92292432]
 [13685.05552941]
 [-3780.02269175]
 [ 4832.54663702]
 [  791.57412123]
 [-5107.54003977]
 [-6141.49297927]
 [-5223.44525254]
 [ 8584.04906827]
 [-2548.53364202]
 [ 2782.91078285]
 [-7754.47311814]
 [  -25.21760855]
 [-4282.29189758]
 [-5738.73053021]
 [ 4757.08320083]
 [ -637.19306394]
 [-7083.36338171]
 [-8211.46298548]
 [-7406.34922119]
 [ -544.8645411 ]
 [ 7767.6790873 ]
 [-4732.49119041]
 [ 2759.71905476]
 [  821.50073286]
 [11079.03825904]
 [ 6394.06723263]
 [-2568.75637878]
 [-6402.17467684]
 [ -190.63681644]
 [10615.11671209]
 [-7352.78243664]
 [-2436.65105778]
 [-1577.40535094]
 [-4712.7723271 ]
 [17064.4384634 ]
 [-1430.23420543]
 [16449.86275679]
 [-1430.49012348]
 [ 9037.83253501]]
