[[-2292.31587277]
 [-5468.56883383]
 [-1224.85510755]
 [ 4379.69424166]
 [  962.43413785]
 [-4076.73798941]
 [  166.99661582]
 [-3966.80068002]
 [-6111.96902822]
 [ 6067.81142619]
 [-2643.1640832 ]
 [-5251.00018339]
 [-6884.68506801]
 [  523.91748933]
 [ -743.48886328]
 [-6566.01241156]
 [ 4395.63361743]
 [-7371.77095978]
 [-3382.98024492]
 [-1999.54169523]
 [-5280.38728324]
 [ 3054.05950378]
 [ -433.15311431]
 [-6688.76861258]
 [ 2146.47765031]
 [ 5262.96157247]
 [-3746.64255415]
 [-5524.11585661]
 [ -586.96796295]
 [-5480.26392411]
 [ 7112.9628216 ]
 [ 3586.23394487]
 [-3838.49918467]
 [-3801.27131654]
 [ -582.23863985]
 [-2152.62376457]
 [ 8655.35027637]
 [ 7610.34072399]
 [-5917.69071382]
 [ 3336.23848527]
 [17251.20585414]
 [-2730.46991828]
 [-4224.08806929]
 [-2047.04656675]
 [-2173.2215354 ]
 [ 9974.1867496 ]
 [-1199.94984785]
 [ 2148.97667714]
 [15744.62603539]
 [-2663.12113736]
 [ 4088.35708218]
 [-1012.02947445]
 [ 6045.01102212]
 [ 8174.14357048]
 [  591.68213099]
 [10444.471333  ]
 [ 1200.82768293]
 [-7378.89346445]
 [-6742.42417194]
 [-2911.54158468]
 [-6043.71182159]
 [-5465.64533737]
 [ 2315.18479827]
 [-4958.57900399]
 [ -994.51719522]
 [10932.31022054]
 [ 3638.69103367]
 [ 4543.4494462 ]
 [ 2499.74556925]
 [-7368.74465816]
 [  348.95679128]
 [10635.09887804]
 [-2237.03810597]
 [-1131.66957269]
 [-3894.78288314]
 [-3739.04360879]
 [-3901.81397684]
 [ 2784.24195118]
 [ 7948.11208423]
 [ 2904.25776633]
 [-4571.60778559]
 [-3706.88821962]
 [ 5324.34228528]
 [ 2193.60590996]
 [  746.98360799]
 [-2908.77462848]
 [ 1310.55085514]
 [-6739.66482574]
 [  -82.34528792]
 [-6990.6335835 ]
 [  765.22965222]
 [-1575.25626997]
 [ 1172.88471994]
 [-2551.19928792]
 [ 2910.88590336]
 [10251.43490188]
 [-3148.14243893]
 [ 4076.73517298]
 [-3258.66904569]
 [  140.72506355]
 [ 8020.48188396]]
