[[ 19384.30386703]
 [  2315.53102974]
 [-14549.62365572]
 [-22444.87085826]
 [ 15569.790319  ]
 [ -1861.72251844]
 [-25772.07799138]
 [ 38865.40920936]
 [-34609.8959606 ]
 [-30029.29338354]
 [-36121.71044149]
 [ 34229.56673779]
 [  -224.97843027]
 [-32027.64430961]
 [ 11055.20162386]
 [ 38270.88424679]
 [ -9304.79580932]
 [ -3218.36843705]
 [ 23351.28696734]
 [-10408.55346892]
 [ -2688.65846688]
 [-16501.48244875]
 [-35591.90656653]
 [   466.74376213]
 [ 49932.084689  ]
 [-25478.17433144]
 [-28488.25379595]
 [ 65819.04315199]
 [-30596.78191721]
 [ 34517.14693422]
 [-34357.78029187]
 [-28993.96530142]
 [ -2109.00957766]
 [ -7742.11255506]
 [-13572.63101634]
 [ 30790.75951159]
 [ 72225.22695899]
 [ 12434.51785888]
 [ 12363.05928244]
 [  -321.8197663 ]
 [ 15801.30642877]
 [  2794.64407515]
 [ 45395.43374869]
 [-11839.80953547]
 [-23198.59431248]
 [ 40517.04693775]
 [  3199.6980582 ]
 [-34535.11097811]
 [ 15857.84501236]
 [  9037.11530597]
 [-30721.56662844]
 [-28603.61734528]
 [-23149.86963367]
 [-15499.6729943 ]
 [  1029.98578051]
 [-33199.56104759]
 [ 30442.67566207]
 [ 22662.53228332]
 [ -7157.2150356 ]
 [ -9970.69485363]
 [ 30289.09832792]
 [-30204.6326841 ]
 [-31313.72292381]
 [-13014.44799775]
 [ 14991.78772483]
 [ 48890.00689731]
 [ 19653.0447154 ]
 [ 31156.79168329]
 [ 13278.94783786]
 [-36934.05332538]
 [ 16735.18321662]
 [-17534.21316578]
 [-29430.80608478]
 [ 40061.73209476]]
