[[-5.55253114e+03]
 [ 1.67120622e+03]
 [-6.08482686e+03]
 [-1.61248112e+03]
 [-6.74914744e+02]
 [ 2.58565100e+03]
 [-3.91711318e+03]
 [-3.26219870e+03]
 [-1.85059803e+03]
 [-5.15449312e+03]
 [ 6.43640290e+03]
 [ 1.07701634e+04]
 [ 3.95182360e+03]
 [-4.42689484e+03]
 [ 6.37693847e+03]
 [ 2.06532235e+03]
 [ 9.79588759e+03]
 [-1.41532939e+02]
 [ 6.46021218e+03]
 [ 5.23975439e+03]
 [-5.44418123e+03]
 [ 5.91718107e+03]
 [-6.22882858e+03]
 [-2.99844029e+03]
 [-2.96431416e+03]
 [ 4.10028125e+02]
 [ 4.82324872e+03]
 [ 5.85854943e+03]
 [-4.93546429e+03]
 [-5.12064969e+03]
 [ 3.78285640e+03]
 [-2.46847520e+03]
 [ 1.04706201e+02]
 [-1.27181518e+03]
 [ 1.17513794e+04]
 [ 2.57106070e+03]
 [ 3.15818369e+03]
 [-2.57693193e+03]
 [-4.46561272e+03]
 [ 4.87368028e+02]
 [-7.11212917e+03]
 [ 1.08797481e+04]
 [-4.34923544e+03]
 [-6.90951744e+02]
 [-5.43424909e+03]
 [ 7.76849645e+02]
 [ 2.13606341e+03]
 [-4.01136838e+03]
 [-1.49851480e+03]
 [ 8.42119994e+03]
 [-7.07467333e+03]
 [-4.08086199e+02]
 [ 3.82127419e+03]
 [ 5.65383282e+03]
 [ 7.49404655e+03]
 [-6.70734673e+03]
 [-1.05219240e+03]
 [ 5.00389608e+03]
 [-1.80555860e+03]
 [-5.44412512e+03]
 [-5.79309578e+03]
 [ 5.34798487e+03]
 [-3.33564335e+03]
 [-2.56066496e+01]
 [-5.27726645e+03]
 [-6.44726562e+03]
 [-8.78351788e+02]
 [ 6.00414535e+02]
 [ 4.13134140e+03]
 [-6.90339537e+03]
 [ 4.80055962e+03]
 [-6.21197954e+03]
 [-1.12423019e+03]
 [-5.05711772e+03]
 [ 1.99862601e+03]
 [-3.35663577e+03]
 [ 7.35814074e+02]
 [-6.17854822e+03]
 [-2.38466873e+02]
 [ 2.49338735e+02]
 [-1.26385153e+00]
 [-9.09898025e+02]
 [ 2.24687830e+03]
 [ 3.85311327e+03]
 [-1.08751728e+03]
 [ 1.17726626e+04]
 [ 5.60240126e+02]
 [ 2.48327523e+02]
 [-2.37981305e+03]
 [-5.03384188e+03]
 [ 5.28111347e+02]
 [ 2.63901975e+03]
 [-6.00642967e+03]
 [ 6.78055634e+03]
 [-1.55353195e+03]
 [ 3.87601917e+01]
 [-5.39556595e+03]
 [ 3.48881088e+03]
 [-6.22107035e+03]
 [ 7.73187001e+03]
 [ 7.18216435e+03]]
