[[ 49842.69272408]
 [ 47551.07032799]
 [ -9427.3041781 ]
 [  1107.89534221]
 [ 14455.60639907]
 [ 33116.97780833]
 [-33351.55613366]
 [ 11932.16169671]
 [ 19056.81548519]
 [ 16528.72160175]
 [ 45276.20822605]
 [ 45998.74844629]
 [-36079.07651133]
 [ 17634.90272729]
 [  8796.60985715]
 [ 13755.98410883]
 [-39080.11569709]
 [ 23341.00036476]
 [-20406.34676442]
 [-12760.24754052]
 [-35330.17684163]
 [ 13502.14242342]
 [-19989.24136008]
 [ 28459.21135639]
 [-26309.74309789]
 [-29650.15108729]
 [ -5754.87458966]
 [  5220.4767218 ]
 [-18500.77208218]
 [ 28587.2486694 ]
 [ 14747.06093002]
 [-25745.58014102]
 [-26112.42304576]
 [ -9405.92974891]
 [-33678.4338162 ]
 [  6533.41806649]
 [  1515.16430804]
 [-17551.1047338 ]
 [ 42476.99263768]
 [  3924.01972625]
 [-25502.70115529]
 [ 40337.3962962 ]
 [-20354.22704582]
 [-17613.87719129]
 [  3387.12259192]
 [ 16932.53447797]
 [ 13091.23380496]
 [ 33326.80293343]
 [ -4148.89336307]
 [   934.67018185]
 [-38250.09939933]
 [-24347.36260285]
 [-23417.44026655]
 [ -3541.91860288]
 [-10062.15143598]
 [-34999.14180892]
 [ 39956.11993649]]
