[[ 28402.24738061]
 [ 10856.14534021]
 [ 22533.62947162]
 [-10590.46808735]
 [-31399.30186455]
 [ -3355.62013839]
 [ 13591.63863009]
 [ 16848.17227539]
 [ 17469.17581401]
 [-16020.42279428]
 [-10321.85004494]
 [-30795.49040628]
 [-19394.33269747]
 [-30496.35375953]
 [  5510.26640771]
 [-30868.58907392]
 [ 44965.49049762]
 [ 59565.46377389]
 [-35945.26302067]
 [ 13080.92360464]
 [ 42592.59326964]
 [  -304.95582238]
 [-23758.10520608]
 [ 66118.0400474 ]
 [-20260.17603352]
 [ -6094.20697464]
 [ -3423.95578343]
 [  -818.28658858]
 [ 18046.60505752]
 [-23628.63489278]
 [  9882.58042278]
 [-23745.96661604]
 [ -2818.04160317]
 [ 38603.01310396]
 [ -7264.17394063]
 [-33227.97834104]
 [-31077.03365049]
 [-22695.38994603]
 [ 87577.05940949]
 [  7921.54492373]
 [-25931.96518923]
 [ 12765.08607064]
 [-26674.15391221]
 [  9900.09957284]
 [ -4992.63482753]
 [-18740.78584664]
 [-35724.03189715]
 [-24384.65904113]
 [ 30753.86218847]
 [ 28649.65813521]
 [-34175.90416271]
 [-22633.92597703]
 [-34841.83935351]
 [ 17630.42887116]
 [ 46493.97161795]
 [-30583.75656601]
 [  4489.83191063]
 [-34575.24618655]
 [ 30666.67310569]
 [-24312.53988883]
 [ 10309.58317373]
 [-14459.46782341]
 [ 31184.76447462]
 [ 23952.26490146]
 [  4072.22931719]
 [-13321.88876294]
 [  5622.16172864]
 [-21106.91386138]
 [-12721.32034185]
 [ 37430.42642575]
 [ 36503.93321821]]
