[[-23856.77284938]
 [-14920.61712769]
 [ 24444.59888314]
 [ -4683.03874937]
 [-18490.523944  ]
 [  2219.02760414]
 [-17026.68923141]
 [-20779.62588812]
 [ 82165.54703982]
 [ 56809.96577425]
 [-58552.62058935]
 [  2883.50602341]
 [-19962.07171474]
 [ -2721.82334115]
 [-41164.8025985 ]
 [ -1628.95211493]
 [-23998.47740559]
 [-56349.20616811]
 [  3417.0579078 ]
 [ -2958.77029599]
 [  5645.45840006]
 [ 17948.29123306]
 [ 21197.76501735]
 [ 48530.41224604]
 [-28500.97933249]
 [  6846.50126895]
 [ -4425.34293122]
 [ 25560.54886211]
 [-40402.27211409]
 [ 31842.81006929]
 [-41341.43110143]
 [-23342.94383192]
 [ 29830.91102521]
 [-45922.04339724]
 [ 36034.84692684]
 [  6619.75034394]
 [ 40531.93357492]
 [-43935.75865534]
 [ -7883.76159045]
 [-25644.49826583]
 [-33472.0721843 ]
 [ 36849.94595287]
 [-23402.83392919]
 [ -9748.39608955]
 [ -3393.06475133]
 [ 85606.83319957]
 [-33150.14235101]
 [-18711.43023498]
 [  6904.20511064]
 [-13743.84757604]
 [ 30207.74253398]
 [-46566.77342171]
 [ -7359.34473939]
 [ 39444.32204879]
 [-16643.40718988]
 [-51194.88267552]
 [-38400.13569048]
 [ 40228.59069519]
 [ 10801.44120024]
 [-47104.73235583]
 [ 27248.58526077]
 [-33906.06925888]
 [-36887.0999438 ]
 [ 12257.44541099]
 [-20335.10194614]
 [-35332.74486499]
 [  4433.09198543]
 [ 82795.11305307]
 [-46769.65082205]
 [ 54029.80366037]
 [-13176.32113122]
 [-52349.14102841]
 [-33706.6237463 ]
 [ 47633.0545511 ]
 [ 11632.79064474]
 [-43937.55558262]
 [-52022.26082335]
 [  5066.95872402]
 [ 90200.72935508]
 [  3334.46861552]
 [ 33566.39797607]
 [ 15149.01478242]
 [ 25599.89167781]
 [ 66673.9737065 ]
 [126516.15210061]
 [-15670.12728143]
 [-11069.8575494 ]
 [ 47127.16662352]
 [ -1082.15610466]
 [-13064.7792038 ]
 [ 45301.38511115]
 [ -6065.45749999]
 [  -427.84435698]
 [-30784.89438405]
 [ -4429.78656114]
 [ -1188.54438942]
 [ -9362.38935234]
 [ 62067.26456863]
 [-37520.45250092]
 [-42732.35598996]
 [ 59107.19036818]]
