[[-10751.24933724]
 [ -7895.52439737]
 [-29091.34035421]
 [-37888.86622732]
 [-17968.11314269]
 [ -2184.30242292]
 [-12393.90362806]
 [ 36843.53177014]
 [ -4042.99386171]
 [ 23185.7761775 ]
 [  1245.77780194]
 [-46391.38373392]
 [ 33183.52211478]
 [-21793.63045663]
 [  9675.62629199]
 [ 36963.12858645]
 [ 27408.26143783]
 [-30619.5360886 ]
 [ 10984.26691364]
 [-48114.48780192]
 [-46289.27235767]
 [ 15433.63421401]
 [   892.42601537]
 [-46521.27951228]
 [ 33855.08323553]
 [-40896.2556143 ]
 [-41764.47264079]
 [ -8501.93055042]
 [ 31269.55169157]
 [ 30367.54679986]
 [-12044.20393698]
 [-42790.87690702]
 [-34711.40481104]
 [  9524.19723298]
 [  6409.11797811]
 [-29736.60874565]
 [-18272.69585865]
 [ 27620.74063717]
 [-29165.84286152]
 [ 59335.02471822]
 [-23317.73044533]
 [-40975.0739554 ]
 [ 38115.03586598]
 [-29451.35314179]
 [-31285.87467322]
 [-14018.30172579]
 [-36858.24378332]
 [ 32617.52892917]
 [-42091.23136568]
 [ -5330.36201156]
 [ -2903.36688852]
 [-21882.66811761]
 [-42943.64821204]
 [-32005.92301966]
 [ 13920.63538685]
 [-30349.27790793]
 [ 55615.33169371]
 [ -3754.71447528]
 [ 33017.32219859]
 [-53963.81868912]
 [ -7462.12215763]
 [ 20337.41270591]
 [-20134.86430735]
 [ 48278.85889791]
 [ 27321.82475343]
 [ 58923.45971151]
 [-22349.02182271]
 [-38485.24104351]
 [ 29973.0934828 ]
 [-28779.01921183]
 [ 15119.93523542]
 [-22539.06234895]
 [  5127.32191416]
 [-18403.88869595]
 [104803.3515479 ]
 [  9139.94917074]
 [-42572.12357419]
 [ 45181.31691034]
 [  8188.50591446]
 [ 29314.88556917]
 [ 12707.17453195]
 [ 37837.35944588]
 [ 28802.82549271]
 [ 40717.93682505]
 [-17264.53830377]
 [ 41278.26964953]
 [ 35462.65613753]
 [111124.72932778]
 [  4144.06457849]
 [ -4144.48556874]
 [-19114.63946139]
 [ 26774.35299311]
 [ 29162.59304927]
 [ 15922.70441487]
 [-16188.85800693]
 [-36194.81021825]
 [ -8375.40527587]
 [-27575.259152  ]
 [ -3967.32465436]
 [ 11384.77751331]
 [ 56672.35237659]]
