[[-27418.22712607]
 [ 33074.31300288]
 [  3154.29377216]
 [-19117.06191268]
 [  1498.03395321]
 [  1986.36459411]
 [  4215.39160184]
 [-30490.86542944]
 [-20727.09666518]
 [-27886.24003361]
 [-17332.3702325 ]
 [-29973.17566601]
 [ 28953.47436991]
 [-21070.28631567]
 [ -2608.4892221 ]
 [ 12127.88325596]
 [-31319.29948528]
 [ 29402.84450678]
 [ -4470.69098222]
 [  3702.91006121]
 [ 75429.07627042]
 [ 40983.52073585]
 [-21993.91435421]
 [-30965.657121  ]
 [  -263.95353132]
 [ -4871.4339354 ]
 [-30392.0830626 ]
 [ -7958.58184574]
 [ 40949.84644681]
 [-31712.09949405]
 [ 51864.60801812]
 [-28018.27231325]
 [ 27799.78882421]
 [ 34499.46493929]
 [-33025.77190891]
 [ 13642.63816351]
 [ 59420.15922148]
 [-31286.98053218]
 [-29443.48561547]
 [ 45185.39511491]
 [ 25113.25581151]
 [ 46205.48383854]
 [ 21901.13943474]
 [ 43217.1093164 ]
 [-30889.08841108]
 [-11060.19996891]
 [-28771.75687226]
 [ 15845.69793219]
 [-32532.43758165]
 [ -1647.32881355]
 [-16393.39122928]
 [-27405.02911071]
 [ 44104.93862775]
 [  2178.17809667]
 [-30553.62866537]
 [-23637.385343  ]
 [  6758.01170153]
 [-32112.69663122]
 [ -8393.55868012]
 [-26236.59837852]
 [ 56228.1831757 ]
 [-23741.14918514]
 [-12059.5573003 ]
 [-22649.85149076]
 [ -4495.0144719 ]
 [ 57556.39619865]
 [-31016.44319759]
 [-18019.38644896]
 [ -8596.98821822]
 [ 42200.10500742]
 [  3359.02078964]
 [ 33889.43241429]]
