[[  318.21111804]
 [-4275.36242044]
 [  936.2192624 ]
 [-3022.53907251]
 [ 5604.23675493]
 [ 6388.81459348]
 [-5448.54515129]
 [-4668.19998918]
 [-1048.31634836]
 [-2630.88113295]
 [-1292.18542309]
 [ -247.37138187]
 [ 5958.61948168]
 [ 3172.30086976]
 [ 3703.72970081]
 [  974.13266927]
 [-2744.41401562]
 [-7978.87594487]
 [-4644.17321862]
 [  556.9031564 ]
 [-2344.41708229]
 [-8115.95696654]
 [-4244.36287412]
 [-5378.45826842]
 [ -273.2643898 ]
 [ 1060.29252644]
 [-5852.80666007]
 [ 2019.66145192]
 [ 2394.56553121]
 [  635.7736622 ]
 [-7360.06096342]
 [  477.42448613]
 [ 5367.11240804]
 [-4679.39372697]
 [ 7053.59121028]
 [ -302.49729063]
 [-1283.57422227]
 [ 2019.02594418]
 [ 3319.62897006]
 [-3558.00743762]
 [ 5254.22001398]
 [ 9334.45486299]
 [ 2464.16323789]
 [-7167.71656448]
 [ 5022.55653803]
 [22689.84764408]
 [-2981.25686132]
 [  953.03765634]
 [-5809.72996448]
 [-5285.61167153]
 [-5956.76037345]
 [10763.93373927]
 [ 2779.53538691]
 [-5111.21961905]
 [-8096.29626405]
 [  325.25901234]
 [  416.51394153]
 [ 2755.94616125]
 [-2720.97435554]
 [-4416.01654455]
 [ 1093.49411511]
 [ 1754.38774156]
 [ 2924.73088633]
 [ 2927.62832552]
 [-5209.64204745]
 [ -133.3877015 ]
 [-6355.06796215]
 [ 4814.00259343]
 [-7108.07845409]
 [ 2197.73416377]
 [ 3334.62484598]
 [-5099.77204975]
 [14947.55374309]
 [-6657.93769265]
 [  278.69671212]
 [ 4401.7681701 ]
 [ 2538.03369439]
 [-3531.39815624]
 [ -512.73350727]
 [-3545.94462225]
 [  194.18761009]
 [ 1176.38504586]
 [  467.33402189]
 [ 6405.05740795]
 [ 4379.48376877]
 [ -525.82575004]
 [-6319.53997099]
 [-3175.28067456]
 [  487.94492303]
 [-5598.55981092]
 [ 9200.28664411]
 [-2821.73017083]
 [  493.49624751]
 [-3715.35145015]
 [  899.65002154]
 [-3375.7124596 ]
 [ 4681.70646715]
 [ 1062.2118667 ]
 [  671.81552488]
 [ 6573.28214709]
 [ 8227.49701642]]
