[[ 50555.69222524]
 [ 55357.87296594]
 [ 14888.15888581]
 [-47137.65048825]
 [-43238.11765427]
 [-14907.52764138]
 [ -7364.73917188]
 [-31405.18656332]
 [-18473.09936518]
 [-10750.92392678]
 [-21404.80995   ]
 [-19428.81248806]
 [-16295.38846271]
 [ 14098.86966462]
 [-40891.9430379 ]
 [ 28771.49245745]
 [-14036.11865424]
 [ 56296.39514772]
 [-32242.85854019]
 [  2256.72513263]
 [ 63079.20458862]
 [ 33657.30227392]
 [-10459.6400603 ]
 [ 54409.76697875]
 [-22313.74787252]
 [ 18344.18872868]
 [-43654.13690957]
 [-16923.31862063]
 [ -5370.21323797]
 [-35984.1391419 ]
 [  2955.21438636]
 [ 43630.78641583]
 [-47047.40997324]
 [-48308.7842693 ]
 [  7114.86902173]
 [ 24219.84703633]
 [-35519.46367365]
 [ 33351.83850498]
 [-43352.33765882]
 [ 58330.71651415]
 [ 72675.86692822]
 [ 31099.61073012]
 [ 32413.72972078]
 [-47307.10829526]
 [  1664.66842983]
 [ -9688.61698488]
 [ 13558.66238394]
 [  4371.92591576]
 [ 28149.83595554]
 [ 11511.63215801]
 [-37474.52995692]
 [-45347.80944821]
 [-25982.77584337]
 [ 34350.64789476]
 [-28241.8092303 ]
 [-34264.42128748]
 [-47108.73931348]
 [-23495.50556421]
 [119531.62830276]
 [-23658.16739241]
 [105052.03225188]
 [ 43278.61590869]
 [-27433.33305651]
 [  4247.930694  ]
 [  -547.73417864]
 [-48139.81279119]
 [ 50413.59693559]
 [ 17554.34341291]
 [  4444.70640677]
 [-21003.32555542]
 [-26269.73713297]
 [ -7095.10643045]
 [-10212.58175067]
 [-30376.93909933]
 [-18627.76428311]
 [-20832.55622992]
 [ -3934.35236328]
 [   772.2172731 ]
 [  -336.96652842]
 [ 31912.80222947]
 [-28699.06441197]
 [ 24137.26486219]
 [   128.46516742]
 [ 49364.9428581 ]]
