[[-9.40529511e+03]
 [-1.97122651e+04]
 [-2.77837451e+04]
 [ 6.75970893e+03]
 [-1.01655440e+04]
 [ 9.52915583e+03]
 [ 2.08206333e+04]
 [-3.98148110e+04]
 [ 1.30138890e+05]
 [ 2.47298581e+04]
 [-1.82703482e+03]
 [ 4.26975015e+04]
 [ 5.10916626e+04]
 [-9.05221520e+03]
 [-3.27667467e+04]
 [-1.31947682e+04]
 [ 8.17491086e+03]
 [ 1.98052984e+04]
 [-5.33176544e+03]
 [ 1.23342808e+04]
 [ 1.40273512e+04]
 [-1.04337596e+04]
 [ 1.94887698e+04]
 [-1.35494336e+04]
 [-4.46790286e+03]
 [ 7.83144952e+03]
 [ 4.58673368e+04]
 [ 5.94420740e+04]
 [-3.25212745e+04]
 [-2.77471948e+04]
 [-1.77080173e+04]
 [-9.48477970e+03]
 [-3.75108394e+04]
 [-2.62276366e+04]
 [ 1.78286831e+04]
 [-4.14446531e+04]
 [-3.50488221e+04]
 [-1.44455165e+04]
 [-2.94966256e+04]
 [-4.36101314e+04]
 [-2.57114636e+04]
 [-2.48171861e+04]
 [ 2.06276095e+04]
 [ 8.40624369e+03]
 [ 2.30681306e+03]
 [ 2.39445398e+01]
 [ 2.22765811e+04]
 [ 1.51443588e+03]
 [-2.94969553e+03]
 [-3.62084038e+04]
 [ 3.09082078e+04]
 [ 8.51058825e+03]
 [-1.38858991e+04]
 [-3.91981582e+04]
 [ 8.54563236e+03]
 [-4.35681799e+04]
 [-9.53573793e+03]
 [ 1.33223142e+04]
 [ 7.01775562e+03]
 [-1.55605474e+04]
 [ 3.70966734e+04]
 [ 2.55636940e+03]
 [-2.05158381e+04]
 [ 1.71109579e+04]
 [-1.51462824e+03]
 [ 1.89913176e+04]
 [-2.29153327e+04]
 [ 3.66278435e+01]
 [-2.77699499e+04]
 [ 1.10319279e+05]
 [ 2.75225251e+03]
 [ 1.43690405e+04]
 [-2.57167189e+04]
 [-4.43860308e+03]
 [ 8.08437645e+04]
 [-7.51245889e+03]
 [-3.40354716e+04]
 [ 8.34244431e+04]
 [ 1.71834597e+04]
 [ 1.14027232e+04]
 [-1.27430681e+04]
 [ 9.40706823e+03]
 [-2.18558062e+04]
 [-2.59361347e+04]
 [-3.06279892e+04]
 [ 2.31563047e+04]
 [-1.43306279e+04]
 [-1.26695881e+04]
 [-3.01622084e+04]
 [-2.57474985e+04]
 [ 4.38276833e+04]]
