[[-10750.04537197]
 [ -6404.66480698]
 [ 32874.74117153]
 [ -7478.40483056]
 [-16401.1593157 ]
 [-31898.04947197]
 [-53536.34069108]
 [ 10054.69460407]
 [ 11811.15464009]
 [-32888.41021819]
 [ 25746.81739696]
 [110376.18019127]
 [-56337.42165002]
 [ -1398.51107844]
 [  7590.33448926]
 [  4315.7658003 ]
 [-23613.65008987]
 [ 42054.08897368]
 [ 43511.90290799]
 [ -1814.65938504]
 [-23340.9299545 ]
 [-47365.13370163]
 [ 41933.63701386]
 [-11365.09408544]
 [ 50477.57329742]
 [-21858.44697073]
 [ 32492.48177074]
 [ 47721.46479455]
 [-52856.77736727]
 [-25307.07043907]
 [-38824.06333819]
 [   117.55931246]
 [ 67966.14343701]
 [-28168.70654231]
 [109835.35163887]
 [-14177.36368133]
 [ -7387.73361784]
 [  2771.29718905]
 [-60996.45296137]
 [ 25096.81691805]
 [-48925.70743677]
 [   645.79853046]
 [-10427.96693105]
 [ 66116.29875909]
 [ 10883.11415848]
 [  2967.39070249]
 [ -9621.25996161]
 [ 47577.80781747]
 [-45713.5231328 ]
 [-15853.42513687]
 [-36508.12605844]
 [ 28955.22109756]
 [ -5930.61437679]
 [-54424.76849139]
 [ -9948.59561593]
 [-17097.91505582]
 [ 19583.65819592]
 [ 76859.53209426]
 [ -3040.64786214]
 [ -1962.08962443]
 [ 42613.82524439]
 [-27163.36754112]
 [-29544.44440329]
 [ 22676.51734229]
 [ -3290.46410375]
 [ -4756.69148271]
 [ 21136.07518311]
 [-13627.7950564 ]
 [-23925.52979223]
 [ 59222.86071605]
 [-33479.6071175 ]
 [-32296.59326639]
 [-52950.18849887]
 [ 32446.93425299]
 [ 78642.95743007]
 [-22424.24714988]
 [-22625.03224907]
 [ 14177.93112211]
 [ -7437.17185358]
 [-12777.46609023]
 [-32293.81874024]
 [ 24021.93684399]
 [ 60540.20130412]
 [ 23457.20909707]
 [-12977.58009511]
 [-40837.94457765]
 [ 10930.63642732]
 [ -1492.75198099]
 [ -6156.44993125]
 [-24225.21480734]
 [  8075.72027783]
 [ 25771.88762951]
 [-23814.9244613 ]
 [-41143.55399936]
 [-12438.40594267]
 [ -5330.7884676 ]
 [-23476.94513658]
 [-22245.88834188]
 [   497.39106102]
 [ 21807.68350582]
 [ 61925.55073424]]
