[[-2.62323442e+04]
 [-8.13829569e+03]
 [-1.89120711e+04]
 [-1.56495214e+04]
 [-2.95573015e+04]
 [ 3.31572386e+04]
 [-1.58775717e+04]
 [-1.16036116e+04]
 [-2.75524029e+04]
 [-2.70972244e+04]
 [-1.32230970e+04]
 [-5.55332046e+03]
 [-2.46970909e+04]
 [ 6.15223451e+03]
 [ 2.44099019e+04]
 [ 3.65867198e+04]
 [-6.29512690e+03]
 [ 5.86559394e+04]
 [-5.48530092e+03]
 [ 2.01705972e+04]
 [ 2.99633676e+04]
 [-1.66340747e+04]
 [-2.97507561e+04]
 [ 2.67262788e+04]
 [-2.44840436e+04]
 [ 2.91467646e+04]
 [ 1.19069305e+02]
 [-2.19223719e+04]
 [ 1.45579878e+04]
 [-3.37794864e+04]
 [-2.63998268e+03]
 [-2.89453217e+04]
 [-2.41452790e+04]
 [-1.07223776e+04]
 [ 3.74398306e+04]
 [-2.85088921e+04]
 [-3.97692735e+03]
 [-3.48304679e+04]
 [ 4.39122521e+04]
 [-1.96446437e+04]
 [-3.09631670e+04]
 [ 1.22347100e+05]
 [ 3.15931697e+03]
 [ 2.52988304e+03]
 [-1.13538083e+03]
 [ 3.80426692e+04]
 [-7.52574334e+03]
 [ 3.65580625e+04]
 [-7.55215216e+03]
 [-3.29907859e+04]
 [-2.14370177e+04]
 [ 8.30425381e+03]
 [ 2.06777563e+02]
 [-3.47181317e+04]
 [ 1.66816423e+04]
 [-2.33042320e+04]
 [ 5.63881539e+04]
 [-1.82086890e+04]
 [ 4.93353713e+04]
 [ 1.99445410e+04]
 [ 2.36423678e+03]
 [ 9.53159613e+03]
 [-7.21368143e+03]
 [ 1.24897007e+04]
 [-2.63596488e+04]
 [-2.50729600e+04]
 [-1.09597651e+04]
 [ 7.77822475e+03]
 [ 2.64368679e+04]
 [-9.79632012e+03]
 [ 3.50196875e+04]]
