[[-22002.25504533]
 [ 31292.68340773]
 [-40249.8068531 ]
 [-16849.56266558]
 [ 22725.69165921]
 [-44813.23629876]
 [-41014.4330054 ]
 [ -9893.54427461]
 [ 32888.74134457]
 [ 62961.61209513]
 [ 19748.1882365 ]
 [-29781.95403955]
 [-51151.40083491]
 [-35534.95511812]
 [ 67128.42886991]
 [-33258.4360937 ]
 [ -2563.25057622]
 [ 34431.91625428]
 [ -7754.48432313]
 [-26395.94814789]
 [-17340.96753551]
 [ 86319.50310667]
 [ -3680.81587142]
 [-16010.09314303]
 [-12700.18528205]
 [-32329.91421141]
 [-25449.66733434]
 [ 50308.77349877]
 [ 71315.82131271]
 [-14567.46094561]
 [-17510.88978445]
 [101559.8469658 ]
 [-14077.68142679]
 [-29680.08322268]
 [-34402.97196051]
 [-35230.79107098]
 [ -9904.259185  ]
 [ 13456.75341052]
 [  -642.71432579]
 [ 22579.7332733 ]
 [ 35215.82934251]
 [ 53145.92427233]
 [ 14899.23409239]
 [-13298.13621272]
 [ 23624.13315874]
 [ -4338.02571666]
 [  9715.48598557]
 [  8589.50192809]
 [ 50280.66731619]
 [  6137.851847  ]
 [-47340.31203237]
 [-25057.51789273]
 [-43045.38407467]
 [ -3956.56314021]
 [  8180.83489425]
 [ -1174.47249438]
 [  4445.67238438]
 [-28383.43790943]
 [-21634.92848927]
 [  6048.32970889]
 [ -7736.64301264]
 [-10190.975192  ]
 [ -3242.58495153]
 [  7042.40793437]
 [-44023.56635083]
 [-39962.05957922]
 [ 22253.78617769]
 [ 15128.93466194]
 [ 23126.64897318]
 [-37670.46604944]
 [-23821.6592342 ]
 [ -4077.96381544]
 [-44828.66323351]
 [ 12630.52172914]
 [ 58630.14180934]
 [  2696.75064302]
 [ 14705.82070544]
 [ 17470.44972796]
 [ 49588.49567799]
 [-41699.36909274]
 [   345.05850299]
 [  6096.1393683 ]
 [ 37466.32522118]
 [ 26263.72818377]
 [-34948.37873795]
 [-10985.21630437]
 [ -9167.14244945]
 [ 87884.7773654 ]
 [-31184.72856886]
 [-12743.55631102]
 [ 66438.18279627]
 [ -3413.64226752]
 [ 52255.71659139]
 [-18895.36386707]
 [-41360.49303458]
 [-24261.47847313]
 [-38238.98166721]
 [-37104.81649039]
 [ 39623.65316783]
 [-44070.40838122]
 [ 51868.32651931]]
