[[  5497.57385684]
 [-14314.97947374]
 [-38504.85735021]
 [130667.17125763]
 [  -206.28428847]
 [-39651.51816781]
 [-44757.46897433]
 [-18462.68667491]
 [ 54485.54723261]
 [-14099.36704874]
 [ 25042.95811164]
 [-13377.93195884]
 [ 22217.20135316]
 [ 10119.07447847]
 [ 24934.67957331]
 [-35085.08701959]
 [ -2172.51324888]
 [  5259.04072061]
 [ 11895.77296472]
 [-20470.06223807]
 [-14838.43056897]
 [-25004.08128486]
 [   505.44490938]
 [ 22256.40255558]
 [-42708.29022388]
 [-25601.72510852]
 [ 14916.41219006]
 [115720.46466802]
 [ 41818.61520321]
 [ 24672.17475518]
 [ -3356.68578795]
 [-32877.90399999]
 [ 42960.52085383]
 [ 80747.96918481]
 [-33782.64993877]
 [-31505.58403291]
 [ 21269.44624881]
 [ 31027.969806  ]
 [-47316.30927544]
 [-25067.22666235]
 [-17018.57801107]
 [-33361.05221902]
 [-34497.67304471]
 [ 17347.68063442]
 [ 13286.99837663]
 [  -503.35039088]
 [  4566.2555502 ]
 [-24616.2482748 ]
 [-45758.79025929]
 [-34460.02621511]
 [ -8970.24996185]
 [ 49015.89963923]
 [ -5227.92818759]
 [-12890.29221663]
 [  8009.3523701 ]
 [-33937.7115951 ]
 [  9655.72323559]
 [-37195.55063202]
 [-10584.84450111]
 [-18291.65363785]
 [ 77939.3073588 ]
 [ 21050.3274361 ]
 [-22911.05285677]
 [ 66681.4198333 ]
 [  7538.52407178]
 [-11775.82127615]
 [ 62927.25647591]
 [-21685.99066342]
 [ -2573.05508105]
 [ 23530.12965646]
 [-13141.91076068]
 [ 25520.60217742]
 [-15477.6312584 ]
 [-30867.4699367 ]
 [ 45446.25940476]
 [-11326.945864  ]
 [-18988.48448223]
 [ 37090.1271166 ]
 [ 34598.14265301]
 [-35068.80196958]
 [-41452.84103469]
 [ 19142.86314846]
 [-20289.07658021]
 [  9145.56179914]
 [ 11010.62411677]
 [ -9642.03750603]
 [-44193.1696179 ]
 [-35262.53492931]
 [ 46960.42114334]
 [-20243.12575114]
 [-36476.38902568]
 [ 15742.79797885]
 [-42590.71146166]
 [-37775.22217336]
 [-25782.93934307]
 [ 32652.55755659]
 [ 64461.09666297]
 [-37252.07456758]
 [  2533.93044684]
 [-16615.4201533 ]
 [ 48426.08332649]]
