[[ 40941.23259705]
 [-21145.82695725]
 [ -2017.91346232]
 [ -5072.31637354]
 [  4513.09869993]
 [  2470.7783386 ]
 [-25787.90577182]
 [  3159.70010371]
 [ 42335.71298496]
 [-20361.49812637]
 [  2582.34338621]
 [ 16736.11575885]
 [-25902.59033881]
 [ 36123.06687483]
 [-10457.10667688]
 [ 16243.79370708]
 [ 30692.66709591]
 [  7106.91343753]
 [-30723.71436561]
 [  -405.53375271]
 [ 11883.82443034]
 [ 71588.36649743]
 [  9913.42705432]
 [ 40858.81030861]
 [  4416.4629395 ]
 [ 48275.80967505]
 [-39775.17838464]
 [ 12203.89795054]
 [-39837.15908972]
 [ -5956.5412585 ]
 [ 19173.63080873]
 [ 20916.91496131]
 [-35108.47802516]
 [-34620.95231256]
 [-32832.15981031]
 [-27833.51348075]
 [ 24559.52539683]
 [-28541.28867455]
 [ 22569.63802366]
 [ 33397.13171028]
 [-35902.25362672]
 [ 17905.77447217]
 [-31165.2382507 ]
 [-18934.40008449]
 [-19699.2759977 ]
 [  6863.53940377]
 [  4819.40683753]
 [-22885.90388633]
 [-19675.82304615]
 [-33048.867028  ]
 [-14220.39698201]
 [-40262.36236176]
 [-30804.72655793]
 [ -1777.05943969]
 [ 93625.2153196 ]
 [  3057.35365816]
 [ 16744.46264581]
 [ -3630.34782471]
 [ -3681.86309266]
 [ 13454.68920593]
 [-36604.34668467]
 [-13321.54480744]
 [ 29308.63088015]
 [ -2346.40196201]
 [  1983.14064419]
 [-38733.53611252]
 [-10392.00631873]
 [-27031.26748205]
 [ -9940.67485906]
 [ 37749.79252338]
 [ 60969.29158082]
 [ -7264.69124234]
 [ 50203.83114811]
 [-22814.57041484]
 [-28830.75613688]
 [ 40768.81411855]]
