[[  6008.5650096 ]
 [ 18349.37477642]
 [-10458.11546406]
 [ -5086.87284489]
 [ 12030.4445    ]
 [ -5730.05301037]
 [-23312.23774745]
 [-25886.55188558]
 [ -9750.07202118]
 [  9969.68669187]
 [ -5997.59160429]
 [ 23942.58936473]
 [ 10939.22253988]
 [-20256.18595827]
 [-18897.75854144]
 [  9447.71259454]
 [-24516.34197806]
 [ 33180.46666715]
 [-30145.41405017]
 [-18360.46624282]
 [ 37813.3423266 ]
 [ 48446.44025548]
 [ 31564.7365759 ]
 [-38669.40118954]
 [ 31390.70701032]
 [ 43298.54017431]
 [ 31825.44335541]
 [-36443.8012176 ]
 [  5554.9943917 ]
 [  2990.77946805]
 [ 19041.92456073]
 [ -8891.73949029]
 [ -5667.2151922 ]
 [ -5032.33920027]
 [ 13554.18302165]
 [-14501.7168045 ]
 [   858.25109339]
 [ 24548.53998166]
 [-23535.65924713]
 [ 48087.5670001 ]
 [  5599.74424294]
 [ 21046.12410509]
 [-27053.55543589]
 [-27915.52365641]
 [ 55406.8052521 ]
 [  3132.72314533]
 [-31926.43432432]
 [ 49228.34604126]
 [ 23301.90238722]
 [ 11817.35604042]
 [-13924.1345786 ]
 [  1991.84948931]
 [ 18383.58964785]
 [ 64395.26228992]
 [-17813.12344072]
 [-29960.54579396]
 [-19831.41251438]
 [-26733.79637234]
 [ -6743.0873237 ]
 [  2719.81886659]
 [ -4962.64894981]
 [ 69494.61184387]
 [ 28679.48469883]
 [-37116.34448283]
 [-18967.72413865]
 [ 11619.35432803]
 [  4654.36245558]
 [-24331.18355451]
 [-38580.8123847 ]
 [ 10359.68930664]
 [  8734.88453074]
 [-36395.09931004]
 [-38129.44574816]
 [ 30730.89170436]
 [-11026.89233351]
 [-26071.19770782]
 [-35607.28940507]
 [ -1473.65105235]
 [-17121.2677153 ]
 [-15471.76574231]
 [-16813.62658861]
 [-29226.78532016]
 [-11083.74981407]
 [ 15894.01415802]
 [ -1520.11779412]
 [ 27060.85071512]
 [-37451.85462964]
 [ 22595.60211075]
 [-29730.13654196]
 [-26807.31014404]
 [ 41239.2717686 ]
 [ 39602.82596618]]
