[[-12784.56169315]
 [ 19586.76433592]
 [-23763.76017517]
 [-26555.53687599]
 [ 22224.50855891]
 [ 42170.01964074]
 [-30699.7856531 ]
 [ 32504.55110112]
 [-38059.51806188]
 [105532.83397324]
 [-15639.48023839]
 [106477.61154763]
 [ 56957.06663096]
 [-34300.64299371]
 [  2557.49532898]
 [ 36610.7872014 ]
 [120248.37411656]
 [ -2347.21487371]
 [-19842.57549053]
 [-43518.32447175]
 [ -2153.37908632]
 [ -5784.06839836]
 [ 68293.42327403]
 [-17887.30041088]
 [-60001.96898781]
 [-51862.00934939]
 [-19157.66329949]
 [-57536.66038219]
 [-55148.93922971]
 [-45737.51323731]
 [-13417.04926655]
 [-14469.80674018]
 [ 47350.75884084]
 [-15780.2242324 ]
 [  8235.82544277]
 [-38359.19817977]
 [  1678.84093344]
 [-51573.08637367]
 [  9214.8107325 ]
 [-16646.83958299]
 [-52136.18219778]
 [ -5027.41706242]
 [-26044.51403873]
 [-26691.78752474]
 [-13079.69063293]
 [ 31062.55274325]
 [-42207.81931161]
 [ 40843.58573777]
 [-39616.81723483]
 [-45003.43418036]
 [-37434.21976506]
 [-21508.62765725]
 [-10270.32752775]
 [ 11402.2286798 ]
 [  -183.62320117]
 [ -1505.66182855]
 [ 52660.75387299]
 [ 32869.52815213]
 [ 61855.59361384]
 [ 41933.30587218]
 [ -6694.28659357]
 [ 19462.68230271]
 [ 44480.13125182]
 [  9131.33722544]
 [-13012.70894625]
 [  4009.28103428]
 [-59161.53189545]
 [-39175.9406232 ]
 [ 21600.19093409]
 [-20197.19625334]
 [ 27562.81755239]
 [ 48650.82186703]
 [-22343.15026949]
 [  1851.99138814]
 [ 36275.86872063]
 [ 54753.99484049]
 [-28273.6338215 ]
 [-14553.33913438]
 [ 32344.8767422 ]
 [ -1340.32570879]
 [ -6373.40763445]
 [-23770.35996751]
 [ 12904.58156802]
 [ 88298.87059142]
 [ 18478.88823526]
 [-22265.93486155]
 [ -2295.04631704]
 [ 12276.8976836 ]
 [ -3820.98030908]
 [-15070.75141432]
 [ 15022.38904105]
 [ 52085.72944686]
 [  2649.0708428 ]
 [ 13403.85114028]
 [-18572.59920359]
 [-16875.54060269]
 [  9821.76851219]
 [-16244.63872389]
 [-55774.30443181]
 [-57784.35509224]
 [ 62146.3773663 ]]
