[[-19668.59145329]
 [ 49428.55934929]
 [ 91076.43471349]
 [ 22191.69541631]
 [-24190.39090764]
 [ 43684.66149074]
 [-22370.74654801]
 [ 21903.12379383]
 [ 44858.40510536]
 [-25992.74380115]
 [-22359.55762491]
 [ -8781.63636319]
 [ 17745.25100598]
 [-28686.6897908 ]
 [   818.53078125]
 [-30801.30839158]
 [ 35190.11677159]
 [ -4789.74507622]
 [-27112.44331339]
 [ -9853.7990301 ]
 [ 28209.91890367]
 [ 24130.88856583]
 [ 10631.28394545]
 [ 17011.47450586]
 [-23221.12086294]
 [-18654.10818512]
 [ 14016.14019038]
 [ -8290.8185763 ]
 [ -4163.99790716]
 [ 26634.39794728]
 [-17879.42850908]
 [-20001.55538252]
 [ 17582.08523271]
 [-25046.38734385]
 [-34379.35034547]
 [ 29504.90199293]
 [-22219.0094802 ]
 [   855.79831803]
 [  4667.90302744]
 [-14043.41277201]
 [-24633.41961464]
 [  5393.18257745]
 [-25489.30806211]
 [-26375.63077816]
 [-27496.39280198]
 [ 15091.16637692]
 [ -2344.54509667]
 [-21885.75951046]
 [ 38995.97508493]
 [-10090.76273754]
 [ 32773.94485951]
 [-14930.5178283 ]
 [ 10387.94506698]
 [ 49010.63129737]
 [-24656.2248895 ]
 [-33532.65179904]
 [  -470.97862686]
 [ 35751.80586512]
 [ -9827.45841772]
 [ 36692.54134991]
 [  4632.20950757]
 [-33826.44244988]
 [ 23441.76468697]
 [ -8958.11690508]
 [-21369.43519491]
 [ 23472.03427849]
 [ 14441.53381256]
 [ -3712.31355435]
 [ 29876.91096744]
 [ -8607.90671883]
 [ -3724.55345523]
 [-28124.27799056]
 [ 25738.65091503]
 [-26323.85578886]
 [-34540.42074312]
 [ 78590.89234508]
 [  9456.8762319 ]
 [-16320.3894509 ]
 [-27540.45559324]
 [ -6767.52631165]
 [-32400.41723095]
 [-34745.82370968]
 [  1644.79337737]
 [ 15038.8755521 ]
 [-14980.77752077]
 [-32735.05178749]
 [ 16382.34181081]
 [-25152.43304425]
 [-34698.94763107]
 [ 53901.51023068]
 [  7912.4796571 ]
 [ 35352.80035021]]
